{"learner":{"attributes":{"scikit_learn":"{\"_estimator_type\": \"regressor\"}"},"feature_names":["Open","High","Low","Last","Close","VWAP","Volume","Turnover","Trades","Deliverable Volume","%Deliverble"],"feature_types":["float","float","float","float","float","float","int","float","float","int","float"],"gradient_booster":{"model":{"gbtree_model_param":{"num_parallel_tree":"1","num_trees":"100"},"iteration_indptr":[0,1,2,3,4,5,6,7,8,9,10,11,12,13,14,15,16,17,18,19,20,21,22,23,24,25,26,27,28,29,30,31,32,33,34,35,36,37,38,39,40,41,42,43,44,45,46,47,48,49,50,51,52,53,54,55,56,57,58,59,60,61,62,63,64,65,66,67,68,69,70,71,72,73,74,75,76,77,78,79,80,81,82,83,84,85,86,87,88,89,90,91,92,93,94,95,96,97,98,99,100],"tree_info":[0,0,0,0,0,0,0,0,0,0,0,0,0,0,0,0,0,0,0,0,0,0,0,0,0,0,0,0,0,0,0,0,0,0,0,0,0,0,0,0,0,0,0,0,0,0,0,0,0,0,0,0,0,0,0,0,0,0,0,0,0,0,0,0,0,0,0,0,0,0,0,0,0,0,0,0,0,0,0,0,0,0,0,0,0,0,0,0,0,0,0,0,0,0,0,0,0,0,0,0],"trees":[{"base_weights":[-1.2686954E-6,-7.353695E1,3.2551355E2,-1.8504839E2,2.8812356E0,2.2807455E2,4.5434613E2,-2.0165556E2,-1.2627896E2,-4.31292E1,3.9582893E1,1.8794005E2,2.766589E2,4.0450616E2,2.1013324E2,-6.434277E1,-5.7322594E1,1.06781784E2,-1.2921693E2,-6.818067E1,-2.203445E1,2.3384743E1,6.796432E1,4.4631294E1,6.028549E1,7.3185326E1,8.877124E1,1.13663055E2,1.3346075E2,-2.61266E1,7.4178406E1,-4.4412838E1,-3.3396248E1,-7.619859E1,-1.5937633E1,-3.138416E1,-1.24835615E1,1.0108992E1,3.3455856E1,5.9612713E1,2.7940027E1,-2.478589E1,-2.1079441E1,-1.0937168E1,-8.065001E0,-4.952526E0,-1.8840197E0,1.0665944E0,5.1738358E0,8.394308E0,1.1716867E1,1.5479757E1,1.9484308E1],"categories":[],"categories_nodes":[],"categories_segments":[],"categories_sizes":[],"default_left":[0,0,0,0,0,0,0,0,0,0,0,0,0,0,0,0,0,0,0,0,0,0,0,0,0,0,0,0,0,0,0,0,0,0,0,0,0,0,0,0,0,0,0,0,0,0,0,0,0,0,0,0,0],"id":0,"left_children":[1,3,5,7,9,11,13,15,17,19,21,23,25,27,-1,-1,-1,29,31,33,35,37,39,-1,-1,-1,-1,-1,-1,-1,-1,-1,-1,41,-1,43,45,47,49,51,-1,-1,-1,-1,-1,-1,-1,-1,-1,-1,-1,-1,-1],"loss_changes":[6.364921E7,1.848367E7,6.047504E6,8.3536E5,2.1767002E6,4.9593E5,2.292428E6,5.2072E4,1.48689E5,3.0077362E5,3.2803462E5,5.0119E4,6.497E3,1.455E4,0E0,0E0,0E0,1.0323816E5,4.9217E4,2.7457625E4,2.7469203E4,6.089714E4,4.9100625E4,0E0,0E0,0E0,0E0,0E0,0E0,0E0,0E0,0E0,0E0,5.9575E2,0E0,2.6046875E3,3.7913652E3,9.246795E3,6.8790312E3,5.1136875E3,0E0,0E0,0E0,0E0,0E0,0E0,0E0,0E0,0E0,0E0,0E0,0E0,0E0],"parents":[2147483647,0,0,1,1,2,2,3,3,4,4,5,5,6,6,7,7,8,8,9,9,10,10,11,11,12,12,13,13,17,17,18,18,19,19,20,20,21,21,22,22,33,33,35,35,36,36,37,37,38,38,39,39],"right_children":[2,4,6,8,10,12,14,16,18,20,22,24,26,28,-1,-1,-1,30,32,34,36,38,40,-1,-1,-1,-1,-1,-1,-1,-1,-1,-1,42,-1,44,46,48,50,52,-1,-1,-1,-1,-1,-1,-1,-1,-1,-1,-1,-1,-1],"split_conditions":[4.71E2,2.48E2,6.79E2,1.697E2,3.409E2,5.749E2,8.9E2,1.3955E2,1.733E2,2.997E2,3.893E2,5.2E2,6.1555E2,7.77E2,2.1013324E2,-6.434277E1,-5.7322594E1,1.6325E2,2.1255E2,2.789E2,3.218E2,3.6675E2,4.202E2,4.4631294E1,6.028549E1,7.3185326E1,8.877124E1,1.13663055E2,1.3346075E2,-2.61266E1,7.4178406E1,-4.4412838E1,-3.3396248E1,2.6585E2,-1.5937633E1,3.11E2,3.3125E2,3.5255E2,3.773E2,4.001E2,2.7940027E1,-2.478589E1,-2.1079441E1,-1.0937168E1,-8.065001E0,-4.952526E0,-1.8840197E0,1.0665944E0,5.1738358E0,8.394308E0,1.1716867E1,1.5479757E1,1.9484308E1],"split_indices":[0,0,0,0,0,0,0,0,1,0,0,0,0,1,0,0,0,2,0,0,0,0,0,0,0,0,0,0,0,0,0,0,0,0,0,0,0,0,0,0,0,0,0,0,0,0,0,0,0,0,0,0,0],"split_type":[0,0,0,0,0,0,0,0,0,0,0,0,0,0,0,0,0,0,0,0,0,0,0,0,0,0,0,0,0,0,0,0,0,0,0,0,0,0,0,0,0,0,0,0,0,0,0,0,0,0,0,0,0],"sum_hessian":[2.657E3,2.168E3,4.89E2,8.81E2,1.287E3,2.8E2,2.09E2,6.85E2,1.96E2,5.71E2,7.16E2,1.56E2,1.24E2,1.76E2,3.3E1,3.01E2,3.84E2,2E0,1.94E2,2.6E2,3.11E2,4.57E2,2.59E2,4.2E1,1.14E2,5.1E1,7.3E1,1.14E2,6.2E1,1E0,1E0,9.1E1,1.03E2,1.67E2,9.3E1,1.56E2,1.55E2,1.98E2,2.59E2,1.97E2,6.2E1,7.4E1,9.3E1,7E1,8.6E1,9.3E1,6.2E1,1.04E2,9.4E1,1.34E2,1.25E2,8.3E1,1.14E2],"tree_param":{"num_deleted":"0","num_feature":"11","num_nodes":"53","size_leaf_vector":"1"}},{"base_weights":[2.1607074E-1,-5.222116E1,2.266396E2,-1.281332E2,2.4577382E0,1.6586247E2,3.337664E2,-1.4133624E2,-8.619058E1,-2.7438091E1,2.8230946E1,1.3383316E2,2.0900038E2,2.995135E2,1.6636719E2,-4.5964714E1,-4.0514477E1,9.076451E1,-8.823978E1,-4.6386196E1,-1.4193803E1,1.6579874E1,4.4409283E1,1.10801994E2,4.534452E1,1.8383066E2,6.817926E1,8.364512E1,1.00576546E2,-2.2207611E1,6.3051643E1,-1.0195214E2,-2.1875639E1,-1.5320285E1,-1.0512364E1,-2.0602215E1,-5.465508E0,7.1334553E0,2.1420977E1,3.7183502E1,5.4579037E1,2.7345629E1,3.585166E1,1.61531E1,5.5523674E1,-3.395044E1,-2.7324512E1,-7.3770237E0,-4.8059072E0,-2.451901E0,-5.479566E-1,1.0803678E0,3.0252302E0,4.952558E0,7.3312907E0,9.657134E0,1.2177896E1,1.4768523E1,1.8718016E1],"categories":[],"categories_nodes":[],"categories_segments":[],"categories_sizes":[],"default_left":[0,0,0,0,0,0,0,0,0,0,0,0,0,0,0,0,0,0,0,0,0,0,0,0,0,0,0,0,0,0,0,0,0,0,0,0,0,0,0,0,0,0,0,0,0,0,0,0,0,0,0,0,0,0,0,0,0,0,0],"id":1,"left_children":[1,3,5,7,9,11,13,15,17,19,21,23,25,27,-1,-1,-1,29,31,33,35,37,39,41,-1,43,-1,-1,-1,-1,-1,45,-1,-1,-1,47,49,51,53,55,57,-1,-1,-1,-1,-1,-1,-1,-1,-1,-1,-1,-1,-1,-1,-1,-1,-1,-1],"loss_changes":[3.157033E7,8.961862E6,3.20007E6,4.88426E5,9.6853694E5,4.15548E5,1.195192E6,3.0552E4,8.742175E4,1.453969E5,1.2649775E5,5.782625E4,2.0281E4,2.3402E4,0E0,0E0,0E0,7.458957E4,3.8154625E4,1.0904E4,1.9128867E4,1.7865234E4,1.8693125E4,3.47275E3,0E0,9.45E1,0E0,0E0,0E0,0E0,0E0,3.34775E3,0E0,0E0,0E0,3.2244219E3,1.433395E3,1.3707026E3,3.4495625E3,1.5532969E3,1.7368125E3,0E0,0E0,0E0,0E0,0E0,0E0,0E0,0E0,0E0,0E0,0E0,0E0,0E0,0E0,0E0,0E0,0E0,0E0],"parents":[2147483647,0,0,1,1,2,2,3,3,4,4,5,5,6,6,7,7,8,8,9,9,10,10,11,11,12,12,13,13,17,17,18,18,19,19,20,20,21,21,22,22,23,23,25,25,31,31,35,35,36,36,37,37,38,38,39,39,40,40],"right_children":[2,4,6,8,10,12,14,16,18,20,22,24,26,28,-1,-1,-1,30,32,34,36,38,40,42,-1,44,-1,-1,-1,-1,-1,46,-1,-1,-1,48,50,52,54,56,58,-1,-1,-1,-1,-1,-1,-1,-1,-1,-1,-1,-1,-1,-1,-1,-1,-1,-1],"split_conditions":[4.57E2,2.572E2,7.249E2,1.697E2,3.443E2,5.91E2,1.032E3,1.345E2,1.733E2,2.997E2,3.86E2,5.368E2,6.4E2,7.712E2,1.6636719E2,-4.5964714E1,-4.0514477E1,1.6325E2,2.23E2,2.854E2,3.26E2,3.627E2,4.0711E2,4.85E2,4.534452E1,4.59E2,6.817926E1,8.364512E1,1.00576546E2,-2.2207611E1,6.3051643E1,1.9615E2,-2.1875639E1,-1.5320285E1,-1.0512364E1,3.15E2,3.3625E2,3.519E2,3.72E2,3.947E2,4.2985E2,2.7345629E1,3.585166E1,1.61531E1,5.5523674E1,-3.395044E1,-2.7324512E1,-7.3770237E0,-4.8059072E0,-2.451901E0,-5.479566E-1,1.0803678E0,3.0252302E0,4.952558E0,7.3312907E0,9.657134E0,1.2177896E1,1.4768523E1,1.8718016E1],"split_indices":[0,0,1,0,0,0,0,0,1,0,0,0,0,2,0,0,0,2,0,0,0,0,5,2,0,2,0,0,0,0,0,0,0,0,0,0,0,0,0,0,1,0,0,0,0,0,0,0,0,0,0,0,0,0,0,0,0,0,0],"split_type":[0,0,0,0,0,0,0,0,0,0,0,0,0,0,0,0,0,0,0,0,0,0,0,0,0,0,0,0,0,0,0,0,0,0,0,0,0,0,0,0,0,0,0,0,0,0,0,0,0,0,0,0,0,0,0,0,0,0,0],"sum_hessian":[2.657E3,2.158E3,4.99E2,9.03E2,1.255E3,3.2E2,1.79E2,6.85E2,2.18E2,5.81E2,6.74E2,1.86E2,1.34E2,1.57E2,2.2E1,2.29E2,4.56E2,2E0,2.16E2,2.38E2,3.43E2,3.93E2,2.81E2,8.3E1,1.03E2,6.1E1,7.3E1,1.05E2,5.2E1,1E0,1E0,1.11E2,1.05E2,1.66E2,7.2E1,1.97E2,1.46E2,1.34E2,2.59E2,1.67E2,1.14E2,2.9E1,5.4E1,1E0,6E1,5E1,6.1E1,1.03E2,9.4E1,8.3E1,6.3E1,6.2E1,7.2E1,1.01E2,1.58E2,7.2E1,9.5E1,7.2E1,4.2E1],"tree_param":{"num_deleted":"0","num_feature":"11","num_nodes":"59","size_leaf_vector":"1"}},{"base_weights":[3.3969843E-1,-3.660554E1,1.5986856E2,-9.155735E1,6.262776E-1,1.15014534E2,2.3306746E2,-9.942691E1,-6.4088425E1,-2.2336868E1,1.8376844E1,8.8967896E1,1.3983867E2,2.0897437E2,1.1936126E2,-3.1187841E1,-2.6867886E1,-8.8468E0,-6.577744E1,-3.544716E1,-1.2597064E1,9.364315E0,3.0334648E1,1.9233912E1,2.8473888E1,3.677782E1,4.6071625E1,5.8876034E1,2.4109398E2,5.35939E1,-2.0961014E1,-2.343996E1,-5.862854E1,-4.00463E1,-9.015887E0,-1.747281E1,-7.3638563E0,2.1670353E0,1.36302595E1,2.5193792E1,3.8803734E1,1.825752E1,7.318089E1,-1.863623E1,-1.5074452E1,-1.2143799E1,-5.015728E0,-6.1613092E0,-4.4439754E0,-2.9216378E0,-1.3609134E0,-1.40398E-1,1.329361E0,3.0613058E0,4.6492534E0,6.625184E0,8.328711E0,1.059518E1,1.3950751E1],"categories":[],"categories_nodes":[],"categories_segments":[],"categories_sizes":[],"default_left":[0,0,0,0,0,0,0,0,0,0,0,0,0,0,0,0,0,0,0,0,0,0,0,0,0,0,0,0,0,0,0,0,0,0,0,0,0,0,0,0,0,0,0,0,0,0,0,0,0,0,0,0,0,0,0,0,0,0,0],"id":2,"left_children":[1,3,5,7,9,11,13,15,17,19,21,23,25,27,-1,-1,-1,29,31,33,35,37,39,-1,-1,-1,-1,-1,41,-1,-1,-1,43,45,-1,47,49,51,53,55,57,-1,-1,-1,-1,-1,-1,-1,-1,-1,-1,-1,-1,-1,-1,-1,-1,-1,-1],"loss_changes":[1.5671658E7,4.4172755E6,1.614827E6,1.821265E5,5.254106E5,1.8929325E5,6.67303E5,2.0923E4,1.7799E4,7.131622E4,7.8064766E4,1.681825E4,1.859475E4,2.0919E4,0E0,0E0,0E0,9.2572086E4,1.22901875E4,4.7257188E3,8.138453E3,1.2742988E4,1.2606344E4,0E0,0E0,0E0,0E0,0E0,7.18275E3,0E0,0E0,0E0,5.3684375E2,5.959844E2,0E0,1.0570273E3,1.01680273E3,9.327926E2,1.5114844E3,9.605156E2,1.4712656E3,0E0,0E0,0E0,0E0,0E0,0E0,0E0,0E0,0E0,0E0,0E0,0E0,0E0,0E0,0E0,0E0,0E0,0E0],"parents":[2147483647,0,0,1,1,2,2,3,3,4,4,5,5,6,6,7,7,8,8,9,9,10,10,11,11,12,12,13,13,17,17,18,18,19,19,20,20,21,21,22,22,28,28,32,32,33,33,35,35,36,36,37,37,38,38,39,39,40,40],"right_children":[2,4,6,8,10,12,14,16,18,20,22,24,26,28,-1,-1,-1,30,32,34,36,38,40,-1,-1,-1,-1,-1,42,-1,-1,-1,44,46,-1,48,50,52,54,56,58,-1,-1,-1,-1,-1,-1,-1,-1,-1,-1,-1,-1,-1,-1,-1,-1,-1,-1],"split_conditions":[4.581E2,2.445E2,6.98E2,1.6325E2,3.388E2,5.7E2,1.064E3,1.49E2,3.40906E5,2.93E2,3.824E2,4.9995E2,6.435E2,7.955E2,1.1936126E2,-3.1187841E1,-2.6867886E1,1.733E2,2.0285E2,2.7175E2,3.191E2,3.5945E2,4.075E2,1.9233912E1,2.8473888E1,3.677782E1,4.6071625E1,5.8876034E1,6.733E2,5.35939E1,-2.0961014E1,-2.343996E1,2.314E2,2.7493E2,-9.015887E0,3.0605E2,3.2875E2,3.464E2,3.69E2,3.927E2,4.263E2,1.825752E1,7.318089E1,-1.863623E1,-1.5074452E1,-1.2143799E1,-5.015728E0,-6.1613092E0,-4.4439754E0,-2.9216378E0,-1.3609134E0,-1.40398E-1,1.329361E0,3.0613058E0,4.6492534E0,6.625184E0,8.328711E0,1.059518E1,1.3950751E1],"split_indices":[3,0,0,2,0,0,1,0,9,0,0,0,1,0,0,0,0,1,0,0,0,0,0,0,0,0,0,0,2,0,0,0,0,5,0,0,0,0,0,0,0,0,0,0,0,0,0,0,0,0,0,0,0,0,0,0,0,0,0],"split_type":[0,0,0,0,0,0,0,0,0,0,0,0,0,0,0,0,0,0,0,0,0,0,0,0,0,0,0,0,0,0,0,0,0,0,0,0,0,0,0,0,0,0,0,0,0,0,0,0,0,0,0,0,0,0,0,0,0,0,0],"sum_hessian":[2.657E3,2.158E3,4.99E2,8.71E2,1.287E3,3.11E2,1.88E2,6.75E2,1.96E2,5.61E2,7.26E2,1.54E2,1.57E2,1.66E2,2.2E1,4.56E2,2.19E2,6E0,1.9E2,2.38E2,3.23E2,4.15E2,3.11E2,3.2E1,1.22E2,7.4E1,8.3E1,1.24E2,4.2E1,1E0,5E0,6.6E1,1.24E2,1.25E2,1.13E2,1.66E2,1.57E2,1.55E2,2.6E2,1.96E2,1.15E2,1E0,4.1E1,8.3E1,4.1E1,1.22E2,3E0,7.4E1,9.2E1,8.4E1,7.3E1,7.2E1,8.3E1,9.4E1,1.66E2,9.3E1,1.03E2,8.3E1,3.2E1],"tree_param":{"num_deleted":"0","num_feature":"11","num_nodes":"59","size_leaf_vector":"1"}},{"base_weights":[3.6005938E-1,-2.5663216E1,1.12727844E2,-6.3051926E1,1.2675611E0,8.456223E1,1.726015E2,-7.032523E1,-4.476603E1,-1.2994486E1,1.4373645E1,6.707473E1,1.07858536E2,1.5737793E2,9.9440346E1,-2.3795431E1,-6.7294136E1,-4.939218E1,-1.0398153E1,-2.2067017E1,-6.0794635E0,8.38552E0,2.1789068E1,5.568231E1,2.3652117E1,9.4224785E1,3.6004433E1,4.356608E1,5.8959427E1,-2.0606607E1,-1.8236216E1,-3.25011E1,-5.0764015E1,-2.5152157E1,-1.6351213E1,-9.434538E0,-1.9971979E0,4.2844763E0,1.0728179E1,1.8829811E1,2.8892586E1,1.427816E1,1.8057226E1,8.213457E0,2.8431889E1,-1.6474327E1,4.555481E1,-1.7234854E1,-1.3616298E1,-7.9322133E0,-6.356373E0,-5.0016418E0,-2.191291E0,-3.4026916E0,-2.2342627E0,-1.3308327E0,-2.6164865E-1,1.353484E0,-3.8887117E0,2.5170228E0,3.74405E0,4.8387866E0,6.269083E0,8.106674E0,1.1358828E1],"categories":[],"categories_nodes":[],"categories_segments":[],"categories_sizes":[],"default_left":[0,0,0,0,0,0,0,0,0,0,0,0,0,0,0,0,0,0,0,0,0,0,0,0,0,0,0,0,0,0,0,0,0,0,0,0,0,0,0,0,0,0,0,0,0,0,0,0,0,0,0,0,0,0,0,0,0,0,0,0,0,0,0,0,0],"id":3,"left_children":[1,3,5,7,9,11,13,15,17,19,21,23,25,27,-1,-1,29,31,-1,33,35,37,39,41,-1,43,-1,-1,-1,-1,-1,45,47,49,51,53,55,57,59,61,63,-1,-1,-1,-1,-1,-1,-1,-1,-1,-1,-1,-1,-1,-1,-1,-1,-1,-1,-1,-1,-1,-1,-1,-1],"loss_changes":[7.775358E6,2.173992E6,8.285935E5,1.1708275E5,2.3495775E5,1.32094E5,3.323775E5,1.2244E4,1.04429375E4,3.7633367E4,2.8902234E4,2.214975E4,1.272325E4,4.143375E4,0E0,0E0,2.6175E2,2.428375E3,0E0,4.1736016E3,4.6789893E3,3.4511113E3,5.594125E3,9.2778125E2,0E0,8.025E1,0E0,0E0,0E0,0E0,0E0,7.4449234E4,3.1794375E3,2.9282812E2,1.5113867E2,6.281836E2,4.2417358E2,5.8341235E2,8.41541E2,8.2966406E2,3.8614844E2,0E0,0E0,0E0,0E0,0E0,0E0,0E0,0E0,0E0,0E0,0E0,0E0,0E0,0E0,0E0,0E0,0E0,0E0,0E0,0E0,0E0,0E0,0E0,0E0],"parents":[2147483647,0,0,1,1,2,2,3,3,4,4,5,5,6,6,7,7,8,8,9,9,10,10,11,11,12,12,13,13,16,16,17,17,19,19,20,20,21,21,22,22,23,23,25,25,31,31,32,32,33,33,34,34,35,35,36,36,37,37,38,38,39,39,40,40],"right_children":[2,4,6,8,10,12,14,16,18,20,22,24,26,28,-1,-1,30,32,-1,34,36,38,40,42,-1,44,-1,-1,-1,-1,-1,46,48,50,52,54,56,58,60,62,64,-1,-1,-1,-1,-1,-1,-1,-1,-1,-1,-1,-1,-1,-1,-1,-1,-1,-1,-1,-1,-1,-1,-1,-1],"split_conditions":[4.57E2,2.6165E2,7.357E2,1.6125E2,3.464E2,5.979E2,1.1E3,1.309E2,2.2885E2,3.0345E2,3.8495E2,5.45E2,6.62E2,8.25E2,9.9440346E1,-2.3795431E1,1.54E2,3.40906E5,-1.0398153E1,2.91E2,3.28E2,3.591E2,4.12E2,5.1E2,2.3652117E1,4.59E2,3.6004433E1,4.356608E1,5.8959427E1,-2.0606607E1,-1.8236216E1,3.354E5,1.89E2,2.75E2,3.0721E2,3.162E2,3.38E2,3.798E2,3.729E2,3.965E2,4.3805E2,1.427816E1,1.8057226E1,8.213457E0,2.8431889E1,-1.6474327E1,4.555481E1,-1.7234854E1,-1.3616298E1,-7.9322133E0,-6.356373E0,-5.0016418E0,-2.191291E0,-3.4026916E0,-2.2342627E0,-1.3308327E0,-2.6164865E-1,1.353484E0,-3.8887117E0,2.5170228E0,3.74405E0,4.8387866E0,6.269083E0,8.106674E0,1.1358828E1],"split_indices":[0,1,1,0,0,0,0,1,0,0,0,0,0,0,0,0,0,9,0,1,0,2,0,0,0,2,0,0,0,0,0,9,0,0,5,0,1,0,0,0,0,0,0,0,0,0,0,0,0,0,0,0,0,0,0,0,0,0,0,0,0,0,0,0,0],"split_type":[0,0,0,0,0,0,0,0,0,0,0,0,0,0,0,0,0,0,0,0,0,0,0,0,0,0,0,0,0,0,0,0,0,0,0,0,0,0,0,0,0,0,0,0,0,0,0,0,0,0,0,0,0,0,0,0,0,0,0,0,0,0,0,0,0],"sum_hessian":[2.657E3,2.158E3,4.99E2,9.03E2,1.255E3,3.41E2,1.58E2,6.44E2,2.59E2,6.01E2,6.54E2,1.97E2,1.44E2,1.46E2,1.2E1,1.56E2,4.88E2,1.75E2,8.4E1,2.59E2,3.42E2,3.63E2,2.91E2,1.03E2,9.4E1,7.2E1,7.2E1,1.15E2,3.1E1,3.94E2,9.4E1,1.5E1,1.6E2,1.66E2,9.3E1,1.87E2,1.55E2,1.33E2,2.3E2,2.08E2,8.3E1,4.1E1,6.2E1,1E0,7.1E1,1.4E1,1E0,6.7E1,9.3E1,1.21E2,4.5E1,8.9E1,4E0,9.3E1,9.4E1,4.8E1,1.07E2,1.32E2,1E0,1.01E2,1.29E2,9.4E1,1.14E2,7.2E1,1.1E1],"tree_param":{"num_deleted":"0","num_feature":"11","num_nodes":"65","size_leaf_vector":"1"}},{"base_weights":[3.5038093E-1,-1.7547766E1,8.159978E1,-4.5318596E1,6.2826204E-1,6.308847E1,1.2748511E2,-4.9635284E1,-3.3858627E1,-1.0507511E1,1.0266826E1,5.1346165E1,8.066975E1,1.147973E2,2.396767E2,-1.7272137E1,-1.4324372E1,-3.707064E1,-8.799823E0,-1.790131E1,-5.7219357E0,6.4529214E0,1.8199549E1,4.2397984E1,5.9641113E1,2.039484E1,2.5628868E1,1.0519573E2,4.182435E1,3.0814125E1,7.657243E1,-2.3936335E1,-1.1661398E1,-2.0602825E1,-1.5790118E1,-8.705312E0,-3.041147E0,2.9600227E0,8.903576E0,1.6218061E1,8.967382E0,2.2916474E0,1.2798388E1,4.239432E0,1.7981987E1,8.983978E0,3.1704859E1,-1.1882238E1,3.872159E1,-6.2280726E0,-7.055695E-1,-4.78075E0,-2.60935E0,-3.019976E0,-2.1066196E0,-1.3403637E0,-4.146838E-1,3.3500215E-1,1.5021609E0,1.9601524E0,3.1306167E0,4.183811E0,5.605272E0],"categories":[],"categories_nodes":[],"categories_segments":[],"categories_sizes":[],"default_left":[0,0,0,0,0,0,0,0,0,0,0,0,0,0,0,0,0,0,0,0,0,0,0,0,0,0,0,0,0,0,0,0,0,0,0,0,0,0,0,0,0,0,0,0,0,0,0,0,0,0,0,0,0,0,0,0,0,0,0,0,0,0,0],"id":4,"left_children":[1,3,5,7,9,11,13,15,17,19,21,23,25,27,29,-1,-1,31,-1,33,35,37,39,41,43,-1,-1,45,-1,-1,-1,47,-1,49,51,53,55,57,59,61,-1,-1,-1,-1,-1,-1,-1,-1,-1,-1,-1,-1,-1,-1,-1,-1,-1,-1,-1,-1,-1,-1,-1],"loss_changes":[3.8667318E6,1.099908E6,3.99668E5,4.0961875E4,1.4157258E5,6.6875E4,1.6750025E5,6.600125E3,2.387E3,2.1552328E4,2.1272594E4,1.29843125E4,2.405E3,1.487975E4,1.4964375E3,0E0,0E0,2.2860625E3,0E0,1.0434922E3,2.956705E3,4.073834E3,4.8204688E3,6.259531E2,5.945625E2,0E0,0E0,2.808125E2,0E0,0E0,0E0,5.067064E4,0E0,2.4421484E2,5.0429688E0,3.3259082E2,4.6244263E2,7.4536816E2,9.5184375E2,8.488672E2,0E0,0E0,0E0,0E0,0E0,0E0,0E0,0E0,0E0,0E0,0E0,0E0,0E0,0E0,0E0,0E0,0E0,0E0,0E0,0E0,0E0,0E0,0E0],"parents":[2147483647,0,0,1,1,2,2,3,3,4,4,5,5,6,6,7,7,8,8,9,9,10,10,11,11,12,12,13,13,14,14,17,17,19,19,20,20,21,21,22,22,23,23,24,24,27,27,31,31,33,33,34,34,35,35,36,36,37,37,38,38,39,39],"right_children":[2,4,6,8,10,12,14,16,18,20,22,24,26,28,30,-1,-1,32,-1,34,36,38,40,42,44,-1,-1,46,-1,-1,-1,48,-1,50,52,54,56,58,60,62,-1,-1,-1,-1,-1,-1,-1,-1,-1,-1,-1,-1,-1,-1,-1,-1,-1,-1,-1,-1,-1,-1,-1],"split_conditions":[4.797E2,2.393E2,7.505E2,1.59E2,3.434E2,6.2365E2,1.1E3,1.2485E2,2.0595E2,2.9145E2,3.947E2,5.53E2,6.62E2,8.25E2,1.14E3,-1.7272137E1,-1.4324372E1,3.40906E5,-8.799823E0,2.67E2,3.191E2,3.6815E2,4.3857E2,6.85E4,5.255E2,2.039484E1,2.5628868E1,6.8105E2,4.182435E1,3.0814125E1,7.657243E1,3.354E5,-1.1661398E1,2.857E2,2.8795E2,3.133E2,3.3035E2,3.5765E2,3.816E2,4.145E2,8.967382E0,2.2916474E0,1.2798388E1,4.239432E0,1.7981987E1,8.983978E0,3.1704859E1,-1.1882238E1,3.872159E1,-6.2280726E0,-7.055695E-1,-4.78075E0,-2.60935E0,-3.019976E0,-2.1066196E0,-1.3403637E0,-4.146838E-1,3.3500215E-1,1.5021609E0,1.9601524E0,3.1306167E0,4.183811E0,5.605272E0],"split_indices":[3,0,1,0,0,4,0,0,0,0,0,0,0,0,1,0,0,9,0,0,0,0,5,6,3,0,0,3,0,0,0,9,0,1,2,1,0,0,1,1,0,0,0,0,0,0,0,0,0,0,0,0,0,0,0,0,0,0,0,0,0,0,0],"split_type":[0,0,0,0,0,0,0,0,0,0,0,0,0,0,0,0,0,0,0,0,0,0,0,0,0,0,0,0,0,0,0,0,0,0,0,0,0,0,0,0,0,0,0,0,0,0,0,0,0,0,0,0,0,0,0,0,0,0,0,0,0,0,0],"sum_hessian":[2.657E3,2.178E3,4.79E2,8.61E2,1.317E3,3.43E2,1.36E2,6.23E2,2.38E2,6.11E2,7.06E2,2.08E2,1.35E2,1.24E2,1.2E1,1.14E2,5.09E2,1.35E2,1.03E2,2.39E2,3.72E2,4.78E2,2.28E2,1.03E2,1.05E2,4.1E1,9.4E1,9.3E1,3.1E1,2E0,1E1,1.8E1,1.17E2,1.01E2,1.38E2,1.75E2,1.97E2,1.98E2,2.8E2,1.97E2,3.1E1,1E0,1.02E2,1E0,1.04E2,1E0,9.2E1,1.7E1,1E0,1E2,1E0,1.34E2,4E0,9.4E1,8.1E1,1.05E2,9.2E1,1.05E2,9.3E1,1.12E2,1.68E2,1.06E2,9.1E1],"tree_param":{"num_deleted":"0","num_feature":"11","num_nodes":"63","size_leaf_vector":"1"}},{"base_weights":[3.4026244E-1,-1.2454367E1,5.6975388E1,-3.196686E1,1.442573E-1,5.1033745E1,1.3516232E2,-3.5143993E1,-2.4650179E1,-8.034439E0,6.6137767E0,3.7675076E1,6.831768E1,1.7553825E1,1.494975E2,-1.2825685E1,-3.4006138E1,-2.6946175E1,-6.435955E0,-1.2702815E1,-4.4915056E0,2.9913614E0,1.0766081E1,2.9664804E1,4.4650246E1,1.820234E1,2.278976E1,3.5577854E1,1.7603418E2,-1.0635763E1,-9.507337E0,-1.8861881E1,-8.554336E0,-4.345441E0,-1.0848869E1,-6.85876E0,-3.0541935E0,5.341544E-1,4.414405E0,9.486589E0,1.7588078E1,2.5534346E1,9.941442E0,5.9676776E0,1.3516825E1,5.618563E1,2.2830458E1,-8.407998E0,3.2913357E1,-3.3605657E0,-2.239868E0,-4.917927E-1,-2.146349E0,-9.5266795E-1,3.3285005E0,1.0609814E-1,4.005867E0,-3.599428E0,1.3585513E0,2.4763837E0,3.4867232E0,5.360011E0,4.6491852E-1,7.723046E0,1.947899E0],"categories":[],"categories_nodes":[],"categories_segments":[],"categories_sizes":[],"default_left":[0,0,0,0,0,0,0,0,0,0,0,0,0,0,0,0,0,0,0,0,0,0,0,0,0,0,0,0,0,0,0,0,0,0,0,0,0,0,0,0,0,0,0,0,0,0,0,0,0,0,0,0,0,0,0,0,0,0,0,0,0,0,0,0,0],"id":5,"left_children":[1,3,5,7,9,11,13,15,17,19,21,23,25,-1,27,-1,29,31,-1,33,35,37,39,41,43,-1,-1,-1,45,-1,-1,47,-1,-1,49,51,53,55,57,59,61,63,-1,-1,-1,-1,-1,-1,-1,-1,-1,-1,-1,-1,-1,-1,-1,-1,-1,-1,-1,-1,-1,-1,-1],"loss_changes":[1.926764E6,5.3321106E5,2.20736E5,1.8916125E4,6.984438E4,1.02943125E5,2.8611125E4,3.6625625E3,1.3377344E3,9.585617E3,1.1053281E4,1.32024375E4,6.9651875E3,0E0,2.086625E3,0E0,6.143125E2,1.3385703E3,0E0,6.7208594E2,1.1120796E3,1.3788435E3,2.8270898E3,9.328125E2,4.8028125E2,0E0,0E0,0E0,3.640625E2,0E0,0E0,3.4890117E4,0E0,0E0,6.8018555E1,1.8121875E2,3.94135E2,3.3307846E2,5.224946E2,6.697637E2,2.091543E2,7.5765625E1,0E0,0E0,0E0,0E0,0E0,0E0,0E0,0E0,0E0,0E0,0E0,0E0,0E0,0E0,0E0,0E0,0E0,0E0,0E0,0E0,0E0,0E0,0E0],"parents":[2147483647,0,0,1,1,2,2,3,3,4,4,5,5,6,6,7,7,8,8,9,9,10,10,11,11,12,12,14,14,16,16,17,17,19,19,20,20,21,21,22,22,23,23,24,24,28,28,31,31,34,34,35,35,36,36,37,37,38,38,39,39,40,40,41,41],"right_children":[2,4,6,8,10,12,14,16,18,20,22,24,26,-1,28,-1,30,32,-1,34,36,38,40,42,44,-1,-1,-1,46,-1,-1,48,-1,-1,50,52,54,56,58,60,62,64,-1,-1,-1,-1,-1,-1,-1,-1,-1,-1,-1,-1,-1,-1,-1,-1,-1,-1,-1,-1,-1,-1,-1],"split_conditions":[4.689E2,2.3645E2,9.1475E2,1.559E2,3.388E2,6.62E2,2.8E-1,1.22E2,1.979E2,2.9145E2,3.8065E2,5.598E2,7.4E2,1.7553825E1,1.1E3,-1.2825685E1,1.45E2,3.996E-1,-6.435955E0,2.734E2,3.062E2,3.5765E2,4.2425E2,5.2915E2,5.35E2,1.820234E1,2.278976E1,3.5577854E1,5.09477E5,-1.0635763E1,-9.507337E0,3.881E-1,-8.554336E0,-4.345441E0,3.089878E6,1.96021E5,1.7940352E7,3.921E2,6.85E4,4.0895E2,4.9995E2,5.561E2,9.941442E0,5.9676776E0,1.3516825E1,5.618563E1,2.2830458E1,-8.407998E0,3.2913357E1,-3.3605657E0,-2.239868E0,-4.917927E-1,-2.146349E0,-9.5266795E-1,3.3285005E0,1.0609814E-1,4.005867E0,-3.599428E0,1.3585513E0,2.4763837E0,3.4867232E0,5.360011E0,4.6491852E-1,7.723046E0,1.947899E0],"split_indices":[3,0,1,0,0,0,10,0,3,0,0,0,3,0,0,0,0,10,0,1,2,0,0,4,3,0,0,0,9,0,0,10,0,0,9,6,6,1,6,1,0,1,0,0,0,0,0,0,0,0,0,0,0,0,0,0,0,0,0,0,0,0,0,0,0],"split_type":[0,0,0,0,0,0,0,0,0,0,0,0,0,0,0,0,0,0,0,0,0,0,0,0,0,0,0,0,0,0,0,0,0,0,0,0,0,0,0,0,0,0,0,0,0,0,0,0,0,0,0,0,0,0,0,0,0,0,0,0,0,0,0,0,0],"sum_hessian":[2.657E3,2.168E3,4.89E2,8.5E2,1.318E3,4.56E2,3.3E1,5.9E2,2.6E2,5.82E2,7.36E2,2.59E2,1.97E2,6E0,2.7E1,7.2E1,5.18E2,1.47E2,1.13E2,2.5E2,3.32E2,3.94E2,3.42E2,1.23E2,1.36E2,1.03E2,9.4E1,1.5E1,1.2E1,3.1E2,2.08E2,2.6E1,1.21E2,1.24E2,1.26E2,1.24E2,2.08E2,1.45E2,2.49E2,2.9E2,5.2E1,6E1,6.3E1,3E0,1.33E2,1E1,2E0,2.5E1,1E0,1.12E2,1.4E1,7E0,1.17E2,2.07E2,1E0,1.44E2,1E0,1E0,2.48E2,1.87E2,1.03E2,5.1E1,1E0,5.9E1,1E0],"tree_param":{"num_deleted":"0","num_feature":"11","num_nodes":"65","size_leaf_vector":"1"}},{"base_weights":[3.105056E-1,-8.973478E0,3.9335335E1,-2.162554E1,3.9733714E-1,3.3794815E1,8.559871E1,-2.4587267E1,-1.5832119E1,-4.2489142E0,4.9683723E0,2.4860308E1,4.5401443E1,6.984582E1,1.2990813E2,-9.7296095E0,-2.3942148E1,-1.7695196E1,-1.2044487E1,-7.437738E0,-1.894838E0,3.2270854E0,7.536227E0,1.8953262E1,2.931235E1,1.2339931E1,5.0704514E1,1.2520172E1,2.201156E1,4.2815037E1,1.962284E1,-2.5129227E1,-6.678502E0,-1.0518189E1,-1.8448954E1,-4.1849673E-1,-1.2132626E1,-8.988811E0,-5.957431E0,-3.534505E0,-7.269252E-1,2.254243E0,4.4397945E0,6.126204E0,8.886439E0,1.9748741E1,1.1192678E1,7.387415E0,3.1269289E1,9.013928E0,1.5489496E1,-2.2016327E0,-7.548567E0,-5.970132E0,2.7976357E1,-6.1959805E0,-4.806769E0,-3.6572711E0,-9.107483E-1,-2.7141364E0,-2.6375428E-1,-1.9379648E0,-1.5064651E0,-1.2052842E0,-8.8823646E-1,-2.464666E-1,2.8292267E0,6.4678395E-1,3.4049883E0,-2.3871157E0,1.3922157E0,1.8827668E0,-2.4490356E-3,1.0622071E0,2.6832323E0,1.3994706E0,5.9552665E0,1.7265931E0,3.8909423E0,9.812356E0,7.6053047E0],"categories":[],"categories_nodes":[],"categories_segments":[],"categories_sizes":[],"default_left":[0,0,0,0,0,0,0,0,0,0,0,0,0,0,0,0,0,0,0,0,0,0,0,0,0,0,0,0,0,0,0,0,0,0,0,0,0,0,0,0,0,0,0,0,0,0,0,0,0,0,0,0,0,0,0,0,0,0,0,0,0,0,0,0,0,0,0,0,0,0,0,0,0,0,0,0,0,0,0,0,0],"id":6,"left_children":[1,3,5,7,9,11,13,15,17,19,21,23,25,27,29,-1,31,33,35,37,39,41,43,45,47,-1,49,-1,-1,-1,-1,51,-1,53,55,-1,57,59,61,63,65,67,69,71,73,75,77,-1,79,-1,-1,-1,-1,-1,-1,-1,-1,-1,-1,-1,-1,-1,-1,-1,-1,-1,-1,-1,-1,-1,-1,-1,-1,-1,-1,-1,-1,-1,-1,-1,-1],"loss_changes":[9.6336206E5,2.5467577E5,1.2808825E5,1.5293625E4,2.6250262E4,4.6365656E4,2.8618531E4,2.2751562E3,1.9885469E3,4.587535E3,2.7613447E3,6.3083125E3,2.3961562E3,1.1011094E3,1.4048125E3,0E0,5.5971875E2,9.257617E2,8.256836E1,5.4342676E2,6.753364E2,4.3004785E2,4.2341992E2,4.8890234E2,5.785E2,0E0,5.7515625E1,0E0,0E0,0E0,0E0,1.859375E0,0E0,2.3275477E4,6.6391016E2,0E0,1.8657227E1,5.1155273E1,3.1513184E1,2.8848267E1,2.0768219E2,1.6239221E2,4.4791382E2,1.1574756E2,7.173828E0,6.609375E1,5.0972534E1,0E0,2.2203125E1,0E0,0E0,0E0,0E0,0E0,0E0,0E0,0E0,0E0,0E0,0E0,0E0,0E0,0E0,0E0,0E0,0E0,0E0,0E0,0E0,0E0,0E0,0E0,0E0,0E0,0E0,0E0,0E0,0E0,0E0,0E0,0E0],"parents":[2147483647,0,0,1,1,2,2,3,3,4,4,5,5,6,6,7,7,8,8,9,9,10,10,11,11,12,12,13,13,14,14,16,16,17,17,18,18,19,19,20,20,21,21,22,22,23,23,24,24,26,26,31,31,33,33,34,34,36,36,37,37,38,38,39,39,40,40,41,41,42,42,43,43,44,44,45,45,46,46,48,48],"right_children":[2,4,6,8,10,12,14,16,18,20,22,24,26,28,30,-1,32,34,36,38,40,42,44,46,48,-1,50,-1,-1,-1,-1,52,-1,54,56,-1,58,60,62,64,66,68,70,72,74,76,78,-1,80,-1,-1,-1,-1,-1,-1,-1,-1,-1,-1,-1,-1,-1,-1,-1,-1,-1,-1,-1,-1,-1,-1,-1,-1,-1,-1,-1,-1,-1,-1,-1,-1],"split_conditions":[4.3857E2,2.633E2,8.06E2,1.5677E2,3.4915E2,6.29E2,1.078E3,1.2005E2,2.2645E2,3.051E2,3.812E2,5.44E2,7.505E2,2.20249E5,1.183511E6,-9.7296095E0,1.44E2,3.40906E5,1.748E-1,2.76E2,3.24E2,3.729E2,4.045E2,9.6249E4,5.6385E2,1.2339931E1,1.154E-1,1.2520172E1,2.201156E1,4.2815037E1,1.962284E1,1.12E2,-6.678502E0,3.354E5,1.8405E2,-4.1849673E-1,2.625E2,2.94E2,2.9525E2,3.103E2,1.7940352E7,3.952E2,4.276766E12,9.111E4,3.8975E2,4.49E2,1.649016E6,7.387415E0,4.9555215E13,9.013928E0,1.5489496E1,-2.2016327E0,-7.548567E0,-5.970132E0,2.7976357E1,-6.1959805E0,-4.806769E0,-3.6572711E0,-9.107483E-1,-2.7141364E0,-2.6375428E-1,-1.9379648E0,-1.5064651E0,-1.2052842E0,-8.8823646E-1,-2.464666E-1,2.8292267E0,6.4678395E-1,3.4049883E0,-2.3871157E0,1.3922157E0,1.8827668E0,-2.4490356E-3,1.0622071E0,2.6832323E0,1.3994706E0,5.9552665E0,1.7265931E0,3.8909423E0,9.812356E0,7.6053047E0],"split_indices":[5,1,0,5,5,2,2,1,0,0,2,3,1,6,6,0,0,9,10,0,0,0,0,8,0,0,10,0,0,0,0,0,0,9,0,0,3,1,0,2,6,1,7,8,2,1,9,0,7,0,0,0,0,0,0,0,0,0,0,0,0,0,0,0,0,0,0,0,0,0,0,0,0,0,0,0,0,0,0,0,0],"split_type":[0,0,0,0,0,0,0,0,0,0,0,0,0,0,0,0,0,0,0,0,0,0,0,0,0,0,0,0,0,0,0,0,0,0,0,0,0,0,0,0,0,0,0,0,0,0,0,0,0,0,0,0,0,0,0,0,0,0,0,0,0,0,0,0,0,0,0,0,0,0,0,0,0,0,0,0,0,0,0,0,0],"sum_hessian":[2.657E3,2.147E3,5.1E2,9.13E2,1.234E3,4.57E2,5.3E1,6.02E2,3.11E2,6.12E2,6.22E2,2.6E2,1.97E2,4.1E1,1.2E1,4.2E1,5.6E2,2.06E2,1.05E2,2.59E2,3.53E2,3.72E2,2.5E2,1.14E2,1.46E2,1.14E2,8.3E1,6E0,3.5E1,9E0,3E0,3.2E2,2.4E2,2.1E1,1.85E2,1E0,1.04E2,1.24E2,1.35E2,1.46E2,2.07E2,2.08E2,1.64E2,1.25E2,1.25E2,1.02E2,1.2E1,4.7E1,9.9E1,5E0,7.8E1,1E0,3.19E2,2E1,1E0,9.3E1,9.2E1,1.03E2,1E0,1.23E2,1E0,8.4E1,5.1E1,7.6E1,7E1,2.06E2,1E0,2.07E2,1E0,2E0,1.62E2,1.22E2,3E0,2E0,1.23E2,1E0,1.01E2,4E0,8E0,7.6E1,2.3E1],"tree_param":{"num_deleted":"0","num_feature":"11","num_nodes":"81","size_leaf_vector":"1"}},{"base_weights":[2.7536717E-1,-5.959013E0,2.9386278E1,-1.5080348E1,7.10176E-1,2.6008259E1,7.1840126E1,-1.7367725E1,-1.1166587E1,-2.7907557E0,4.0958443E0,1.9269802E1,3.4010696E1,7.379873E0,8.108455E1,-6.6022353E0,-1.6762117E1,-1.2413728E1,-8.20963E0,-4.940291E0,-1.1433963E0,2.78604E0,7.0321403E0,1.5643221E1,2.1947739E1,3.1289953E1,4.104797E1,1.0258127E2,1.9650864E1,-5.1145387E0,-4.2721944E0,-8.255618E0,-1.292397E1,-8.3080015E0,-6.286957E-1,-5.981363E0,-3.8705487E0,-1.9737422E0,1.8623029E-1,1.9043202E0,3.9578514E0,5.9787564E0,1.069018E1,8.966507E0,4.80859E0,1.898618E1,2.3997025E1,2.6266785E1,1.0082528E1,4.1608772E1,1.8670441E0,7.3396916E0,3.2562717E1,-4.263703E0,2.37799E1,-4.33936E0,-3.3648915E0,-1.1505753E0,-2.5211496E0,-1.8802396E0,-1.0385284E0,-1.0214555E0,-1.5662733E0,-6.1701584E-1,2.4048433E0,1.7570518E-2,2.6322374E0,6.2154233E-1,-6.0889643E-1,-7.6171345E-1,1.3106971E0,1.9438492E0,1.2579437E0,2.950104E-1,3.3419096E0,3.4769099E0,1.5223957E0,5.7717304E0,2.3302917E0,7.371638E0,4.445364E0,8.195345E0,3.340126E0,3.028006E0,1.2611165E1],"categories":[],"categories_nodes":[],"categories_segments":[],"categories_sizes":[],"default_left":[0,0,0,0,0,0,0,0,0,0,0,0,0,0,0,0,0,0,0,0,0,0,0,0,0,0,0,0,0,0,0,0,0,0,0,0,0,0,0,0,0,0,0,0,0,0,0,0,0,0,0,0,0,0,0,0,0,0,0,0,0,0,0,0,0,0,0,0,0,0,0,0,0,0,0,0,0,0,0,0,0,0,0,0,0],"id":7,"left_children":[1,3,5,7,9,11,13,15,17,19,21,23,25,-1,27,-1,29,31,33,35,37,39,41,43,45,47,49,51,-1,-1,-1,53,55,57,-1,59,61,63,65,67,69,71,73,75,-1,77,79,81,-1,83,-1,-1,-1,-1,-1,-1,-1,-1,-1,-1,-1,-1,-1,-1,-1,-1,-1,-1,-1,-1,-1,-1,-1,-1,-1,-1,-1,-1,-1,-1,-1,-1,-1,-1,-1],"loss_changes":[4.825715E5,1.3323256E5,6.5390844E4,8.0868906E3,1.5017321E4,2.28555E4,1.2853547E4,1.2664531E3,1.166668E3,2.2004302E3,2.4572139E3,1.9777734E3,2.5066406E3,0E0,2.6593594E3,0E0,1.319375E2,4.025E2,4.5740234E1,2.77542E2,3.9120132E2,4.5430737E2,6.9904297E2,1.2647461E2,3.6371484E2,8.291875E2,7.5659375E2,2.001E3,0E0,0E0,0E0,1.6245537E4,3.9548438E2,1.1917969E1,0E0,7.562012E1,6.774841E1,1.9719403E2,1.4968564E2,1.735401E2,5.212776E2,1.12313965E2,1.7667139E2,2.2858948E1,0E0,2.0800781E1,3.709375E1,5.0701953E2,0E0,2.643203E2,0E0,0E0,0E0,0E0,0E0,0E0,0E0,0E0,0E0,0E0,0E0,0E0,0E0,0E0,0E0,0E0,0E0,0E0,0E0,0E0,0E0,0E0,0E0,0E0,0E0,0E0,0E0,0E0,0E0,0E0,0E0,0E0,0E0,0E0,0E0],"parents":[2147483647,0,0,1,1,2,2,3,3,4,4,5,5,6,6,7,7,8,8,9,9,10,10,11,11,12,12,14,14,16,16,17,17,18,18,19,19,20,20,21,21,22,22,23,23,24,24,25,25,26,26,27,27,31,31,32,32,33,33,35,35,36,36,37,37,38,38,39,39,40,40,41,41,42,42,43,43,45,45,46,46,47,47,49,49],"right_children":[2,4,6,8,10,12,14,16,18,20,22,24,26,-1,28,-1,30,32,34,36,38,40,42,44,46,48,50,52,-1,-1,-1,54,56,58,-1,60,62,64,66,68,70,72,74,76,-1,78,80,82,-1,84,-1,-1,-1,-1,-1,-1,-1,-1,-1,-1,-1,-1,-1,-1,-1,-1,-1,-1,-1,-1,-1,-1,-1,-1,-1,-1,-1,-1,-1,-1,-1,-1,-1,-1,-1],"split_conditions":[4.981E2,2.61E2,9.1475E2,1.553E2,3.585E2,6.75E2,2.8E-1,1.2092E2,2.2891E2,3.078E2,4.0045E2,5.5818E2,7.94E2,7.379873E0,7.44799E5,-6.6022353E0,1.52E2,3.40906E5,2.711E2,2.815E2,3.345E2,3.79E2,4.3857E2,4.9995E2,3.589E-1,7.1286E2,8.9E2,8.9E2,1.9650864E1,-5.1145387E0,-4.2721944E0,3.354E5,1.8405E2,4.17514E5,-6.286957E-1,3.089878E6,1.2984518E14,1.4742E5,9.6249E4,1.1377167E7,5.11017E5,4.413073E6,2.0059E5,5.25E2,4.80859E0,3.506E-1,9.39051E5,7.249E2,1.0082528E1,6.8105E2,1.8670441E0,7.3396916E0,3.2562717E1,-4.263703E0,2.37799E1,-4.33936E0,-3.3648915E0,-1.1505753E0,-2.5211496E0,-1.8802396E0,-1.0385284E0,-1.0214555E0,-1.5662733E0,-6.1701584E-1,2.4048433E0,1.7570518E-2,2.6322374E0,6.2154233E-1,-6.0889643E-1,-7.6171345E-1,1.3106971E0,1.9438492E0,1.2579437E0,2.950104E-1,3.3419096E0,3.4769099E0,1.5223957E0,5.7717304E0,2.3302917E0,7.371638E0,4.445364E0,8.195345E0,3.340126E0,3.028006E0,1.2611165E1],"split_indices":[3,0,1,0,1,1,10,5,5,0,4,5,1,0,6,0,0,9,3,0,0,0,5,0,10,5,0,0,0,0,0,9,0,9,0,9,7,8,8,6,6,6,6,1,0,10,6,1,0,3,0,0,0,0,0,0,0,0,0,0,0,0,0,0,0,0,0,0,0,0,0,0,0,0,0,0,0,0,0,0,0,0,0,0,0],"split_type":[0,0,0,0,0,0,0,0,0,0,0,0,0,0,0,0,0,0,0,0,0,0,0,0,0,0,0,0,0,0,0,0,0,0,0,0,0,0,0,0,0,0,0,0,0,0,0,0,0,0,0,0,0,0,0,0,0,0,0,0,0,0,0,0,0,0,0,0,0,0,0,0,0,0,0,0,0,0,0,0,0,0,0,0,0],"sum_hessian":[2.657E3,2.189E3,4.68E2,9.24E2,1.265E3,4.35E2,3.3E1,5.81E2,3.43E2,6.22E2,6.43E2,2.38E2,1.97E2,6E0,2.7E1,6.3E1,5.18E2,2.39E2,1.04E2,2.69E2,3.53E2,4.46E2,1.97E2,1.04E2,1.34E2,1.46E2,5.1E1,9E0,1.8E1,4.6E2,5.8E1,2.8E1,2.11E2,1.02E2,2E0,1.34E2,1.35E2,2.17E2,1.36E2,2.56E2,1.9E2,1.55E2,4.2E1,7E0,9.7E1,5.9E1,7.5E1,5E1,9.6E1,5E1,1E0,1E0,8E0,2.7E1,1E0,1.07E2,1.04E2,3E0,9.9E1,1.19E2,1.5E1,1.03E2,3.2E1,2.16E2,1E0,1.35E2,1E0,2.46E2,1E1,1.1E1,1.79E2,1.19E2,3.6E1,2E0,4E1,3E0,4E0,5.7E1,2E0,6.9E1,6E0,4.6E1,4E0,1E0,4.9E1],"tree_param":{"num_deleted":"0","num_feature":"11","num_nodes":"85","size_leaf_vector":"1"}},{"base_weights":[2.4303183E-1,-4.1175404E0,2.1142849E1,-1.0508055E1,6.054043E-1,1.8609953E1,5.2256695E1,-1.2184911E1,-7.721505E0,-1.708201E0,3.1601255E0,1.3613111E1,2.3781582E1,6.857332E1,3.576602E1,-4.984702E0,-1.18095255E1,-8.491223E0,-5.1856785E0,-2.9818835E0,-1.7666666E-1,2.543598E0,6.931765E0,1.2210251E1,1.6893045E1,2.201207E1,3.025127E1,1.3953942E1,2.544581E1,1.827396E1,1.2730079E1,-3.9300854E0,-3.3907616E0,-4.9008117E0,-8.9364195E0,-5.931944E0,-3.9501002E0,-3.9961085E0,-2.2068787E0,-2.3470554E-1,2.6026611E0,1.9531939E0,3.6733437E0,9.0611925E0,5.58095E0,1.001941E1,1.3199815E1,1.936883E1,1.4055396E1,2.3600584E1,1.8149967E1,3.106288E1,2.803815E0,1.9660797E1,1.4929414E0,-2.867923E0,1.2996631E1,-3.077131E0,-2.2949698E0,-8.358742E-1,-1.821151E0,-7.739305E-1,-1.3658677E0,-1.246218E0,-7.0632195E-1,-6.2827814E-1,-1.2681885E0,-8.4227756E-2,2.0441163E0,-2.5871887E0,6.0280126E-1,2.732609E-1,1.1770517E0,2.1612895E0,5.1828556E0,4.1580966E-1,1.794215E0,5.3406376E-1,3.0430865E0,3.9863658E0,6.0607E-1,3.253586E0,6.177254E0,-8.497284E-1,4.4014964E0,6.376796E0,7.8097167E0,3.348285E0,6.0427127E0,9.512597E0,3.7586305E0,6.4717093E0,1.515445E0],"categories":[],"categories_nodes":[],"categories_segments":[],"categories_sizes":[],"default_left":[0,0,0,0,0,0,0,0,0,0,0,0,0,0,0,0,0,0,0,0,0,0,0,0,0,0,0,0,0,0,0,0,0,0,0,0,0,0,0,0,0,0,0,0,0,0,0,0,0,0,0,0,0,0,0,0,0,0,0,0,0,0,0,0,0,0,0,0,0,0,0,0,0,0,0,0,0,0,0,0,0,0,0,0,0,0,0,0,0,0,0,0,0],"id":8,"left_children":[1,3,5,7,9,11,13,15,17,19,21,23,25,27,29,-1,31,33,35,37,39,41,43,45,47,49,51,-1,-1,53,-1,-1,-1,55,57,59,61,63,65,67,-1,69,71,73,75,77,79,81,83,85,87,89,-1,91,-1,-1,-1,-1,-1,-1,-1,-1,-1,-1,-1,-1,-1,-1,-1,-1,-1,-1,-1,-1,-1,-1,-1,-1,-1,-1,-1,-1,-1,-1,-1,-1,-1,-1,-1,-1,-1,-1,-1],"loss_changes":[2.4232431E5,6.640686E4,3.5200453E4,4.274828E3,7.4882393E3,1.0684875E4,6.6958516E3,7.7178906E2,6.469297E2,1.2966813E3,1.3822104E3,8.0141406E2,1.7153203E3,1.7890391E3,1.4405312E3,0E0,2.053125E2,3.877832E2,5.494409E1,2.7650928E2,1.577091E2,3.390017E2,1.9105273E2,2.0811719E2,1.7036328E2,5.962031E2,4.2229688E2,0E0,0E0,3.124878E1,0E0,0E0,0E0,7.6034995E3,3.2761523E2,5.3153076E0,1.7165466E1,3.067212E1,3.8474487E1,9.994394E1,0E0,2.2101562E2,1.1874463E2,3.484231E2,8.22677E1,3.6183105E1,7.653711E1,9.958008E1,3.849961E2,1.0233984E2,5.132168E2,8.1484375E1,0E0,5.8587646E1,0E0,0E0,0E0,0E0,0E0,0E0,0E0,0E0,0E0,0E0,0E0,0E0,0E0,0E0,0E0,0E0,0E0,0E0,0E0,0E0,0E0,0E0,0E0,0E0,0E0,0E0,0E0,0E0,0E0,0E0,0E0,0E0,0E0,0E0,0E0,0E0,0E0,0E0,0E0],"parents":[2147483647,0,0,1,1,2,2,3,3,4,4,5,5,6,6,7,7,8,8,9,9,10,10,11,11,12,12,13,13,14,14,16,16,17,17,18,18,19,19,20,20,21,21,22,22,23,23,24,24,25,25,26,26,29,29,33,33,34,34,35,35,36,36,37,37,38,38,39,39,41,41,42,42,43,43,44,44,45,45,46,46,47,47,48,48,49,49,50,50,51,51,53,53],"right_children":[2,4,6,8,10,12,14,16,18,20,22,24,26,28,30,-1,32,34,36,38,40,42,44,46,48,50,52,-1,-1,54,-1,-1,-1,56,58,60,62,64,66,68,-1,70,72,74,76,78,80,82,84,86,88,90,-1,92,-1,-1,-1,-1,-1,-1,-1,-1,-1,-1,-1,-1,-1,-1,-1,-1,-1,-1,-1,-1,-1,-1,-1,-1,-1,-1,-1,-1,-1,-1,-1,-1,-1,-1,-1,-1,-1,-1,-1],"split_conditions":[5.106E2,2.6275E2,9.1475E2,1.5576E2,3.604E2,6.4878E2,9.97026E5,1.151E2,2.3645E2,3.2124E2,4.2425E2,5.979E2,8.02E2,1.1E3,2.8E-1,-4.984702E0,1.301E2,8.86539E5,4.595E-1,2.891E2,3.952E2,3.927E2,1.891E3,5.4E2,6.215E2,6.69863E5,8.4E2,1.3953942E1,2.544581E1,2.748E-1,1.2730079E1,-3.9300854E0,-3.3907616E0,1.4292919E13,1.9295E2,1.778E-1,2.48E2,3.289721E6,3.265E2,1.7940352E7,2.6026611E0,6.85E4,1.60867E5,2.76493E5,1.254E-1,6.85E4,6.435E2,2.524E-1,5.9638E2,4.972E-1,7.681092E13,8.81E-1,2.803815E0,1.077084E6,1.4929414E0,-2.867923E0,1.2996631E1,-3.077131E0,-2.2949698E0,-8.358742E-1,-1.821151E0,-7.739305E-1,-1.3658677E0,-1.246218E0,-7.0632195E-1,-6.2827814E-1,-1.2681885E0,-8.4227756E-2,2.0441163E0,-2.5871887E0,6.0280126E-1,2.732609E-1,1.1770517E0,2.1612895E0,5.1828556E0,4.1580966E-1,1.794215E0,5.3406376E-1,3.0430865E0,3.9863658E0,6.0607E-1,3.253586E0,6.177254E0,-8.497284E-1,4.4014964E0,6.376796E0,7.8097167E0,3.348285E0,6.0427127E0,9.512597E0,3.7586305E0,6.4717093E0,1.515445E0],"split_indices":[5,0,1,5,0,5,6,2,0,5,0,0,1,0,10,0,0,6,10,0,1,0,8,0,0,6,2,0,0,10,0,0,0,7,1,10,0,9,1,6,0,6,9,9,10,6,1,10,5,10,7,10,0,9,0,0,0,0,0,0,0,0,0,0,0,0,0,0,0,0,0,0,0,0,0,0,0,0,0,0,0,0,0,0,0,0,0,0,0,0,0,0,0],"split_type":[0,0,0,0,0,0,0,0,0,0,0,0,0,0,0,0,0,0,0,0,0,0,0,0,0,0,0,0,0,0,0,0,0,0,0,0,0,0,0,0,0,0,0,0,0,0,0,0,0,0,0,0,0,0,0,0,0,0,0,0,0,0,0,0,0,0,0,0,0,0,0,0,0,0,0,0,0,0,0,0,0,0,0,0,0,0,0,0,0,0,0,0,0],"sum_hessian":[2.657E3,2.199E3,4.58E2,9.34E2,1.265E3,4.25E2,3.3E1,5.81E2,3.53E2,6.64E2,6.01E2,2.18E2,2.07E2,1.5E1,1.8E1,4.2E1,5.39E2,2.69E2,8.4E1,3.62E2,3.02E2,5.18E2,8.3E1,1.56E2,6.2E1,1.66E2,4.1E1,8E0,7E0,6E0,1.2E1,1.45E2,3.94E2,3.1E1,2.38E2,5E1,3.4E1,1.55E2,2.07E2,3.01E2,1E0,3.42E2,1.76E2,3E1,5.3E1,5.2E1,1.04E2,3E1,3.2E1,1.14E2,5.2E1,3.9E1,2E0,5E0,1E0,2.9E1,2E0,1.14E2,1.24E2,3E0,4.7E1,1.2E1,2.2E1,1.4E2,1.5E1,1.98E2,9E0,3E2,1E0,1E0,3.41E2,1.5E1,1.61E2,2.6E1,4E0,5E0,4.8E1,1E0,5.1E1,1.03E2,1E0,5E0,2.5E1,1E0,3.1E1,6.3E1,5.1E1,1.3E1,3.9E1,3.7E1,2E0,4E0,1E0],"tree_param":{"num_deleted":"0","num_feature":"11","num_nodes":"93","size_leaf_vector":"1"}},{"base_weights":[2.1519202E-1,-2.8834696E0,1.5066696E1,-7.330176E0,4.644771E-1,1.31697035E1,3.8391754E1,-8.742347E0,-5.559304E0,-1.3711714E0,2.0465257E0,1.0466813E1,1.828164E1,5.4751785E1,2.8186878E1,-1.1795642E1,-8.45182E0,-6.328941E0,-4.206405E0,-2.4865568E0,-6.4576334E-1,1.5031011E0,4.4255695E0,8.599195E0,1.2728808E1,1.6935263E1,2.2729961E1,6.0989137E0,1.788097E1,1.4146092E1,9.693099E0,-3.605971E0,-3.5650408E-1,-9.136662E0,-8.0631485E0,-3.92311E0,-6.7732606E0,1.526652E0,-4.290774E0,-1.9292073E0,-2.8535001E0,-1.1615559E0,-6.1243847E-2,9.116773E0,1.4307585E0,3.706601E0,4.1961803E0,9.332684E0,6.842872E0,1.1685595E1,1.643424E1,1.4937972E1,1.975459E1,1.9506453E1,9.873051E0,1.0321931E0,1.5356893E1,-2.752339E0,-4.2924502E-1,-1.7981666E0,-2.470719E0,-2.062864E0,6.1459017E0,-1.9352806E0,-3.0311155E0,8.197472E-1,-1.3275376E-1,-1.551427E0,-1.1068226E0,-6.649888E-1,-1.7775066E-1,-9.8559546E-1,-6.4734507E-1,-3.0582002E-1,-7.5945365E-1,1.825818E0,-8.656311E-2,3.38855E-1,3.2493622E0,2.451939E-1,6.468787E-1,9.385669E-1,1.5394539E0,2.0251558E0,2.9424255E0,1.5666478E0,2.40902E0,3.6393597E0,-2.0743654E0,5.167499E0,1.4681093E0,4.683433E0,8.3735234E-1,6.633905E0,4.0690613E0,6.3935504E0,-4.3162236E-1,5.02088E0,1.2690034E0],"categories":[],"categories_nodes":[],"categories_segments":[],"categories_sizes":[],"default_left":[0,0,0,0,0,0,0,0,0,0,0,0,0,0,0,0,0,0,0,0,0,0,0,0,0,0,0,0,0,0,0,0,0,0,0,0,0,0,0,0,0,0,0,0,0,0,0,0,0,0,0,0,0,0,0,0,0,0,0,0,0,0,0,0,0,0,0,0,0,0,0,0,0,0,0,0,0,0,0,0,0,0,0,0,0,0,0,0,0,0,0,0,0,0,0,0,0,0,0],"id":9,"left_children":[1,3,5,7,9,11,13,15,17,19,21,23,25,27,29,31,33,35,37,39,41,43,45,47,49,51,53,-1,-1,55,-1,-1,-1,57,59,61,63,65,67,69,71,73,75,77,79,-1,81,83,85,87,89,91,93,95,-1,-1,97,-1,-1,-1,-1,-1,-1,-1,-1,-1,-1,-1,-1,-1,-1,-1,-1,-1,-1,-1,-1,-1,-1,-1,-1,-1,-1,-1,-1,-1,-1,-1,-1,-1,-1,-1,-1,-1,-1,-1,-1,-1,-1],"loss_changes":[1.2236404E5,3.2755547E4,1.9803969E4,2.314625E3,3.6503374E3,5.6946875E3,4.13309E3,3.651289E2,4.1278223E2,4.692959E2,8.6600903E2,1.0776406E3,4.8947266E2,7.922422E2,8.7455273E2,8.800488E1,5.4628906E1,2.5883984E2,8.20061E1,4.13291E1,1.066566E2,2.9044348E2,1.7553003E2,1.3839258E2,2.911504E2,3.5810547E2,3.7533496E2,0E0,0E0,3.789746E1,0E0,0E0,0E0,3.5518555E1,6.3484375E1,3.3125474E3,1.7528418E2,8.332645E0,6.2477783E1,3.480127E1,3.3766357E1,3.4031876E1,2.3510205E2,5.62341E1,2.4168396E2,0E0,1.06771484E2,6.636621E1,5.4270752E1,9.21E2,1.438501E2,5.454219E2,3.571211E2,1.01382715E3,0E0,0E0,2.1294312E1,0E0,0E0,0E0,0E0,0E0,0E0,0E0,0E0,0E0,0E0,0E0,0E0,0E0,0E0,0E0,0E0,0E0,0E0,0E0,0E0,0E0,0E0,0E0,0E0,0E0,0E0,0E0,0E0,0E0,0E0,0E0,0E0,0E0,0E0,0E0,0E0,0E0,0E0,0E0,0E0,0E0,0E0],"parents":[2147483647,0,0,1,1,2,2,3,3,4,4,5,5,6,6,7,7,8,8,9,9,10,10,11,11,12,12,13,13,14,14,15,15,16,16,17,17,18,18,19,19,20,20,21,21,22,22,23,23,24,24,25,25,26,26,29,29,33,33,34,34,35,35,36,36,37,37,38,38,39,39,40,40,41,41,42,42,43,43,44,44,46,46,47,47,48,48,49,49,50,50,51,51,52,52,53,53,56,56],"right_children":[2,4,6,8,10,12,14,16,18,20,22,24,26,28,30,32,34,36,38,40,42,44,46,48,50,52,54,-1,-1,56,-1,-1,-1,58,60,62,64,66,68,70,72,74,76,78,80,-1,82,84,86,88,90,92,94,96,-1,-1,98,-1,-1,-1,-1,-1,-1,-1,-1,-1,-1,-1,-1,-1,-1,-1,-1,-1,-1,-1,-1,-1,-1,-1,-1,-1,-1,-1,-1,-1,-1,-1,-1,-1,-1,-1,-1,-1,-1,-1,-1,-1,-1],"split_conditions":[5.106E2,2.641E2,9.1475E2,1.52E2,3.4855E2,7.1285E2,8.04013E5,1.18E2,2.229E2,3.051E2,4.12E2,5.979E2,8.1E2,4.3825314E13,2.8E-1,1.237E2,1.2955E2,4.3167E5,2.1255E2,7.721614E13,3.2875E2,3.26E2,3.956E2,2.28757E5,5.554E-1,7.5E2,5.645E-1,6.0989137E0,1.788097E1,1.285716E6,9.693099E0,-3.605971E0,-3.5650408E-1,7.4677E4,1.345E2,1.4292919E13,7.41E-1,2.288E2,2.3645E2,2.97E2,2.93E2,8.1007E4,2.55406E5,3.18E2,3.8046E2,3.706601E0,4.33E2,5.2915E2,5.4285E2,5.458E-1,9.39051E5,7.6216E2,7.87E2,5.177E-1,9.873051E0,1.0321931E0,2.748E-1,-2.752339E0,-4.2924502E-1,-1.7981666E0,-2.470719E0,-2.062864E0,6.1459017E0,-1.9352806E0,-3.0311155E0,8.197472E-1,-1.3275376E-1,-1.551427E0,-1.1068226E0,-6.649888E-1,-1.7775066E-1,-9.8559546E-1,-6.4734507E-1,-3.0582002E-1,-7.5945365E-1,1.825818E0,-8.656311E-2,3.38855E-1,3.2493622E0,2.451939E-1,6.468787E-1,9.385669E-1,1.5394539E0,2.0251558E0,2.9424255E0,1.5666478E0,2.40902E0,3.6393597E0,-2.0743654E0,5.167499E0,1.4681093E0,4.683433E0,8.3735234E-1,6.633905E0,4.0690613E0,6.3935504E0,-4.3162236E-1,5.02088E0,1.2690034E0],"split_indices":[5,0,1,0,0,4,6,0,1,0,0,0,1,7,10,1,2,9,0,7,0,2,2,9,10,0,10,0,0,6,0,0,0,8,0,7,10,1,0,0,1,8,6,2,5,0,0,4,4,10,6,5,3,10,0,0,10,0,0,0,0,0,0,0,0,0,0,0,0,0,0,0,0,0,0,0,0,0,0,0,0,0,0,0,0,0,0,0,0,0,0,0,0,0,0,0,0,0,0],"split_type":[0,0,0,0,0,0,0,0,0,0,0,0,0,0,0,0,0,0,0,0,0,0,0,0,0,0,0,0,0,0,0,0,0,0,0,0,0,0,0,0,0,0,0,0,0,0,0,0,0,0,0,0,0,0,0,0,0,0,0,0,0,0,0,0,0,0,0,0,0,0,0,0,0,0,0,0,0,0,0,0,0,0,0,0,0,0,0,0,0,0,0,0,0,0,0,0,0,0,0],"sum_hessian":[2.657E3,2.199E3,4.58E2,9.44E2,1.255E3,4.25E2,3.3E1,5.23E2,4.21E2,5.81E2,6.74E2,2.8E2,1.45E2,1.1E1,2.2E1,4.2E1,4.81E2,2.66E2,1.55E2,2.28E2,3.53E2,5.5E2,1.24E2,1.56E2,1.24E2,1.15E2,3E1,2E0,9E0,6E0,1.6E1,4.1E1,1E0,1.66E2,3.15E2,4.3E1,2.23E2,2E0,1.53E2,9.3E1,1.35E2,1.87E2,1.66E2,4E0,5.46E2,2E0,1.22E2,1.07E2,4.9E1,1E2,2.4E1,7.1E1,4.4E1,2.5E1,5E0,1E0,5E0,1.65E2,1E0,2.7E1,2.88E2,3.9E1,4E0,2.06E2,1.7E1,1E0,1E0,5.9E1,9.4E1,7.6E1,1.7E1,8.1E1,5.4E1,1.71E2,1.6E1,5E0,1.61E2,1E0,3E0,2.97E2,2.49E2,5.9E1,6.3E1,1.9E1,8.8E1,2.3E1,2.6E1,9.8E1,2E0,2.2E1,2E0,6.7E1,4E0,3E1,1.4E1,2.3E1,2E0,4E0,1E0],"tree_param":{"num_deleted":"0","num_feature":"11","num_nodes":"99","size_leaf_vector":"1"}},{"base_weights":[1.8253402E-1,-2.050143E0,1.0607652E1,-4.948923E0,4.627271E-1,9.739353E0,4.0315712E1,-5.7452717E0,-3.0355325E0,-5.114567E-1,1.7364868E0,7.284629E0,1.3958429E1,4.642444E1,1.4964966E1,-5.559959E0,-9.538376E0,-3.6841922E0,-2.49299E0,-1.2150942E0,7.566859E-2,1.4862275E0,3.8616195E0,6.0994406E0,9.3260145E0,1.2229406E1,1.8973732E1,1.4655958E1,3.6848512E0,1.1817627E0,5.198145E0,-5.679621E0,2.3576385E1,-4.5502323E-1,-1.00225935E1,-3.0968513E0,-4.4822E0,-3.1933033E0,-1.9417862E0,2.4570847E0,-1.2600063E0,3.7029844E-2,2.1152298E0,-2.2358918E0,1.5221752E0,3.4042833E0,3.1855078E0,6.7159114E0,4.575632E0,-7.497986E-1,9.463752E0,9.844685E0,1.1805583E1,9.757372E0,2.0912323E1,-1.9216027E0,-1.3608608E0,-6.732161E0,1.7341536E1,-4.4518375E0,-2.278946E0,-4.3224335E-2,-9.39588E-1,-1.4166859E0,-3.4106416E-1,-7.3784804E-1,-1.1823319E0,-6.3274646E-1,4.5784608E-1,6.427918E-2,1.377832E0,-4.7599623E-1,-2.8571412E-1,3.3191353E-2,-1.9790841E0,2.4553835E0,4.4243926E-1,-5.6637454E-1,1.1003151E0,1.7193645E0,2.4041646E0,1.4979906E0,-1.3820556E0,1.7315013E0,3.05082E0,1.9446739E0,3.7562873E0,4.0050983E0,1.720752E0,6.4883714E0,-2.9793093E-1],"categories":[],"categories_nodes":[],"categories_segments":[],"categories_sizes":[],"default_left":[0,0,0,0,0,0,0,0,0,0,0,0,0,0,0,0,0,0,0,0,0,0,0,0,0,0,0,0,0,0,0,0,0,0,0,0,0,0,0,0,0,0,0,0,0,0,0,0,0,0,0,0,0,0,0,0,0,0,0,0,0,0,0,0,0,0,0,0,0,0,0,0,0,0,0,0,0,0,0,0,0,0,0,0,0,0,0,0,0,0,0],"id":10,"left_children":[1,3,5,7,9,11,13,15,17,19,21,23,25,27,29,31,33,35,37,39,41,43,45,47,49,51,53,-1,-1,-1,-1,55,57,-1,59,61,63,65,67,69,71,73,-1,-1,75,-1,77,79,81,-1,83,-1,85,87,89,-1,-1,-1,-1,-1,-1,-1,-1,-1,-1,-1,-1,-1,-1,-1,-1,-1,-1,-1,-1,-1,-1,-1,-1,-1,-1,-1,-1,-1,-1,-1,-1,-1,-1,-1,-1],"loss_changes":[6.188915E4,1.5954818E4,1.1705426E4,1.5321855E3,1.4576769E3,4.6313164E3,1.3184512E3,4.5095703E2,9.674463E1,2.7523212E2,2.6496436E2,6.471699E2,1.2161152E3,2.2916016E2,3.5924133E1,2.5256582E3,1.0909326E2,4.9394165E1,5.8263916E1,5.3068268E1,9.784019E1,1.5819897E2,2.3210449E2,1.4493506E2,1.9467578E2,7.206582E2,5.284873E2,0E0,0E0,0E0,0E0,5.385293E2,6.02248E3,0E0,2.3785913E2,7.945801E0,3.880542E1,2.9816528E1,5.8939636E1,1.81758E1,2.863446E1,1.7798775E2,0E0,0E0,1.3186633E2,0E0,1.292468E2,1.2150293E2,2.416123E2,0E0,2.1225879E2,0E0,3.9866602E2,5.3467346E1,5.3875586E2,0E0,0E0,0E0,0E0,0E0,0E0,0E0,0E0,0E0,0E0,0E0,0E0,0E0,0E0,0E0,0E0,0E0,0E0,0E0,0E0,0E0,0E0,0E0,0E0,0E0,0E0,0E0,0E0,0E0,0E0,0E0,0E0,0E0,0E0,0E0,0E0],"parents":[2147483647,0,0,1,1,2,2,3,3,4,4,5,5,6,6,7,7,8,8,9,9,10,10,11,11,12,12,13,13,14,14,15,15,16,16,17,17,18,18,19,19,20,20,21,21,22,22,23,23,24,24,25,25,26,26,31,31,32,32,34,34,35,35,36,36,37,37,38,38,39,39,40,40,41,41,44,44,46,46,47,47,48,48,50,50,52,52,53,53,54,54],"right_children":[2,4,6,8,10,12,14,16,18,20,22,24,26,28,30,32,34,36,38,40,42,44,46,48,50,52,54,-1,-1,-1,-1,56,58,-1,60,62,64,66,68,70,72,74,-1,-1,76,-1,78,80,82,-1,84,-1,86,88,90,-1,-1,-1,-1,-1,-1,-1,-1,-1,-1,-1,-1,-1,-1,-1,-1,-1,-1,-1,-1,-1,-1,-1,-1,-1,-1,-1,-1,-1,-1,-1,-1,-1,-1,-1,-1],"split_conditions":[4.981E2,2.724E2,1.078E3,1.8405E2,3.69E2,7.1285E2,5.09477E5,1.733E2,2.3645E2,3.24E2,4.34E2,6.16E2,8.06E2,1.183511E6,1.08817E6,1.697E2,1.697E2,9.707468E13,4.228E-1,2.617E2,3.952E2,6.85E4,3.94E2,6.58769E5,1.016E-1,6.733E2,1.30962E5,1.4655958E1,3.6848512E0,1.1817627E0,5.198145E0,1.469E2,1.6325E2,-4.5502323E-1,1.7635E2,1.5887E4,1.32141E5,1.077084E6,2.769E2,2.5055E2,3.078E2,3.878E2,2.1152298E0,-2.2358918E0,1.05896E5,3.4042833E0,2.55406E5,5.707E2,5.952E2,-7.497986E-1,7.2581E4,9.844685E0,1.543E-1,2.0963E5,1.14E3,-1.9216027E0,-1.3608608E0,-6.732161E0,1.7341536E1,-4.4518375E0,-2.278946E0,-4.3224335E-2,-9.39588E-1,-1.4166859E0,-3.4106416E-1,-7.3784804E-1,-1.1823319E0,-6.3274646E-1,4.5784608E-1,6.427918E-2,1.377832E0,-4.7599623E-1,-2.8571412E-1,3.3191353E-2,-1.9790841E0,2.4553835E0,4.4243926E-1,-5.6637454E-1,1.1003151E0,1.7193645E0,2.4041646E0,1.4979906E0,-1.3820556E0,1.7315013E0,3.05082E0,1.9446739E0,3.7562873E0,4.0050983E0,1.720752E0,6.4883714E0,-2.9793093E-1],"split_indices":[3,4,2,0,0,4,9,1,0,0,3,3,0,6,6,0,0,7,10,2,1,6,2,6,10,2,9,0,0,0,0,0,2,0,0,8,8,9,1,2,1,1,0,0,6,0,6,1,2,0,9,0,10,6,1,0,0,0,0,0,0,0,0,0,0,0,0,0,0,0,0,0,0,0,0,0,0,0,0,0,0,0,0,0,0,0,0,0,0,0,0],"split_type":[0,0,0,0,0,0,0,0,0,0,0,0,0,0,0,0,0,0,0,0,0,0,0,0,0,0,0,0,0,0,0,0,0,0,0,0,0,0,0,0,0,0,0,0,0,0,0,0,0,0,0,0,0,0,0,0,0,0,0,0,0,0,0,0,0,0,0,0,0,0,0,0,0,0,0,0,0,0,0,0,0,0,0,0,0,0,0,0,0,0,0],"sum_hessian":[2.657E3,2.189E3,4.68E2,1.016E3,1.173E3,4.56E2,1.2E1,7.16E2,3E2,6.65E2,5.08E2,2.9E2,1.66E2,9E0,3E0,6.85E2,3.1E1,1.34E2,1.66E2,3.02E2,3.63E2,4.56E2,5.2E1,1.86E2,1.04E2,1.26E2,4E1,8E0,1E0,1E0,2E0,6.83E2,2E0,2E0,2.9E1,8E1,5.4E1,7.1E1,9.5E1,3E0,2.99E2,3.62E2,1E0,1E0,4.55E2,3E0,4.9E1,1.3E2,5.6E1,1E0,1.03E2,1E0,1.25E2,8E0,3.2E1,4.15E2,2.68E2,1E0,1E0,8E0,2.1E1,1E0,7.9E1,5E1,4E0,3.8E1,3.3E1,9.1E1,4E0,2E0,1E0,1.43E2,1.56E2,3.59E2,3E0,2E0,4.53E2,4E0,4.5E1,7.7E1,5.3E1,5.4E1,2E0,1.8E1,8.5E1,1.6E1,1.09E2,3E0,5E0,3.1E1,1E0],"tree_param":{"num_deleted":"0","num_feature":"11","num_nodes":"91","size_leaf_vector":"1"}},{"base_weights":[1.5079744E-1,-1.3554715E0,7.980235E0,-3.4688637E0,4.1608992E-1,7.2708097E0,3.0122568E1,-4.2559185E0,-2.410298E0,-2.5896326E-1,1.5348519E0,5.873698E0,1.0888669E1,1.5785389E1,2.1249046E1,-7.704138E0,-4.1131077E0,-2.2832632E0,-6.3681803E0,-7.8174144E-1,2.2599359E-1,1.032232E0,2.5074902E0,5.4020433E0,9.568994E0,7.6234317E0,1.02727785E1,2.2704285E1,1.0044984E0,-2.4198923E0,-1.4788056E-2,-4.674756E0,-3.8871713E0,-4.9399266E-1,-2.428066E0,-1.113081E0,-1.2313617E1,-8.1585795E-1,1.7454988E0,1.8302676E-1,1.7294983E0,1.1341468E0,-3.4393268E0,2.5806062E0,2.3716009E0,4.4095497E0,6.614186E0,6.518476E0,1.1225906E1,4.2929926E0,1.1297656E1,8.084636E0,7.6045856E0,-1.4084568E0,-2.3389894E-1,-1.0013325E0,-1.235906E0,1.254832E0,-1.915489E0,-9.1611683E-1,-5.491545E-1,-4.5227417E-1,-1.0250588E-1,-4.751631E0,-1.0526627E0,-3.9614967E-1,-1.8267684E-1,7.587569E-2,-1.3066574E0,2.6602616E0,3.234188E-1,-2.9289857E-1,-2.7325974E0,1.6978036E0,6.5967244E-1,1.4290404E0,-5.229289E-1,1.8874997E0,3.832145E0,2.1448314E0,-2.5260317E-1,3.6610713E0,1.2793076E0,2.161693E0,-2.3108094E0,6.81926E-1,3.4701686E0,3.5027895E0,1.3529664E-1],"categories":[],"categories_nodes":[],"categories_segments":[],"categories_sizes":[],"default_left":[0,0,0,0,0,0,0,0,0,0,0,0,0,0,0,0,0,0,0,0,0,0,0,0,0,0,0,0,0,0,0,0,0,0,0,0,0,0,0,0,0,0,0,0,0,0,0,0,0,0,0,0,0,0,0,0,0,0,0,0,0,0,0,0,0,0,0,0,0,0,0,0,0,0,0,0,0,0,0,0,0,0,0,0,0,0,0,0,0],"id":11,"left_children":[1,3,5,7,9,11,13,15,17,19,21,23,25,-1,27,29,31,33,35,37,39,41,43,45,47,-1,49,51,-1,-1,-1,53,55,57,59,61,63,65,-1,67,-1,69,71,-1,73,75,77,79,81,83,85,87,-1,-1,-1,-1,-1,-1,-1,-1,-1,-1,-1,-1,-1,-1,-1,-1,-1,-1,-1,-1,-1,-1,-1,-1,-1,-1,-1,-1,-1,-1,-1,-1,-1,-1,-1,-1,-1],"loss_changes":[3.1357246E4,8.350572E3,6.5198633E3,8.370547E2,9.1723926E2,2.043791E3,1.4768936E3,2.5491309E2,2.0467603E2,1.9234851E2,2.2082397E2,4.764082E2,7.6756445E2,0E0,2.1052588E2,6.0593994E1,5.301758E1,1.0865527E2,3.9246417E2,8.693442E1,9.27142E1,1.4198318E2,1.0796765E2,2.968589E2,9.3620605E1,0E0,6.378965E2,1.816582E2,0E0,0E0,0E0,8.5529785E0,3.8112793E1,9.358795E2,1.4096387E2,1.9194002E0,1.3065204E2,3.7207672E1,0E0,1.2544766E2,0E0,1.1925546E2,8.885182E1,0E0,7.442432E1,3.3928857E2,1.5802393E2,7.103839E1,8.408057E1,6.8440967E2,2.0482031E2,7.6979065E1,0E0,0E0,0E0,0E0,0E0,0E0,0E0,0E0,0E0,0E0,0E0,0E0,0E0,0E0,0E0,0E0,0E0,0E0,0E0,0E0,0E0,0E0,0E0,0E0,0E0,0E0,0E0,0E0,0E0,0E0,0E0,0E0,0E0,0E0,0E0,0E0,0E0],"parents":[2147483647,0,0,1,1,2,2,3,3,4,4,5,5,6,6,7,7,8,8,9,9,10,10,11,11,12,12,14,14,15,15,16,16,17,17,18,18,19,19,20,20,21,21,22,22,23,23,24,24,26,26,27,27,31,31,32,32,33,33,34,34,35,35,36,36,37,37,39,39,41,41,42,42,44,44,45,45,46,46,47,47,48,48,49,49,50,50,51,51],"right_children":[2,4,6,8,10,12,14,16,18,20,22,24,26,-1,28,30,32,34,36,38,40,42,44,46,48,-1,50,52,-1,-1,-1,54,56,58,60,62,64,66,-1,68,-1,70,72,-1,74,76,78,80,82,84,86,88,-1,-1,-1,-1,-1,-1,-1,-1,-1,-1,-1,-1,-1,-1,-1,-1,-1,-1,-1,-1,-1,-1,-1,-1,-1,-1,-1,-1,-1,-1,-1,-1,-1,-1,-1,-1,-1],"split_conditions":[5.31E2,2.724E2,1.078E3,1.553E2,3.76E2,7.557E2,2.2234E5,1.14E2,7.41E-1,3.3035E2,4.12E2,6.176E-1,7.2505E2,1.5785389E1,4.342E-1,1.2005E2,1.299E2,1.891E3,1.64E2,1.59514E5,3.9875E2,1.0973781E7,3.956E2,6.298E2,6.14E2,7.6234317E0,7.5E2,7.4477795E13,1.0044984E0,-2.4198923E0,-1.4788056E-2,8.81E-1,1.3955E2,1.733E2,2.2215E2,1.6E2,1.7635E2,3.31E-1,1.7454988E0,3.878E2,1.7294983E0,3.26E2,3.996E-1,2.5806062E0,6.3121E4,6.215E2,3.226495E6,5.8475E2,6.25182E5,7.6216E2,7.4E2,5.30521E5,7.6045856E0,-1.4084568E0,-2.3389894E-1,-1.0013325E0,-1.235906E0,1.254832E0,-1.915489E0,-9.1611683E-1,-5.491545E-1,-4.5227417E-1,-1.0250588E-1,-4.751631E0,-1.0526627E0,-3.9614967E-1,-1.8267684E-1,7.587569E-2,-1.3066574E0,2.6602616E0,3.234188E-1,-2.9289857E-1,-2.7325974E0,1.6978036E0,6.5967244E-1,1.4290404E0,-5.229289E-1,1.8874997E0,3.832145E0,2.1448314E0,-2.5260317E-1,3.6610713E0,1.2793076E0,2.161693E0,-2.3108094E0,6.81926E-1,3.4701686E0,3.5027895E0,1.3529664E-1],"split_indices":[0,4,2,0,0,1,9,0,10,0,0,10,0,0,10,1,0,8,0,8,1,6,2,0,4,0,0,7,0,0,0,10,0,1,2,0,0,10,0,1,0,2,10,0,9,0,9,0,6,5,3,6,0,0,0,0,0,0,0,0,0,0,0,0,0,0,0,0,0,0,0,0,0,0,0,0,0,0,0,0,0,0,0,0,0,0,0,0,0],"split_type":[0,0,0,0,0,0,0,0,0,0,0,0,0,0,0,0,0,0,0,0,0,0,0,0,0,0,0,0,0,0,0,0,0,0,0,0,0,0,0,0,0,0,0,0,0,0,0,0,0,0,0,0,0,0,0,0,0,0,0,0,0,0,0,0,0,0,0,0,0,0,0,0,0,0,0,0,0,0,0,0,0,0,0,0,0,0,0,0,0],"sum_hessian":[2.657E3,2.229E3,4.28E2,1.016E3,1.213E3,4.16E2,1.2E1,5.81E2,4.35E2,7.57E2,4.56E2,3.02E2,1.14E2,2E0,1E1,2.1E1,5.6E2,4.23E2,1.2E1,3.64E2,3.93E2,3.02E2,1.54E2,2.7E2,3.2E1,3E0,1.11E2,9E0,1E0,2E1,1E0,1.55E2,4.05E2,3.2E1,3.91E2,7E0,5E0,3.63E2,1E0,3.91E2,2E0,2.96E2,6E0,2E0,1.52E2,1.51E2,1.19E2,1.3E1,1.9E1,1.7E1,9.4E1,2E0,7E0,1.54E2,1E0,1.25E2,2.8E2,1.8E1,1.4E1,1.89E2,2.02E2,4E0,3E0,3E0,2E0,1.04E2,2.59E2,3.86E2,5E0,1E0,2.95E2,5E0,1E0,6E0,1.46E2,1.43E2,8E0,1.15E2,4E0,1.2E1,1E0,1.6E1,3E0,1.4E1,3E0,3E0,9.1E1,1E0,1E0],"tree_param":{"num_deleted":"0","num_feature":"11","num_nodes":"89","size_leaf_vector":"1"}},{"base_weights":[1.2244483E-1,-9.5341945E-1,5.730227E0,-2.5050974E0,2.5310212E-1,5.169205E0,2.324213E1,-3.2553701E0,-1.9894121E0,-3.4888762E-1,9.267414E-1,4.6198916E0,9.950714E0,1.2628308E1,1.5987693E1,-1.6530889E0,-3.1144001E0,-2.3557398E0,-1.5280776E0,-7.3886913E-1,-6.260196E-2,6.968628E-1,2.109583E0,3.9652877E0,6.9105463E0,3.5558105E0,1.1587027E1,1.7017248E1,8.5382086E-1,-2.8732069E0,-3.7950413E0,-1.9963412E0,-5.550405E0,-1.5775805E0,3.2385254E0,-7.6802105E-1,1.1135514E0,-5.3310013E0,-7.126375E-3,4.3098557E-1,1.33493E0,2.498571E0,-1.123377E0,4.12912E0,-6.3300295E0,6.1040697E0,1.8109472E1,7.743866E0,6.546631E-1,1.7128578E1,7.6047797E0,1.1251901E1,6.8556886E0,-9.4158417E-1,-3.8645566E-1,-1.4950081E0,-8.52061E-1,-6.69085E-1,6.361658E0,-1.8309921E0,-4.0322208E-1,-4.0612423E-1,-8.290882E-1,2.587784E-1,1.1985581E0,-2.1145009E-1,-9.3949324E-1,-1.9713044E0,-2.416443E-1,-1.5424092E-2,1.2539406E0,1.5751772E-1,-6.8580705E-1,2.6414463E-1,7.209046E-1,9.043564E-1,1.5615235E-1,-8.180475E-1,5.472761E-2,9.437186E-1,1.5896066E0,-2.4329224E-1,-2.252115E0,1.9341186E0,6.8910146E-1,6.5599732E0,4.6215823E-1,5.858368E-1,2.7069888E0,-1.1723388E0,9.783619E-1,8.3001107E-1,5.8464932E0,1.5954944E0,5.865241E0,1.1500855E-1,3.8998294E0],"categories":[],"categories_nodes":[],"categories_segments":[],"categories_sizes":[],"default_left":[0,0,0,0,0,0,0,0,0,0,0,0,0,0,0,0,0,0,0,0,0,0,0,0,0,0,0,0,0,0,0,0,0,0,0,0,0,0,0,0,0,0,0,0,0,0,0,0,0,0,0,0,0,0,0,0,0,0,0,0,0,0,0,0,0,0,0,0,0,0,0,0,0,0,0,0,0,0,0,0,0,0,0,0,0,0,0,0,0,0,0,0,0,0,0,0,0],"id":12,"left_children":[1,3,5,7,9,11,13,15,17,19,21,23,25,-1,27,-1,29,31,33,35,37,39,41,43,45,47,49,51,-1,53,55,57,59,61,63,65,-1,67,69,71,73,75,77,79,81,83,85,87,89,91,93,95,-1,-1,-1,-1,-1,-1,-1,-1,-1,-1,-1,-1,-1,-1,-1,-1,-1,-1,-1,-1,-1,-1,-1,-1,-1,-1,-1,-1,-1,-1,-1,-1,-1,-1,-1,-1,-1,-1,-1,-1,-1,-1,-1,-1,-1],"loss_changes":[1.6041741E4,4.1773623E3,4.0847656E3,3.7114307E2,5.0966138E2,1.0466729E3,1.104919E3,1.0871826E2,9.458887E1,7.408677E1,1.5977252E2,5.348989E2,3.9828955E2,0E0,1.0039795E2,0E0,5.0658203E1,3.5862646E2,6.645868E1,3.93096E1,1.1219275E2,8.3909164E1,1.2353482E2,5.2202783E2,6.3005566E2,1.16432045E2,5.97979E2,7.927881E1,0E0,1.1416675E2,9.3638306E1,1.626811E3,6.621887E1,6.475171E1,1.9471416E0,3.961113E1,0E0,1.7153976E1,7.086282E1,9.1426544E1,6.875101E1,8.620099E1,2.3529089E1,3.1687354E2,2.6392181E1,8.704321E1,2.775702E2,1.2016495E1,9.598985E1,3.866538E2,4.6962024E2,1.279682E2,0E0,0E0,0E0,0E0,0E0,0E0,0E0,0E0,0E0,0E0,0E0,0E0,0E0,0E0,0E0,0E0,0E0,0E0,0E0,0E0,0E0,0E0,0E0,0E0,0E0,0E0,0E0,0E0,0E0,0E0,0E0,0E0,0E0,0E0,0E0,0E0,0E0,0E0,0E0,0E0,0E0,0E0,0E0,0E0,0E0],"parents":[2147483647,0,0,1,1,2,2,3,3,4,4,5,5,6,6,7,7,8,8,9,9,10,10,11,11,12,12,14,14,16,16,17,17,18,18,19,19,20,20,21,21,22,22,23,23,24,24,25,25,26,26,27,27,29,29,30,30,31,31,32,32,33,33,34,34,35,35,37,37,38,38,39,39,40,40,41,41,42,42,43,43,44,44,45,45,46,46,47,47,48,48,49,49,50,50,51,51],"right_children":[2,4,6,8,10,12,14,16,18,20,22,24,26,-1,28,-1,30,32,34,36,38,40,42,44,46,48,50,52,-1,54,56,58,60,62,64,66,-1,68,70,72,74,76,78,80,82,84,86,88,90,92,94,96,-1,-1,-1,-1,-1,-1,-1,-1,-1,-1,-1,-1,-1,-1,-1,-1,-1,-1,-1,-1,-1,-1,-1,-1,-1,-1,-1,-1,-1,-1,-1,-1,-1,-1,-1,-1,-1,-1,-1,-1,-1,-1,-1,-1,-1],"split_conditions":[5.2915E2,2.685E2,1.078E3,1.4295E2,3.591E2,8.06E2,2.2234E5,1.1378E2,1.814E2,3.103E2,4.33E2,5.554E-1,2.9792689E13,1.2628308E1,4.342E-1,-1.6530889E0,1.3955E2,1.733E2,2.7493E2,3.3E2,3.1443E4,4.989E-1,9.6249E4,5.48E-1,8.1E2,2.0963E5,8.4E2,4.143E-1,8.5382086E-1,1.3935E2,1.43E2,1.697E2,1.8405E2,6.7446E4,2.61E2,3.265E2,1.1135514E0,1.21996E5,3.75E2,2.944373E6,4.0125E2,5.2022E2,1.649016E6,6.75E2,5.6385E2,4.692972E13,7.8425E2,8.1E2,2.15808E5,9.08E-2,1.264807E6,7.4477795E13,6.8556886E0,-9.4158417E-1,-3.8645566E-1,-1.4950081E0,-8.52061E-1,-6.69085E-1,6.361658E0,-1.8309921E0,-4.0322208E-1,-4.0612423E-1,-8.290882E-1,2.587784E-1,1.1985581E0,-2.1145009E-1,-9.3949324E-1,-1.9713044E0,-2.416443E-1,-1.5424092E-2,1.2539406E0,1.5751772E-1,-6.8580705E-1,2.6414463E-1,7.209046E-1,9.043564E-1,1.5615235E-1,-8.180475E-1,5.472761E-2,9.437186E-1,1.5896066E0,-2.4329224E-1,-2.252115E0,1.9341186E0,6.8910146E-1,6.5599732E0,4.6215823E-1,5.858368E-1,2.7069888E0,-1.1723388E0,9.783619E-1,8.3001107E-1,5.8464932E0,1.5954944E0,5.865241E0,1.1500855E-1,3.8998294E0],"split_indices":[4,0,2,2,2,0,9,5,2,2,0,10,7,0,10,0,0,1,5,5,9,10,8,10,1,6,2,10,0,1,0,0,0,8,0,1,0,6,0,9,0,5,9,1,0,7,2,1,6,10,9,7,0,0,0,0,0,0,0,0,0,0,0,0,0,0,0,0,0,0,0,0,0,0,0,0,0,0,0,0,0,0,0,0,0,0,0,0,0,0,0,0,0,0,0,0,0],"split_type":[0,0,0,0,0,0,0,0,0,0,0,0,0,0,0,0,0,0,0,0,0,0,0,0,0,0,0,0,0,0,0,0,0,0,0,0,0,0,0,0,0,0,0,0,0,0,0,0,0,0,0,0,0,0,0,0,0,0,0,0,0,0,0,0,0,0,0,0,0,0,0,0,0,0,0,0,0,0,0,0,0,0,0,0,0,0,0,0,0,0,0,0,0,0,0,0,0],"sum_hessian":[2.657E3,2.23E3,4.27E2,9.75E2,1.255E3,4.15E2,1.2E1,3.95E2,5.8E2,6.63E2,5.92E2,3.74E2,4.1E1,2E0,1E1,2.1E1,3.74E2,3.21E2,2.59E2,2.8E2,3.83E2,4.97E2,9.5E1,2.93E2,8.1E1,9E0,3.2E1,9E0,1E0,2.8E2,9.4E1,2.9E2,3.1E1,2.57E2,2E0,2.79E2,1E0,3E0,3.8E2,3.52E2,1.45E2,8.5E1,1E1,2.89E2,4E0,7.7E1,4E0,3E0,6E0,1.2E1,2E1,6E0,3E0,2.39E2,4.1E1,4E1,5.4E1,2.88E2,2E0,2.7E1,4E0,2.18E2,3.9E1,1E0,1E0,2.73E2,6E0,2E0,1E0,3.77E2,3E0,3.41E2,1.1E1,1.03E2,4.2E1,6.7E1,1.8E1,4E0,6E0,1.59E2,1.3E2,1E0,3E0,7E1,7E0,3E0,1E0,1E0,2E0,2E0,4E0,2E0,1E1,1.8E1,2E0,1E0,5E0],"tree_param":{"num_deleted":"0","num_feature":"11","num_nodes":"97","size_leaf_vector":"1"}},{"base_weights":[1.042817E-1,-6.064833E-1,4.571105E0,-1.8734672E0,1.703379E-1,4.058349E0,1.8142784E1,-2.2973642E0,-1.5192564E0,-9.689009E-2,1.2519125E0,3.5987494E0,7.3758893E0,1.0102649E1,1.2257247E1,-4.08732E0,-2.18593E0,-6.5468913E-1,-1.6586026E0,-4.6173665E-1,2.8178653E-1,5.571396E0,1.1217023E0,3.192011E0,6.6284094E0,5.7588906E0,1.4638184E1,1.29991455E1,7.257385E-1,-1.2968404E0,1.2866822E-1,-2.0038352E0,-2.7070231E0,-2.017479E0,1.3597834E1,-3.2079318E0,-1.4735626E0,-4.7958225E-1,1.4859834E0,3.7731156E-1,-2.321031E0,7.5765076E0,-2.9595947E-1,-1.5115174E0,1.1852869E0,3.2905357E0,-6.903422E0,5.7176676E0,1.4740682E1,3.9549012E0,1.2667577E1,1.7413574E1,-3.0212402E-1,8.449916E0,5.3131533E0,-6.423649E-1,-6.0289223E-2,-1.1803681E0,-6.539429E-1,-5.039125E-1,-1.551458E0,-5.083144E-1,-2.8853755E0,-4.0809214E-1,-8.932641E-1,3.78809E-1,-1.5462613E-1,-2.3676424E-1,1.5561974E-1,-4.992906E-1,-2.2198334E0,5.132492E-1,2.522243E0,-3.0133668E-1,1.6815491E-1,-1.3212738E0,3.7283698E-1,1.1706572E0,5.252552E-1,-4.04513E0,9.385895E-1,2.411847E0,1.0384557E0,6.240473E0,3.9283448E-1,1.6791033E0,-1.6125146E0,6.640076E-1,4.9219775E0,1.1980469E0,6.9375734E0,9.7760014E-2,2.9248843E0],"categories":[],"categories_nodes":[],"categories_segments":[],"categories_sizes":[],"default_left":[0,0,0,0,0,0,0,0,0,0,0,0,0,0,0,0,0,0,0,0,0,0,0,0,0,0,0,0,0,0,0,0,0,0,0,0,0,0,0,0,0,0,0,0,0,0,0,0,0,0,0,0,0,0,0,0,0,0,0,0,0,0,0,0,0,0,0,0,0,0,0,0,0,0,0,0,0,0,0,0,0,0,0,0,0,0,0,0,0,0,0,0,0],"id":13,"left_children":[1,3,5,7,9,11,13,15,17,19,21,23,25,-1,27,29,31,33,35,37,39,41,43,45,47,49,51,53,-1,-1,-1,55,57,59,-1,61,63,65,-1,67,69,71,73,-1,75,77,79,81,83,85,87,89,-1,91,-1,-1,-1,-1,-1,-1,-1,-1,-1,-1,-1,-1,-1,-1,-1,-1,-1,-1,-1,-1,-1,-1,-1,-1,-1,-1,-1,-1,-1,-1,-1,-1,-1,-1,-1,-1,-1,-1,-1],"loss_changes":[8.441555E3,2.2581196E3,2.466391E3,1.274397E2,4.114067E2,5.1168945E2,7.756699E2,6.985303E1,5.6500732E1,1.5790753E2,1.523587E2,3.6331274E2,4.0891138E2,0E0,4.884131E1,2.5250671E1,3.0063843E1,4.352471E3,1.13101685E2,5.8616577E1,1.4035956E2,9.6359985E1,1.1368579E2,2.982339E2,1.8169238E2,3.9857617E2,3.214889E2,6.4678345E1,0E0,0E0,0E0,6.916785E1,5.225775E1,6.2691406E1,0E0,4.0088263E2,5.88031E1,3.6928513E1,0E0,8.982372E1,5.4387955E1,1.4861389E1,2.383443E0,0E0,9.321979E1,2.5215063E2,2.4022876E2,1.5027588E2,2.1697723E2,4.8970816E2,2.3730566E2,3.6755627E2,0E0,7.073459E1,0E0,0E0,0E0,0E0,0E0,0E0,0E0,0E0,0E0,0E0,0E0,0E0,0E0,0E0,0E0,0E0,0E0,0E0,0E0,0E0,0E0,0E0,0E0,0E0,0E0,0E0,0E0,0E0,0E0,0E0,0E0,0E0,0E0,0E0,0E0,0E0,0E0,0E0,0E0],"parents":[2147483647,0,0,1,1,2,2,3,3,4,4,5,5,6,6,7,7,8,8,9,9,10,10,11,11,12,12,14,14,15,15,16,16,17,17,18,18,19,19,20,20,21,21,22,22,23,23,24,24,25,25,26,26,27,27,31,31,32,32,33,33,35,35,36,36,37,37,39,39,40,40,41,41,42,42,44,44,45,45,46,46,47,47,48,48,49,49,50,50,51,51,53,53],"right_children":[2,4,6,8,10,12,14,16,18,20,22,24,26,-1,28,30,32,34,36,38,40,42,44,46,48,50,52,54,-1,-1,-1,56,58,60,-1,62,64,66,-1,68,70,72,74,-1,76,78,80,82,84,86,88,90,-1,92,-1,-1,-1,-1,-1,-1,-1,-1,-1,-1,-1,-1,-1,-1,-1,-1,-1,-1,-1,-1,-1,-1,-1,-1,-1,-1,-1,-1,-1,-1,-1,-1,-1,-1,-1,-1,-1,-1,-1],"split_conditions":[5.707E2,2.4385E2,1.078E3,1.455E2,4.0895E2,8.06E2,2.2234E5,1.14E2,3.40906E5,3.466E2,4.005E2,6.176E-1,5.07E-1,1.0102649E1,4.342E-1,1.2005E2,1.3955E2,3.354E5,1.891E3,1.8428E5,1.0973781E7,4.034E-1,3.947E2,8.565E2,8.1E2,1.264807E6,4.76616E5,4.143E-1,7.257385E-1,-1.2968404E0,1.2866822E-1,1.3795E2,1.445E2,1.64E2,1.3597834E1,1.697E2,7.514461E6,2.4215E2,1.4859834E0,2.87261E5,4.0285E2,3.76E2,4.0125E2,-1.5115174E0,3.993E2,5.1836782E13,7.7045E2,4.52862E5,7.098E2,3.0524504E14,9.08E-2,3.64758E5,-3.0212402E-1,7.4477795E13,5.3131533E0,-6.423649E-1,-6.0289223E-2,-1.1803681E0,-6.539429E-1,-5.039125E-1,-1.551458E0,-5.083144E-1,-2.8853755E0,-4.0809214E-1,-8.932641E-1,3.78809E-1,-1.5462613E-1,-2.3676424E-1,1.5561974E-1,-4.992906E-1,-2.2198334E0,5.132492E-1,2.522243E0,-3.0133668E-1,1.6815491E-1,-1.3212738E0,3.7283698E-1,1.1706572E0,5.252552E-1,-4.04513E0,9.385895E-1,2.411847E0,1.0384557E0,6.240473E0,3.9283448E-1,1.6791033E0,-1.6125146E0,6.640076E-1,4.9219775E0,1.1980469E0,6.9375734E0,9.7760014E-2,2.9248843E0],"split_indices":[1,4,2,0,1,0,9,0,9,1,5,10,10,0,10,1,0,9,8,8,6,10,0,1,1,9,9,10,0,0,0,0,1,0,0,0,6,2,0,9,1,0,0,0,4,7,0,6,0,7,10,6,0,7,0,0,0,0,0,0,0,0,0,0,0,0,0,0,0,0,0,0,0,0,0,0,0,0,0,0,0,0,0,0,0,0,0,0,0,0,0,0,0],"split_type":[0,0,0,0,0,0,0,0,0,0,0,0,0,0,0,0,0,0,0,0,0,0,0,0,0,0,0,0,0,0,0,0,0,0,0,0,0,0,0,0,0,0,0,0,0,0,0,0,0,0,0,0,0,0,0,0,0,0,0,0,0,0,0,0,0,0,0,0,0,0,0,0,0,0,0,0,0,0,0,0,0,0,0,0,0,0,0,0,0,0,0,0,0],"sum_hessian":[2.657E3,2.293E3,3.64E2,8.71E2,1.422E3,3.52E2,1.2E1,3.94E2,4.77E2,1.141E3,2.81E2,3.11E2,4.1E1,2E0,1E1,2.1E1,3.73E2,6.7E1,4.1E2,5.81E2,5.6E2,7E0,2.74E2,2.76E2,3.5E1,3.5E1,6E0,9E0,1E0,2E1,1E0,2.8E2,9.3E1,6.6E1,1E0,4.2E1,3.68E2,5.8E2,1E0,5.41E2,1.9E1,5E0,2E0,2E0,2.72E2,2.74E2,2E0,3.3E1,2E0,2.9E1,6E0,5E0,1E0,6E0,3E0,2.6E2,2E1,2.6E1,6.7E1,6.1E1,5E0,3.5E1,7E0,3.44E2,2.4E1,1.1E1,5.69E2,5.8E1,4.83E2,1.8E1,1E0,1E0,4E0,1E0,1E0,2E0,2.7E2,1.95E2,7.9E1,1E0,1E0,1.5E1,1.8E1,1E0,1E0,2.5E1,4E0,2E0,4E0,2E0,3E0,1E0,5E0],"tree_param":{"num_deleted":"0","num_feature":"11","num_nodes":"93","size_leaf_vector":"1"}},{"base_weights":[8.948532E-2,-3.8697535E-1,3.6474814E0,-1.1477506E0,3.1071815E-1,3.1822705E0,1.4174109E1,-1.505136E0,-6.631035E-1,1.3440835E-1,1.2236447E0,2.5374155E0,4.6730695E0,8.082117E0,9.403842E0,-2.4171736E0,-1.4210836E0,2.259584E0,-8.090656E-1,1.3267989E0,8.0953486E-2,1.3877221E0,-2.3761733E0,2.8657784E0,-2.33473E0,4.0245433E0,1.1787798E1,2.744751E0,1.0578668E1,-1.7606112E0,-3.031273E0,-1.4584279E0,1.15149945E-1,-1.1401798E0,1.1558158E1,-3.3256056E0,-6.553785E-1,8.804089E-1,2.140198E0,-1.3372155E0,1.5670483E-1,5.4622803E0,1.2480731E0,-4.774485E0,1.8153381E0,2.2825124E0,5.14178E0,-4.786255E0,-4.4096544E-1,4.3492055E0,-3.4383638E0,1.403777E1,-2.5680542E-1,1.1520448E0,8.309326E-2,1.3061482E1,1.2629334E0,-6.0173815E-1,-1.5819283E-1,-3.7833024E-2,-9.4273055E-1,-4.6303684E-1,-3.594149E-1,3.38508E-1,-1.0676048E-1,8.8607484E-1,-4.427303E-1,-5.8655924E-1,-2.607084E0,4.0527868E-1,-2.2382747E-1,4.3825215E-1,-1.4996705E0,-6.3516545E-1,3.136963E-1,7.5590247E-1,3.930527E-2,-1.436142E-1,2.0238667E0,3.2891303E-1,1.1379365E0,-1.8109864E0,-7.902787E-1,-7.884522E-2,7.7869874E-1,7.9777795E-1,-4.6853393E-1,1.3480052E0,4.5645814E0,-2.4134675E-1,-2.5499575E0,1.4414246E0,-1.1593841E0,9.432834E-1,1.8513904E0,6.08194E-1,4.81032E0,9.123902E-1,5.1933746E0],"categories":[],"categories_nodes":[],"categories_segments":[],"categories_sizes":[],"default_left":[0,0,0,0,0,0,0,0,0,0,0,0,0,0,0,0,0,0,0,0,0,0,0,0,0,0,0,0,0,0,0,0,0,0,0,0,0,0,0,0,0,0,0,0,0,0,0,0,0,0,0,0,0,0,0,0,0,0,0,0,0,0,0,0,0,0,0,0,0,0,0,0,0,0,0,0,0,0,0,0,0,0,0,0,0,0,0,0,0,0,0,0,0,0,0,0,0,0,0],"id":14,"left_children":[1,3,5,7,9,11,13,15,17,19,21,23,25,-1,27,29,31,33,35,37,39,41,43,45,47,49,51,53,55,57,59,61,63,65,-1,67,69,71,-1,73,75,77,79,81,83,85,87,89,91,93,-1,95,-1,-1,-1,97,-1,-1,-1,-1,-1,-1,-1,-1,-1,-1,-1,-1,-1,-1,-1,-1,-1,-1,-1,-1,-1,-1,-1,-1,-1,-1,-1,-1,-1,-1,-1,-1,-1,-1,-1,-1,-1,-1,-1,-1,-1,-1,-1],"loss_changes":[4.507373E3,1.2450543E3,1.492584E3,1.9333887E2,1.9684799E2,2.7846973E2,5.383384E2,4.601013E1,2.0574365E2,6.5352615E1,1.2024597E2,3.4745532E2,3.6782727E2,0E0,5.702008E1,1.603241E1,3.418811E1,2.8798574E3,1.7418283E2,1.0777918E2,1.059189E2,1.0129422E2,9.9140274E1,2.5376672E2,6.2885986E1,4.7216895E2,2.1115424E2,7.045946E0,8.73291E1,7.4090805E0,8.000259E0,1.09696045E1,7.560153E0,3.458278E1,0E0,1.741554E2,7.94491E1,1.5062918E2,0E0,9.51461E1,5.6422714E1,4.8996826E1,6.7265076E1,3.0548096E-1,7.168726E0,2.3733386E2,1.9291052E2,8.1882126E1,1.8020383E2,1.6282166E2,0E0,1.11375854E2,0E0,0E0,0E0,2.028518E2,0E0,0E0,0E0,0E0,0E0,0E0,0E0,0E0,0E0,0E0,0E0,0E0,0E0,0E0,0E0,0E0,0E0,0E0,0E0,0E0,0E0,0E0,0E0,0E0,0E0,0E0,0E0,0E0,0E0,0E0,0E0,0E0,0E0,0E0,0E0,0E0,0E0,0E0,0E0,0E0,0E0,0E0,0E0],"parents":[2147483647,0,0,1,1,2,2,3,3,4,4,5,5,6,6,7,7,8,8,9,9,10,10,11,11,12,12,14,14,15,15,16,16,17,17,18,18,19,19,20,20,21,21,22,22,23,23,24,24,25,25,26,26,27,27,28,28,29,29,30,30,31,31,32,32,33,33,35,35,36,36,37,37,39,39,40,40,41,41,42,42,43,43,44,44,45,45,46,46,47,47,48,48,49,49,51,51,55,55],"right_children":[2,4,6,8,10,12,14,16,18,20,22,24,26,-1,28,30,32,34,36,38,40,42,44,46,48,50,52,54,56,58,60,62,64,66,-1,68,70,72,-1,74,76,78,80,82,84,86,88,90,92,94,-1,96,-1,-1,-1,98,-1,-1,-1,-1,-1,-1,-1,-1,-1,-1,-1,-1,-1,-1,-1,-1,-1,-1,-1,-1,-1,-1,-1,-1,-1,-1,-1,-1,-1,-1,-1,-1,-1,-1,-1,-1,-1,-1,-1,-1,-1,-1,-1],"split_conditions":[6.053E2,3.0055E2,1.078E3,1.639E2,4.3805E2,4.998E-1,2.2234E5,1.1675E2,8.60385E5,8.9012E4,5.91E2,4.776E-1,8.25E2,8.082117E0,7.4477795E13,1.4925E4,8.563E-1,1.4292919E13,1.4326E4,4.742E-1,2.32949E5,4.29E2,3.59725E5,8.02E2,2.15808E5,8.27E2,4.76616E5,5.30521E5,5.09477E5,1.260694E6,6.46648E5,6.086E-1,1.41E2,1.565E2,1.1558158E1,1.405333E6,1.6325E2,4.42E-1,2.140198E0,4.1335E2,9.39051E5,4.18322E5,5.8475E2,3.589E-1,5.979E2,7.6216E2,4.581E-1,6.7E2,3.64758E5,7.321E2,-3.4383638E0,5.07E-1,-2.5680542E-1,1.1520448E0,8.309326E-2,3.643E-1,1.2629334E0,-6.0173815E-1,-1.5819283E-1,-3.7833024E-2,-9.4273055E-1,-4.6303684E-1,-3.594149E-1,3.38508E-1,-1.0676048E-1,8.8607484E-1,-4.427303E-1,-5.8655924E-1,-2.607084E0,4.0527868E-1,-2.2382747E-1,4.3825215E-1,-1.4996705E0,-6.3516545E-1,3.136963E-1,7.5590247E-1,3.930527E-2,-1.436142E-1,2.0238667E0,3.2891303E-1,1.1379365E0,-1.8109864E0,-7.902787E-1,-7.884522E-2,7.7869874E-1,7.9777795E-1,-4.6853393E-1,1.3480052E0,4.5645814E0,-2.4134675E-1,-2.5499575E0,1.4414246E0,-1.1593841E0,9.432834E-1,1.8513904E0,6.08194E-1,4.81032E0,9.123902E-1,5.1933746E0],"split_indices":[1,1,2,1,0,10,9,2,6,9,0,10,0,0,7,8,10,7,8,10,9,2,6,1,6,1,9,6,9,6,6,10,1,0,0,9,2,10,0,1,6,6,0,10,0,5,10,0,6,4,0,10,0,0,0,10,0,0,0,0,0,0,0,0,0,0,0,0,0,0,0,0,0,0,0,0,0,0,0,0,0,0,0,0,0,0,0,0,0,0,0,0,0,0,0,0,0,0,0],"split_type":[0,0,0,0,0,0,0,0,0,0,0,0,0,0,0,0,0,0,0,0,0,0,0,0,0,0,0,0,0,0,0,0,0,0,0,0,0,0,0,0,0,0,0,0,0,0,0,0,0,0,0,0,0,0,0,0,0,0,0,0,0,0,0,0,0,0,0,0,0,0,0,0,0,0,0,0,0,0,0,0,0,0,0,0,0,0,0,0,0,0,0,0,0,0,0,0,0,0,0],"sum_hessian":[2.657E3,2.344E3,3.13E2,1.121E3,1.223E3,3.01E2,1.2E1,6.44E2,4.77E2,1.026E3,1.97E2,2.12E2,8.9E1,2E0,1E1,5.2E1,5.92E2,2.2E1,4.55E2,4.3E1,9.83E2,1.89E2,8E0,1.99E2,1.3E1,8.3E1,6E0,2E0,8E0,2.7E1,2.5E1,5.78E2,1.4E1,2.1E1,1E0,2.5E1,4.3E2,4.1E1,2E0,4.9E1,9.34E2,5E0,1.84E2,5E0,3E0,1.6E2,3.9E1,5E0,8E0,8.2E1,1E0,5E0,1E0,1E0,1E0,5E0,3E0,2.2E1,5E0,1E0,2.4E1,4.32E2,1.46E2,4E0,1E1,1E0,2E1,2.1E1,4E0,1.8E1,4.12E2,3.8E1,3E0,3.7E1,1.2E1,9E0,9.25E2,1E0,4E0,1.75E2,9E0,2E0,3E0,1E0,2E0,1.46E2,1.4E1,3.8E1,1E0,3E0,2E0,3E0,5E0,5.1E1,3.1E1,1E0,4E0,2E0,3E0],"tree_param":{"num_deleted":"0","num_feature":"11","num_nodes":"99","size_leaf_vector":"1"}},{"base_weights":[7.565267E-2,-2.734614E-1,2.591411E0,-8.5060954E-1,1.7955968E-1,2.2241888E0,1.1205407E1,-1.057205E0,-5.0046694E-1,-3.4817025E-2,6.074116E-1,1.6606433E0,3.1751263E0,6.4656863E0,7.364857E0,-2.2251635E0,-1.0143327E0,3.3603144E0,-6.889741E-1,1.8811707E0,-4.923899E-2,4.6113863E0,5.028422E-1,1.5014004E0,7.507141E0,4.998828E0,2.788949E0,2.3330078E0,8.223823E0,-2.3733768E0,1.3309708E-1,-1.0432401E0,7.919985E-2,-2.9473877E-1,9.824432E0,-5.7221007E0,-6.1755246E-1,-1.2481996E0,-3.5005067E-2,2.3223085E0,2.4701424E0,3.171208E0,4.1139302E-1,2.1101167E0,-2.9390502E-1,5.0029726E0,1.045639E0,1.8993766E0,4.428154E0,9.7922975E-1,7.0623785E-2,1.0160686E1,9.78772E-1,-3.4884185E-1,-8.0370146E-1,-1.2584627E-1,-3.217887E-1,-1.5759917E-1,1.6647126E-1,-7.7517706E-1,5.4824222E-2,1.07505806E-1,-2.1995409E0,-1.5735558E-1,-1.2624812E0,5.974996E-3,-2.698047E-1,-2.6936036E-1,1.1227372E0,-4.9107972E-1,1.1000949E0,1.4323726E-1,-1.0493984E0,1.80103E-1,7.922062E-1,-1.7838397E0,1.8359779E-1,-1.2354767E0,1.2419068E0,8.223365E-1,-2.000749E0,-5.72226E-1,1.624787E0,7.2991943E-1,4.024869E0],"categories":[],"categories_nodes":[],"categories_segments":[],"categories_sizes":[],"default_left":[0,0,0,0,0,0,0,0,0,0,0,0,0,0,0,0,0,0,0,0,0,0,0,0,0,0,0,0,0,0,0,0,0,0,0,0,0,0,0,0,0,0,0,0,0,0,0,0,0,0,0,0,0,0,0,0,0,0,0,0,0,0,0,0,0,0,0,0,0,0,0,0,0,0,0,0,0,0,0,0,0,0,0,0,0],"id":15,"left_children":[1,3,5,7,9,11,13,15,17,19,21,23,25,-1,27,29,31,33,35,-1,37,39,41,43,45,-1,47,49,51,53,-1,55,57,59,-1,61,63,-1,65,-1,67,69,71,73,75,-1,77,79,81,-1,-1,83,-1,-1,-1,-1,-1,-1,-1,-1,-1,-1,-1,-1,-1,-1,-1,-1,-1,-1,-1,-1,-1,-1,-1,-1,-1,-1,-1,-1,-1,-1,-1,-1,-1],"loss_changes":[2.3351946E3,6.1066254E2,9.9997046E2,7.376184E1,1.2008457E2,1.6192688E2,3.5786072E2,3.004004E1,2.8105667E2,7.969594E1,1.8065015E2,1.7306946E2,5.525194E2,0E0,2.835785E1,9.755157E0,1.9807983E1,1.9431031E3,1.2803369E2,0E0,5.088531E1,5.459314E1,1.0289187E2,2.1262955E2,2.7880396E2,0E0,1.5636493E2,5.090748E0,5.3333313E1,4.654503E0,0E0,1.0695618E1,5.1803293E0,1.9054123E1,0E0,5.156595E1,1.1872194E2,0E0,4.1317898E1,0E0,3.7641586E1,3.9375183E1,1.0859465E2,1.1456561E2,2.5965594E2,0E0,8.095769E1,5.5922046E2,2.5440405E2,0E0,0E0,1.183031E2,0E0,0E0,0E0,0E0,0E0,0E0,0E0,0E0,0E0,0E0,0E0,0E0,0E0,0E0,0E0,0E0,0E0,0E0,0E0,0E0,0E0,0E0,0E0,0E0,0E0,0E0,0E0,0E0,0E0,0E0,0E0,0E0,0E0],"parents":[2147483647,0,0,1,1,2,2,3,3,4,4,5,5,6,6,7,7,8,8,9,9,10,10,11,11,12,12,14,14,15,15,16,16,17,17,18,18,20,20,21,21,22,22,23,23,24,24,26,26,27,27,28,28,29,29,31,31,32,32,33,33,35,35,36,36,38,38,40,40,41,41,42,42,43,43,44,44,46,46,47,47,48,48,51,51],"right_children":[2,4,6,8,10,12,14,16,18,20,22,24,26,-1,28,30,32,34,36,-1,38,40,42,44,46,-1,48,50,52,54,-1,56,58,60,-1,62,64,-1,66,-1,68,70,72,74,76,-1,78,80,82,-1,-1,84,-1,-1,-1,-1,-1,-1,-1,-1,-1,-1,-1,-1,-1,-1,-1,-1,-1,-1,-1,-1,-1,-1,-1,-1,-1,-1,-1,-1,-1,-1,-1,-1,-1],"split_conditions":[5.997E2,2.75E2,1.078E3,1.639E2,3.933E2,7.557E2,2.2234E5,1.14E2,8.60385E5,2.6648E2,3.73E2,3.226495E6,7.098E2,6.4656863E0,7.4477795E13,1.2005E2,8.563E-1,1.4292919E13,1.6929921E13,1.8811707E0,2.1092728E12,6.15051E5,4.0971E4,5.0327122E13,1.616E-1,4.998828E0,6.1418057E13,5.30521E5,5.09477E5,6.25182E5,1.3309708E-1,1.27553E5,3.1646787E13,3.101E-1,9.824432E0,1.5675E2,7.41E-1,-1.2481996E0,7.360798E6,2.3223085E0,3.4795E2,2.1092728E12,5.8467E2,7.4157E4,8.73158E5,5.0029726E0,6.62E2,6.69863E5,9.08E-2,9.7922975E-1,7.0623785E-2,3.643E-1,9.78772E-1,-3.4884185E-1,-8.0370146E-1,-1.2584627E-1,-3.217887E-1,-1.5759917E-1,1.6647126E-1,-7.7517706E-1,5.4824222E-2,1.07505806E-1,-2.1995409E0,-1.5735558E-1,-1.2624812E0,5.974996E-3,-2.698047E-1,-2.6936036E-1,1.1227372E0,-4.9107972E-1,1.1000949E0,1.4323726E-1,-1.0493984E0,1.80103E-1,7.922062E-1,-1.7838397E0,1.8359779E-1,-1.2354767E0,1.2419068E0,8.223365E-1,-2.000749E0,-5.72226E-1,1.624787E0,7.2991943E-1,4.024869E0],"split_indices":[1,0,2,1,1,1,9,0,6,5,2,9,0,0,7,1,10,7,7,0,7,6,9,7,10,0,7,6,9,6,0,9,7,10,0,2,10,0,6,0,2,7,5,9,6,0,0,6,10,0,0,10,0,0,0,0,0,0,0,0,0,0,0,0,0,0,0,0,0,0,0,0,0,0,0,0,0,0,0,0,0,0,0,0,0],"split_type":[0,0,0,0,0,0,0,0,0,0,0,0,0,0,0,0,0,0,0,0,0,0,0,0,0,0,0,0,0,0,0,0,0,0,0,0,0,0,0,0,0,0,0,0,0,0,0,0,0,0,0,0,0,0,0,0,0,0,0,0,0,0,0,0,0,0,0,0,0,0,0,0,0,0,0,0,0,0,0,0,0,0,0,0,0],"sum_hessian":[2.657E3,2.334E3,3.23E2,1.026E3,1.308E3,3.11E2,1.2E1,6.44E2,3.82E2,8.72E2,4.36E2,1.97E2,1.14E2,2E0,1E1,2.1E1,6.23E2,1.7E1,3.65E2,1E0,8.71E2,1E1,4.26E2,1.93E2,4E0,2E0,1.12E2,2E0,8E0,2E1,1E0,6.07E2,1.6E1,1.6E1,1E0,4E0,3.61E2,2E0,8.69E2,3E0,7E0,1.3E1,4.13E2,1.44E2,4.9E1,1E0,3E0,7.4E1,3.8E1,1E0,1E0,5E0,3E0,5E0,1.5E1,2.8E1,5.79E2,7E0,9E0,2E0,1.4E1,1E0,3E0,3.53E2,8E0,8.18E2,5.1E1,2E0,5E0,1E0,1.2E1,4.07E2,6E0,3.8E1,1.06E2,6E0,4.3E1,1E0,2E0,6.8E1,6E0,5E0,3.3E1,2E0,3E0],"tree_param":{"num_deleted":"0","num_feature":"11","num_nodes":"85","size_leaf_vector":"1"}},{"base_weights":[6.419461E-2,-1.532587E-1,2.2456796E0,-4.817378E-1,3.0748188E-1,1.8602207E0,8.862944E0,-4.9241623E-1,2.1878266E0,9.9330395E-1,1.6502115E-1,4.653244E0,1.6427039E0,5.1725464E0,5.7720723E0,-7.423025E-1,-2.816352E-1,4.3379188E-1,2.5286136E0,-1.1076347E0,2.829212E-1,-6.7359924E-1,1.7802993E0,-5.777575E-1,2.2541263E0,6.672348E0,7.5855106E-1,-1.1113814E0,-6.6012233E-1,1.1154906E0,-3.620727E-1,-4.4942474E0,5.880188E-1,2.9807298E0,-2.963791E0,-5.449538E-1,-5.470627E0,3.3510556E0,2.0871086E-1,1.991028E-1,-7.0281374E-1,-9.812128E-3,-1.3371247E0,2.9857683E0,2.0538363E0,1.9464926E0,7.923218E0,-6.245302E-1,-3.0309132E-1,-2.2866668E-1,-1.10231094E-1,3.6231391E0,-1.0685566E-1,-7.9914707E-1,-8.792826E-2,-1.5194215E0,-4.174164E-1,4.032673E-1,-1.9591962E-1,5.792684E-1,2.1997194E0,-1.7541871E0,-1.605835E-2,-8.1554097E-1,7.085591E-2,-4.157158E-1,-2.2933283E0,-5.391014E-1,1.3501403E0,-1.3254776E0,6.998205E-2,-5.7845265E-1,6.0011077E-1,-5.6582844E-1,7.5574195E-1,1.5452272E-1,7.2139895E-1,5.9490967E-1,3.1192658E0],"categories":[],"categories_nodes":[],"categories_segments":[],"categories_sizes":[],"default_left":[0,0,0,0,0,0,0,0,0,0,0,0,0,0,0,0,0,0,0,0,0,0,0,0,0,0,0,0,0,0,0,0,0,0,0,0,0,0,0,0,0,0,0,0,0,0,0,0,0,0,0,0,0,0,0,0,0,0,0,0,0,0,0,0,0,0,0,0,0,0,0,0,0,0,0,0,0,0,0],"id":16,"left_children":[1,3,5,7,9,11,13,15,-1,17,19,21,23,-1,25,27,29,31,33,35,37,39,-1,41,43,45,-1,47,49,51,53,55,57,59,61,63,65,67,69,-1,-1,71,-1,-1,73,75,77,-1,-1,-1,-1,-1,-1,-1,-1,-1,-1,-1,-1,-1,-1,-1,-1,-1,-1,-1,-1,-1,-1,-1,-1,-1,-1,-1,-1,-1,-1,-1,-1],"loss_changes":[1.2612227E3,3.6609708E2,5.982278E2,1.2081433E2,9.822271E1,1.3148035E2,2.3715338E2,7.411011E1,0E0,1.4751431E2,1.2560193E2,1.1318375E2,2.9183728E2,0E0,1.5250122E1,1.8829803E1,8.6600365E1,9.9927345E1,1.2306174E2,1.7132176E2,1.7348138E2,1.0483057E1,0E0,1.0350875E2,2.3860175E2,3.1868927E1,0E0,9.274475E0,1.5557999E1,6.818449E2,1.1448727E2,3.3592224E-2,1.18192184E2,1.8228891E2,3.325397E1,1.093026E2,6.044516E1,1.1459775E2,8.60413E1,0E0,0E0,1.658199E2,0E0,0E0,3.072398E2,7.289152E-1,6.756937E1,0E0,0E0,0E0,0E0,0E0,0E0,0E0,0E0,0E0,0E0,0E0,0E0,0E0,0E0,0E0,0E0,0E0,0E0,0E0,0E0,0E0,0E0,0E0,0E0,0E0,0E0,0E0,0E0,0E0,0E0,0E0,0E0],"parents":[2147483647,0,0,1,1,2,2,3,3,4,4,5,5,6,6,7,7,9,9,10,10,11,11,12,12,14,14,15,15,16,16,17,17,18,18,19,19,20,20,21,21,23,23,24,24,25,25,27,27,28,28,29,29,30,30,31,31,32,32,33,33,34,34,35,35,36,36,37,37,38,38,41,41,44,44,45,45,46,46],"right_children":[2,4,6,8,10,12,14,16,-1,18,20,22,24,-1,26,28,30,32,34,36,38,40,-1,42,44,46,-1,48,50,52,54,56,58,60,62,64,66,68,70,-1,-1,72,-1,-1,74,76,78,-1,-1,-1,-1,-1,-1,-1,-1,-1,-1,-1,-1,-1,-1,-1,-1,-1,-1,-1,-1,-1,-1,-1,-1,-1,-1,-1,-1,-1,-1,-1,-1],"split_conditions":[6.667E2,3.345E2,1.078E3,3.585E2,1.48611E5,1.21996E5,2.2234E5,1.639E2,2.1878266E0,3.0532E5,2.4768E5,6.88E2,1.06811E5,5.1725464E0,5.09477E5,1.2499E2,1.733E2,3.0374353E12,6.323E2,2.3998E5,3.1646787E13,6.7E2,1.7802993E0,1.02905E5,1.96021E5,3.643E-1,7.5855106E-1,1.12E2,6.086E-1,3.40906E5,1.82E2,4.581E-1,2.0963E5,5.9615E2,1.27553E5,4.1335E2,4.9995E2,3.72E2,5.98189E5,1.991028E-1,-7.0281374E-1,1.263689E13,-1.3371247E0,2.9857683E0,2.9268E5,9.97026E5,7.4477795E13,-6.245302E-1,-3.0309132E-1,-2.2866668E-1,-1.10231094E-1,3.6231391E0,-1.0685566E-1,-7.9914707E-1,-8.792826E-2,-1.5194215E0,-4.174164E-1,4.032673E-1,-1.9591962E-1,5.792684E-1,2.1997194E0,-1.7541871E0,-1.605835E-2,-8.1554097E-1,7.085591E-2,-4.157158E-1,-2.2933283E0,-5.391014E-1,1.3501403E0,-1.3254776E0,6.998205E-2,-5.7845265E-1,6.0011077E-1,-5.6582844E-1,7.5574195E-1,1.5452272E-1,7.2139895E-1,5.9490967E-1,3.1192658E0],"split_indices":[1,0,2,1,9,6,9,1,0,6,9,0,9,0,9,5,1,7,4,9,7,0,0,9,6,10,0,0,10,9,0,10,6,3,9,1,0,0,6,0,0,7,0,0,6,6,7,0,0,0,0,0,0,0,0,0,0,0,0,0,0,0,0,0,0,0,0,0,0,0,0,0,0,0,0,0,0,0,0],"split_type":[0,0,0,0,0,0,0,0,0,0,0,0,0,0,0,0,0,0,0,0,0,0,0,0,0,0,0,0,0,0,0,0,0,0,0,0,0,0,0,0,0,0,0,0,0,0,0,0,0,0,0,0,0,0,0,0,0,0,0,0,0,0,0,0,0,0,0,0,0,0,0,0,0,0,0,0,0,0,0],"sum_hessian":[2.657E3,2.417E3,2.4E2,1.411E3,1.006E3,2.28E2,1.2E1,1.41E3,1E0,1.72E2,8.34E2,1.5E1,2.13E2,2E0,1E1,6.44E2,7.66E2,1.27E2,4.5E1,7E1,7.64E2,3E0,1.2E1,4.6E1,1.67E2,7E0,3E0,1.15E2,5.29E2,4.1E1,7.25E2,3E0,1.24E2,4.2E1,3E0,6.3E1,7E0,1.7E1,7.47E2,2E0,1E0,4.1E1,5E0,3E0,1.64E2,2E0,5E0,9E0,1.06E2,3.91E2,1.38E2,4E0,3.7E1,2E1,7.05E2,2E0,1E0,7.7E1,4.7E1,3.5E1,7E0,1E0,2E0,1.6E1,4.7E1,3E0,4E0,3E0,1.4E1,3E0,7.44E2,2.1E1,2E1,1.7E1,1.47E2,1E0,1E0,2E0,3E0],"tree_param":{"num_deleted":"0","num_feature":"11","num_nodes":"79","size_leaf_vector":"1"}},{"base_weights":[4.9672715E-2,-1.5438142E-2,3.9182005E0,-1.9071288E-1,7.89061E-1,6.3174057E0,9.896705E-1,-4.7136766E-1,-9.762601E-3,8.4580165E-1,-6.004303E0,4.0873065E0,4.9338226E0,-7.3728436E-1,8.51355E0,-4.9120444E-1,1.4192148E0,-2.0581084E-1,2.2159061E-1,7.7381545E-1,4.861286E0,-3.15932E0,-9.8502606E-1,-1.6040548E0,5.96611E0,-2.7773316E0,7.0972137E0,1.6684571E-1,3.2941897E0,-4.557144E-1,-1.9128631E0,8.8193554E-1,1.6896565E-1,-1.281775E-2,-5.571456E-1,1.7313671E0,1.7991878E-1,5.9854245E-1,2.1920722E0,1.6136954E0,4.1391635E0,2.3851319E-1,-6.817749E-1,-1.4158998E0,-3.6999512E-2,1.2619954E1,1.794367E0,-4.849959E0,2.337915E0,-1.8479005E-1,2.962079E0,-1.5710852E-1,-4.29699E-2,2.1229401E-1,-6.730034E-1,-9.384842E-2,9.8367006E-2,-1.9137302E-2,5.2108294E-1,-1.7829904E-1,1.3108475E0,-7.584534E-2,6.098642E-1,3.3172008E-2,3.2214704E-1,1.2312334E-1,5.917069E-1,5.190641E-1,2.6553347E0,8.710529E-1,-3.2216796E-1,5.1254886E-1,-2.7014923E-1,1.3828629E0,5.7281556E0,1.7495204E0,-1.2650464E0,-4.38913E-1,-2.2285645E0,9.639282E-1,2.050293E-1],"categories":[],"categories_nodes":[],"categories_segments":[],"categories_sizes":[],"default_left":[0,0,0,0,0,0,0,0,0,0,0,0,0,0,0,0,0,0,0,0,0,0,0,0,0,0,0,0,0,0,0,0,0,0,0,0,0,0,0,0,0,0,0,0,0,0,0,0,0,0,0,0,0,0,0,0,0,0,0,0,0,0,0,0,0,0,0,0,0,0,0,0,0,0,0,0,0,0,0,0,0],"id":17,"left_children":[1,3,5,7,9,11,13,15,17,19,21,23,-1,25,27,29,31,33,35,37,39,-1,41,43,45,47,49,-1,-1,51,53,-1,55,57,59,61,63,65,67,69,-1,-1,-1,-1,71,73,75,77,79,-1,-1,-1,-1,-1,-1,-1,-1,-1,-1,-1,-1,-1,-1,-1,-1,-1,-1,-1,-1,-1,-1,-1,-1,-1,-1,-1,-1,-1,-1,-1,-1],"loss_changes":[6.695659E2,3.6888742E2,3.028982E2,1.09080635E2,1.8547363E2,4.7489032E2,2.791383E2,3.2274704E1,5.9326405E1,1.3065091E2,8.0510956E1,2.3412192E2,0E0,3.0740076E2,7.241931E1,4.120752E1,1.66131E1,4.799893E1,3.7437576E1,1.1253854E2,2.0989731E2,0E0,8.682629E0,2.9119377E1,4.214853E2,1.703688E2,9.174077E1,0E0,0E0,1.7237778E1,1.8908089E1,0E0,5.6198573E-1,4.0960285E1,4.8578766E1,1.0086082E1,3.6144363E1,1.0489961E2,1.3846242E2,2.7383486E1,0E0,0E0,0E0,0E0,9.074656E0,2.2313751E2,2.9155457E2,8.519983E1,5.0439205E0,0E0,0E0,0E0,0E0,0E0,0E0,0E0,0E0,0E0,0E0,0E0,0E0,0E0,0E0,0E0,0E0,0E0,0E0,0E0,0E0,0E0,0E0,0E0,0E0,0E0,0E0,0E0,0E0,0E0,0E0,0E0,0E0],"parents":[2147483647,0,0,1,1,2,2,3,3,4,4,5,5,6,6,7,7,8,8,9,9,10,10,11,11,13,13,14,14,15,15,16,16,17,17,18,18,19,19,20,20,22,22,23,23,24,24,25,25,26,26,29,29,30,30,32,32,33,33,34,34,35,35,36,36,37,37,38,38,39,39,44,44,45,45,46,46,47,47,48,48],"right_children":[2,4,6,8,10,12,14,16,18,20,22,24,-1,26,28,30,32,34,36,38,40,-1,42,44,46,48,50,-1,-1,52,54,-1,56,58,60,62,64,66,68,70,-1,-1,-1,-1,72,74,76,78,80,-1,-1,-1,-1,-1,-1,-1,-1,-1,-1,-1,-1,-1,-1,-1,-1,-1,-1,-1,-1,-1,-1,-1,-1,-1,-1,-1,-1,-1,-1,-1,-1],"split_conditions":[8.25E2,4.3805E2,8.60385E5,2.345E2,8.565E2,8.661745E13,4.13E-1,2.3922136E14,4.242E-1,3.532372E6,7.7045E2,1.30962E5,4.9338226E0,1.264807E6,1.08817E6,7.514461E6,9.3631E4,3.26919E6,4.271E-1,6.176E-1,7.07E2,-3.15932E0,7.89E2,8.03E2,8.4E2,1.078E3,8.9E2,1.6684571E-1,3.2941897E0,1.6325E2,5.0931E4,8.8193554E-1,1.374E2,1.1774106E14,2.02143E5,2.7025E2,4.0235E2,7.5E2,8.1E2,2.066316E7,4.1391635E0,2.3851319E-1,-6.817749E-1,-1.4158998E0,8.565E2,5.20139E5,6.81135E5,2.748E-1,3.21E-1,-1.8479005E-1,2.962079E0,-1.5710852E-1,-4.29699E-2,2.1229401E-1,-6.730034E-1,-9.384842E-2,9.8367006E-2,-1.9137302E-2,5.2108294E-1,-1.7829904E-1,1.3108475E0,-7.584534E-2,6.098642E-1,3.3172008E-2,3.2214704E-1,1.2312334E-1,5.917069E-1,5.190641E-1,2.6553347E0,8.710529E-1,-3.2216796E-1,5.1254886E-1,-2.7014923E-1,1.3828629E0,5.7281556E0,1.7495204E0,-1.2650464E0,-4.38913E-1,-2.2285645E0,9.639282E-1,2.050293E-1],"split_indices":[0,0,6,0,1,7,10,7,10,9,0,9,0,9,6,6,8,6,10,10,2,0,0,2,2,2,0,0,0,2,8,0,0,7,8,0,2,0,1,6,0,0,0,0,1,6,6,10,10,0,0,0,0,0,0,0,0,0,0,0,0,0,0,0,0,0,0,0,0,0,0,0,0,0,0,0,0,0,0,0,0],"split_type":[0,0,0,0,0,0,0,0,0,0,0,0,0,0,0,0,0,0,0,0,0,0,0,0,0,0,0,0,0,0,0,0,0,0,0,0,0,0,0,0,0,0,0,0,0,0,0,0,0,0,0,0,0,0,0,0,0,0,0,0,0,0,0,0,0,0,0,0,0,0,0,0,0,0,0,0,0,0,0,0,0],"sum_hessian":[2.657E3,2.614E3,4.3E1,2.147E3,4.67E2,2.3E1,2E1,8.41E2,1.306E3,4.64E2,3E0,2E1,3E0,1.7E1,3E0,8.33E2,8E0,7.07E2,5.99E2,4.57E2,7E0,1E0,2E0,5E0,1.5E1,1.4E1,3E0,1E0,2E0,8.14E2,1.9E1,3E0,5E0,4.57E2,2.5E2,1.5E1,5.84E2,4.08E2,4.9E1,6E0,1E0,1E0,1E0,1E0,4E0,5E0,1E1,1E1,4E0,1E0,2E0,6.68E2,1.46E2,2E0,1.7E1,1E0,4E0,4.45E2,1.2E1,2.49E2,1E0,2E0,1.3E1,5.43E2,4.1E1,3.6E2,4.8E1,4.7E1,2E0,4E0,2E0,1E0,3E0,3E0,2E0,6E0,4E0,5E0,5E0,2E0,2E0],"tree_param":{"num_deleted":"0","num_feature":"11","num_nodes":"81","size_leaf_vector":"1"}},{"base_weights":[4.3733615E-2,-7.851528E-3,3.1085386E0,-1.3221885E-1,5.6297934E-1,-2.5697632E0,3.9024174E0,-2.8103945E-1,4.6775818E-2,6.834854E-1,-1.9110745E0,3.1274414E-1,-4.089203E0,-1.187854E0,4.4344006E0,-2.2432742E-1,-5.769811E-1,-6.572578E-2,3.337916E-1,5.656721E-1,5.301752E0,2.6773775E0,-2.852039E0,-1.5706788E-1,2.9780275E-1,-1.5594423E0,-1.1435852E-1,9.002747E0,3.2597933E0,-2.5945103E-1,1.3265183E0,-1.2326407E0,-2.6755044E-1,-9.4505055E-3,-1.0769043E0,1.8546754E0,2.898839E-1,1.1018207E0,1.250623E-1,1.8065728E0,4.2060122E0,-4.0987225E0,1.9570923E0,3.438794E0,4.5825257E0,-3.8701172E0,3.8849635E0,-7.253411E-2,-6.328809E-1,2.0720686E-1,1.2045227E0,-2.3266684E-1,-8.4765583E-1,1.2158031E-1,-2.1815531E-1,-7.3969923E-3,1.0077974E0,-2.3198915E0,-1.4268468E-1,1.0761744E-1,-4.1659492E-1,1.2681739E-1,7.936135E-1,-2.270821E-3,1.1966721E0,1.1481507E0,-5.027893E-1,-3.002759E0,-7.9301393E-1,7.588349E-1,-4.9850468E-2,1.708255E0,4.3542024E-1,-1.382721E-1,-1.6032807E0,2.439236E0,4.703412E-1],"categories":[],"categories_nodes":[],"categories_segments":[],"categories_sizes":[],"default_left":[0,0,0,0,0,0,0,0,0,0,0,0,0,0,0,0,0,0,0,0,0,0,0,0,0,0,0,0,0,0,0,0,0,0,0,0,0,0,0,0,0,0,0,0,0,0,0,0,0,0,0,0,0,0,0,0,0,0,0,0,0,0,0,0,0,0,0,0,0,0,0,0,0,0,0,0,0],"id":18,"left_children":[1,3,5,7,9,11,13,15,17,19,21,23,25,-1,27,29,31,33,35,37,39,-1,41,-1,-1,-1,-1,43,45,47,49,51,53,55,57,-1,59,61,63,65,-1,67,69,71,-1,73,75,-1,-1,-1,-1,-1,-1,-1,-1,-1,-1,-1,-1,-1,-1,-1,-1,-1,-1,-1,-1,-1,-1,-1,-1,-1,-1,-1,-1,-1,-1],"loss_changes":[4.2024997E2,1.8572035E2,2.0837512E2,5.7231773E1,1.40835E2,2.7557652E1,1.8067224E2,1.9557564E1,3.1536718E1,2.402107E2,2.497648E2,2.2256129E0,1.4466286E1,0E0,1.6919537E2,5.4052856E1,3.7811867E1,3.9936676E1,6.8825775E1,1.0309573E2,3.0986356E2,0E0,1.3392633E2,0E0,0E0,0E0,0E0,1.9176508E2,1.5321487E2,3.1039078E1,3.4835E1,4.149347E1,4.0187958E1,3.419937E1,1.4440414E2,0E0,3.2159306E1,2.053818E2,1.2353505E2,6.974541E1,0E0,1.1977191E2,6.4966316E0,1.4147186E1,0E0,1.2613865E1,2.7256168E2,0E0,0E0,0E0,0E0,0E0,0E0,0E0,0E0,0E0,0E0,0E0,0E0,0E0,0E0,0E0,0E0,0E0,0E0,0E0,0E0,0E0,0E0,0E0,0E0,0E0,0E0,0E0,0E0,0E0,0E0],"parents":[2147483647,0,0,1,1,2,2,3,3,4,4,5,5,6,6,7,7,8,8,9,9,10,10,11,11,12,12,14,14,15,15,16,16,17,17,18,18,19,19,20,20,22,22,27,27,28,28,29,29,30,30,31,31,32,32,33,33,34,34,36,36,37,37,38,38,39,39,41,41,42,42,43,43,45,45,46,46],"right_children":[2,4,6,8,10,12,14,16,18,20,22,24,26,-1,28,30,32,34,36,38,40,-1,42,-1,-1,-1,-1,44,46,48,50,52,54,56,58,-1,60,62,64,66,-1,68,70,72,-1,74,76,-1,-1,-1,-1,-1,-1,-1,-1,-1,-1,-1,-1,-1,-1,-1,-1,-1,-1,-1,-1,-1,-1,-1,-1,-1,-1,-1,-1,-1,-1],"split_conditions":[8.25E2,4.3805E2,2.169E-1,3.051E2,7.939E2,8.9E2,1.06811E5,4.450516E6,4.989E-1,8.02E2,1.96021E5,8.03E2,2.126E-1,-1.187854E0,8.4E2,5.5957E4,5.306544E6,4.758E-1,1.70998E5,1.48611E5,1.60867E5,2.6773775E0,1.045506E6,-1.5706788E-1,2.9780275E-1,-1.5594423E0,-1.1435852E-1,5.20139E5,9.1475E2,5.3124E4,4.087126E6,2.65E2,6.433637E6,2.066316E7,3.64758E5,1.8546754E0,7.108757E6,1.06811E5,3.532372E6,3.31E-1,4.2060122E0,7.8425E2,2.296118E6,7.8425E2,4.5825257E0,8.9E2,3.47026E5,-7.253411E-2,-6.328809E-1,2.0720686E-1,1.2045227E0,-2.3266684E-1,-8.4765583E-1,1.2158031E-1,-2.1815531E-1,-7.3969923E-3,1.0077974E0,-2.3198915E0,-1.4268468E-1,1.0761744E-1,-4.1659492E-1,1.2681739E-1,7.936135E-1,-2.270821E-3,1.1966721E0,1.1481507E0,-5.027893E-1,-3.002759E0,-7.9301393E-1,7.588349E-1,-4.9850468E-2,1.708255E0,4.3542024E-1,-1.382721E-1,-1.6032807E0,2.439236E0,4.703412E-1],"split_indices":[0,0,10,0,3,0,9,6,10,1,6,2,10,0,2,8,6,10,6,9,9,0,6,0,0,0,0,6,1,8,6,2,6,6,6,0,9,9,9,10,0,2,9,2,0,0,9,0,0,0,0,0,0,0,0,0,0,0,0,0,0,0,0,0,0,0,0,0,0,0,0,0,0,0,0,0,0],"split_type":[0,0,0,0,0,0,0,0,0,0,0,0,0,0,0,0,0,0,0,0,0,0,0,0,0,0,0,0,0,0,0,0,0,0,0,0,0,0,0,0,0,0,0,0,0,0,0,0,0,0,0,0,0,0,0,0,0,0,0,0,0,0,0,0,0,0,0,0,0,0,0,0,0,0,0,0,0],"sum_hessian":[2.657E3,2.614E3,4.3E1,2.147E3,4.67E2,5E0,3.8E1,1.172E3,9.75E2,4.46E2,2.1E1,2E0,3E0,2E0,3.6E1,9.85E2,1.87E2,7.01E2,2.74E2,4.36E2,1E1,1E0,2E1,1E0,1E0,2E0,1E0,6E0,3E1,9.64E2,2.1E1,5.9E1,1.28E2,6.65E2,3.6E1,1E0,2.73E2,1.96E2,2.4E2,8E0,2E0,1.6E1,4E0,4E0,2E0,2E0,2.8E1,9.56E2,8E0,1.8E1,3E0,4.7E1,1.2E1,5.2E1,7.6E1,6.63E2,2E0,2E0,3.4E1,2.63E2,1E1,1.37E2,5.9E1,2.33E2,7E0,5E0,3E0,2E0,1.4E1,3E0,1E0,1E0,3E0,1E0,1E0,9E0,1.9E1],"tree_param":{"num_deleted":"0","num_feature":"11","num_nodes":"77","size_leaf_vector":"1"}},{"base_weights":[3.48789E-2,-3.821109E-2,1.3698425E0,-5.280853E-2,9.160431E0,2.8969834E0,5.997531E-1,-2.8087242E-2,-3.139093E0,3.15235E0,7.677338E-1,-2.5126953E0,3.3328376E0,-7.546509E0,1.4552425E0,-4.933204E-2,2.164838E0,-4.6772118E0,2.4107056E0,2.4501343E-1,-1.1684204E0,6.1126304E0,2.186264E0,-2.5133973E-1,-8.280373E0,1.2971279E-1,2.6874473E0,-1.9671172E-2,-2.641837E0,6.5987062E0,-9.353963E-1,9.934204E-1,-6.0549707E0,4.0179443E0,-6.027374E-1,2.8982196E0,8.844005E0,3.010097E0,-8.5933596E-1,-3.3815737E0,-1.6213623E0,2.692163E0,-6.50718E-1,6.845058E0,1.8508494E0,-1.5325668E-2,2.084263E0,-2.7600565E0,-5.2847727E-3,3.1604142E0,1.022066E0,6.741371E-1,-1.2002976E0,-8.0109197E-1,-3.4839919E0,3.5202944E-1,1.3724916E0,1.1226472E0,-3.248108E-1,-1.0542298E-1,3.226011E0,1.0944115E0,-1.9621216E-1,3.9166057E-1,2.275772E0,-1.0175371E0,2.0655651E-1,1.0286622E0,4.1013246E0,3.174923E-1,1.5628471E0],"categories":[],"categories_nodes":[],"categories_segments":[],"categories_sizes":[],"default_left":[0,0,0,0,0,0,0,0,0,0,0,0,0,0,0,0,0,0,0,0,0,0,0,0,0,0,0,0,0,0,0,0,0,0,0,0,0,0,0,0,0,0,0,0,0,0,0,0,0,0,0,0,0,0,0,0,0,0,0,0,0,0,0,0,0,0,0,0,0,0,0],"id":19,"left_children":[1,3,5,7,9,11,13,15,17,-1,-1,19,21,23,25,27,29,31,33,-1,-1,35,37,-1,39,41,43,45,47,49,51,-1,53,55,-1,57,59,61,-1,-1,-1,63,65,67,69,-1,-1,-1,-1,-1,-1,-1,-1,-1,-1,-1,-1,-1,-1,-1,-1,-1,-1,-1,-1,-1,-1,-1,-1,-1,-1],"loss_changes":[2.594E2,3.3899515E2,1.6055533E2,1.920275E2,8.687775E0,1.16834625E2,6.5910284E2,1.1653086E2,1.8200037E2,0E0,0E0,2.158636E1,1.2368738E2,3.7372192E1,1.3848393E2,1.9034242E2,3.360771E2,1.9615256E2,4.3591167E1,0E0,0E0,7.972522E1,1.417726E2,0E0,7.9058228E0,8.574408E1,1.4037375E2,5.363694E2,4.817337E2,8.9739685E1,1.5533551E2,0E0,2.3237231E2,9.6946716E-1,0E0,2.7569195E1,1.0912323E2,6.7836105E1,0E0,0E0,0E0,5.7954353E1,1.2347677E2,1.1635629E2,9.563756E1,0E0,0E0,0E0,0E0,0E0,0E0,0E0,0E0,0E0,0E0,0E0,0E0,0E0,0E0,0E0,0E0,0E0,0E0,0E0,0E0,0E0,0E0,0E0,0E0,0E0,0E0],"parents":[2147483647,0,0,1,1,2,2,3,3,4,4,5,5,6,6,7,7,8,8,11,11,12,12,13,13,14,14,15,15,16,16,17,17,18,18,21,21,22,22,24,24,25,25,26,26,27,27,28,28,29,29,30,30,32,32,33,33,35,35,36,36,37,37,41,41,42,42,43,43,44,44],"right_children":[2,4,6,8,10,12,14,16,18,-1,-1,20,22,24,26,28,30,32,34,-1,-1,36,38,-1,40,42,44,46,48,50,52,-1,54,56,-1,58,60,62,-1,-1,-1,64,66,68,70,-1,-1,-1,-1,-1,-1,-1,-1,-1,-1,-1,-1,-1,-1,-1,-1,-1,-1,-1,-1,-1,-1,-1,-1,-1,-1],"split_conditions":[7.35E2,7.77E2,7.77E2,7.357E2,7.098E2,4.0971E4,7.7045E2,7.098E2,7.44E2,3.15235E0,7.677338E-1,7.45E2,1.44287E5,1.70998E5,5.1506087E13,6.79E2,4.699E-1,6.98E2,1.7940352E7,2.4501343E-1,-1.1684204E0,7.331E2,7.56E2,-2.5133973E-1,5.40939E5,2.0963E5,2.2234E5,6.7E2,6.88E2,1.98E-1,1.56774E5,9.934204E-1,7.331E2,7.2505E2,-6.027374E-1,7.599E2,1.98E-1,2.36896E5,-8.5933596E-1,-3.3815737E0,-1.6213623E0,5.679E-1,1.2043E5,6.7526566E13,1.324432E6,-1.5325668E-2,2.084263E0,-2.7600565E0,-5.2847727E-3,3.1604142E0,1.022066E0,6.741371E-1,-1.2002976E0,-8.0109197E-1,-3.4839919E0,3.5202944E-1,1.3724916E0,1.1226472E0,-3.248108E-1,-1.0542298E-1,3.226011E0,1.0944115E0,-1.9621216E-1,3.9166057E-1,2.275772E0,-1.0175371E0,2.0655651E-1,1.0286622E0,4.1013246E0,3.174923E-1,1.5628471E0],"split_indices":[0,1,1,1,0,9,0,0,3,0,0,0,9,6,7,0,10,0,6,0,0,3,3,0,6,6,9,0,0,10,6,0,3,0,0,1,10,8,0,0,0,10,9,7,9,0,0,0,0,0,0,0,0,0,0,0,0,0,0,0,0,0,0,0,0,0,0,0,0,0,0],"split_type":[0,0,0,0,0,0,0,0,0,0,0,0,0,0,0,0,0,0,0,0,0,0,0,0,0,0,0,0,0,0,0,0,0,0,0,0,0,0,0,0,0,0,0,0,0,0,0,0,0,0,0,0,0,0,0,0,0,0,0,0,0,0,0,0,0,0,0,0,0,0,0],"sum_hessian":[2.657E3,2.52E3,1.37E2,2.517E3,3E0,4.5E1,9.2E1,2.498E3,1.9E1,2E0,1E0,3E0,4.2E1,8E0,8.4E1,2.475E3,2.3E1,1.5E1,4E0,1E0,2E0,1.1E1,3.1E1,1E0,7E0,4.1E1,4.3E1,2.448E3,2.7E1,9E0,1.4E1,2E0,1.3E1,3E0,1E0,6E0,5E0,2.7E1,4E0,2E0,5E0,9E0,3.2E1,6E0,3.7E1,2.438E3,1E1,7E0,2E1,3E0,6E0,7E0,7E0,9E0,4E0,1E0,2E0,5E0,1E0,1E0,4E0,2.3E1,4E0,8E0,1E0,1E1,2.2E1,5E0,1E0,3.1E1,6E0],"tree_param":{"num_deleted":"0","num_feature":"11","num_nodes":"71","size_leaf_vector":"1"}},{"base_weights":[2.8682742E-2,-2.2399465E-3,1.8658226E0,-1.5133806E-1,2.13529E-1,2.595812E0,-1.7436066E0,-1.5929309E-1,2.3338532E0,4.1544137E0,1.9110529E-1,1.6569092E0,3.8053224E0,-6.2252197E0,4.2943115E0,-3.7527728E-1,-9.4908476E-2,1.5016937E-1,1.0167572E0,6.3462753E0,-1.5287273E-1,2.3460127E-1,-1.2189713E0,2.8735242E0,-2.8083572E0,-2.058545E0,-5.51825E-1,-3.679413E-1,1.9630189E0,-2.3012753E-1,-1.1952763E0,-8.1010275E-2,-1.3469989E0,5.148194E-1,2.1952972E0,-1.6599427E-1,9.720154E-2,1.7378716E-1,2.8975778E0,1.4485092E0,-2.023806E0,1.3958222E0,5.838026E0,-1.7270619E0,1.5793762E0,-9.358955E-2,4.0694916E-1,-5.7211304E-1,-1.3177186E-1,-3.205028E-2,5.784998E-1,-8.6382014E-1,2.762108E-1,4.691756E-2,2.6614563E0,5.429891E-2,1.3003066E0,-2.760437E-1,1.7108948E0,-8.1793886E-1,5.1756073E-2,1.3115845E0,-4.3099198E-1,3.278476E0,4.4146118E-1,2.7264405E-2,6.135742E-1],"categories":[],"categories_nodes":[],"categories_segments":[],"categories_sizes":[],"default_left":[0,0,0,0,0,0,0,0,0,0,0,0,0,0,0,0,0,0,0,0,0,0,0,0,0,0,0,0,0,0,0,0,0,0,0,0,0,0,0,0,0,0,0,0,0,0,0,0,0,0,0,0,0,0,0,0,0,0,0,0,0,0,0,0,0,0,0],"id":20,"left_children":[1,3,5,7,9,11,13,15,17,19,21,23,-1,25,27,29,31,-1,-1,33,35,37,39,41,43,-1,-1,-1,-1,45,47,49,51,-1,-1,-1,-1,53,55,57,59,61,63,-1,65,-1,-1,-1,-1,-1,-1,-1,-1,-1,-1,-1,-1,-1,-1,-1,-1,-1,-1,-1,-1,-1,-1],"loss_changes":[1.5100331E2,8.4158806E1,1.20459274E2,3.095562E1,9.3672844E1,3.294549E2,2.4320995E2,2.1421429E1,7.9771824E0,5.7616028E1,6.554392E1,1.9820773E2,0E0,1.3381958E0,5.7692116E1,4.1858948E1,2.0599033E1,0E0,0E0,5.433243E0,7.521616E-1,1.6678719E2,7.163171E1,1.14509384E2,1.12590675E2,0E0,0E0,0E0,0E0,3.9636562E1,2.768283E1,6.133156E1,4.7826447E1,0E0,0E0,0E0,0E0,1.5157658E2,8.8987274E1,8.586661E1,3.9051964E1,1.748762E2,1.8395645E2,0E0,2.5879116E0,0E0,0E0,0E0,0E0,0E0,0E0,0E0,0E0,0E0,0E0,0E0,0E0,0E0,0E0,0E0,0E0,0E0,0E0,0E0,0E0,0E0,0E0],"parents":[2147483647,0,0,1,1,2,2,3,3,4,4,5,5,6,6,7,7,8,8,9,9,10,10,11,11,13,13,14,14,15,15,16,16,19,19,20,20,21,21,22,22,23,23,24,24,29,29,30,30,31,31,32,32,37,37,38,38,39,39,40,40,41,41,42,42,44,44],"right_children":[2,4,6,8,10,12,14,16,18,20,22,24,-1,26,28,30,32,-1,-1,34,36,38,40,42,44,-1,-1,-1,-1,46,48,50,52,-1,-1,-1,-1,54,56,58,60,62,64,-1,66,-1,-1,-1,-1,-1,-1,-1,-1,-1,-1,-1,-1,-1,-1,-1,-1,-1,-1,-1,-1,-1,-1],"split_conditions":[8.25E2,3.585E2,3.0524504E14,1.8428E5,3.33E2,8.1005E5,1.264807E6,1.434E2,2.1255E2,3.492E2,7.87E2,1.183511E6,3.8053224E0,4.653499E6,8.9E2,1.3955E2,1.1974E5,1.5016937E-1,1.0167572E0,3.221E2,3.7425E2,7.58E2,1.96021E5,8.442673E13,1.078E3,-2.058545E0,-5.51825E-1,-3.679413E-1,1.9630189E0,1.3941E2,1.435E2,9.6249E4,3.719E-1,5.148194E-1,2.1952972E0,-1.6599427E-1,9.720154E-2,8.02E2,1.44287E5,8.1E2,4.9555215E13,8.4E2,9.2789E13,-1.7270619E0,1.1E3,-9.358955E-2,4.0694916E-1,-5.7211304E-1,-1.3177186E-1,-3.205028E-2,5.784998E-1,-8.6382014E-1,2.762108E-1,4.691756E-2,2.6614563E0,5.429891E-2,1.3003066E0,-2.760437E-1,1.7108948E0,-8.1793886E-1,5.1756073E-2,1.3115845E0,-4.3099198E-1,3.278476E0,4.4146118E-1,2.7264405E-2,6.135742E-1],"split_indices":[0,1,7,8,2,9,9,0,0,3,3,6,0,6,0,0,8,0,0,2,1,0,6,7,2,0,0,0,0,5,3,8,10,0,0,0,0,1,9,1,7,2,7,0,0,0,0,0,0,0,0,0,0,0,0,0,0,0,0,0,0,0,0,0,0,0,0],"split_type":[0,0,0,0,0,0,0,0,0,0,0,0,0,0,0,0,0,0,0,0,0,0,0,0,0,0,0,0,0,0,0,0,0,0,0,0,0,0,0,0,0,0,0,0,0,0,0,0,0,0,0,0,0,0,0,0,0,0,0,0,0,0,0,0,0,0,0],"sum_hessian":[2.657E3,2.614E3,4.3E1,1.546E3,1.068E3,3.6E1,7E0,1.542E3,4E0,5E0,1.063E3,3.4E1,2E0,4E0,3E0,3.53E2,1.189E3,2E0,2E0,3E0,2E0,1.032E3,3.1E1,2.7E1,7E0,3E0,1E0,1E0,2E0,3.01E2,5.2E1,1.177E3,1.2E1,1E0,2E0,1E0,1E0,1.01E3,2.2E1,7E0,2.4E1,1.9E1,8E0,4E0,3E0,2.87E2,1.4E1,2.6E1,2.6E1,1.163E3,1.4E1,7E0,5E0,1.009E3,1E0,8E0,1.4E1,5E0,2E0,1.8E1,6E0,9E0,1E1,3E0,5E0,1E0,2E0],"tree_param":{"num_deleted":"0","num_feature":"11","num_nodes":"67","size_leaf_vector":"1"}},{"base_weights":[2.5497764E-2,1.118682E-2,2.9363637E0,5.8839756E-1,-2.7686318E-2,7.716146E0,1.3658447E0,3.7321457E-1,3.9294496E0,-2.6381586E0,-4.3198788E-3,4.779053E-1,2.9943604E0,-3.7805176E-1,2.0670624E0,2.3367077E-1,4.596521E0,6.268506E0,1.3253275E0,-4.10638E0,4.4452667E-1,5.951356E-1,-4.574061E-2,2.7578124E-1,-6.405029E-1,2.7776287E0,-4.309082E-2,4.054224E-1,-2.2800949E0,-5.3549197E-2,1.75047E0,5.3678286E-1,6.9409943E0,9.9841005E-1,2.5917968E-1,-1.392924E0,-5.323816E0,-3.2991245E-1,8.7984014E-1,-1.2722065E-1,2.083969E0,-1.0898176E0,-1.7778806E-2,3.8798013E-1,1.1626374E0,2.3181153E-2,-4.257202E-2,1.64157E-1,-4.689478E-1,5.7899915E-2,-1.8113961E0,6.2731934E-1,2.358185E0,-2.7664796E-1,4.062378E-1,-7.898194E-1,-3.4451295E-2,-2.0548432E0,-7.2847784E-1,2.3656312E-1,-1.9432375E-1,5.7074267E-2,-1.4205035E0,1.6916698E0,3.309893E-1,-2.858834E-2,-8.409897E-1,-3.272119E-2,4.8435483E-2,-8.380738E-2,2.5839844E-1],"categories":[],"categories_nodes":[],"categories_segments":[],"categories_sizes":[],"default_left":[0,0,0,0,0,0,0,0,0,0,0,0,0,0,0,0,0,0,0,0,0,0,0,0,0,0,0,0,0,0,0,0,0,0,0,0,0,0,0,0,0,0,0,0,0,0,0,0,0,0,0,0,0,0,0,0,0,0,0,0,0,0,0,0,0,0,0,0,0,0,0],"id":21,"left_children":[1,3,5,7,9,11,13,15,17,19,21,-1,-1,23,25,27,29,31,33,35,37,39,41,-1,-1,43,45,47,49,-1,-1,-1,51,-1,53,55,57,59,-1,61,63,65,67,69,-1,-1,-1,-1,-1,-1,-1,-1,-1,-1,-1,-1,-1,-1,-1,-1,-1,-1,-1,-1,-1,-1,-1,-1,-1,-1,-1],"loss_changes":[1.1069209E2,5.9387226E1,8.704855E1,1.1859605E2,1.5126225E2,2.5707443E1,1.4232819E1,9.204106E1,5.260405E1,1.01398834E2,6.108391E1,0E0,0E0,1.1080017E1,1.2114914E1,6.741288E1,3.0607925E1,2.6418E0,1.1948525E1,4.2136185E1,1.63837E1,1.7126456E2,6.715666E1,0E0,0E0,1.4236954E1,4.664605E-2,4.1322105E1,9.410155E1,0E0,0E0,0E0,1.4033508E0,0E0,7.716237E0,9.205148E0,2.7544098E1,2.999154E0,0E0,1.5888615E2,1.7506198E2,1.0197867E2,3.6701824E1,1.1882682E0,0E0,0E0,0E0,0E0,0E0,0E0,0E0,0E0,0E0,0E0,0E0,0E0,0E0,0E0,0E0,0E0,0E0,0E0,0E0,0E0,0E0,0E0,0E0,0E0,0E0,0E0,0E0],"parents":[2147483647,0,0,1,1,2,2,3,3,4,4,5,5,6,6,7,7,8,8,9,9,10,10,13,13,14,14,15,15,16,16,17,17,18,18,19,19,20,20,21,21,22,22,25,25,26,26,27,27,28,28,32,32,34,34,35,35,36,36,37,37,39,39,40,40,41,41,42,42,43,43],"right_children":[2,4,6,8,10,12,14,16,18,20,22,-1,-1,24,26,28,30,32,34,36,38,40,42,-1,-1,44,46,48,50,-1,-1,-1,52,-1,54,56,58,60,-1,62,64,66,68,70,-1,-1,-1,-1,-1,-1,-1,-1,-1,-1,-1,-1,-1,-1,-1,-1,-1,-1,-1,-1,-1,-1,-1,-1,-1,-1,-1],"split_conditions":[1.078E3,2.0963E5,3.153E-1,1.4292919E13,2.20249E5,1.14E3,7.4477795E13,1.15715E5,2.0059E5,1.18087E5,1.48611E5,4.779053E-1,2.9943604E0,5.30521E5,5.09477E5,9.2667E4,2.891E2,7.5E2,7.357E2,5.749E2,5.598E2,6.053E2,1.77415E5,2.7578124E-1,-6.405029E-1,3.643E-1,1.1E3,1.1895915E13,9.126535E12,-5.3549197E-2,1.75047E0,5.3678286E-1,1.88377E5,9.9841005E-1,7.3925E2,5.2755E2,8.1E2,3.443E2,8.7984014E-1,5.6E2,6.14E2,2.0098992E13,3.5315E2,9.97026E5,1.1626374E0,2.3181153E-2,-4.257202E-2,1.64157E-1,-4.689478E-1,5.7899915E-2,-1.8113961E0,6.2731934E-1,2.358185E0,-2.7664796E-1,4.062378E-1,-7.898194E-1,-3.4451295E-2,-2.0548432E0,-7.2847784E-1,2.3656312E-1,-1.9432375E-1,5.7074267E-2,-1.4205035E0,1.6916698E0,3.309893E-1,-2.858834E-2,-8.409897E-1,-3.272119E-2,4.8435483E-2,-8.380738E-2,2.5839844E-1],"split_indices":[2,6,10,7,6,1,7,9,6,9,9,0,0,6,9,9,0,0,1,0,0,1,9,0,0,10,0,7,7,0,0,0,6,0,0,0,1,0,0,2,4,7,2,6,0,0,0,0,0,0,0,0,0,0,0,0,0,0,0,0,0,0,0,0,0,0,0,0,0,0,0],"split_type":[0,0,0,0,0,0,0,0,0,0,0,0,0,0,0,0,0,0,0,0,0,0,0,0,0,0,0,0,0,0,0,0,0,0,0,0,0,0,0,0,0,0,0,0,0,0,0,0,0,0,0,0,0,0,0,0,0,0,0,0,0,0,0,0,0,0,0,0,0,0,0],"sum_hessian":[2.657E3,2.645E3,1.2E1,1.66E2,2.479E3,2E0,1E1,1.57E2,9E0,2.1E1,2.458E3,1E0,1E0,3E0,7E0,1.53E2,4E0,4E0,5E0,1.4E1,7E0,1.58E2,2.3E3,2E0,1E0,5E0,2E0,1.44E2,9E0,1E0,3E0,1E0,3E0,1E0,4E0,5E0,9E0,6E0,1E0,1.07E2,5.1E1,5.9E1,2.241E3,2E0,3E0,1E0,1E0,1.35E2,9E0,6E0,3E0,1E0,2E0,2E0,2E0,2E0,3E0,5E0,4E0,1E0,5E0,1.01E2,6E0,1E1,4.1E1,3.8E1,2.1E1,1.485E3,7.56E2,1E0,1E0],"tree_param":{"num_deleted":"0","num_feature":"11","num_nodes":"71","size_leaf_vector":"1"}},{"base_weights":[2.0038608E-2,-4.251005E-3,1.1914164E0,-1.9202157E-4,-3.5246785E0,9.0349305E-1,2.4677033E0,-5.0299805E-2,2.6487136E-1,-1.6123536E0,2.624817E-2,4.0925417E0,5.596413E-1,-1.065691E0,-3.0913135E-2,1.7161064E0,1.7511556E-1,8.3601886E-1,1.7954652E0,-1.0065027E-1,2.3958833E0,6.1393738E-2,-2.5092654E0,9.227135E-1,-4.942867E-2,2.7757802E0,-7.502136E-1,-2.8604515E0,2.6229697E-1,2.5534058E-2,3.5067445E-1,-8.258761E-1,1.4790598E0,6.558716E0,1.0427579E0,1.1982223E-1,-1.1569382E0,-1.0629877E0,-3.244619E-1,1.11245856E-1,1.446656E0,-1.0082566E-2,-4.102447E-1,4.2892E-1,1.5015732E0,-6.6685367E-1,3.834389E-1,-1.1938193E0,4.3496093E-1,4.5130208E-2,4.56124E-1,2.8528062E-1,-1.0005748E0,3.0345705E0,-3.7790957E-1,4.062195E-1,2.5452027E0,-1.0674134E-1,4.8350832E-1],"categories":[],"categories_nodes":[],"categories_segments":[],"categories_sizes":[],"default_left":[0,0,0,0,0,0,0,0,0,0,0,0,0,0,0,0,0,0,0,0,0,0,0,0,0,0,0,0,0,0,0,0,0,0,0,0,0,0,0,0,0,0,0,0,0,0,0,0,0,0,0,0,0,0,0,0,0,0,0],"id":22,"left_children":[1,3,5,7,9,11,-1,13,15,-1,-1,17,19,21,23,25,27,29,-1,31,33,35,37,39,41,43,45,47,49,-1,-1,51,53,55,57,-1,-1,-1,-1,-1,-1,-1,-1,-1,-1,-1,-1,-1,-1,-1,-1,-1,-1,-1,-1,-1,-1,-1,-1],"loss_changes":[7.563132E1,3.72231E1,1.0193588E2,3.458569E1,2.0515987E1,5.5827316E1,0E0,4.3077316E1,5.362578E1,0E0,0E0,2.5808784E1,5.9651447E1,6.686231E1,3.800796E1,6.4806305E1,1.04226494E2,6.504297E-1,0E0,4.3610443E1,6.63877E1,3.332322E1,2.2741318E1,8.644776E1,4.3951263E1,4.38602E1,2.6737106E1,5.8822792E1,5.3391933E1,0E0,0E0,1.1909738E2,2.965709E2,1.8573532E1,9.326073E0,0E0,0E0,0E0,0E0,0E0,0E0,0E0,0E0,0E0,0E0,0E0,0E0,0E0,0E0,0E0,0E0,0E0,0E0,0E0,0E0,0E0,0E0,0E0,0E0],"parents":[2147483647,0,0,1,1,2,2,3,3,4,4,5,5,7,7,8,8,11,11,12,12,13,13,14,14,15,15,16,16,17,17,19,19,20,20,21,21,22,22,23,23,24,24,25,25,26,26,27,27,28,28,31,31,32,32,33,33,34,34],"right_children":[2,4,6,8,10,12,-1,14,16,-1,-1,18,20,22,24,26,28,30,-1,32,34,36,38,40,42,44,46,48,50,-1,-1,52,54,56,58,-1,-1,-1,-1,-1,-1,-1,-1,-1,-1,-1,-1,-1,-1,-1,-1,-1,-1,-1,-1,-1,-1,-1,-1],"split_conditions":[8.06E2,8.565E2,5.875E-1,4.85E2,7.7045E2,7.8425E2,2.4677033E0,1.482E-1,5.2E2,-1.6123536E0,2.624817E-2,2.15808E5,1.078E3,4.679468E6,1.778E-1,5.319E2,5.2755E2,6.733E2,1.7954652E0,7.03939E5,3.153E-1,4.85E2,7.683485E6,4.72E2,4.2727767E14,5.1E2,1.560605E6,5.36E2,6.467E-1,2.5534058E-2,3.5067445E-1,6.81135E5,3.0524504E14,1.14E3,7.4477795E13,1.1982223E-1,-1.1569382E0,-1.0629877E0,-3.244619E-1,1.11245856E-1,1.446656E0,-1.0082566E-2,-4.102447E-1,4.2892E-1,1.5015732E0,-6.6685367E-1,3.834389E-1,-1.1938193E0,4.3496093E-1,4.5130208E-2,4.56124E-1,2.8528062E-1,-1.0005748E0,3.0345705E0,-3.7790957E-1,4.062195E-1,2.5452027E0,-1.0674134E-1,4.8350832E-1],"split_indices":[0,1,10,2,0,2,0,10,0,0,0,6,2,6,10,1,0,2,0,9,10,0,6,1,7,0,6,1,10,0,0,6,7,1,7,0,0,0,0,0,0,0,0,0,0,0,0,0,0,0,0,0,0,0,0,0,0,0,0],"split_type":[0,0,0,0,0,0,0,0,0,0,0,0,0,0,0,0,0,0,0,0,0,0,0,0,0,0,0,0,0,0,0,0,0,0,0,0,0,0,0,0,0,0,0,0,0,0,0,0,0,0,0,0,0,0,0,0,0,0,0],"sum_hessian":[2.657E3,2.604E3,5.3E1,2.602E3,2E0,5.2E1,1E0,2.189E3,4.13E2,1E0,1E0,4E0,4.8E1,4E1,2.149E3,2.3E1,3.9E2,2E0,2E0,