{"learner":{"attributes":{"scikit_learn":"{\"_estimator_type\": \"regressor\"}"},"feature_names":["Open","High","Low","Last","Close","VWAP","Volume","Turnover","Trades","Deliverable Volume","%Deliverble"],"feature_types":["float","float","float","float","float","float","int","float","float","int","float"],"gradient_booster":{"model":{"gbtree_model_param":{"num_parallel_tree":"1","num_trees":"100"},"iteration_indptr":[0,1,2,3,4,5,6,7,8,9,10,11,12,13,14,15,16,17,18,19,20,21,22,23,24,25,26,27,28,29,30,31,32,33,34,35,36,37,38,39,40,41,42,43,44,45,46,47,48,49,50,51,52,53,54,55,56,57,58,59,60,61,62,63,64,65,66,67,68,69,70,71,72,73,74,75,76,77,78,79,80,81,82,83,84,85,86,87,88,89,90,91,92,93,94,95,96,97,98,99,100],"tree_info":[0,0,0,0,0,0,0,0,0,0,0,0,0,0,0,0,0,0,0,0,0,0,0,0,0,0,0,0,0,0,0,0,0,0,0,0,0,0,0,0,0,0,0,0,0,0,0,0,0,0,0,0,0,0,0,0,0,0,0,0,0,0,0,0,0,0,0,0,0,0,0,0,0,0,0,0,0,0,0,0,0,0,0,0,0,0,0,0,0,0,0,0,0,0,0,0,0,0,0,0],"trees":[{"base_weights":[-2.531852E0,-7.5892975E1,3.271306E2,-1.856411E2,2.48083E0,2.3795691E2,4.6881665E2,-2.0012427E2,-1.2458715E2,-4.1438873E1,4.0716053E1,1.9417076E2,5.8647625E1,4.2067065E2,1.5214641E2,-4.263832E1,-3.776268E1,-2.8079557E1,-2.1589508E1,-6.778376E1,-2.0365631E1,2.4859364E1,6.720309E1,3.0982214E1,4.183361E1,7.747664E1,9.43842E1,-1.5236281E1,-1.0285663E1,-6.034045E0,-1.8639708E0,2.4171503E0,6.8119607E0,1.1890974E1,1.8686214E1],"categories":[],"categories_nodes":[],"categories_segments":[],"categories_sizes":[],"default_left":[0,0,0,0,0,0,0,0,0,0,0,0,0,0,0,0,0,0,0,0,0,0,0,0,0,0,0,0,0,0,0,0,0,0,0],"id":0,"left_children":[1,3,5,7,9,11,13,15,17,19,21,23,-1,25,-1,-1,-1,-1,-1,27,29,31,33,-1,-1,-1,-1,-1,-1,-1,-1,-1,-1,-1,-1],"loss_changes":[5.1948748E7,1.5113083E7,4.828596E6,6.2234E5,1.7246281E6,5.28837E5,1.788168E6,4.695E4,2.2465E4,2.6399188E5,2.289075E5,4.88505E4,0E0,4.067E4,0E0,0E0,0E0,0E0,0E0,2.519975E4,2.863475E4,4.013375E4,3.610525E4,0E0,0E0,0E0,0E0,0E0,0E0,0E0,0E0,0E0,0E0,0E0,0E0],"parents":[2147483647,0,0,1,1,2,2,3,3,4,4,5,5,6,6,7,7,8,8,9,9,10,10,11,11,13,13,19,19,20,20,21,21,22,22],"right_children":[2,4,6,8,10,12,14,16,18,20,22,24,-1,26,-1,-1,-1,-1,-1,28,30,32,34,-1,-1,-1,-1,-1,-1,-1,-1,-1,-1,-1,-1],"split_conditions":[4.674E2,2.487E2,7.0155E2,1.8045E2,3.4225E2,5.878E2,1.032E3,1.4115E2,2.18E2,2.987E2,3.8875E2,5.251E2,5.8647625E1,7.739E2,1.5214641E2,-4.263832E1,-3.776268E1,-2.8079557E1,-2.1589508E1,2.8025E2,3.228E2,3.655E2,4.195E2,3.0982214E1,4.183361E1,7.747664E1,9.43842E1,-1.5236281E1,-1.0285663E1,-6.034045E0,-1.8639708E0,2.4171503E0,6.8119607E0,1.1890974E1,1.8686214E1],"split_indices":[4,4,4,3,4,4,0,4,4,4,4,4,0,4,0,0,0,0,0,4,4,4,3,0,0,0,0,0,0,0,0,0,0,0,0],"split_type":[0,0,0,0,0,0,0,0,0,0,0,0,0,0,0,0,0,0,0,0,0,0,0,0,0,0,0,0,0,0,0,0,0,0,0],"sum_hessian":[2.146E3,1.756E3,3.9E2,7.31E2,1.025E3,2.41E2,1.49E2,5.89E2,1.42E2,4.77E2,5.48E2,1.37E2,1.04E2,1.3E2,1.9E1,2.65E2,3.24E2,6.9E1,7.3E1,2.11E2,2.66E2,3.44E2,2.04E2,4.1E1,9.6E1,8.4E1,4.6E1,1.37E2,7.4E1,1.4E2,1.26E2,1.45E2,1.99E2,1.6E2,4.4E1],"tree_param":{"num_deleted":"0","num_feature":"11","num_nodes":"35","size_leaf_vector":"1"}},{"base_weights":[6.1214143E-1,-6.0268723E1,2.6848636E2,-1.4709648E2,4.847095E0,1.8534613E2,3.7144928E2,-1.5949496E2,-9.311243E1,-2.8364769E1,3.7104053E1,1.5221576E2,2.212337E2,3.262516E2,1.1630242E2,-3.3648663E1,-2.9232883E1,-2.0433905E1,-1.5689872E1,-4.9258785E1,-1.1096816E1,2.5287594E1,6.1692696E1,2.2134138E1,3.1468164E1,3.9295715E1,4.869894E1,5.9604797E1,7.060046E1,-1.1629676E1,-7.673074E0,-3.8943062E0,-4.4931182E-1,3.5566125E0,6.87492E0,1.0786346E1,1.6542744E1],"categories":[],"categories_nodes":[],"categories_segments":[],"categories_sizes":[],"default_left":[0,0,0,0,0,0,0,0,0,0,0,0,0,0,0,0,0,0,0,0,0,0,0,0,0,0,0,0,0,0,0,0,0,0,0,0,0],"id":1,"left_children":[1,3,5,7,9,11,13,15,17,19,21,23,25,27,-1,-1,-1,-1,-1,29,31,33,35,-1,-1,-1,-1,-1,-1,-1,-1,-1,-1,-1,-1,-1,-1],"loss_changes":[3.3905064E7,9.578352E6,3.226892E6,4.71075E5,1.0391555E6,2.21953E5,1.433816E6,4.4099E4,1.0312E4,1.7191431E5,1.4139081E5,7.07275E3,7.817E3,2.777E3,0E0,0E0,0E0,0E0,0E0,1.8686156E4,1.9449389E4,2.216539E4,2.1478938E4,0E0,0E0,0E0,0E0,0E0,0E0,0E0,0E0,0E0,0E0,0E0,0E0,0E0,0E0],"parents":[2147483647,0,0,1,1,2,2,3,3,4,4,5,5,6,6,7,7,8,8,9,9,10,10,11,11,12,12,13,13,19,19,20,20,21,21,22,22],"right_children":[2,4,6,8,10,12,14,16,18,20,22,24,26,28,-1,-1,-1,-1,-1,30,32,34,36,-1,-1,-1,-1,-1,-1,-1,-1,-1,-1,-1,-1,-1,-1],"split_conditions":[4.797E2,2.5675E2,6.763E2,1.8875E2,3.4925E2,5.713E2,8.64E2,1.4715E2,2.312E2,3.061E2,3.979E2,5.0835E2,6.21E2,7.4495E2,1.1630242E2,-3.3648663E1,-2.9232883E1,-2.0433905E1,-1.5689872E1,2.8415E2,3.2975E2,3.754E2,4.2885E2,2.2134138E1,3.1468164E1,3.9295715E1,4.869894E1,5.9604797E1,7.060046E1,-1.1629676E1,-7.673074E0,-3.8943062E0,-4.4931182E-1,3.5566125E0,6.87492E0,1.0786346E1,1.6542744E1],"split_indices":[3,4,3,4,4,4,3,4,4,4,4,4,3,4,0,0,0,0,0,4,4,4,4,0,0,0,0,0,0,0,0,0,0,0,0,0,0],"split_type":[0,0,0,0,0,0,0,0,0,0,0,0,0,0,0,0,0,0,0,0,0,0,0,0,0,0,0,0,0,0,0,0,0,0,0,0,0],"sum_hessian":[2.077E3,1.693E3,3.84E2,7.25E2,9.68E2,2.14E2,1.7E2,5.88E2,1.37E2,4.77E2,4.91E2,1.14E2,1E2,1.42E2,2.8E1,3.48E2,2.4E2,8.1E1,5.6E1,2.15E2,2.62E2,3.33E2,1.58E2,1.5E1,9.9E1,5.2E1,4.8E1,7.5E1,6.7E1,1.16E2,9.9E1,1.34E2,1.28E2,1.84E2,1.49E2,1.18E2,4E1],"tree_param":{"num_deleted":"0","num_feature":"11","num_nodes":"37","size_leaf_vector":"1"}},{"base_weights":[9.022378E-1,-4.6528606E1,2.1668552E2,-1.1915258E2,3.309557E0,1.8708934E2,4.1996112E2,-1.2948152E2,-8.126628E1,-2.4543465E1,2.8401823E1,1.3648529E2,2.4221703E2,6.503716E1,1.03437416E2,-2.8223104E1,-2.4614792E1,-1.8766474E1,-1.3847014E1,-4.182152E1,-1.1202793E1,1.8199781E1,4.7890232E1,2.2676617E1,3.1562864E1,4.2819065E1,5.193689E1,-1.0024723E1,-6.902036E0,-3.4439106E0,-7.085951E-1,2.102997E0,5.004062E0,8.513145E0,1.4289612E1],"categories":[],"categories_nodes":[],"categories_segments":[],"categories_sizes":[],"default_left":[0,0,0,0,0,0,0,0,0,0,0,0,0,0,0,0,0,0,0,0,0,0,0,0,0,0,0,0,0,0,0,0,0,0,0],"id":2,"left_children":[1,3,5,7,9,11,13,15,17,19,21,23,25,-1,-1,-1,-1,-1,-1,27,29,31,33,-1,-1,-1,-1,-1,-1,-1,-1,-1,-1,-1,-1],"loss_changes":[2.181017E7,6.323565E6,2.231644E6,2.67709E5,7.254517E5,9.07065E5,2.74119E5,2.4154E4,1.693725E4,1.1293794E5,1.07685E5,6.9816E4,2.2997E4,0E0,0E0,0E0,0E0,0E0,0E0,1.1259875E4,1.2797344E4,1.8606094E4,2.0414844E4,0E0,0E0,0E0,0E0,0E0,0E0,0E0,0E0,0E0,0E0,0E0,0E0],"parents":[2147483647,0,0,1,1,2,2,3,3,4,4,5,5,6,6,7,7,8,8,9,9,10,10,11,11,12,12,19,19,20,20,21,21,22,22],"right_children":[2,4,6,8,10,12,14,16,18,20,22,24,26,-1,-1,-1,-1,-1,-1,28,30,32,34,-1,-1,-1,-1,-1,-1,-1,-1,-1,-1,-1,-1],"split_conditions":[4.8228E2,2.529E2,8.107E2,1.6845E2,3.461E2,6.396E2,1.0369E3,1.346E2,2.1325E2,3.0355E2,3.9465E2,5.508E2,7.161E2,6.503716E1,1.03437416E2,-2.8223104E1,-2.4614792E1,-1.8766474E1,-1.3847014E1,2.724E2,3.268E2,3.704E2,4.398E2,2.2676617E1,3.1562864E1,4.2819065E1,5.193689E1,-1.0024723E1,-6.902036E0,-3.4439106E0,-7.085951E-1,2.102997E0,5.004062E0,8.513145E0,1.4289612E1],"split_indices":[5,3,3,3,4,4,3,4,4,4,4,4,4,0,0,0,0,0,0,4,4,4,1,0,0,0,0,0,0,0,0,0,0,0,0],"split_type":[0,0,0,0,0,0,0,0,0,0,0,0,0,0,0,0,0,0,0,0,0,0,0,0,0,0,0,0,0,0,0,0,0,0,0],"sum_hessian":[2.129E3,1.746E3,3.83E2,7.1E2,1.036E3,3.36E2,4.7E1,5.56E2,1.54E2,4.91E2,5.45E2,1.77E2,1.59E2,2.6E1,2.1E1,1.9E2,3.66E2,7.2E1,8.2E1,2.13E2,2.78E2,3.59E2,1.86E2,8.8E1,8.9E1,6.6E1,9.3E1,9.7E1,1.16E2,1.55E2,1.23E2,1.7E2,1.89E2,1.54E2,3.2E1],"tree_param":{"num_deleted":"0","num_feature":"11","num_nodes":"35","size_leaf_vector":"1"}},{"base_weights":[1.3376983E-1,-3.8694942E1,1.6525157E2,-9.365109E1,2.687659E0,1.13272415E2,2.3262276E2,-1.0346207E2,-6.243435E1,-2.1251656E1,1.9486158E1,9.039875E1,1.3656432E2,2.1087434E2,8.212041E1,-2.2872261E1,-9.8970375E1,-1.464068E1,-1.0472214E1,-3.385915E1,-1.296527E1,1.0083146E1,3.1744968E1,1.318295E1,1.9241846E1,2.3878174E1,2.9697645E1,3.8474964E1,4.8055843E1,-2.0240856E1,-1.7667263E1,-7.5596404E0,-5.8016233E0,-3.72626E0,-1.5363768E0,3.9448074E-1,2.890585E0,5.318614E0,8.321903E0],"categories":[],"categories_nodes":[],"categories_segments":[],"categories_sizes":[],"default_left":[0,0,0,0,0,0,0,0,0,0,0,0,0,0,0,0,0,0,0,0,0,0,0,0,0,0,0,0,0,0,0,0,0,0,0,0,0,0,0],"id":3,"left_children":[1,3,5,7,9,11,13,15,17,19,21,23,25,27,-1,-1,29,-1,-1,31,33,35,37,-1,-1,-1,-1,-1,-1,-1,-1,-1,-1,-1,-1,-1,-1,-1,-1],"loss_changes":[1.3604787E7,3.907376E6,1.388417E6,2.195655E5,3.9491794E5,1.1019225E5,5.90798E5,1.6097E4,1.5584875E4,4.1871562E4,6.619055E4,1.058775E4,5.20675E3,3.9725E4,0E0,0E0,6.5725E2,0E0,0E0,1.9609062E3,7.221086E3,1.159652E4,1.1598781E4,0E0,0E0,0E0,0E0,0E0,0E0,0E0,0E0,0E0,0E0,0E0,0E0,0E0,0E0,0E0,0E0],"parents":[2147483647,0,0,1,1,2,2,3,3,4,4,5,5,6,6,7,7,8,8,9,9,10,10,11,11,12,12,13,13,16,16,19,19,20,20,21,21,22,22],"right_children":[2,4,6,8,10,12,14,16,18,20,22,24,26,28,-1,-1,30,-1,-1,32,34,36,38,-1,-1,-1,-1,-1,-1,-1,-1,-1,-1,-1,-1,-1,-1,-1,-1],"split_conditions":[4.5475E2,2.605E2,6.667E2,1.7655E2,3.389E2,5.608E2,1.032E3,1.316E2,2.2196E2,2.9405E2,3.8215E2,4.9505E2,6.0135E2,7.5825E2,8.212041E1,-2.2872261E1,1.5595E2,-1.464068E1,-1.0472214E1,2.751E2,3.163E2,3.5835E2,4.0765E2,1.318295E1,1.9241846E1,2.3878174E1,2.9697645E1,3.8474964E1,4.8055843E1,-2.0240856E1,-1.7667263E1,-7.5596404E0,-5.8016233E0,-3.72626E0,-1.5363768E0,3.9448074E-1,2.890585E0,5.318614E0,8.321903E0],"split_indices":[4,4,4,3,4,4,0,3,5,4,4,3,4,4,0,0,4,0,0,4,4,4,4,0,0,0,0,0,0,0,0,0,0,0,0,0,0,0,0],"split_type":[0,0,0,0,0,0,0,0,0,0,0,0,0,0,0,0,0,0,0,0,0,0,0,0,0,0,0,0,0,0,0,0,0,0,0,0,0,0,0],"sum_hessian":[2.12E3,1.717E3,4.03E2,7.37E2,9.8E2,2.29E2,1.74E2,5.59E2,1.78E2,4.04E2,5.76E2,1.18E2,1.11E2,1.57E2,1.7E1,1.56E2,4.03E2,8.3E1,9.5E1,1.59E2,2.45E2,3.27E2,2.49E2,2.5E1,9.3E1,5E1,6.1E1,1.01E2,5.6E1,3.26E2,7.7E1,8.4E1,7.5E1,1.17E2,1.28E2,1.15E2,2.12E2,1.66E2,8.3E1],"tree_param":{"num_deleted":"0","num_feature":"11","num_nodes":"39","size_leaf_vector":"1"}},{"base_weights":[-4.3434688E-1,-3.097496E1,1.3609666E2,-7.677579E1,3.271276E-1,1.1824492E2,2.9327267E2,-8.3483986E1,-5.5299942E1,-1.9116348E1,1.5049476E1,8.411839E1,1.5620502E2,4.7778393E1,7.673155E1,-1.8692041E1,-1.6063679E1,-1.2839685E1,-9.535853E0,-3.000405E1,-1.0918429E1,6.8474426E0,2.4453829E1,1.2930582E1,1.9148657E1,2.7831665E1,3.4775944E1,-6.889885E0,-5.1743197E0,-3.2338192E0,-1.3703401E0,2.0453794E-1,2.1615586E0,3.9625943E0,6.3932395E0],"categories":[],"categories_nodes":[],"categories_segments":[],"categories_sizes":[],"default_left":[0,0,0,0,0,0,0,0,0,0,0,0,0,0,0,0,0,0,0,0,0,0,0,0,0,0,0,0,0,0,0,0,0,0,0],"id":4,"left_children":[1,3,5,7,9,11,13,15,17,19,21,23,25,-1,-1,-1,-1,-1,-1,27,29,31,33,-1,-1,-1,-1,-1,-1,-1,-1,-1,-1,-1,-1],"loss_changes":[8.873255E6,2.4931625E6,1.0568035E6,9.709325E4,2.962739E5,4.41562E5,1.0004E5,9.4205E3,8.5349375E3,3.9480797E4,4.526497E4,3.6125125E4,2.5517E4,0E0,0E0,0E0,0E0,0E0,0E0,2.6174688E3,5.3555938E3,7.278453E3,8.919328E3,0E0,0E0,0E0,0E0,0E0,0E0,0E0,0E0,0E0,0E0,0E0,0E0],"parents":[2147483647,0,0,1,1,2,2,3,3,4,4,5,5,6,6,7,7,8,8,9,9,10,10,11,11,12,12,19,19,20,20,21,21,22,22],"right_children":[2,4,6,8,10,12,14,16,18,20,22,24,26,-1,-1,-1,-1,-1,-1,28,30,32,34,-1,-1,-1,-1,-1,-1,-1,-1,-1,-1,-1,-1],"split_conditions":[4.56E2,2.437E2,8.2515E2,1.634E2,3.366E2,6.32E2,1.14E3,1.2805E2,2.046E2,2.9065E2,3.797E2,5.375E2,7.26E2,4.7778393E1,7.673155E1,-1.8692041E1,-1.6063679E1,-1.2839685E1,-9.535853E0,2.6755E2,3.14E2,3.569E2,4.046E2,1.2930582E1,1.9148657E1,2.7831665E1,3.4775944E1,-6.889885E0,-5.1743197E0,-3.2338192E0,-1.3703401E0,2.0453794E-1,2.1615586E0,3.9625943E0,6.3932395E0],"split_indices":[3,4,4,4,4,3,1,4,4,3,4,4,3,0,0,0,0,0,0,4,4,4,4,0,0,0,0,0,0,0,0,0,0,0,0],"split_type":[0,0,0,0,0,0,0,0,0,0,0,0,0,0,0,0,0,0,0,0,0,0,0,0,0,0,0,0,0,0,0,0,0,0,0],"sum_hessian":[2.126E3,1.738E3,3.88E2,7.05E2,1.033E3,3.5E2,3.8E1,5.35E2,1.7E2,4.45E2,5.88E2,1.86E2,1.64E2,2.6E1,1.2E1,1.22E2,4.13E2,7.5E1,9.5E1,1.9E2,2.55E2,3.15E2,2.73E2,7.2E1,1.14E2,8.8E1,7.6E1,8.8E1,1.02E2,1.1E2,1.45E2,1.28E2,1.87E2,1.71E2,1.02E2],"tree_param":{"num_deleted":"0","num_feature":"11","num_nodes":"35","size_leaf_vector":"1"}},{"base_weights":[-2.4691518E-1,-2.4653316E1,1.0932961E2,-6.186565E1,5.0231206E-1,9.324249E1,2.1086531E2,-6.7355064E1,-4.6586693E1,-1.5669644E1,1.2299712E1,7.04808E1,2.4966213E1,3.6632046E1,6.1782146E1,-1.4462954E1,-1.2704244E1,-1.0660699E1,-7.8900423E0,-2.4287731E1,-9.246495E0,6.174537E0,2.182755E1,5.770084E1,1.6665066E1,-5.5197845E0,-4.120914E0,-2.7375195E0,-1.2370623E0,2.3208149E-1,1.9704808E0,3.6337116E0,6.062801E0,9.307271E0,1.2617093E1],"categories":[],"categories_nodes":[],"categories_segments":[],"categories_sizes":[],"default_left":[0,0,0,0,0,0,0,0,0,0,0,0,0,0,0,0,0,0,0,0,0,0,0,0,0,0,0,0,0,0,0,0,0,0,0],"id":5,"left_children":[1,3,5,7,9,11,13,15,17,19,21,23,-1,-1,-1,-1,-1,-1,-1,25,27,29,31,33,-1,-1,-1,-1,-1,-1,-1,-1,-1,-1,-1],"loss_changes":[5.667008E6,1.6222919E6,6.10838E5,5.5489E4,1.9765731E5,2.3207025E5,8.46705E4,5.142E3,6.9088125E3,2.3965672E4,3.482268E4,2.7530125E4,0E0,0E0,0E0,0E0,0E0,0E0,0E0,1.6997266E3,3.3412852E3,6.738084E3,6.715367E3,3.196125E3,0E0,0E0,0E0,0E0,0E0,0E0,0E0,0E0,0E0,0E0,0E0],"parents":[2147483647,0,0,1,1,2,2,3,3,4,4,5,5,6,6,7,7,8,8,9,9,10,10,11,11,19,19,20,20,21,21,22,22,23,23],"right_children":[2,4,6,8,10,12,14,16,18,20,22,24,-1,-1,-1,-1,-1,-1,-1,26,28,30,32,34,-1,-1,-1,-1,-1,-1,-1,-1,-1,-1,-1],"split_conditions":[4.6752E2,2.3975E2,7.9365E2,1.5995E2,3.342E2,6.4805E2,1.078E3,1.375E2,2.0285E2,2.9035E2,3.8485E2,5.5675E2,2.4966213E1,3.6632046E1,6.1782146E1,-1.4462954E1,-1.2704244E1,-1.0660699E1,-7.8900423E0,2.687E2,3.1155E2,3.6105E2,4.132E2,5.161E2,1.6665066E1,-5.5197845E0,-4.120914E0,-2.7375195E0,-1.2370623E0,2.3208149E-1,1.9704808E0,3.6337116E0,6.062801E0,9.307271E0,1.2617093E1],"split_indices":[5,4,4,4,4,4,2,4,4,4,4,4,0,0,0,0,0,0,0,4,4,4,4,4,0,0,0,0,0,0,0,0,0,0,0],"split_type":[0,0,0,0,0,0,0,0,0,0,0,0,0,0,0,0,0,0,0,0,0,0,0,0,0,0,0,0,0,0,0,0,0,0,0],"sum_hessian":[2.117E3,1.732E3,3.85E2,6.98E2,1.034E3,3.34E2,5.1E1,5.11E2,1.87E2,4.36E2,5.98E2,1.96E2,1.38E2,4.2E1,9E0,2.15E2,2.96E2,9.3E1,9.4E1,1.85E2,2.51E2,3.65E2,2.33E2,1.01E2,9.5E1,9.4E1,9.1E1,1.01E2,1.5E2,1.55E2,2.1E2,1.65E2,6.8E1,3.6E1,6.5E1],"tree_param":{"num_deleted":"0","num_feature":"11","num_nodes":"35","size_leaf_vector":"1"}},{"base_weights":[1.1952538E-1,-1.9632357E1,8.582739E1,-4.98463E1,3.829084E-1,6.050623E1,1.2263968E2,-5.4147175E1,-3.8401665E1,-1.2413041E1,1.0028102E1,5.0912857E1,1.5647074E1,1.108534E2,4.189236E1,-1.2436545E1,-1.0465033E1,-8.739164E0,-6.4819922E0,-1.9758831E1,-7.4231563E0,4.145171E0,1.5957119E1,8.241283E0,1.1375322E1,2.0097212E1,2.4222715E1,-4.5142975E0,-3.4296854E0,-2.0402055E0,-7.373973E-1,5.7262804E-2,1.2892997E0,2.4725673E0,4.0737395E0],"categories":[],"categories_nodes":[],"categories_segments":[],"categories_sizes":[],"default_left":[0,0,0,0,0,0,0,0,0,0,0,0,0,0,0,0,0,0,0,0,0,0,0,0,0,0,0,0,0,0,0,0,0,0,0],"id":6,"left_children":[1,3,5,7,9,11,13,15,17,19,21,23,-1,25,-1,-1,-1,-1,-1,27,29,31,33,-1,-1,-1,-1,-1,-1,-1,-1,-1,-1,-1,-1],"loss_changes":[3.5703008E6,1.03654344E6,3.6077075E5,3.153925E4,1.2749331E5,3.615625E4,1.4051E5,3.979E3,4.6107812E3,1.6127984E4,2.0478168E4,6.6866562E3,0E0,3.040875E3,0E0,0E0,0E0,0E0,0E0,9.271875E2,2.7230947E3,2.6356606E3,4.394125E3,0E0,0E0,0E0,0E0,0E0,0E0,0E0,0E0,0E0,0E0,0E0,0E0],"parents":[2147483647,0,0,1,1,2,2,3,3,4,4,5,5,6,6,7,7,8,8,9,9,10,10,11,11,13,13,19,19,20,20,21,21,22,22],"right_children":[2,4,6,8,10,12,14,16,18,20,22,24,-1,26,-1,-1,-1,-1,-1,28,30,32,34,-1,-1,-1,-1,-1,-1,-1,-1,-1,-1,-1,-1],"split_conditions":[4.5475E2,2.3905E2,6.874E2,1.575E2,3.366E2,5.935E2,1.064E3,1.2475E2,1.979E2,2.89E2,3.7825E2,5.352E2,1.5647074E1,7.5453E2,4.189236E1,-1.2436545E1,-1.0465033E1,-8.739164E0,-6.4819922E0,2.6615E2,3.1785E2,3.5535E2,4.0345E2,8.241283E0,1.1375322E1,2.0097212E1,2.4222715E1,-4.5142975E0,-3.4296854E0,-2.0402055E0,-7.373973E-1,5.7262804E-2,1.2892997E0,2.4725673E0,4.0737395E0],"split_indices":[4,3,4,3,4,4,1,4,3,4,4,4,0,5,0,0,0,0,0,4,4,4,4,0,0,0,0,0,0,0,0,0,0,0,0],"split_type":[0,0,0,0,0,0,0,0,0,0,0,0,0,0,0,0,0,0,0,0,0,0,0,0,0,0,0,0,0,0,0,0,0,0,0],"sum_hessian":[2.107E3,1.713E3,3.94E2,6.82E2,1.031E3,2.35E2,1.59E2,4.93E2,1.89E2,4.43E2,5.88E2,1.55E2,8E1,1.42E2,1.7E1,8.5E1,4.08E2,9.7E1,9.2E1,1.78E2,2.65E2,2.96E2,2.92E2,6.2E1,9.3E1,7.6E1,6.6E1,8.2E1,9.6E1,1.51E2,1.14E2,1.11E2,1.85E2,1.63E2,1.29E2],"tree_param":{"num_deleted":"0","num_feature":"11","num_nodes":"35","size_leaf_vector":"1"}},{"base_weights":[1.203026E-1,-1.507769E1,7.250714E1,-3.7949696E1,1.9886438E0,6.5161E1,1.6260075E2,-4.200838E1,-2.3265419E1,-6.7085977E0,1.0325278E1,4.743694E1,8.468208E1,2.6734404E1,4.112116E1,-4.4531013E1,-7.238346E0,-5.3979263E0,-3.8232095E0,-1.1933841E1,-2.3519516E0,7.078412E0,1.7757877E1,8.089395E0,1.1040568E1,1.4912582E1,1.8527985E1,-1.0326802E1,-8.656807E0,-2.8556144E0,-1.9050982E0,-8.6406785E-1,-4.2811513E-2,8.359869E-1,1.8297129E0,2.8606446E0,4.541832E0],"categories":[],"categories_nodes":[],"categories_segments":[],"categories_sizes":[],"default_left":[0,0,0,0,0,0,0,0,0,0,0,0,0,0,0,0,0,0,0,0,0,0,0,0,0,0,0,0,0,0,0,0,0,0,0,0,0],"id":7,"left_children":[1,3,5,7,9,11,13,15,17,19,21,23,25,-1,-1,27,-1,-1,-1,29,31,33,35,-1,-1,-1,-1,-1,-1,-1,-1,-1,-1,-1,-1,-1,-1],"loss_changes":[2.326778E6,6.82392E5,2.3230038E5,4.3543125E4,7.272E4,1.139665E5,6.1064375E3,6.9575E3,2.018375E3,1.1149318E4,1.2230223E4,7.5925625E3,6.05725E3,0E0,0E0,1.3345625E3,0E0,0E0,0E0,1.1229922E3,1.1310823E3,2.1098613E3,2.3264531E3,0E0,0E0,0E0,0E0,0E0,0E0,0E0,0E0,0E0,0E0,0E0,0E0,0E0,0E0],"parents":[2147483647,0,0,1,1,2,2,3,3,4,4,5,5,6,6,7,7,8,8,9,9,10,10,11,11,12,12,15,15,19,19,20,20,21,21,22,22],"right_children":[2,4,6,8,10,12,14,16,18,20,22,24,26,-1,-1,28,-1,-1,-1,30,32,34,36,-1,-1,-1,-1,-1,-1,-1,-1,-1,-1,-1,-1,-1,-1],"split_conditions":[4.9505E2,2.6365E2,8.4E2,1.979E2,3.5365E2,6.553E2,1.14E3,1.5095E2,2.335E2,3.106E2,4.012E2,5.6695E2,7.3305E2,2.6734404E1,4.112116E1,1.223E2,-7.238346E0,-5.3979263E0,-3.8232095E0,2.8765E2,3.318E2,3.7295E2,4.238E2,8.089395E0,1.1040568E1,1.4912582E1,1.8527985E1,-1.0326802E1,-8.656807E0,-2.8556144E0,-1.9050982E0,-8.6406785E-1,-4.2811513E-2,8.359869E-1,1.8297129E0,2.8606446E0,4.541832E0],"split_indices":[3,4,2,3,4,4,1,4,4,4,4,4,4,0,0,4,0,0,0,4,4,4,4,0,0,0,0,0,0,0,0,0,0,0,0,0,0],"split_type":[0,0,0,0,0,0,0,0,0,0,0,0,0,0,0,0,0,0,0,0,0,0,0,0,0,0,0,0,0,0,0,0,0,0,0,0,0],"sum_hessian":[2.113E3,1.747E3,3.66E2,7.46E2,1.001E3,3.4E2,2.6E1,5.83E2,1.63E2,4.9E2,5.11E2,1.8E2,1.6E2,1.8E1,8E0,4.02E2,1.81E2,8.3E1,8E1,2.22E2,2.68E2,3.57E2,1.54E2,9.8E1,8.2E1,7.5E1,8.5E1,5.4E1,3.48E2,1.1E2,1.12E2,1.39E2,1.29E2,1.5E2,2.07E2,9.3E1,6.1E1],"tree_param":{"num_deleted":"0","num_feature":"11","num_nodes":"37","size_leaf_vector":"1"}},{"base_weights":[2.5651607E-1,-1.2125617E1,5.7852512E1,-3.0546059E1,1.4459038E0,5.1439835E1,1.4219856E2,-3.4197243E1,-2.0480364E1,-5.5089974E0,8.467196E0,3.810832E1,6.824633E1,2.1695162E1,4.0903057E1,-3.6810017E1,-6.229282E0,-4.867005E0,-3.2764707E0,-9.895537E0,-1.9458172E0,6.5257277E0,1.6824575E1,3.4377037E1,9.810476E0,1.2090816E1,1.4904526E1,-8.63599E0,-7.102096E0,-2.4739587E0,-1.6711253E0,-6.9258183E-1,-2.1072865E-2,8.8685286E-1,1.7826153E0,2.8818133E0,4.2108684E0,5.836909E0,7.552549E0],"categories":[],"categories_nodes":[],"categories_segments":[],"categories_sizes":[],"default_left":[0,0,0,0,0,0,0,0,0,0,0,0,0,0,0,0,0,0,0,0,0,0,0,0,0,0,0,0,0,0,0,0,0,0,0,0,0,0,0],"id":8,"left_children":[1,3,5,7,9,11,13,15,17,19,21,23,25,-1,-1,27,-1,-1,-1,29,31,33,35,37,-1,-1,-1,-1,-1,-1,-1,-1,-1,-1,-1,-1,-1,-1,-1],"loss_changes":[1.5154561E6,4.3728262E5,1.9605762E5,2.6569375E4,4.92697E4,7.604294E4,3.2453875E4,3.1818125E3,2.760625E3,7.905173E3,8.035457E3,6.399125E3,3.0264375E3,0E0,0E0,8.424375E2,0E0,0E0,0E0,7.6154297E2,7.8422546E2,2.0026348E3,6.570293E2,1.5525312E3,0E0,0E0,0E0,0E0,0E0,0E0,0E0,0E0,0E0,0E0,0E0,0E0,0E0,0E0,0E0],"parents":[2147483647,0,0,1,1,2,2,3,3,4,4,5,5,6,6,7,7,8,8,9,9,10,10,11,11,12,12,15,15,19,19,20,20,21,21,22,22,23,23],"right_children":[2,4,6,8,10,12,14,16,18,20,22,24,26,-1,-1,28,-1,-1,-1,30,32,34,36,38,-1,-1,-1,-1,-1,-1,-1,-1,-1,-1,-1,-1,-1,-1,-1],"split_conditions":[4.9505E2,2.621E2,8.4E2,1.733E2,3.5365E2,6.56E2,1.078E3,1.4405E2,2.256E2,3.0935E2,4.108E2,6.02E2,7.335E2,2.1695162E1,4.0903057E1,1.196E2,-6.229282E0,-4.867005E0,-3.2764707E0,2.7645E2,3.3305E2,3.8115E2,4.3856E2,5.4275E2,9.810476E0,1.2090816E1,1.4904526E1,-8.63599E0,-7.102096E0,-2.4739587E0,-1.6711253E0,-6.9258183E-1,-2.1072865E-2,8.8685286E-1,1.7826153E0,2.8818133E0,4.2108684E0,5.836909E0,7.552549E0],"split_indices":[3,4,2,1,4,3,2,4,3,4,4,3,3,0,0,3,0,0,0,4,4,4,5,4,0,0,0,0,0,0,0,0,0,0,0,0,0,0,0],"split_type":[0,0,0,0,0,0,0,0,0,0,0,0,0,0,0,0,0,0,0,0,0,0,0,0,0,0,0,0,0,0,0,0,0,0,0,0,0,0,0],"sum_hessian":[2.123E3,1.748E3,3.75E2,7.41E2,1.007E3,3.5E2,2.5E1,5.42E2,1.99E2,5.06E2,5.01E2,1.97E2,1.53E2,1.8E1,7E0,2.86E2,2.56E2,1E2,9.9E1,2.26E2,2.8E2,4.08E2,9.3E1,1.5E2,4.7E1,7.3E1,8E1,4.3E1,2.43E2,8.4E1,1.42E2,1.53E2,1.27E2,2.19E2,1.89E2,6.2E1,3.1E1,6.3E1,8.7E1],"tree_param":{"num_deleted":"0","num_feature":"11","num_nodes":"39","size_leaf_vector":"1"}},{"base_weights":[3.2179408E-2,-9.881685E0,4.6735077E1,-2.444508E1,1.3408104E0,4.145525E1,1.1106378E2,-2.7015692E1,-1.4882568E1,-3.69781E0,7.307565E0,2.7921415E1,5.1703842E1,1.1901303E2,1.0138928E1,-2.8643044E1,-4.5650973E0,-3.4469044E0,-2.4277575E0,-6.962385E0,-3.9563584E-1,5.898051E0,1.4351716E1,4.748386E0,6.1016154E0,8.692913E0,1.1503378E1,7.410258E0,2.495599E1,-6.8179307E0,-5.565754E0,-1.7906926E0,-1.0096943E0,-3.3348164E-1,6.835592E-2,8.810882E-1,1.5519699E0,2.4047093E0,3.3470943E0],"categories":[],"categories_nodes":[],"categories_segments":[],"categories_sizes":[],"default_left":[0,0,0,0,0,0,0,0,0,0,0,0,0,0,0,0,0,0,0,0,0,0,0,0,0,0,0,0,0,0,0,0,0,0,0,0,0,0,0],"id":9,"left_children":[1,3,5,7,9,11,13,15,17,19,21,23,25,27,-1,29,-1,-1,-1,31,33,35,37,-1,-1,-1,-1,-1,-1,-1,-1,-1,-1,-1,-1,-1,-1,-1,-1],"loss_changes":[9.968511E5,2.90298E5,1.2344181E5,1.8599406E4,3.0211492E4,4.7102312E4,7.4035625E3,3.492125E3,8.6203516E2,5.8724517E3,4.482617E3,9.297422E2,6.9833125E3,6.72075E3,0E0,9.7615625E2,0E0,0E0,0E0,9.9894434E2,2.5565817E2,1.035707E3,2.2056445E2,0E0,0E0,0E0,0E0,0E0,0E0,0E0,0E0,0E0,0E0,0E0,0E0,0E0,0E0,0E0,0E0],"parents":[2147483647,0,0,1,1,2,2,3,3,4,4,5,5,6,6,7,7,8,8,9,9,10,10,11,11,12,12,13,13,15,15,19,19,20,20,21,21,22,22],"right_children":[2,4,6,8,10,12,14,16,18,20,22,24,26,28,-1,30,-1,-1,-1,32,34,36,38,-1,-1,-1,-1,-1,-1,-1,-1,-1,-1,-1,-1,-1,-1,-1,-1],"split_conditions":[5.109E2,2.634E2,8.4E2,1.979E2,3.627E2,6.1375E2,4.732E-1,1.52E2,2.387E2,3.1915E2,4.154E2,5.4385E2,7.12E2,2.14E-1,1.0138928E1,1.209E2,-4.5650973E0,-3.4469044E0,-2.4277575E0,2.931E2,3.35E2,3.866E2,4.3805E2,4.748386E0,6.1016154E0,8.692913E0,1.1503378E1,7.410258E0,2.495599E1,-6.8179307E0,-5.565754E0,-1.7906926E0,-1.0096943E0,-3.3348164E-1,6.835592E-2,8.810882E-1,1.5519699E0,2.4047093E0,3.3470943E0],"split_indices":[1,3,2,3,4,4,10,4,1,4,3,3,3,10,0,4,0,0,0,4,3,4,4,0,0,0,0,0,0,0,0,0,0,0,0,0,0,0,0],"split_type":[0,0,0,0,0,0,0,0,0,0,0,0,0,0,0,0,0,0,0,0,0,0,0,0,0,0,0,0,0,0,0,0,0,0,0,0,0,0,0],"sum_hessian":[2.151E3,1.775E3,3.76E2,7.72E2,1.003E3,3.49E2,2.7E1,6.07E2,1.65E2,5.44E2,4.59E2,1.52E2,1.97E2,2.3E1,4E0,4.33E2,1.74E2,8.6E1,7.9E1,2.73E2,2.71E2,3.84E2,7.5E1,6.2E1,9E1,8.5E1,1.12E2,2E0,2.1E1,5.1E1,3.82E2,1.32E2,1.41E2,9.9E1,1.72E2,2.15E2,1.69E2,4.1E1,3.4E1],"tree_param":{"num_deleted":"0","num_feature":"11","num_nodes":"39","size_leaf_vector":"1"}},{"base_weights":[-1.9702926E-1,-8.217639E0,3.733473E1,-2.0737175E1,5.220599E-2,3.221659E1,8.831535E1,-2.2936798E1,-1.6455109E1,-4.4174457E0,5.1576385E0,2.2282349E1,4.0702473E1,1.3807111E1,1.2059899E2,-5.83939E0,-4.467696E0,-3.5495853E0,-2.524655E0,-7.8716917E0,-1.9593104E0,3.4459414E0,9.031937E0,1.5709461E1,2.3971525E1,6.7050757E0,8.874648E0,2.8031494E1,1.0266456E1,-1.8484519E0,-1.2841514E0,-7.3711306E-1,-1.4267264E-1,3.4386593E-1,9.3460244E-1,1.5992469E0,2.675452E0,1.5628433E0,3.2410893E0,4.379453E0,5.2595916E0],"categories":[],"categories_nodes":[],"categories_segments":[],"categories_sizes":[],"default_left":[0,0,0,0,0,0,0,0,0,0,0,0,0,0,0,0,0,0,0,0,0,0,0,0,0,0,0,0,0,0,0,0,0,0,0,0,0,0,0,0,0],"id":10,"left_children":[1,3,5,7,9,11,13,15,17,19,21,23,25,-1,27,-1,-1,-1,-1,29,31,33,35,37,39,-1,-1,-1,-1,-1,-1,-1,-1,-1,-1,-1,-1,-1,-1,-1,-1],"loss_changes":[6.2915344E5,1.7828772E5,9.317553E4,6.0745312E3,2.3709434E4,2.7418156E4,1.22143125E4,1.0332812E3,9.450742E2,4.688593E3,3.1852148E3,1.3665469E3,3.2545625E3,0E0,7.7076875E3,0E0,0E0,0E0,0E0,3.9803613E2,6.9638806E2,7.080781E2,5.5910156E2,1.0424805E1,1.7695312E1,0E0,0E0,0E0,0E0,0E0,0E0,0E0,0E0,0E0,0E0,0E0,0E0,0E0,0E0,0E0,0E0],"parents":[2147483647,0,0,1,1,2,2,3,3,4,4,5,5,6,6,7,7,8,8,9,9,10,10,11,11,12,12,14,14,19,19,20,20,21,21,22,22,23,23,24,24],"right_children":[2,4,6,8,10,12,14,16,18,20,22,24,26,-1,28,-1,-1,-1,-1,30,32,34,36,38,40,-1,-1,-1,-1,-1,-1,-1,-1,-1,-1,-1,-1,-1,-1,-1,-1],"split_conditions":[4.94E2,2.361E2,8.565E2,1.5315E2,3.5125E2,6.1375E2,1.14E3,1.1785E2,2.078E2,2.9665E2,3.998E2,5.349E2,6.876E2,1.3807111E1,5.09325E5,-5.83939E0,-4.467696E0,-3.5495853E0,-2.524655E0,2.701E2,3.204E2,3.7165E2,4.3805E2,4.797E2,5.675E2,6.7050757E0,8.874648E0,2.8031494E1,1.0266456E1,-1.8484519E0,-1.2841514E0,-7.3711306E-1,-1.4267264E-1,3.4386593E-1,9.3460244E-1,1.5992469E0,2.675452E0,1.5628433E0,3.2410893E0,4.379453E0,5.2595916E0],"split_indices":[1,4,1,4,4,4,1,4,4,4,4,1,3,0,9,0,0,0,0,4,4,3,4,3,3,0,0,0,0,0,0,0,0,0,0,0,0,0,0,0,0],"split_type":[0,0,0,0,0,0,0,0,0,0,0,0,0,0,0,0,0,0,0,0,0,0,0,0,0,0,0,0,0,0,0,0,0,0,0,0,0,0,0,0,0],"sum_hessian":[2.088E3,1.721E3,3.67E2,6.84E2,1.037E3,3.35E2,3.2E1,4.49E2,2.35E2,5.53E2,4.84E2,1.56E2,1.79E2,2.2E1,1E1,3.5E1,4.14E2,1.73E2,6.2E1,2.29E2,3.24E2,3.37E2,1.47E2,3.4E1,1.22E2,6.4E1,1.15E2,7E0,3E0,1.15E2,1.14E2,1.35E2,1.89E2,1.41E2,1.96E2,1.21E2,2.6E1,3E0,3.1E1,7E1,5.2E1],"tree_param":{"num_deleted":"0","num_feature":"11","num_nodes":"41","size_leaf_vector":"1"}},{"base_weights":[6.058111E-1,-6.0529113E0,3.1269384E1,-1.5583723E1,1.011212E0,2.7938543E1,8.688051E1,-1.7427887E1,-9.243595E0,-2.0902126E0,5.308184E0,2.0179142E1,3.602603E1,9.472613E1,5.9710207E0,-1.974872E1,-1.5959477E1,-2.1396592E0,-1.5663317E0,-4.787114E0,-2.7863958E-1,4.111656E0,9.802828E0,1.6965876E1,4.712951E0,6.516824E0,8.993999E0,4.8234134E0,1.949219E1,-4.8404136E0,-3.8046777E0,-3.3658931E0,-2.8866444E0,-1.1936778E0,-7.540375E-1,-2.4689074E-1,1.3575155E-1,6.638269E-1,1.0671741E0,1.5946192E0,2.2748117E0,2.760331E0,3.558881E0],"categories":[],"categories_nodes":[],"categories_segments":[],"categories_sizes":[],"default_left":[0,0,0,0,0,0,0,0,0,0,0,0,0,0,0,0,0,0,0,0,0,0,0,0,0,0,0,0,0,0,0,0,0,0,0,0,0,0,0,0,0,0,0],"id":11,"left_children":[1,3,5,7,9,11,13,15,17,19,21,23,25,27,-1,29,31,-1,-1,33,35,37,39,41,-1,-1,-1,-1,-1,-1,-1,-1,-1,-1,-1,-1,-1,-1,-1,-1,-1,-1,-1],"loss_changes":[4.3488897E5,1.1783772E5,6.796078E4,8.549609E3,1.3417789E4,2.1864469E4,6.567328E3,1.6477812E3,2.6538574E2,2.856762E3,2.2291963E3,1.6236797E3,3.9219531E3,1.1254062E3,0E0,2.47E2,2.3246094E2,0E0,0E0,2.597964E2,3.2203586E2,3.07312E2,1.6230762E2,1.3949219E1,0E0,0E0,0E0,0E0,0E0,0E0,0E0,0E0,0E0,0E0,0E0,0E0,0E0,0E0,0E0,0E0,0E0,0E0,0E0],"parents":[2147483647,0,0,1,1,2,2,3,3,4,4,5,5,6,6,7,7,8,8,9,9,10,10,11,11,12,12,13,13,15,15,16,16,19,19,20,20,21,21,22,22,23,23],"right_children":[2,4,6,8,10,12,14,16,18,20,22,24,26,28,-1,30,32,-1,-1,34,36,38,40,42,-1,-1,-1,-1,-1,-1,-1,-1,-1,-1,-1,-1,-1,-1,-1,-1,-1,-1,-1],"split_conditions":[5.1021E2,2.649E2,1.0369E3,1.9615E2,3.677E2,6.553E2,4.732E-1,1.3805E2,2.387E2,3.14E2,4.154E2,5.74E2,7.87E2,3.109E-1,5.9710207E0,1.157E2,1.5425E2,-2.1396592E0,-1.5663317E0,2.8765E2,3.3995E2,3.925E2,4.45E2,5.288E2,4.712951E0,6.516824E0,8.993999E0,4.8234134E0,1.949219E1,-4.8404136E0,-3.8046777E0,-3.3658931E0,-2.8866444E0,-1.1936778E0,-7.540375E-1,-2.4689074E-1,1.3575155E-1,6.638269E-1,1.0671741E0,1.5946192E0,2.2748117E0,2.760331E0,3.558881E0],"split_indices":[5,4,3,0,4,4,10,4,1,3,3,3,3,10,0,4,4,0,0,4,4,4,1,4,0,0,0,0,0,0,0,0,0,0,0,0,0,0,0,0,0,0,0],"split_type":[0,0,0,0,0,0,0,0,0,0,0,0,0,0,0,0,0,0,0,0,0,0,0,0,0,0,0,0,0,0,0,0,0,0,0,0,0,0,0,0,0,0,0],"sum_hessian":[2.128E3,1.749E3,3.79E2,7.44E2,1.005E3,3.59E2,2E1,5.75E2,1.69E2,5.84E2,4.21E2,1.85E2,1.74E2,1.7E1,3E0,2.18E2,3.57E2,8E1,8.9E1,2.34E2,3.5E2,3.34E2,8.7E1,9.8E1,8.7E1,1.29E2,4.5E1,1E0,1.6E1,2.6E1,1.92E2,2.21E2,1.36E2,1.06E2,1.28E2,1.75E2,1.75E2,2.05E2,1.29E2,4.3E1,4.4E1,2.4E1,7.4E1],"tree_param":{"num_deleted":"0","num_feature":"11","num_nodes":"43","size_leaf_vector":"1"}},{"base_weights":[3.8135904E-1,-4.993331E0,2.4203718E1,-1.2841641E1,5.248616E-1,2.002434E1,4.505051E1,-1.4241203E1,-8.968511E0,-2.3725483E0,3.4157155E0,1.4601361E1,2.4782696E1,7.6188636E0,6.1484005E1,-3.4026685E0,-1.3468814E1,-1.0673851E1,-7.4937973E0,-4.276974E0,-8.643617E-1,2.5451133E0,6.9325814E0,2.3425393E0,3.1870396E0,2.236139E1,5.632878E0,1.3848093E1,5.4938235E0,-2.806558E0,-2.4799018E0,-6.0567474E-1,-2.1452634E0,-1.6135101E0,-1.2851071E0,-1.015273E0,-6.778869E-1,-3.4590727E-1,-4.1283887E-2,2.4188052E-1,6.6757566E-1,1.2106066E0,1.7229731E0,4.4921412E0,1.1734619E0],"categories":[],"categories_nodes":[],"categories_segments":[],"categories_sizes":[],"default_left":[0,0,0,0,0,0,0,0,0,0,0,0,0,0,0,0,0,0,0,0,0,0,0,0,0,0,0,0,0,0,0,0,0,0,0,0,0,0,0,0,0,0,0,0,0],"id":12,"left_children":[1,3,5,7,9,11,13,15,17,19,21,23,25,-1,27,-1,29,31,33,35,37,39,41,-1,-1,43,-1,-1,-1,-1,-1,-1,-1,-1,-1,-1,-1,-1,-1,-1,-1,-1,-1,-1,-1],"loss_changes":[2.7821897E5,7.679268E4,3.3948562E4,3.8402188E3,8.735884E3,8.282625E3,5.2025625E3,9.185156E2,4.154453E2,1.4927346E3,1.5806104E3,4.2598438E2,8.195E2,0E0,2.8470625E3,0E0,8.1703125E1,3.2177734E0,1.4970215E1,1.4597705E2,1.6585957E2,4.4070312E2,1.002583E2,0E0,0E0,4.513672E1,0E0,0E0,0E0,0E0,0E0,0E0,0E0,0E0,0E0,0E0,0E0,0E0,0E0,0E0,0E0,0E0,0E0,0E0,0E0],"parents":[2147483647,0,0,1,1,2,2,3,3,4,4,5,5,6,6,7,7,8,8,9,9,10,10,11,11,12,12,14,14,16,16,17,17,18,18,19,19,20,20,21,21,22,22,25,25],"right_children":[2,4,6,8,10,12,14,16,18,20,22,24,26,-1,28,-1,30,32,34,36,38,40,42,-1,-1,44,-1,-1,-1,-1,-1,-1,-1,-1,-1,-1,-1,-1,-1,-1,-1,-1,-1,-1,-1],"split_conditions":[4.8255E2,2.587E2,7.881E2,1.6195E2,3.509E2,6.159E2,1.0369E3,1.264E2,2.0725E2,3.09E2,4.0985E2,5.4174E2,7.219E2,7.6188636E0,4.339E-1,-3.4026685E0,1.497E2,4.77998E5,2.361E2,2.8565E2,3.253E2,3.7235E2,4.3805E2,2.3425393E0,3.1870396E0,7.45E2,5.632878E0,1.3848093E1,5.4938235E0,-2.806558E0,-2.4799018E0,-6.0567474E-1,-2.1452634E0,-1.6135101E0,-1.2851071E0,-1.015273E0,-6.778869E-1,-3.4590727E-1,-4.1283887E-2,2.4188052E-1,6.6757566E-1,1.2106066E0,1.7229731E0,4.4921412E0,1.1734619E0],"split_indices":[2,4,4,3,3,3,3,4,3,3,4,5,4,0,10,0,4,6,4,4,4,3,4,0,0,0,0,0,0,0,0,0,0,0,0,0,0,0,0,0,0,0,0,0,0],"split_type":[0,0,0,0,0,0,0,0,0,0,0,0,0,0,0,0,0,0,0,0,0,0,0,0,0,0,0,0,0,0,0,0,0,0,0,0,0,0,0,0,0,0,0,0,0],"sum_hessian":[2.171E3,1.772E3,3.99E2,7.31E2,1.041E3,3.34E2,6.5E1,5.35E2,1.96E2,5.2E2,5.21E2,1.58E2,1.76E2,4.8E1,1.7E1,1.12E2,4.23E2,8.8E1,1.08E2,2.29E2,2.91E2,4.19E2,1.02E2,5.3E1,1.05E2,1.07E2,6.9E1,1.3E1,4E0,2.69E2,1.54E2,1E0,8.7E1,6.6E1,4.2E1,1.18E2,1.11E2,1.25E2,1.66E2,1.57E2,2.62E2,7E1,3.2E1,1.06E2,1E0],"tree_param":{"num_deleted":"0","num_feature":"11","num_nodes":"45","size_leaf_vector":"1"}},{"base_weights":[1.0762118E-1,-4.3003955E0,1.8497223E1,-1.0586644E1,-5.040239E-2,1.6153183E1,5.1410034E1,-1.1790019E1,-8.383851E0,-2.7159646E0,1.9693245E0,1.0803455E1,2.1365206E1,3.9705322E1,7.424556E1,-1.364702E1,-2.227186E0,-1.8701531E0,-6.718003E0,-4.012451E0,-1.4922229E0,7.1457773E-1,3.415192E0,7.7278066E0,2.4265726E0,1.9303755E1,5.3614535E0,2.9357514E0,4.325832E1,8.2011055E1,1.9887085E0,-3.3318639E0,-2.5865233E0,-1.4397153E0,-1.1288148E0,-9.315805E-1,-6.4756083E-1,-3.9018747E-1,-1.5658908E-1,3.207425E-2,2.8484914E-1,5.620213E-1,9.9924594E-1,1.5823139E0,6.2625885E-1,3.2861137E0,4.0785522E0,9.724136E0,5.064775E0,3.5179565E0,1.7963263E1],"categories":[],"categories_nodes":[],"categories_segments":[],"categories_sizes":[],"default_left":[0,0,0,0,0,0,0,0,0,0,0,0,0,0,0,0,0,0,0,0,0,0,0,0,0,0,0,0,0,0,0,0,0,0,0,0,0,0,0,0,0,0,0,0,0,0,0,0,0,0,0],"id":13,"left_children":[1,3,5,7,9,11,13,15,17,19,21,23,25,27,29,31,-1,-1,33,35,37,39,41,43,-1,45,-1,-1,47,49,-1,-1,-1,-1,-1,-1,-1,-1,-1,-1,-1,-1,-1,-1,-1,-1,-1,-1,-1,-1,-1],"loss_changes":[1.731462E5,4.6032023E4,3.1032062E4,1.7434453E3,5.545183E3,1.0559867E4,4.268711E3,3.9097266E2,3.382539E2,6.98447E2,1.0606794E3,6.9537695E2,1.6701328E3,1.1434062E3,3.1792148E3,2.5574219E1,0E0,0E0,8.400391E0,9.241797E1,7.330438E1,1.23661896E2,2.4617212E2,2.675122E1,0E0,1.18625E2,0E0,0E0,4.0364258E2,1.9399219E3,0E0,0E0,0E0,0E0,0E0,0E0,0E0,0E0,0E0,0E0,0E0,0E0,0E0,0E0,0E0,0E0,0E0,0E0,0E0,0E0,0E0],"parents":[2147483647,0,0,1,1,2,2,3,3,4,4,5,5,6,6,7,7,8,8,9,9,10,10,11,11,12,12,13,13,14,14,15,15,18,18,19,19,20,20,21,21,22,22,23,23,25,25,28,28,29,29],"right_children":[2,4,6,8,10,12,14,16,18,20,22,24,26,28,30,32,-1,-1,34,36,38,40,42,44,-1,46,-1,-1,48,50,-1,-1,-1,-1,-1,-1,-1,-1,-1,-1,-1,-1,-1,-1,-1,-1,-1,-1,-1,-1,-1],"split_conditions":[4.3856E2,2.432E2,9.1475E2,1.5425E2,3.3305E2,6.1375E2,1.078E3,1.264E2,2.03E2,2.9665E2,3.7735E2,5.349E2,7.58E2,2.14E-1,5.09325E5,1.145E2,-2.227186E0,-1.8701531E0,2.2825E2,2.7125E2,3.1915E2,3.627E2,4.0985E2,2.356484E6,2.4265726E0,6.6517E2,5.3614535E0,2.9357514E0,4.732E-1,6.30742E5,1.9887085E0,-3.3318639E0,-2.5865233E0,-1.4397153E0,-1.1288148E0,-9.315805E-1,-6.4756083E-1,-3.9018747E-1,-1.5658908E-1,3.207425E-2,2.8484914E-1,5.620213E-1,9.9924594E-1,1.5823139E0,6.2625885E-1,3.2861137E0,4.0785522E0,9.724136E0,5.064775E0,3.5179565E0,1.7963263E1],"split_indices":[5,1,1,4,4,4,2,4,3,4,4,1,3,10,9,3,0,0,4,4,4,4,4,9,0,5,0,0,10,6,0,0,0,0,0,0,0,0,0,0,0,0,0,0,0,0,0,0,0,0,0],"split_type":[0,0,0,0,0,0,0,0,0,0,0,0,0,0,0,0,0,0,0,0,0,0,0,0,0,0,0,0,0,0,0,0,0,0,0,0,0,0,0,0,0,0,0,0,0,0,0,0,0,0,0],"sum_hessian":[2.134E3,1.722E3,4.12E2,6.94E2,1.028E3,3.86E2,2.6E1,4.46E2,2.48E2,4.43E2,5.85E2,1.92E2,1.94E2,1.9E1,7E0,1.11E2,3.35E2,1.54E2,9.4E1,2.14E2,2.29E2,3.14E2,2.71E2,6E1,1.32E2,1.44E2,5E1,3E0,1.6E1,6E0,1E0,1.7E1,9.4E1,6.1E1,3.3E1,1.14E2,1E2,1.38E2,9.1E1,1.77E2,1.37E2,1.98E2,7.3E1,5.7E1,3E0,4.4E1,1E2,1.1E1,5E0,1E0,5E0],"tree_param":{"num_deleted":"0","num_feature":"11","num_nodes":"51","size_leaf_vector":"1"}},{"base_weights":[1.935566E-1,-3.1786993E0,1.6054455E1,-7.981735E0,5.439554E-1,1.4506702E1,6.5389336E1,-9.093571E0,-5.337815E0,-1.0312005E0,2.7889585E0,1.1105002E1,2.0254692E1,1.5915003E1,4.134131E0,-1.0796784E1,-8.497493E0,-6.358238E0,-8.409905E-1,-2.3929517E0,-9.3978085E-2,2.1819973E0,5.0896673E0,9.215998E0,1.3768322E1,3.4754505E0,4.757283E0,-2.5619323E0,-2.039826E0,-1.7783755E0,-1.5695754E0,-1.3483629E0,-1.1064847E0,-5.685505E-1,-3.461102E-1,-1.3265853E-1,6.483645E-2,3.3723235E-1,5.848397E-1,-9.5803834E-2,1.0325063E0,1.5775589E0,2.041762E0,2.7695029E0,6.4826053E-1],"categories":[],"categories_nodes":[],"categories_segments":[],"categories_sizes":[],"default_left":[0,0,0,0,0,0,0,0,0,0,0,0,0,0,0,0,0,0,0,0,0,0,0,0,0,0,0,0,0,0,0,0,0,0,0,0,0,0,0,0,0,0,0,0,0],"id":14,"left_children":[1,3,5,7,9,11,13,15,17,19,21,23,25,-1,-1,27,29,31,-1,33,35,37,39,41,43,-1,-1,-1,-1,-1,-1,-1,-1,-1,-1,-1,-1,-1,-1,-1,-1,-1,-1,-1,-1],"loss_changes":[1.1317605E5,3.1205018E4,2.7380281E4,2.1914414E3,3.4825261E3,6.8336797E3,5.3331445E3,4.5141406E2,2.3683154E2,7.38732E2,5.558496E2,1.0252148E3,9.382461E2,0E0,0E0,3.1756836E1,3.295508E1,7.9589844E-2,0E0,6.539636E1,8.210931E1,1.1393628E2,3.655664E1,1.0013086E2,3.2646484E1,0E0,0E0,0E0,0E0,0E0,0E0,0E0,0E0,0E0,0E0,0E0,0E0,0E0,0E0,0E0,0E0,0E0,0E0,0E0,0E0],"parents":[2147483647,0,0,1,1,2,2,3,3,4,4,5,5,6,6,7,7,8,8,9,9,10,10,11,11,12,12,15,15,16,16,17,17,19,19,20,20,21,21,22,22,23,23,24,24],"right_children":[2,4,6,8,10,12,14,16,18,20,22,24,26,-1,-1,28,30,32,-1,34,36,38,40,42,44,-1,-1,-1,-1,-1,-1,-1,-1,-1,-1,-1,-1,-1,-1,-1,-1,-1,-1,-1,-1],"split_conditions":[5.1021E2,2.649E2,1.14E3,1.6485E2,3.6835E2,7.12E2,5.09325E5,1.298E2,2.2825E2,3.103E2,4.154E2,6.0582E2,7.7593E2,1.5915003E1,4.134131E0,1.157E2,1.497E2,2.0725E2,-8.409905E-1,2.9675E2,3.301E2,3.925E2,8.670399E12,5.4635E2,7.45E2,3.4754505E0,4.757283E0,-2.5619323E0,-2.039826E0,-1.7783755E0,-1.5695754E0,-1.3483629E0,-1.1064847E0,-5.685505E-1,-3.461102E-1,-1.3265853E-1,6.483645E-2,3.3723235E-1,5.848397E-1,-9.5803834E-2,1.0325063E0,1.5775589E0,2.041762E0,2.7695029E0,6.4826053E-1],"split_indices":[5,4,1,4,4,3,9,3,4,2,3,5,5,0,0,4,4,3,0,3,2,4,7,4,0,0,0,0,0,0,0,0,0,0,0,0,0,0,0,0,0,0,0,0,0],"split_type":[0,0,0,0,0,0,0,0,0,0,0,0,0,0,0,0,0,0,0,0,0,0,0,0,0,0,0,0,0,0,0,0,0,0,0,0,0,0,0,0,0,0,0,0,0],"sum_hessian":[2.114E3,1.744E3,3.7E2,7.61E2,9.83E2,3.6E2,1E1,5.34E2,2.27E2,5.78E2,4.05E2,2.28E2,1.32E2,7E0,3E0,1.34E2,4E2,1.17E2,1.1E2,2.35E2,3.43E2,3.22E2,8.3E1,1.36E2,9.2E1,7.6E1,5.6E1,2.6E1,1.08E2,2.41E2,1.59E2,7.5E1,4.2E1,1.38E2,9.7E1,1.45E2,1.98E2,1.95E2,1.27E2,1E0,8.2E1,6.2E1,7.4E1,9.1E1,1E0],"tree_param":{"num_deleted":"0","num_feature":"11","num_nodes":"45","size_leaf_vector":"1"}},{"base_weights":[1.6783836E-1,-2.5848057E0,1.3130509E1,-6.7547183E0,1.4034274E-1,1.0994635E1,3.823458E1,-7.402135E0,-4.7775693E0,-1.3493756E0,1.7454948E0,8.217047E0,1.4946667E1,5.9965897E1,2.7100464E1,-9.344517E0,-7.0670166E0,-1.0979886E0,-3.8630013E0,-2.361301E0,-4.298631E-1,1.2208644E0,3.4437063E0,6.757863E0,9.850852E0,2.721389E0,1.8255196E1,1.7238636E1,3.2486725E1,3.3788915E0,3.208151E1,-2.2156708E0,-1.7178768E0,-1.506986E0,-1.3091906E0,-1.4413452E-1,-7.7873105E-1,-5.7608914E-1,-3.6566108E-1,-1.8447731E-1,-2.2757487E-2,8.535548E-2,3.1233925E-1,5.454698E-1,8.4529793E-1,1.0949167E0,1.4587398E0,3.248291E-1,1.9842185E0,3.6918283E0,1.0709229E0,1.2958008E0,7.2784934E0,6.692182E0,1.5528687E0],"categories":[],"categories_nodes":[],"categories_segments":[],"categories_sizes":[],"default_left":[0,0,0,0,0,0,0,0,0,0,0,0,0,0,0,0,0,0,0,0,0,0,0,0,0,0,0,0,0,0,0,0,0,0,0,0,0,0,0,0,0,0,0,0,0,0,0,0,0,0,0,0,0,0,0],"id":15,"left_children":[1,3,5,7,9,11,13,15,17,19,21,23,25,27,29,31,33,-1,35,37,39,41,43,45,47,-1,49,-1,51,-1,53,-1,-1,-1,-1,-1,-1,-1,-1,-1,-1,-1,-1,-1,-1,-1,-1,-1,-1,-1,-1,-1,-1,-1,-1],"loss_changes":[7.639261E4,2.0069117E4,1.96868E4,8.581035E2,2.5585745E3,3.686246E3,5.391707E3,2.7504883E2,9.280737E1,5.1540027E2,4.546266E2,4.2453906E2,3.8101758E2,3.6862012E3,5.255674E2,1.7299805E0,6.063672E1,0E0,4.8999023E0,6.778308E1,4.535206E1,1.06240234E2,5.6323853E1,3.7084473E1,3.878125E1,0E0,1.1367188E0,0E0,3.7368994E2,0E0,1.7625879E2,0E0,0E0,0E0,0E0,0E0,0E0,0E0,0E0,0E0,0E0,0E0,0E0,0E0,0E0,0E0,0E0,0E0,0E0,0E0,0E0,0E0,0E0,0E0,0E0],"parents":[2147483647,0,0,1,1,2,2,3,3,4,4,5,5,6,6,7,7,8,8,9,9,10,10,11,11,12,12,13,13,14,14,15,15,16,16,18,18,19,19,20,20,21,21,22,22,23,23,24,24,26,26,28,28,30,30],"right_children":[2,4,6,8,10,12,14,16,18,20,22,24,26,28,30,32,34,-1,36,38,40,42,44,46,48,-1,50,-1,52,-1,54,-1,-1,-1,-1,-1,-1,-1,-1,-1,-1,-1,-1,-1,-1,-1,-1,-1,-1,-1,-1,-1,-1,-1,-1],"split_conditions":[4.8255E2,2.473E2,9.1475E2,1.608E2,3.509E2,6.6517E2,7.38346E5,1.2355E2,2.1195E2,3.079E2,4.0545E2,5.7515E2,7.9096E2,4.13E-1,1.3410128E14,1.1378E2,1.445E2,-1.0979886E0,2.0285E2,2.7615E2,3.2634E2,3.6835E2,4.2365E2,5.29E2,1.012E-1,2.721389E0,8.9E2,1.7238636E1,8.9E2,3.3788915E0,4.871712E6,-2.2156708E0,-1.7178768E0,-1.506986E0,-1.3091906E0,-1.4413452E-1,-7.7873105E-1,-5.7608914E-1,-3.6566108E-1,-1.8447731E-1,-2.2757487E-2,8.535548E-2,3.1233925E-1,5.454698E-1,8.4529793E-1,1.0949167E0,1.4587398E0,3.248291E-1,1.9842185E0,3.6918283E0,1.0709229E0,1.2958008E0,7.2784934E0,6.692182E0,1.5528687E0],"split_indices":[2,1,1,3,3,5,6,4,1,4,4,5,5,10,7,5,4,0,0,3,5,4,3,3,10,0,0,0,0,0,6,0,0,0,0,0,0,0,0,0,0,0,0,0,0,0,0,0,0,0,0,0,0,0,0],"split_type":[0,0,0,0,0,0,0,0,0,0,0,0,0,0,0,0,0,0,0,0,0,0,0,0,0,0,0,0,0,0,0,0,0,0,0,0,0,0,0,0,0,0,0,0,0,0,0,0,0,0,0,0,0,0,0],"sum_hessian":[2.139E3,1.765E3,3.74E2,6.97E2,1.068E3,3.46E2,2.8E1,5.23E2,1.74E2,5.54E2,5.14E2,2.05E2,1.41E2,8E0,2E1,7.3E1,4.5E2,9.5E1,7.9E1,2.63E2,2.91E2,3.94E2,1.2E2,1.11E2,9.4E1,1.04E2,3.7E1,3E0,5E0,8E0,1.2E1,1.8E1,5.5E1,2.3E2,2.2E2,1E0,7.8E1,1.31E2,1.32E2,1.13E2,1.78E2,1.19E2,2.75E2,6.5E1,5.5E1,3.6E1,7.5E1,1E0,9.3E1,3.6E1,1E0,1E0,4E0,1.1E1,1E0],"tree_param":{"num_deleted":"0","num_feature":"11","num_nodes":"55","size_leaf_vector":"1"}},{"base_weights":[6.911575E-2,-2.115265E0,1.0128582E1,-5.1713066E0,3.3048603E-1,8.970537E0,3.2919792E1,-5.8468924E0,-3.474336E0,-6.615449E-1,1.6943274E0,6.343597E0,1.1882986E1,3.622893E1,2.4561157E0,-6.6725407E0,-1.0680856E0,-4.1325192E0,-2.7420094E0,-1.4042245E0,1.5625207E-2,1.2216989E0,2.9409487E0,5.663695E0,8.393205E0,9.986017E0,1.3773916E1,1.612439E0,3.766497E1,-1.727841E0,-1.2808102E0,-8.2665E-2,-8.388285E-1,-3.8845494E-1,-5.623913E-1,-3.8305682E-1,-2.0881894E-1,-4.0603828E-2,5.5576533E-2,1.9977267E-1,3.4892938E-1,6.3203365E-1,1.2816551E-1,8.558718E-1,1.2078058E0,1.8453324E0,1.1135527E0,2.012824E0,3.1129763E-1,2.4620252E0,3.1444283E0,9.697749E0,5.6973166E0],"categories":[],"categories_nodes":[],"categories_segments":[],"categories_sizes":[],"default_left":[0,0,0,0,0,0,0,0,0,0,0,0,0,0,0,0,0,0,0,0,0,0,0,0,0,0,0,0,0,0,0,0,0,0,0,0,0,0,0,0,0,0,0,0,0,0,0,0,0,0,0,0,0],"id":16,"left_children":[1,3,5,7,9,11,13,15,17,19,21,23,25,27,-1,29,-1,31,33,35,37,39,41,43,45,47,49,-1,51,-1,-1,-1,-1,-1,-1,-1,-1,-1,-1,-1,-1,-1,-1,-1,-1,-1,-1,-1,-1,-1,-1,-1,-1],"loss_changes":[4.6803438E4,1.3081762E4,9.734129E3,8.71625E2,1.3175634E3,2.701871E3,7.844512E2,1.9644531E2,9.6637695E1,2.8366907E2,2.3797437E2,2.2141553E2,4.758379E2,3.0306445E2,0E0,5.3976562E1,0E0,2.485254E1,6.358032E-1,4.7509094E1,1.7029383E1,3.310025E1,5.444879E1,5.1055664E1,5.6952637E1,4.2929688E1,4.3157227E1,0E0,9.548828E0,0E0,0E0,0E0,0E0,0E0,0E0,0E0,0E0,0E0,0E0,0E0,0E0,0E0,0E0,0E0,0E0,0E0,0E0,0E0,0E0,0E0,0E0,0E0,0E0],"parents":[2147483647,0,0,1,1,2,2,3,3,4,4,5,5,6,6,7,7,8,8,9,9,10,10,11,11,12,12,13,13,15,15,17,17,18,18,19,19,20,20,21,21,22,22,23,23,24,24,25,25,26,26,28,28],"right_children":[2,4,6,8,10,12,14,16,18,20,22,24,26,28,-1,30,-1,32,34,36,38,40,42,44,46,48,50,-1,52,-1,-1,-1,-1,-1,-1,-1,-1,-1,-1,-1,-1,-1,-1,-1,-1,-1,-1,-1,-1,-1,-1,-1,-1],"split_conditions":[4.9505E2,2.65E2,1.0369E3,1.6485E2,3.6747E2,6.4805E2,4.339E-1,1.3645E2,2.2825E2,3.2785E2,4.0685E2,6.02E2,7.394E2,3.109E-1,2.4561157E0,1.1565E2,-1.0680856E0,1.33E4,2.312E2,2.86E2,3.462E2,3.91E2,4.85E2,5.288E2,6.396E2,7.7045E2,8.1E2,1.612439E0,3.539E-1,-1.727841E0,-1.2808102E0,-8.2665E-2,-8.388285E-1,-3.8845494E-1,-5.623913E-1,-3.8305682E-1,-2.0881894E-1,-4.0603828E-2,5.5576533E-2,1.9977267E-1,3.4892938E-1,6.3203365E-1,1.2816551E-1,8.558718E-1,1.2078058E0,1.8453324E0,1.1135527E0,2.012824E0,3.1129763E-1,2.4620252E0,3.1444283E0,9.697749E0,5.6973166E0],"split_indices":[3,3,3,4,5,5,10,4,4,1,4,3,4,10,0,3,0,8,4,2,3,4,0,4,4,0,1,0,10,0,0,0,0,0,0,0,0,0,0,0,0,0,0,0,0,0,0,0,0,0,0,0,0],"split_type":[0,0,0,0,0,0,0,0,0,0,0,0,0,0,0,0,0,0,0,0,0,0,0,0,0,0,0,0,0,0,0,0,0,0,0,0,0,0,0,0,0,0,0,0,0,0,0,0,0,0,0,0,0],"sum_hessian":[2.128E3,1.749E3,3.79E2,7.77E2,9.72E2,3.62E2,1.7E1,5.54E2,2.23E2,5.63E2,4.09E2,1.92E2,1.7E2,1.4E1,3E0,2.06E2,3.48E2,1.15E2,1.08E2,2.68E2,2.95E2,2.98E2,1.11E2,1.47E2,4.5E1,8.8E1,8.2E1,1E0,1.3E1,2.1E1,1.85E2,2E0,1.13E2,1.1E1,9.7E1,1.09E2,1.59E2,1.61E2,1.34E2,2.11E2,8.7E1,1.01E2,1E1,3.4E1,1.13E2,3.3E1,1.2E1,8.7E1,1E0,5.1E1,3.1E1,4E0,9E0],"tree_param":{"num_deleted":"0","num_feature":"11","num_nodes":"53","size_leaf_vector":"1"}},{"base_weights":[1.7187369E-1,-1.5810856E0,9.04881E0,-4.360781E0,2.1215512E-1,7.3927526E0,2.202965E1,-4.9858794E0,-3.5857832E0,-6.3236785E-1,1.5154229E0,5.5849214E0,9.269523E0,1.7129799E1,3.3390182E1,-1.207898E0,-9.425004E-1,-3.9375482E0,-2.8139515E0,-1.4692389E0,-6.0284376E-2,1.1285564E0,2.981573E0,9.321667E-1,6.555881E0,8.090057E0,1.0389098E1,1.4921858E1,3.2027325E1,1.3798332E1,1.7813002E1,-7.96918E-1,-4.409256E-1,-6.2188905E-1,-4.6449003E-1,-3.8361704E-1,-2.434992E-1,-8.0417134E-2,3.5498798E-2,1.6754834E-1,3.010964E-1,8.417427E-1,4.994999E-1,2.2056408E0,1.162541E0,1.661499E-1,1.6342863E0,6.018311E-1,2.0894752E0,3.1611412E0,-8.942017E-1,1.9155091E0,7.692688E0,4.1363807E0,1.0362468E0],"categories":[],"categories_nodes":[],"categories_segments":[],"categories_sizes":[],"default_left":[0,0,0,0,0,0,0,0,0,0,0,0,0,0,0,0,0,0,0,0,0,0,0,0,0,0,0,0,0,0,0,0,0,0,0,0,0,0,0,0,0,0,0,0,0,0,0,0,0,0,0,0,0,0,0],"id":17,"left_children":[1,3,5,7,9,11,13,15,17,19,21,23,25,27,29,-1,-1,31,33,35,37,39,41,-1,43,45,47,49,51,-1,53,-1,-1,-1,-1,-1,-1,-1,-1,-1,-1,-1,-1,-1,-1,-1,-1,-1,-1,-1,-1,-1,-1,-1,-1],"loss_changes":[3.3781477E4,9.038119E3,7.533076E3,3.2656543E2,1.2149637E3,1.0305605E3,1.6546289E3,8.415918E1,7.6072754E1,3.206807E2,2.4280188E2,1.1749072E2,1.2062793E2,5.0887793E2,4.871327E3,0E0,0E0,8.986572E0,7.8829956E0,2.8399048E1,3.2499275E1,3.655612E1,4.2951233E1,0E0,1.9514648E2,4.046924E1,1.2490234E0,5.505967E2,6.508276E1,0E0,2.1899585E2,0E0,0E0,0E0,0E0,0E0,0E0,0E0,0E0,0E0,0E0,0E0,0E0,0E0,0E0,0E0,0E0,0E0,0E0,0E0,0E0,0E0,0E0,0E0,0E0],"parents":[2147483647,0,0,1,1,2,2,3,3,4,4,5,5,6,6,7,7,8,8,9,9,10,10,11,11,12,12,13,13,14,14,17,17,18,18,19,19,20,20,21,21,22,22,24,24,25,25,26,26,27,27,28,28,30,30],"right_children":[2,4,6,8,10,12,14,16,18,20,22,24,26,28,30,-1,-1,32,34,36,38,40,42,-1,44,46,48,50,52,-1,54,-1,-1,-1,-1,-1,-1,-1,-1,-1,-1,-1,-1,-1,-1,-1,-1,-1,-1,-1,-1,-1,-1,-1,-1],"split_conditions":[5.288E2,2.473E2,8.33E2,1.5015E2,3.6835E2,6.6517E2,1.078E3,1.2355E2,2.03E2,3.1065E2,4.238E2,5.8015E2,7.254E2,4.9238673E14,2.28206E5,-1.207898E0,-9.425004E-1,9.113057E6,2.2825E2,2.7025E2,3.3305E2,3.915E2,2.115E-1,9.321667E-1,5.878E2,1.09273E5,8.0805E4,1.261698E6,7.575E2,1.3798332E1,1.170407E6,-7.96918E-1,-4.409256E-1,-6.2188905E-1,-4.6449003E-1,-3.8361704E-1,-2.434992E-1,-8.0417134E-2,3.5498798E-2,1.6754834E-1,3.010964E-1,8.417427E-1,4.994999E-1,2.2056408E0,1.162541E0,1.661499E-1,1.6342863E0,6.018311E-1,2.0894752E0,3.1611412E0,-8.942017E-1,1.9155091E0,7.692688E0,4.1363807E0,1.0362468E0],"split_indices":[4,1,3,4,4,5,2,4,3,3,4,4,2,7,9,0,0,6,4,3,4,3,10,0,4,8,8,9,0,0,6,0,0,0,0,0,0,0,0,0,0,0,0,0,0,0,0,0,0,0,0,0,0,0,0],"split_type":[0,0,0,0,0,0,0,0,0,0,0,0,0,0,0,0,0,0,0,0,0,0,0,0,0,0,0,0,0,0,0,0,0,0,0,0,0,0,0,0,0,0,0,0,0,0,0,0,0,0,0,0,0,0,0],"sum_hessian":[2.169E3,1.812E3,3.57E2,7.1E2,1.102E3,3.18E2,3.9E1,3.9E2,3.2E2,6.69E2,4.33E2,1.64E2,1.54E2,2.9E1,1E1,7.6E1,3.14E2,2.17E2,1.03E2,2.71E2,3.98E2,3.44E2,8.9E1,8.7E1,7.7E1,7.9E1,7.5E1,2.7E1,2E0,2E0,8E0,2.1E2,7E0,6.1E1,4.2E1,9.5E1,1.76E2,1.63E2,2.35E2,1.96E2,1.48E2,2.3E1,6.6E1,9E0,6.8E1,1E0,7.8E1,1E0,7.4E1,2.6E1,1E0,1E0,1E0,6E0,2E0],"tree_param":{"num_deleted":"0","num_feature":"11","num_nodes":"55","size_leaf_vector":"1"}},{"base_weights":[1.4478768E-1,-1.4325912E0,6.8023534E0,-3.4918516E0,-4.1855697E-2,5.5053163E0,2.5093239E1,-4.159724E0,-2.9423573E0,-1.107053E0,5.1974154E-1,3.6246765E0,7.1309986E0,4.4600143E1,1.6035816E1,-1.2891387E0,-3.9989367E0,-3.2488492E0,-2.4063137E0,-1.4712301E0,-7.89731E-1,-1.053702E-2,9.707951E-1,1.240387E-1,3.682979E0,5.995608E0,8.645548E0,1.1987952E1,2.3408422E1,1.3235901E1,6.9234195E0,-8.5726213E-1,-7.527603E-1,-4.2923018E-1,-6.8222755E-1,-2.673775E-1,-5.2574706E-1,-3.2422486E-1,-2.4510983E-1,-2.0089407E-1,-1.12010956E-1,1.3853422E-1,-1.0624043E-2,1.5215279E-1,2.9004595E-1,-3.7963868E-3,5.531006E-2,9.776376E-1,6.889332E-1,1.2189775E0,3.1359252E-1,1.5933108E0,2.510164E0,-1.3654785E-1,5.9203796E0,2.8836658E0,-8.0477905E-1],"categories":[],"categories_nodes":[],"categories_segments":[],"categories_sizes":[],"default_left":[0,0,0,0,0,0,0,0,0,0,0,0,0,0,0,0,0,0,0,0,0,0,0,0,0,0,0,0,0,0,0,0,0,0,0,0,0,0,0,0,0,0,0,0,0,0,0,0,0,0,0,0,0,0,0,0,0],"id":18,"left_children":[1,3,5,7,9,11,13,15,17,19,21,23,25,27,29,-1,31,33,35,37,39,41,43,45,47,49,51,-1,53,55,-1,-1,-1,-1,-1,-1,-1,-1,-1,-1,-1,-1,-1,-1,-1,-1,-1,-1,-1,-1,-1,-1,-1,-1,-1,-1,-1],"loss_changes":[2.2587977E4,4.9801533E3,9.636123E3,2.4502148E2,6.221175E2,1.1542793E3,4.0552227E3,8.963672E1,5.592798E1,4.0324677E1,1.6289453E2,3.648462E1,3.0240332E2,1.1974863E3,5.8233154E2,0E0,3.868164E0,3.634424E1,3.0975891E1,4.1263733E0,9.005638E0,9.439475E0,3.595291E1,9.2498675E-2,3.428662E1,4.3631836E1,1.2805615E2,0E0,7.6625073E2,4.4577856E2,0E0,0E0,0E0,0E0,0E0,0E0,0E0,0E0,0E0,0E0,0E0,0E0,0E0,0E0,0E0,0E0,0E0,0E0,0E0,0E0,0E0,0E0,0E0,0E0,0E0,0E0,0E0],"parents":[2147483647,0,0,1,1,2,2,3,3,4,4,5,5,6,6,7,7,8,8,9,9,10,10,11,11,12,12,13,13,14,14,16,16,17,17,18,18,19,19,20,20,21,21,22,22,23,23,24,24,25,25,26,26,28,28,29,29],"right_children":[2,4,6,8,10,12,14,16,18,20,22,24,26,28,30,-1,32,34,36,38,40,42,44,46,48,50,52,-1,54,56,-1,-1,-1,-1,-1,-1,-1,-1,-1,-1,-1,-1,-1,-1,-1,-1,-1,-1,-1,-1,-1,-1,-1,-1,-1,-1,-1],"split_conditions":[4.369E2,2.361E2,8.64E2,1.451E2,3.2E2,6.1375E2,7.38346E5,1.145E2,1.6485E2,2.8333E2,3.6835E2,1.012E-1,7.3325E2,4.13E-1,4.9238673E14,-1.2891387E0,1.2975E2,1.4715E2,1.8045E2,2.677E2,3.118E2,3.228E2,4.03E2,4.85E2,7.2581E4,7.5555E2,8.33E2,1.1987952E1,4.143E-1,1.312474E6,6.9234195E0,-8.5726213E-1,-7.527603E-1,-4.2923018E-1,-6.8222755E-1,-2.673775E-1,-5.2574706E-1,-3.2422486E-1,-2.4510983E-1,-2.0089407E-1,-1.12010956E-1,1.3853422E-1,-1.0624043E-2,1.5215279E-1,2.9004595E-1,-3.7963868E-3,5.531006E-2,9.776376E-1,6.889332E-1,1.2189775E0,3.1359252E-1,1.5933108E0,2.510164E0,-1.3654785E-1,5.9203796E0,2.8836658E0,-8.0477905E-1],"split_indices":[3,4,3,4,3,4,6,3,4,5,4,10,5,10,7,0,4,4,3,3,1,4,0,0,9,1,3,0,10,9,0,0,0,0,0,0,0,0,0,0,0,0,0,0,0,0,0,0,0,0,0,0,0,0,0,0,0],"split_type":[0,0,0,0,0,0,0,0,0,0,0,0,0,0,0,0,0,0,0,0,0,0,0,0,0,0,0,0,0,0,0,0,0,0,0,0,0,0,0,0,0,0,0,0,0,0,0,0,0,0,0,0,0,0,0,0,0],"sum_hessian":[2.149E3,1.738E3,4.11E2,7E2,1.038E3,3.85E2,2.6E1,3.13E2,3.87E2,3.58E2,6.8E2,1.8E2,2.05E2,7E0,1.9E1,1.8E1,2.95E2,2.43E2,1.44E2,1.65E2,1.93E2,3.13E2,3.67E2,3E0,1.77E2,1.2E2,8.5E1,3E0,4E0,1.8E1,1E0,1.25E2,1.7E2,3.3E1,2.1E2,2.6E1,1.18E2,9.9E1,6.6E1,9.8E1,9.5E1,1.7E1,2.96E2,2.57E2,1.1E2,2E0,1E0,2.6E1,1.51E2,1.17E2,3E0,7.5E1,1E1,1E0,3E0,1.7E1,1E0],"tree_param":{"num_deleted":"0","num_feature":"11","num_nodes":"57","size_leaf_vector":"1"}},{"base_weights":[3.4118682E-2,-1.1289276E0,5.054565E0,-2.832067E0,-3.2288726E-2,4.32035E0,1.367841E1,-3.262673E0,-2.2753365E0,-7.1187127E-1,5.1166433E-1,2.94293E0,5.659935E0,2.2315405E1,7.8122926E0,-1.1689707E0,-3.1770873E0,-2.4940665E0,-1.7045978E0,-1.0186604E0,-3.083526E-1,2.7121094E-1,9.345811E-1,2.4099798E0,3.6275218E0,4.7540636E0,6.5055943E0,8.152313E0,4.0513268E1,3.774967E0,2.3017853E1,-6.1725044E-1,-7.499583E-1,-4.6598253E-1,-6.534054E-1,-2.7206123E-1,-4.2073902E-1,-2.5495765E-1,-1.6927277E-1,3.41298E-2,-7.343831E-2,-2.96972E-2,6.876208E-2,2.246739E-2,2.1820156E-1,8.545396E-1,4.071032E-1,8.497483E-1,3.8605163E-1,1.1962813E0,8.63811E-1,6.3341063E-1,1.3161707E0,2.1608381E0,-1.0410827E0,1.0189761E1,-1.22888185E-1,-5.439728E-1,1.0721985E0,1.9840415E0,6.231079E0],"categories":[],"categories_nodes":[],"categories_segments":[],"categories_sizes":[],"default_left":[0,0,0,0,0,0,0,0,0,0,0,0,0,0,0,0,0,0,0,0,0,0,1,0,0,0,0,0,0,0,0,0,0,0,0,0,0,0,0,0,0,0,0,0,0,0,0,0,0,0,0,0,0,0,0,0,0,0,0,0,0],"id":19,"left_children":[1,3,5,7,9,11,13,15,17,19,21,23,25,27,29,-1,31,33,35,37,39,41,43,45,47,49,51,53,55,57,59,-1,-1,-1,-1,-1,-1,-1,-1,-1,-1,-1,-1,-1,-1,-1,-1,-1,-1,-1,-1,-1,-1,-1,-1,-1,-1,-1,-1,-1,-1],"loss_changes":[1.2448641E4,3.2329468E3,2.4799375E3,1.5511426E2,3.8998694E2,6.6790186E2,1.3962998E3,6.5409424E1,3.3075073E1,5.7745804E1,5.9337906E1,5.8755615E1,1.12325195E2,2.7625796E3,1.1409042E3,0E0,7.675293E0,1.9541382E1,8.955246E0,1.0659637E1,5.8121834E0,1.1477209E1,2.714508E1,6.59375E1,7.509436E1,2.4352783E1,2.775879E0,3.396247E2,2.177254E3,1.896976E2,1.17262695E2,0E0,0E0,0E0,0E0,0E0,0E0,0E0,0E0,0E0,0E0,0E0,0E0,0E0,0E0,0E0,0E0,0E0,0E0,0E0,0E0,0E0,0E0,0E0,0E0,0E0,0E0,0E0,0E0,0E0,0E0],"parents":[2147483647,0,0,1,1,2,2,3,3,4,4,5,5,6,6,7,7,8,8,9,9,10,10,11,11,12,12,13,13,14,14,16,16,17,17,18,18,19,19,20,20,21,21,22,22,23,23,24,24,25,25,26,26,27,27,28,28,29,29,30,30],"right_children":[2,4,6,8,10,12,14,16,18,20,22,24,26,28,30,-1,32,34,36,38,40,42,44,46,48,50,52,54,56,58,60,-1,-1,-1,-1,-1,-1,-1,-1,-1,-1,-1,-1,-1,-1,-1,-1,-1,-1,-1,-1,-1,-1,-1,-1,-1,-1,-1,-1,-1,-1],"split_conditions":[4.3856E2,2.432E2,8.33E2,1.497E2,3.301E2,6.159E2,7.14993E5,1.1211E2,2.03E2,3.079E2,3.8565E2,5.4635E2,7.219E2,9.1475E2,1.261698E6,-1.1689707E0,1.4715E2,1.8045E2,3.970921E6,2.7025E2,2.4913E4,3.4515E2,2.0219E4,4.674E2,5.878E2,6.396E2,1.36495E5,8.64E2,4.13E-1,3.45643E5,7.89E2,-6.1725044E-1,-7.499583E-1,-4.6598253E-1,-6.534054E-1,-2.7206123E-1,-4.2073902E-1,-2.5495765E-1,-1.6927277E-1,3.41298E-2,-7.343831E-2,-2.96972E-2,6.876208E-2,2.246739E-2,2.1820156E-1,8.545396E-1,4.071032E-1,8.497483E-1,3.8605163E-1,1.1962813E0,8.63811E-1,6.3341063E-1,1.3161707E0,2.1608381E0,-1.0410827E0,1.0189761E1,-1.22888185E-1,-5.439728E-1,1.0721985E0,1.9840415E0,6.231079E0],"split_indices":[5,1,3,4,2,3,6,5,3,4,4,4,4,1,9,0,4,3,6,3,8,4,8,4,4,4,8,3,10,9,0,0,0,0,0,0,0,0,0,0,0,0,0,0,0,0,0,0,0,0,0,0,0,0,0,0,0,0,0,0,0],"split_type":[0,0,0,0,0,0,0,0,0,0,0,0,0,0,0,0,0,0,0,0,0,0,0,0,0,0,0,0,0,0,0,0,0,0,0,0,0,0,0,0,0,0,0,0,0,0,0,0,0,0,0,0,0,0,0,0,0,0,0,0,0],"sum_hessian":[2.13E3,1.73E3,4E2,6.77E2,1.053E3,3.7E2,3E1,3.79E2,2.98E2,4.68E2,5.85E2,1.84E2,1.86E2,1.1E1,1.9E1,1E1,3.69E2,2.13E2,8.5E1,2.65E2,2.03E2,3.74E2,2.11E2,1.06E2,7.8E1,9.3E1,9.3E1,7E0,4E0,1.6E1,3E0,3.24E2,4.5E1,1.79E2,3.4E1,4.8E1,3.7E1,1.04E2,1.61E2,2.2E1,1.81E2,5.5E1,3.19E2,3.4E1,1.77E2,1.6E1,9E1,5.6E1,2.2E1,2.1E1,7.2E1,3E0,9E1,6E0,1E0,3E0,1E0,3E0,1.3E1,2E0,1E0],"tree_param":{"num_deleted":"0","num_feature":"11","num_nodes":"61","size_leaf_vector":"1"}},{"base_weights":[4.192724E-2,-9.334628E-1,4.343987E0,-2.2829778E0,9.067793E-3,3.7389152E0,2.496157E1,-2.6536334E0,-1.8295165E0,-5.697151E-1,4.291842E-1,2.7563374E0,5.3437567E0,9.001522E0,1.5506049E1,-3.8201911E0,-2.5201595E0,-1.9801223E0,-1.3226444E0,-8.053489E-1,-2.9842228E-1,1.8836103E-1,8.117739E-1,2.662319E0,4.86322E0,4.97066E0,1.0387913E1,3.7808228E0,2.9217377E1,-9.8009866E-1,-6.5187025E-1,-4.8971272E-1,-6.2761074E-1,-3.7027094E-1,-4.791956E-1,-1.1945915E-2,-3.2544497E-1,-2.115665E-1,-1.3306439E-1,9.600442E-2,-6.833835E-2,-2.7679445E-3,5.3212978E-2,1.7393376E-1,-8.187922E-2,8.093115E-1,5.0809693E-1,1.0834316E0,3.8992512E-1,1.0648403E0,-1.0713941E0,3.2096925E0,9.7657883E-1,-1.3697916E-1,1.2369813E0,7.8021646E0,-1.6296387E-2],"categories":[],"categories_nodes":[],"categories_segments":[],"categories_sizes":[],"default_left":[0,0,0,0,0,0,0,0,0,0,0,0,0,0,0,0,0,0,0,0,0,0,0,0,0,0,0,0,0,0,0,0,0,0,0,0,0,0,0,0,0,0,0,0,0,0,0,0,0,0,0,0,0,0,0,0,0],"id":20,"left_children":[1,3,5,7,9,11,13,15,17,19,21,23,25,-1,27,29,31,33,35,37,39,41,43,45,47,49,51,53,55,-1,-1,-1,-1,-1,-1,-1,-1,-1,-1,-1,-1,-1,-1,-1,-1,-1,-1,-1,-1,-1,-1,-1,-1,-1,-1,-1,-1],"loss_changes":[8.89997E3,2.1992383E3,4.7969165E3,1.1464868E2,2.4802066E2,5.8763965E2,1.3871133E3,5.094165E1,2.2038086E1,2.7183807E1,5.429973E1,3.439502E1,2.1936768E2,0E0,1.33645E3,7.0509033E0,7.8881836E0,8.7907715E0,2.9521576E1,7.3923798E0,6.9342766E0,5.7227716E0,1.6475555E1,2.867749E1,3.9641113E0,5.2509106E2,2.0208997E2,6.865177E1,1.150926E3,0E0,0E0,0E0,0E0,0E0,0E0,0E0,0E0,0E0,0E0,0E0,0E0,0E0,0E0,0E0,0E0,0E0,0E0,0E0,0E0,0E0,0E0,0E0,0E0,0E0,0E0,0E0,0E0],"parents":[2147483647,0,0,1,1,2,2,3,3,4,4,5,5,6,6,7,7,8,8,9,9,10,10,11,11,12,12,14,14,15,15,16,16,17,17,18,18,19,19,20,20,21,21,22,22,23,23,24,24,25,25,26,26,27,27,28,28],"right_children":[2,4,6,8,10,12,14,16,18,20,22,24,26,-1,28,30,32,34,36,38,40,42,44,46,48,50,52,54,56,-1,-1,-1,-1,-1,-1,-1,-1,-1,-1,-1,-1,-1,-1,-1,-1,-1,-1,-1,-1,-1,-1,-1,-1,-1,-1,-1,-1],"split_conditions":[4.45E2,2.432E2,1.14E3,1.4905E2,3.3305E2,6.874E2,2.28206E5,1.151E2,2.078E2,3.004E2,3.844E2,5.6629057E14,1.064E3,9.001522E0,4.143E-1,1.12E2,1.4715E2,1.8045E2,2.18E2,3.803E-1,3.0355E2,3.422E2,4.398E2,5.835E4,2.575744E6,8.64E2,8.21744E5,6.45456E5,5.09325E5,-9.8009866E-1,-6.5187025E-1,-4.8971272E-1,-6.2761074E-1,-3.7027094E-1,-4.791956E-1,-1.1945915E-2,-3.2544497E-1,-2.115665E-1,-1.3306439E-1,9.600442E-2,-6.833835E-2,-2.7679445E-3,5.3212978E-2,1.7393376E-1,-8.187922E-2,8.093115E-1,5.0809693E-1,1.0834316E0,3.8992512E-1,1.0648403E0,-1.0713941E0,3.2096925E0,9.7657883E-1,-1.3697916E-1,1.2369813E0,7.8021646E0,-1.6296387E-2],"split_indices":[1,1,1,4,4,4,9,2,4,3,5,7,1,0,10,4,4,3,4,10,4,2,1,9,9,3,6,6,9,0,0,0,0,0,0,0,0,0,0,0,0,0,0,0,0,0,0,0,0,0,0,0,0,0,0,0,0],"split_type":[0,0,0,0,0,0,0,0,0,0,0,0,0,0,0,0,0,0,0,0,0,0,0,0,0,0,0,0,0,0,0,0,0,0,0,0,0,0,0,0,0,0,0,0,0,0,0,0,0,0,0,0,0,0,0,0,0],"sum_hessian":[2.119E3,1.728E3,3.91E2,7.1E2,1.018E3,3.81E2,1E1,3.88E2,3.22E2,4.28E2,5.9E2,2.38E2,1.43E2,2E0,8E0,3.7E1,3.51E2,2.46E2,7.6E1,2.28E2,2E2,3.63E2,2.27E2,2.3E2,8E0,1.35E2,8E0,5E0,3E0,1E1,2.7E1,3.19E2,3.2E1,1.92E2,5.4E1,1.5E1,6.1E1,7.9E1,1.49E2,1E1,1.9E2,1.01E2,2.62E2,2.17E2,1E1,1.6E1,2.14E2,6E0,2E0,1.31E2,4E0,3E0,5E0,2E0,3E0,2E0,1E0],"tree_param":{"num_deleted":"0","num_feature":"11","num_nodes":"57","size_leaf_vector":"1"}},{"base_weights":[6.082082E-2,-6.4426094E-1,3.6100938E0,-1.6636938E0,1.7193934E-1,2.7597005E0,1.1746935E1,-1.900115E0,-9.591146E-1,-1.459887E-1,5.8432627E-1,1.895419E0,3.341075E0,2.0441792E0,1.3406564E1,-2.4739227E0,-1.7273291E0,-8.821177E-1,-1.3220348E0,-3.7251726E-1,6.841977E-2,2.2623749E0,5.347547E-1,3.9501617E0,1.7114613E0,2.5809937E0,3.8251557E0,-5.984782E-1,1.0621125E0,5.758209E-1,1.4923221E1,-7.3471445E-1,-4.7371984E-1,-3.328867E-1,-5.407021E-1,-1.9140127E-1,5.4749645E-2,-9.385172E-3,-2.8055725E-1,-1.20936096E-1,-4.9564283E-2,3.2234505E-2,-1.5246351E-1,9.657059E-2,9.31427E-1,-3.3533815E-1,1.1203426E-1,5.407811E-1,1.0287141E0,2.9828623E-1,7.592363E-1,7.964503E-1,3.8208327E-1,-2.4150391E-1,7.760758E-1,-7.248251E-1,1.3175659E0,4.73916E0,2.0390456E0],"categories":[],"categories_nodes":[],"categories_segments":[],"categories_sizes":[],"default_left":[0,0,0,0,0,0,0,0,1,0,0,0,0,0,0,0,0,1,0,0,0,0,0,0,1,0,0,0,0,0,0,0,0,0,0,0,0,0,0,0,0,0,0,0,0,0,0,0,0,0,0,0,0,0,0,0,0,0,0],"id":21,"left_children":[1,3,5,7,9,11,13,15,17,19,21,23,25,27,29,31,33,35,37,39,41,43,45,47,49,51,53,-1,-1,55,57,-1,-1,-1,-1,-1,-1,-1,-1,-1,-1,-1,-1,-1,-1,-1,-1,-1,-1,-1,-1,-1,-1,-1,-1,-1,-1,-1,-1],"loss_changes":[5.315192E3,1.4746987E3,2.4032515E3,1.2944092E2,1.2922803E2,1.5445801E2,5.039922E2,5.4123535E1,4.4225464E0,2.7078781E1,3.447589E1,4.2755585E1,6.003589E1,1.1459948E2,5.362822E2,8.229919E0,2.3497437E1,1.48042755E1,3.332077E0,7.6955414E0,2.2237123E1,4.888963E1,2.4433945E1,9.651947E-1,5.0299835E1,6.474548E1,3.636853E1,0E0,0E0,1.24875565E2,7.953335E2,0E0,0E0,0E0,0E0,0E0,0E0,0E0,0E0,0E0,0E0,0E0,0E0,0E0,0E0,0E0,0E0,0E0,0E0,0E0,0E0,0E0,0E0,0E0,0E0,0E0,0E0,0E0,0E0],"parents":[2147483647,0,0,1,1,2,2,3,3,4,4,5,5,6,6,7,7,8,8,9,9,10,10,11,11,12,12,13,13,14,14,15,15,16,16,17,17,18,18,19,19,20,20,21,21,22,22,23,23,24,24,25,25,26,26,29,29,30,30],"right_children":[2,4,6,8,10,12,14,16,18,20,22,24,26,28,30,32,34,36,38,40,42,44,46,48,50,52,54,-1,-1,56,58,-1,-1,-1,-1,-1,-1,-1,-1,-1,-1,-1,-1,-1,-1,-1,-1,-1,-1,-1,-1,-1,-1,-1,-1,-1,-1,-1,-1],"split_conditions":[5.151E2,2.7025E2,8.33E2,1.9375E2,3.677E2,6.1525E2,2.331E-1,1.315E2,6.5092E4,3.253E2,7.9853E4,4.9144E4,2.4163994E13,1.284823E6,4.18322E5,1.122E2,1.8045E2,6.0857E4,2.0285E2,2.975E2,3.655E2,4.53E2,8.9012E4,5.81E2,7.3956E4,6.3121E4,6.6084E4,-5.984782E-1,1.0621125E0,4.581E-1,7.38346E5,-7.3471445E-1,-4.7371984E-1,-3.328867E-1,-5.407021E-1,-1.9140127E-1,5.4749645E-2,-9.385172E-3,-2.8055725E-1,-1.20936096E-1,-4.9564283E-2,3.2234505E-2,-1.5246351E-1,9.657059E-2,9.31427E-1,-3.3533815E-1,1.1203426E-1,5.407811E-1,1.0287141E0,2.9828623E-1,7.592363E-1,7.964503E-1,3.8208327E-1,-2.4150391E-1,7.760758E-1,-7.248251E-1,1.3175659E0,4.73916E0,2.0390456E0],"split_indices":[3,3,3,2,4,0,10,1,8,4,9,9,7,6,6,3,3,8,0,1,4,0,9,0,8,9,9,0,0,10,6,0,0,0,0,0,0,0,0,0,0,0,0,0,0,0,0,0,0,0,0,0,0,0,0,0,0,0,0],"split_type":[0,0,0,0,0,0,0,0,0,0,0,0,0,0,0,0,0,0,0,0,0,0,0,0,0,0,0,0,0,0,0,0,0,0,0,0,0,0,0,0,0,0,0,0,0,0,0,0,0,0,0,0,0,0,0,0,0,0,0],"sum_hessian":[2.122E3,1.771E3,3.51E2,7.87E2,9.84E2,3.19E2,3.2E1,5.88E2,1.99E2,5.56E2,4.28E2,1.3E2,1.89E2,5E0,2.7E1,1.33E2,4.55E2,1.67E2,3.2E1,2.7E2,2.86E2,1.1E1,4.17E2,9E0,1.21E2,7.6E1,1.13E2,2E0,3E0,3E0,2.4E1,8E0,1.25E2,4.3E2,2.5E1,1.57E2,1E1,2E0,3E1,9.3E1,1.77E2,2.58E2,2.8E1,7E0,4E0,4E0,4.13E2,6E0,3E0,1.11E2,1E1,2.3E1,5.3E1,1E0,1.12E2,2E0,1E0,7E0,1.7E1],"tree_param":{"num_deleted":"0","num_feature":"11","num_nodes":"59","size_leaf_vector":"1"}},{"base_weights":[1.1017564E-1,-6.9987595E-2,1.29290285E1,-6.1346656E-1,2.1854215E0,2.3563633E1,7.7556734E0,-1.3696445E0,1.3066548E-2,1.2978987E0,3.0446904E0,6.235547E0,6.2515717E0,3.1295452E0,4.386675E0,-1.6083272E0,-9.432171E-1,-2.6740697E-1,2.826549E-1,1.4671267E0,-7.293434E-1,3.0972557E0,-7.5734866E-1,1.8482484E0,4.3492028E-1,-6.1841327E-1,1.0103871E1,-5.2729243E-1,-3.0685106E-1,-6.639069E-1,-1.844553E-1,-8.787786E-2,-2.0057252E-2,5.8394648E-2,-4.0410462E-1,2.4507193E-1,1.2064006E0,-2.906779E-1,3.527527E-2,5.5315286E-1,9.5437473E-1,-6.29744E-1,7.1075195E-1,8.317896E-1,3.9828491E0],"categories":[],"categories_nodes":[],"categories_segments":[],"categories_sizes":[],"default_left":[0,0,0,0,0,0,0,0,0,0,0,0,0,0,0,0,0,0,0,0,0,0,0,0,0,0,0,0,0,0,0,0,0,0,0,0,0,0,0,0,0,0,0,0,0],"id":22,"left_children":[1,3,5,7,9,11,13,15,17,19,21,-1,23,25,-1,27,29,31,33,35,37,39,-1,-1,-1,41,43,-1,-1,-1,-1,-1,-1,-1,-1,-1,-1,-1,-1,-1,-1,-1,-1,-1,-1],"loss_changes":[4.8323496E3,2.5313245E3,1.4127295E3,7.8837195E2,3.0185925E2,9.914321E2,1.3087036E3,7.522583E1,6.895848E1,6.934027E1,8.4625E1,0E0,2.8659164E1,4.506197E2,0E0,3.266211E1,1.0523407E1,1.2803526E1,1.0569653E1,1.9567776E2,1.074887E1,9.89364E1,0E0,0E0,0E0,1.3787231E2,2.6710925E2,0E0,0E0,0E0,0E0,0E0,0E0,0E0,0E0,0E0,0E0,0E0,0E0,0E0,0E0,0E0,0E0,0E0,0E0],"parents":[2147483647,0,0,1,1,2,2,3,3,4,4,5,5,6,6,7,7,8,8,9,9,10,10,12,12,13,13,15,15,16,16,17,17,18,18,19,19,20,20,21,21,25,25,26,26],"right_children":[2,4,6,8,10,12,14,16,18,20,22,-1,24,26,-1,28,30,32,34,36,38,40,-1,-1,-1,42,44,-1,-1,-1,-1,-1,-1,-1,-1,-1,-1,-1,-1,-1,-1,-1,-1,-1,-1],"split_conditions":[9.1475E2,4.238E2,7.38346E5,2.65E2,6.02E2,4.314E-1,2.853145E6,1.5895E2,3.422E2,5.87E2,8.64E2,6.235547E0,3.46842E5,4.13E-1,4.386675E0,1.151E2,1.91E3,3.1285E2,4.398E2,5.81E2,1.3806E5,7.881E2,-7.5734866E-1,1.8482484E0,4.3492028E-1,1.078E3,1.081969E6,-5.2729243E-1,-3.0685106E-1,-6.639069E-1,-1.844553E-1,-8.787786E-2,-2.0057252E-2,5.8394648E-2,-4.0410462E-1,2.4507193E-1,1.2064006E0,-2.906779E-1,3.527527E-2,5.5315286E-1,9.5437473E-1,-6.29744E-1,7.1075195E-1,8.317896E-1,3.9828491E0],"split_indices":[1,4,6,3,3,10,6,4,2,3,3,0,6,10,0,2,8,4,1,3,9,4,0,0,0,2,6,0,0,0,0,0,0,0,0,0,0,0,0,0,0,0,0,0,0],"split_type":[0,0,0,0,0,0,0,0,0,0,0,0,0,0,0,0,0,0,0,0,0,0,0,0,0,0,0,0,0,0,0,0,0,0,0,0,0,0,0,0,0,0,0,0,0],"sum_hessian":[2.091E3,2.063E3,2.8E1,1.663E3,4E2,8E0,2E1,7.53E2,9.1E2,1.98E2,2.02E2,5E0,3E0,1.6E1,4E0,4.81E2,2.72E2,4.46E2,4.64E2,1.83E2,1.5E1,2.01E2,1E0,1E0,2E0,1.1E1,5E0,3E1,4.51E2,1E0,2.71E2,2.19E2,2.27E2,4.63E2,1E0,1.75E2,8E0,8E0,7E0,1.7E2,3.1E1,7E0,4E0,4E0,1E0],"tree_param":{"num_deleted":"0","num_feature":"11","num_nodes":"45","size_leaf_vector":"1"}},{"base_weights":[6.82771E-2,-4.3613458E-1,2.7841299E0,-1.1528858E0,9.138333E-2,2.2666671E0,7.9876585E0,-1.473212E0,-9.632861E-1,-9.679053E-2,4.3831992E-1,1.9279906E0,3.4005117E0,4.4061403E0,6.131481E0,-1.3822763E0,-2.3236413E0,-1.0968744E0,-6.6613257E-1,-2.79837E-1,1.836469E-2,-3.014913E-1,4.536146E-1,1.9648929E0,-6.574402E-1,3.5553098E0,-6.8161625E-1,4.4163303E0,5.0725403E0,-2.9789302E-1,3.4891468E-2,-5.2458245E-1,-2.719654E-1,-1.1988858E-1,-2.3897329E-1,2.4242401E-2,-1.5116844E-1,-8.568091E-2,-3.63095E-2,1.2068228E-1,-3.7267904E-3,4.330898E-1,8.355493E-2,3.0693993E-1,4.41974E-1,2.005066E-1,-3.0898845E-1,7.3049057E-1,-2.7589723E-1,2.8833618E0,4.9702045E-1],"categories":[],"categories_nodes":[],"categories_segments":[],"categories_sizes":[],"default_left":[0,0,0,0,0,0,0,0,0,0,0,0,0,0,0,0,0,0,0,0,0,0,0,0,0,0,0,0,0,0,0,0,0,0,0,0,0,0,0,0,0,0,0,0,0,0,0,0,0,0,0],"id":23,"left_children":[1,3,5,7,9,11,13,15,17,19,21,23,25,-1,27,29,31,33,35,37,39,-1,41,43,45,47,-1,49,-1,-1,-1,-1,-1,-1,-1,-1,-1,-1,-1,-1,-1,-1,-1,-1,-1,-1,-1,-1,-1,-1,-1],"loss_changes":[2.8424028E3,6.617788E2,8.5700024E2,4.3645264E1,6.591438E1,1.074939E2,6.2084424E2,1.7977783E1,1.7886871E1,1.3811726E1,1.1248589E1,2.3331116E1,8.273187E1,0E0,7.785698E2,4.1975983E1,3.644333E0,1.4979431E1,1.0545212E1,3.6166916E0,8.734555E0,0E0,2.0752594E1,2.063684E1,7.4417744E0,3.6677612E1,0E0,4.6631613E2,0E0,0E0,0E0,0E0,0E0,0E0,0E0,0E0,0E0,0E0,0E0,0E0,0E0,0E0,0E0,0E0,0E0,0E0,0E0,0E0,0E0,0E0,0E0],"parents":[2147483647,0,0,1,1,2,2,3,3,4,4,5,5,6,6,7,7,8,8,9,9,10,10,11,11,12,12,14,14,15,15,16,16,17,17,18,18,19,19,20,20,22,22,23,23,24,24,25,25,27,27],"right_children":[2,4,6,8,10,12,14,16,18,20,22,24,26,-1,28,30,32,34,36,38,40,-1,42,44,46,48,-1,50,-1,-1,-1,-1,-1,-1,-1,-1,-1,-1,-1,-1,-1,-1,-1,-1,-1,-1,-1,-1,-1,-1,-1],"split_conditions":[5.457E2,2.6648E2,9.1475E2,1.436E2,3.7735E2,7.254E2,4.95019E5,1.4115E2,2.078E2,3.1885E2,1.012E-1,7.8E2,8.64E2,4.4061403E0,4.9238673E14,1.397E2,1.429E2,1.4715E2,2.18E2,3.769E-1,3.228E2,-3.014913E-1,1.313E-1,5.703E2,7.08E2,8.9E2,-6.8161625E-1,2.743E-1,5.0725403E0,-2.9789302E-1,3.4891468E-2,-5.2458245E-1,-2.719654E-1,-1.1988858E-1,-2.3897329E-1,2.4242401E-2,-1.5116844E-1,-8.568091E-2,-3.63095E-2,1.2068228E-1,-3.7267904E-3,4.330898E-1,8.355493E-2,3.0693993E-1,4.41974E-1,2.005066E-1,-3.0898845E-1,7.3049057E-1,-2.7589723E-1,2.8833618E0,4.9702045E-1],"split_indices":[1,5,1,4,4,2,6,4,4,3,10,1,3,0,7,4,4,4,4,10,4,0,10,2,0,0,0,10,0,0,0,0,0,0,0,0,0,0,0,0,0,0,0,0,0,0,0,0,0,0,0],"split_type":[0,0,0,0,0,0,0,0,0,0,0,0,0,0,0,0,0,0,0,0,0,0,0,0,0,0,0,0,0,0,0,0,0,0,0,0,0,0,0,0,0,0,0,0,0,0,0,0,0,0,0],"sum_hessian":[2.073E3,1.749E3,3.24E2,7.41E2,1.008E3,2.96E2,2.8E1,2.73E2,4.68E2,6.54E2,3.54E2,2.3E2,6.6E1,2E0,2.6E1,2.49E2,2.4E1,3.21E2,1.47E2,2.52E2,4.02E2,2E0,3.52E2,2.27E2,3E0,6.5E1,1E0,2.5E1,1E0,2.33E2,1.6E1,1.7E1,7E0,5.4E1,2.67E2,1.5E1,1.32E2,9.9E1,1.53E2,2.3E1,3.79E2,6E0,3.46E2,8.5E1,1.42E2,1E0,2E0,6.4E1,1E0,3E0,2.2E1],"tree_param":{"num_deleted":"0","num_feature":"11","num_nodes":"51","size_leaf_vector":"1"}},{"base_weights":[5.364593E-2,-7.347247E-2,7.6465297E0,-4.1402298E-1,1.2201631E0,4.8149757E0,1.3386741E1,-9.4997966E-1,-4.4277072E-2,7.2840744E-1,1.6299984E0,2.860349E0,1.8195456E1,6.0111494E0,6.3429904E0,-5.2302843E-1,-9.210506E-1,-2.2930324E-1,1.0663017E-1,8.714012E-1,-2.620662E-1,3.02744E0,1.4509255E0,6.447138E0,-3.9465332E-1,8.933533E-1,4.5652833E0,-3.8059692E0,1.9980682E1,-2.2490136E-1,-1.5084913E-1,-7.406547E-2,-2.7894283E-2,-6.976881E-3,4.0158056E-2,1.4431068E-1,6.5434694E-1,-1.8005677E-1,5.31958E-2,2.6899213E-1,6.727969E-1,8.978351E-2,3.436479E-1,6.01005E-1,2.9248862E0,-2.5117677E-1,3.7141725E-1,-1.4819397E0,4.535319E-1,5.562492E0,-3.5146484E-1],"categories":[],"categories_nodes":[],"categories_segments":[],"categories_sizes":[],"default_left":[0,0,0,0,0,0,0,0,0,0,0,0,0,0,0,0,0,0,0,0,0,0,0,0,0,0,0,0,0,0,0,0,0,0,0,0,0,0,0,0,0,0,0,0,0,0,0,0,0,0,0],"id":24,"left_children":[1,3,5,7,9,11,13,15,17,19,21,23,25,-1,27,-1,29,31,33,35,37,39,41,43,45,-1,-1,47,49,-1,-1,-1,-1,-1,-1,-1,-1,-1,-1,-1,-1,-1,-1,-1,-1,-1,-1,-1,-1,-1,-1],"loss_changes":[2.0516018E3,9.216916E2,5.0442334E2,3.2812384E2,8.668359E1,6.018006E2,1.1008921E3,3.0155273E1,2.7415722E1,2.8554672E1,5.4915283E1,2.7106952E2,8.8770935E1,0E0,1.3217212E3,0E0,2.1754211E1,5.535139E0,7.215843E0,6.058409E1,9.001658E0,1.0197556E1,5.601303E1,2.6567203E2,2.754275E1,0E0,0E0,1.4812895E2,7.2986426E2,0E0,0E0,0E0,0E0,0E0,0E0,0E0,0E0,0E0,0E0,0E0,0E0,0E0,0E0,0E0,0E0,0E0,0E0,0E0,0E0,0E0,0E0],"parents":[2147483647,0,0,1,1,2,2,3,3,4,4,5,5,6,6,7,7,8,8,9,9,10,10,11,11,12,12,14,14,16,16,17,17,18,18,19,19,20,20,21,21,22,22,23,23,24,24,27,27,28,28],"right_children":[2,4,6,8,10,12,14,16,18,20,22,24,26,-1,28,-1,30,32,34,36,38,40,42,44,46,-1,-1,48,50,-1,-1,-1,-1,-1,-1,-1,-1,-1,-1,-1,-1,-1,-1,-1,-1,-1,-1,-1,-1,-1,-1],"split_conditions":[8.33E2,4.0961E2,1.078E3,2.361E2,5.675E2,4.9238673E14,2.28206E5,1.12E2,3.3505E2,5.508E2,5.835E4,6.80716E5,7.575E2,6.0111494E0,4.143E-1,-5.2302843E-1,1.451E2,2.8565E2,9.085747E13,5.4635E2,5.56E2,8.7343E4,9.266E4,1.96557E5,4.13E-1,8.933533E-1,4.5652833E0,1.471127E6,5.09325E5,-2.2490136E-1,-1.5084913E-1,-7.406547E-2,-2.7894283E-2,-6.976881E-3,4.0158056E-2,1.4431068E-1,6.5434694E-1,-1.8005677E-1,5.31958E-2,2.6899213E-1,6.727969E-1,8.978351E-2,3.436479E-1,6.01005E-1,2.9248862E0,-2.5117677E-1,3.7141725E-1,-1.4819397E0,4.535319E-1,5.562492E0,-3.5146484E-1],"split_indices":[3,5,2,4,3,7,9,4,0,4,9,6,0,0,10,0,4,4,7,4,3,6,9,9,10,0,0,6,9,0,0,0,0,0,0,0,0,0,0,0,0,0,0,0,0,0,0,0,0,0,0],"split_type":[0,0,0,0,0,0,0,0,0,0,0,0,0,0,0,0,0,0,0,0,0,0,0,0,0,0,0,0,0,0,0,0,0,0,0,0,0,0,0,0,0,0,0,0,0,0,0,0,0,0,0],"sum_hessian":[2.124E3,2.09E3,3.4E1,1.655E3,4.35E2,2.4E1,1E1,6.75E2,9.8E2,1.99E2,2.36E2,2.2E1,2E0,2E0,8E0,1E1,6.65E2,4.4E2,5.4E2,1.74E2,2.5E1,2.5E1,2.11E2,1E1,1.2E1,1E0,1E0,5E0,3E0,2.97E2,3.68E2,1.7E2,2.7E2,2.16E2,3.24E2,1.65E2,9E0,1.1E1,1.4E1,5E0,2E1,4.5E1,1.66E2,8E0,2E0,9E0,3E0,3E0,2E0,2E0,1E0],"tree_param":{"num_deleted":"0","num_feature":"11","num_nodes":"51","size_leaf_vector":"1"}},{"base_weights":[6.704433E-2,-2.9818848E-1,1.5997926E0,-8.527759E-1,-4.610692E-2,1.2644784E0,4.36788E0,-2.1026745E0,-8.2275397E-1,-2.185436E-1,1.9876981E-1,3.722528E0,1.1924869E0,2.4315674E0,1.0708185E1,-1.152359E-1,-2.189067E0,-9.948961E-1,-7.293298E-1,9.383996E-1,-2.5941613E-1,1.8217377E-1,1.77547E0,8.322666E-1,-2.267151E-2,-1.0028883E0,1.2778705E0,6.412622E0,8.068707E-1,5.135443E0,6.191935E0,-4.5554748E-1,-1.3023606E-1,-1.857976E-1,-3.2495022E-1,-1.0811541E-1,-1.7161332E-1,-1.4648438E-4,4.5065156E-1,-2.7277264E-1,-4.4011544E-2,4.411889E-2,-1.9252434E-1,1.0736288E-1,4.8446044E-1,-4.0616123E-3,-6.9085234E-1,1.9949488E-1,3.3666572E-1,5.5745715E-1,3.904065E0,-1.7923789E-1,8.2466775E-1,3.659973E-1,4.1087527E0],"categories":[],"categories_nodes":[],"categories_segments":[],"categories_sizes":[],"default_left":[0,0,0,0,0,0,0,0,0,0,0,0,0,0,0,0,0,0,0,0,0,0,0,0,0,0,0,0,0,0,0,0,0,0,0,0,0,0,0,0,0,0,0,0,0,0,0,0,0,0,0,0,0,0,0],"id":25,"left_children":[1,3,5,7,9,11,13,15,17,19,21,23,25,27,29,-1,31,33,35,37,39,41,43,-1,-1,45,47,49,51,-1,53,-1,-1,-1,-1,-1,-1,-1,-1,-1,-1,-1,-1,-1,-1,-1,-1,-1,-1,-1,-1,-1,-1,-1,-1],"loss_changes":[1.1956714E3,2.4111784E2,3.7595837E2,1.8495636E1,5.0165386E1,6.0681824E1,5.14142E2,3.2123184E-1,7.765808E0,3.3202625E1,1.2524544E1,1.7303757E1,6.857587E1,2.2120609E2,5.170471E2,0E0,1.6803741E-2,6.087433E0,7.943741E0,2.963746E1,2.8998177E1,2.1632458E1,2.7056847E0,0E0,0E0,3.3651245E1,3.7657288E1,4.207896E2,1.5054703E2,0E0,5.2582263E2,0E0,0E0,0E0,0E0,0E0,0E0,0E0,0E0,0E0,0E0,0E0,0E0,0E0,0E0,0E0,0E0,0E0,0E0,0E0,0E0,0E0,0E0,0E0,0E0],"parents":[2147483647,0,0,1,1,2,2,3,3,4,4,5,5,6,6,7,7,8,8,9,9,10,10,11,11,12,12,13,13,14,14,16,16,17,17,18,18,19,19,20,20,21,21,22,22,25,25,26,26,27,27,28,28,30,30],"right_children":[2,4,6,8,10,12,14,16,18,20,22,24,26,28,30,-1,32,34,36,38,40,42,44,-1,-1,46,48,50,52,-1,54,-1,-1,-1,-1,-1,-1,-1,-1,-1,-1,-1,-1,-1,-1,-1,-1,-1,-1,-1,-1,-1,-1,-1,-1],"split_conditions":[4.56E2,1.6485E2,8.1001E2,1.122E2,3.5365E2,4.674E2,2.853145E6,3.89292E5,1.36E2,1.8045E2,4.53E2,4.85E2,4.9505E2,1.77415E5,2.983187E6,-1.152359E-1,3.1812E4,1.343E2,1.4715E2,1.8055E2,1.9615E2,4.398E2,4.283E2,8.322666E-1,-2.267151E-2,4.99E2,6.52E2,1.032E3,4.908E-1,5.135443E0,1.0369E3,-4.5554748E-1,-1.3023606E-1,-1.857976E-1,-3.2495022E-1,-1.0811541E-1,-1.7161332E-1,-1.4648438E-4,4.5065156E-1,-2.7277264E-1,-4.4011544E-2,4.411889E-2,-1.9252434E-1,1.0736288E-1,4.8446044E-1,-4.0616123E-3,-6.9085234E-1,1.9949488E-1,3.3666572E-1,5.5745715E-1,3.904065E0,-1.7923789E-1,8.2466775E-1,3.659973E-1,4.1087527E0],"split_indices":[3,4,5,3,4,4,6,6,4,3,0,0,3,9,6,0,8,3,4,1,0,1,2,0,0,0,2,0,10,0,3,0,0,0,0,0,0,0,0,0,0,0,0,0,0,0,0,0,0,0,0,0,0,0,0],"split_type":[0,0,0,0,0,0,0,0,0,0,0,0,0,0,0,0,0,0,0,0,0,0,0,0,0,0,0,0,0,0,0,0,0,0,0,0,0,0,0,0,0,0,0,0,0,0,0,0,0,0,0,0,0,0,0],"sum_hessian":[2.134E3,1.724E3,4.1E2,5.38E2,1.186E3,3.67E2,4.3E1,1.1E1,5.27E2,6.96E2,4.9E2,9E0,3.58E2,3.4E1,9E0,1E0,1E1,1.82E2,3.45E2,2.3E1,6.73E2,4.86E2,4E0,8E0,1E0,1.3E1,3.45E2,9E0,2.5E1,1E0,8E0,9E0,1E0,1.67E2,1.5E1,1.42E2,2.03E2,1.4E1,9E0,2.2E1,6.51E2,4.71E2,1.5E1,2E0,2E0,1E1,3E0,2.06E2,1.39E2,8E0,1E0,1.7E1,8E0,7E0,1E0],"tree_param":{"num_deleted":"0","num_feature":"11","num_nodes":"55","size_leaf_vector":"1"}},{"base_weights":[9.970463E-3,-1.9968538E-1,1.4594637E0,-5.397657E-1,8.6059056E-2,1.1738206E0,6.180013E0,-7.2382843E-1,-3.4453717E-1,1.1989657E-3,2.9600286E-1,1.0960342E0,2.0776002E0,-3.5789552E0,1.0054089E1,-1.2875112E0,-6.756355E-1,-5.312576E-1,-3.3242002E-1,3.8565233E-2,-8.2571906E-1,3.7223014E-1,-5.611827E-1,1.2964078E0,-6.1022425E0,-2.2298177E-1,-1.1483887E0,4.270557E0,6.7889404E0,-2.7049428E-1,-3.7417095E-2,-1.2227859E-1,-1.74134E-1,-5.8121778E-2,-1.6344653E-1,1.3459348E-3,2.3116134E-1,-3.4454957E-1,-6.330537E-2,5.757261E-2,5.006482E-1,-5.694153E-1,-6.760201E-2,2.1419834E-1,8.184361E-1,-4.7846985E-1,-1.6573151E0,8.005371E-2,-1.4694825E-1,3.697876E0,6.869032E-1],"categories":[],"categories_nodes":[],"categories_segments":[],"categories_sizes":[],"default_left":[0,0,0,0,0,0,0,0,0,0,0,0,0,0,0,0,0,0,0,0,0,0,0,0,0,0,0,0,0,0,0,0,0,0,0,0,0,0,0,0,0,0,0,0,0,0,0,0,0,0,0],"id":26,"left_children":[1,3,5,7,9,11,13,15,17,19,21,23,-1,25,27,29,31,-1,33,35,37,39,41,43,45,47,-1,-1,49,-1,-1,-1,-1,-1,-1,-1,-1,-1,-1,-1,-1,-1,-1,-1,-1,-1,-1,-1,-1,-1,-1],"loss_changes":[6.4211707E2,1.7943347E2,3.5276654E2,3.0043228E1,1.788676E1,1.699491E2,6.0308765E2,1.0892761E1,1.0629875E1,2.215541E1,1.909241E1,3.7138187E2,0E0,3.5014297E1,2.6084827E2,2.1059418E0,4.4920197E0,0E0,8.073437E0,2.4391874E1,1.3614262E1,4.7102795E1,1.1281233E1,1.5064957E2,3.6901093E1,1.2509564E0,0E0,0E0,3.2898032E2,0E0,0E0,0E0,0E0,0E0,0E0,0E0,0E0,0E0,0E0,0E0,0E0,0E0,0E0,0E0,0E0,0E0,0E0,0E0,0E0,0E0,0E0],"parents":[2147483647,0,0,1,1,2,2,3,3,4,4,5,5,6,6,7,7,8,8,9,9,10,10,11,11,13,13,14,14,15,15,16,16,18,18,19,19,20,20,21,21,22,22,23,23,24,24,25,25,28,28],"right_children":[2,4,6,8,10,12,14,16,18,20,22,24,-1,26,28,30,32,-1,34,36,38,40,42,44,46,48,-1,-1,50,-1,-1,-1,-1,-1,-1,-1,-1,-1,-1,-1,-1,-1,-1,-1,-1,-1,-1,-1,-1,-1,-1],"split_conditions":[5.5405E2,2.8333E2,1.0369E3,1.5315E2,3.925E2,1.064E3,8.47394E13,1.1817E2,1.91E3,3.8875E2,5.508E2,8.4E2,2.0776002E0,7.8538384E13,7.38346E5,7.702E-1,1.4715E2,-5.312576E-1,6.882E-1,3.866E2,3.9E2,5.4635E2,1.422E-1,8.275E2,2.14E-1,1.1E3,-1.1483887E0,4.270557E0,1.032E3,-2.7049428E-1,-3.7417095E-2,-1.2227859E-1,-1.74134E-1,-5.8121778E-2,-1.6344653E-1,1.3459348E-3,2.3116134E-1,-3.4454957E-1,-6.330537E-2,5.757261E-2,5.006482E-1,-5.694153E-1,-6.760201E-2,2.1419834E-1,8.184361E-1,-4.7846985E-1,-1.6573151E0,8.005371E-2,-1.4694825E-1,3.697876E0,6.869032E-1],"split_indices":[2,5,3,4,4,1,7,5,8,4,4,2,0,7,6,10,4,0,10,4,4,4,10,1,10,0,0,0,0,0,0,0,0,0,0,0,0,0,0,0,0,0,0,0,0,0,0,0,0,0,0],"split_type":[0,0,0,0,0,0,0,0,0,0,0,0,0,0,0,0,0,0,0,0,0,0,0,0,0,0,0,0,0,0,0,0,0,0,0,0,0,0,0,0,0,0,0,0,0,0,0,0,0,0,0],"sum_hessian":[2.111E3,1.845E3,2.66E2,8.42E2,1.003E3,2.52E2,1.4E1,4.32E2,4.1E2,7.15E2,2.88E2,2.51E2,1E0,4E0,1E1,3.2E1,4E2,1E0,4.09E2,6.85E2,3E1,2.65E2,2.3E1,2.45E2,6E0,2E0,2E0,1E0,9E0,3E1,2E0,3.04E2,9.6E1,3.78E2,3.1E1,6.67E2,1.8E1,1E1,2E1,2.56E2,9E0,1E0,2.2E1,2.28E2,1.7E1,3E0,3E0,1E0,1E0,1E0,8E0],"tree_param":{"num_deleted":"0","num_feature":"11","num_nodes":"51","size_leaf_vector":"1"}},{"base_weights":[1.7612079E-3,-1.806587E-1,1.0308355E0,-5.1569366E-1,2.4535552E-2,8.727346E-1,4.367667E0,-1.7219305E0,-5.004757E-1,-1.3307449E-1,1.2737004E-1,9.65319E-1,-2.2486572E0,-1.1183404E0,1.1868733E1,-4.1649446E-1,-1.6815415E-1,-7.342081E-1,-4.5803303E-1,2.727339E-1,-1.6917431E-1,5.4581976E-1,8.818867E-2,7.819663E-1,3.733283E0,-3.0686188E-1,-1.7783021E0,-1.2719158E0,1.2876674E0,4.335327E-1,1.3375415E1,-1.336107E-1,-2.0878029E-1,-5.622506E-2,-1.03158295E-1,4.056876E-3,2.0556574E-1,-1.5613724E-1,-2.7343024E-2,-3.8254883E-2,2.1753688E-1,2.68415E-2,-5.1763322E-2,1.7316186E-1,-2.6484376E-1,1.8165467E0,4.1157553E-1,-3.381487E-1,9.38031E-1,1.021051E0,-5.7036746E-1,2.9746156E0,7.384766E-1],"categories":[],"categories_nodes":[],"categories_segments":[],"categories_sizes":[],"default_left":[0,0,0,0,0,0,0,0,0,0,0,0,0,0,0,0,0,0,0,0,0,0,0,0,0,0,0,0,0,0,0,0,0,0,0,0,0,0,0,0,0,0,0,0,0,0,0,0,0,0,0,0,0],"id":27,"left_children":[1,3,5,7,9,11,13,15,17,19,21,23,25,27,29,-1,-1,31,33,35,37,39,41,43,45,47,-1,-1,49,-1,51,-1,-1,-1,-1,-1,-1,-1,-1,-1,-1,-1,-1,-1,-1,-1,-1,-1,-1,-1,-1,-1,-1],"loss_changes":[3.9271634E2,1.2217651E2,1.6236841E2,1.1528824E1,1.7894096E1,8.944624E1,5.893859E2,7.906761E-1,6.290436E0,6.4333696E0,1.0904016E1,1.4628967E2,1.1336308E2,1.2168315E2,5.870514E1,0E0,0E0,1.371872E0,5.6587753E0,6.841589E0,7.852791E0,2.2974146E1,9.807629E0,5.0061615E1,1.4263382E2,6.3252094E1,0E0,0E0,1.2517981E2,0E0,1.759253E1,0E0,0E0,0E0,0E0,0E0,0E0,0E0,0E0,0E0,0E0,0E0,0E0,0E0,0E0,0E0,0E0,0E0,0E0,0E0,0E0,0E0,0E0],"parents":[2147483647,0,0,1,1,2,2,3,3,4,4,5,5,6,6,7,7,8,8,9,9,10,10,11,11,12,12,13,13,14,14,17,17,18,18,19,19,20,20,21,21,22,22,23,23,24,24,25,25,28,28,30,30],"right_children":[2,4,6,8,10,12,14,16,18,20,22,24,26,28,30,-1,-1,32,34,36,38,40,42,44,46,48,-1,-1,50,-1,52,-1,-1,-1,-1,-1,-1,-1,-1,-1,-1,-1,-1,-1,-1,-1,-1,-1,-1,-1,-1,-1,-1],"split_conditions":[5.4626E2,2.361E2,1.0369E3,1.135E2,3.3505E2,9.1475E2,4.84578E5,1.101E2,1.264E2,2.596E2,1.88E-1,8.1001E2,1.261698E6,3.45643E5,3.109E-1,-4.1649446E-1,-1.6815415E-1,1.2475E2,1.4115E2,2.475361E6,2.5865E2,1.482E-1,4.3342E2,7.955E2,7.8425E2,1.032E3,-1.7783021E0,-1.2719158E0,4.21777E5,4.335327E-1,4.339E-1,-1.336107E-1,-2.0878029E-1,-5.622506E-2,-1.03158295E-1,4.056876E-3,2.0556574E-1,-1.5613724E-1,-2.7343024E-2,-3.8254883E-2,2.1753688E-1,2.68415E-2,-5.1763322E-2,1.7316186E-1,-2.6484376E-1,1.8165467E0,4.1157553E-1,-3.381487E-1,9.38031E-1,1.021051E0,-5.7036746E-1,2.9746156E0,7.384766E-1],"split_indices":[5,4,3,1,0,1,9,2,4,1,10,5,9,9,10,0,0,4,4,9,3,10,5,0,2,0,0,0,9,0,10,0,0,0,0,0,0,0,0,0,0,0,0,0,0,0,0,0,0,0,0,0,0],"split_type":[0,0,0,0,0,0,0,0,0,0,0,0,0,0,0,0,0,0,0,0,0,0,0,0,0,0,0,0,0,0,0,0,0,0,0,0,0,0,0,0,0,0,0,0,0,0,0,0,0,0,0,0,0],"sum_hessian":[2.09E3,1.776E3,3.14E2,6.74E2,1.102E3,3.01E2,1.3E1,7E0,6.67E2,4.35E2,6.67E2,2.93E2,8E0,8E0,5E0,4E0,3E0,1E2,5.67E2,3.5E1,4E2,5.6E1,6.11E2,2.76E2,1.7E1,7E0,1E0,2E0,6E0,1E0,4E0,8.5E1,1.5E1,1.41E2,4.26E2,2.7E1,8E0,1.9E1,3.81E2,2.4E1,3.2E1,5.4E2,7.1E1,2.66E2,1E1,3E0,1.4E1,6E0,1E0,3E0,3E0,3E0,1E0],"tree_param":{"num_deleted":"0","num_feature":"11","num_nodes":"53","size_leaf_vector":"1"}},{"base_weights":[1.0227342E-1,1.6296665E-3,6.4397306E0,-1.7027597E-1,6.207906E-1,9.921554E0,3.3519897E0,-4.6124572E-1,-4.0144477E-2,4.7498748E-1,1.2632769E0,5.8448253E0,4.8560386E0,1.2480736E0,1.0929657E1,-6.934292E-1,-3.7418538E-1,-4.6781465E-1,-3.602181E-2,4.9309656E-1,-3.8094482E-1,-3.106079E-1,1.643766E0,-4.547119E-2,1.2724416E1,3.710373E0,-4.9110594E0,2.4714925E0,6.6462404E-1,-2.7154312E-1,-1.2713262E-1,1.3616944E-2,-8.0229454E-2,-2.6678422E-2,1.0311453E-2,1.6252033E-1,7.546851E-2,3.0122072E-1,-7.784526E-1,3.6368963E-1,-3.124176E-1,3.8182983E-1,-7.87911E-1,3.29552E0,-6.041504E-1,1.03042E0,-9.2221074E-2,-2.58313E-1,-1.0986084E0],"categories":[],"categories_nodes":[],"categories_segments":[],"categories_sizes":[],"default_left":[0,0,0,0,0,0,0,0,0,0,0,0,0,0,0,0,0,0,0,0,0,0,0,0,0,0,0,0,0,0,0,0,0,0,0,0,0,0,0,0,0,0,0,0,0,0,0,0,0],"id":28,"left_children":[1,3,5,7,9,11,13,15,17,19,21,23,-1,25,27,29,31,-1,33,35,-1,37,39,41,43,45,47,-1,-1,-1,-1,-1,-1,-1,-1,-1,-1,-1,-1,-1,-1,-1,-1,-1,-1,-1,-1,-1,-1],"loss_changes":[1.3464391E3,2.2138876E2,3.215249E2,6.1624603E1,4.174176E1,7.361306E2,2.8927176E2,9.90815E0,1.0587656E1,1.6884148E1,5.0214767E1,5.2737537E2,0E0,2.6087192E2,2.3772583E0,4.355713E0,4.415493E0,0E0,9.600427E0,1.3303474E1,0E0,1.1647832E2,4.036093E1,6.841284E1,4.043418E2,7.454523E1,3.43779E0,0E0,0E0,0E0,0E0,0E0,0E0,0E0,0E0,0E0,0E0,0E0,0E0,0E0,0E0,0E0,0E0,0E0,0E0,0E0,0E0,0E0,0E0],"parents":[2147483647,0,0,1,1,2,2,3,3,4,4,5,5,6,6,7,7,8,8,9,9,10,10,11,11,13,13,14,14,15,15,16,16,18,18,19,19,21,21,22,22,23,23,24,24,25,25,26,26],"right_children":[2,4,6,8,10,12,14,16,18,20,22,24,-1,26,28,30,32,-1,34,36,-1,38,40,42,44,46,48,-1,-1,-1,-1,-1,-1,-1,-1,-1,-1,-1,-1,-1,-1,-1,-1,-1,-1,-1,-1,-1,-1],"split_conditions":[8.33E2,4.11E2,3.539E-1,1.6075E2,7.21E2,1.1E3,1.3410128E14,1.2975E2,1.91E3,7.94E2,8.7576E4,2.853145E6,4.8560386E0,1.1E3,4.339E-1,1.101E2,1.316E2,-4.6781465E-1,3.2634E2,2.62E-1,-3.8094482E-1,7.2581E4,8.2809E2,1.347893E6,1.032E3,4.21777E5,1.14E3,2.4714925E0,6.6462404E-1,-2.7154312E-1,-1.2713262E-1,1.3616944E-2,-8.0229454E-2,-2.6678422E-2,1.0311453E-2,1.6252033E-1,7.546851E-2,3.0122072E-1,-7.784526E-1,3.6368963E-1,-3.124176E-1,3.8182983E-1,-7.87911E-1,3.29552E0,-6.041504E-1,1.03042E0,-9.2221074E-2,-2.58313E-1,-1.0986084E0],"split_indices":[3,0,10,4,2,0,7,4,8,1,9,6,0,0,10,2,3,0,5,10,0,9,5,6,0,9,1,0,0,0,0,0,0,0,0,0,0,0,0,0,0,0,0,0,0,0,0,0,0],"split_type":[0,0,0,0,0,0,0,0,0,0,0,0,0,0,0,0,0,0,0,0,0,0,0,0,0,0,0,0,0,0,0,0,0,0,0,0,0,0,0,0,0,0,0,0,0,0,0,0,0],"sum_hessian":[2.11E3,2.078E3,3.2E1,1.627E3,4.51E2,1.4E1,1.8E1,5.02E2,1.125E3,3.69E2,8.2E1,1.2E1,2E0,1.5E1,3E0,1.35E2,3.67E2,1E0,1.124E3,3.67E2,2E0,1.6E1,6.6E1,7E0,5E0,1.1E1,4E0,2E0,1E0,9E0,1.26E2,2.1E1,3.46E2,5.32E2,5.92E2,9.6E1,2.71E2,1.1E1,5E0,6.3E1,3E0,5E0,2E0,4E0,1E0,8E0,3E0,1E0,3E0],"tree_param":{"num_deleted":"0","num_feature":"11","num_nodes":"49","size_leaf_vector":"1"}},{"base_weights":[-1.838158E-2,-8.349724E-2,1.189443E0,-3.176777E-1,7.8424536E-2,8.230841E-1,5.1279364E0,-5.065594E-1,-2.5501862E-1,-1.1870975E-2,2.3757437E-1,1.6719432E0,-1.9346339E0,1.3944441E0,2.4260213E0,-4.4060242E-1,-9.585486E-1,1.0623718E-1,-2.8637034E-1,5.1194476E-3,-7.097066E-1,-7.504378E-1,3.0057126E-1,1.0538635E0,1.2688431E1,-1.1796079E0,-1.9300232E0,2.607422E-2,3.7479982E-1,-9.830622E-2,1.1519945E-1,-2.3643132E-1,-1.0098419E-1,-5.7743516E-2,1.6488376E-1,-3.2325062E-1,-5.0952185E-2,-3.3296593E-3,1.310435E-1,-2.0608793E-1,-7.001526E-2,1.1725532E-2,-4.5703736E-1,7.788781E-2,-8.341011E-2,2.3781522E-1,-8.8166505E-1,3.3137085E0,1.04809575E-1,-4.55523E-1,4.62203E-1],"categories":[],"categories_nodes":[],"categories_segments":[],"categories_sizes":[],"default_left":[0,0,0,0,0,0,0,0,0,0,0,0,0,0,0,0,0,0,0,0,0,0,0,0,0,0,0,0,0,0,0,0,0,0,0,0,0,0,0,0,0,0,0,0,0,0,0,0,0,0,0],"id":29,"left_children":[1,3,5,7,9,11,13,15,17,19,21,23,25,27,-1,29,31,33,35,37,39,41,43,45,47,49,-1,-1,-1,-1,-1,-1,-1,-1,-1,-1,-1,-1,-1,-1,-1,-1,-1,-1,-1,-1,-1,-1,-1,-1,-1],"loss_changes":[1.660472E2,7.597651E1,1.5161269E2,9.563805E0,1.703188E1,2.3732599E2,2.183682E2,5.629463E0,7.0185547E0,8.979022E0,2.6927246E1,5.109263E2,1.28426E2,3.99903E0,0E0,9.550667E0,1.9389725E0,1.44204855E1,2.3465172E1,1.0482772E1,1.7154827E0,3.24185E1,2.5926895E1,5.9894997E1,1.8011395E2,9.341635E1,0E0,0E0,0E0,0E0,0E0,0E0,0E0,0E0,0E0,0E0,0E0,0E0,0E0,0E0,0E0,0E0,0E0,0E0,0E0,0E0,0E0,0E0,0E0,0E0,0E0],"parents":[2147483647,0,0,1,1,2,2,3,3,4,4,5,5,6,6,7,7,8,8,9,9,10,10,11,11,12,12,13,13,15,15,16,16,17,17,18,18,19,19,20,20,21,21,22,22,23,23,24,24,25,25],"right_children":[2,4,6,8,10,12,14,16,18,20,22,24,26,28,-1,30,32,34,36,38,40,42,44,46,48,50,-1,-1,-1,-1,-1,-1,-1,-1,-1,-1,-1,-1,-1,-1,-1,-1,-1,-1,-1,-1,-1,-1,-1,-1,-1],"split_conditions":[7.335E2,2.7615E2,1.463701E6,1.3648E2,3.998E2,6.999977E13,7.575E2,1.346E2,1.4115E2,3.979E2,1.482E-1,1.064E3,1.352503E6,2.43616E5,2.4260213E0,1.3305E2,1.3565E2,1.397E2,1.429E2,3.925E2,3.9915E2,1.313E-1,6.88E2,8.64E2,4.13E-1,9.05615E5,-1.9300232E0,2.607422E-2,3.7479982E-1,-9.830622E-2,1.1519945E-1,-2.3643132E-1,-1.0098419E-1,-5.7743516E-2,1.6488376E-1,-3.2325062E-1,-5.0952185E-2,-3.3296593E-3,1.310435E-1,-2.0608793E-1,-7.001526E-2,1.1725532E-2,-4.5703736E-1,7.788781E-2,-8.341011E-2,2.3781522E-1,-8.8166505E-1,3.3137085E0,1.04809575E-1,-4.55523E-1,4.62203E-1],"split_indices":[3,3,9,5,4,7,0,4,4,4,10,1,9,8,0,4,5,4,4,4,4,10,0,3,10,9,0,0,0,0,0,0,0,0,0,0,0,0,0,0,0,0,0,0,0,0,0,0,0,0,0],"split_type":[0,0,0,0,0,0,0,0,0,0,0,0,0,0,0,0,0,0,0,0,0,0,0,0,0,0,0,0,0,0,0,0,0,0,0,0,0,0,0,0,0,0,0,0,0,0,0,0,0,0,0],"sum_hessian":[2.109E3,2.002E3,1.07E2,8.18E2,1.184E3,9.9E1,8E0,2.02E2,6.16E2,7.56E2,4.28E2,7.6E1,2.3E1,6E0,2E0,1.78E2,2.4E1,4.9E1,5.67E2,7.39E2,1.7E1,2.5E1,4.03E2,7.3E1,3E0,2.2E1,1E0,2E0,4E0,1.7E2,8E0,1.5E1,9E0,3.2E1,1.7E1,1.2E1,5.55E2,7.16E2,2.3E1,8E0,9E0,1.7E1,8E0,3.59E2,4.4E1,7.2E1,1E0,2E0,1E0,1.7E1,5E0],"tree_param":{"num_deleted":"0","num_feature":"11","num_nodes":"51","size_leaf_vector":"1"}},{"base_weights":[5.4707594E-2,1.0116096E-2,9.444666E0,-9.905402E-2,7.860248E-1,1.7906717E1,-2.5987306E0,-3.0723804E-1,-1.6648388E-2,2.6828915E-1,1.5238311E0,7.2459717E0,2.1425598E1,-7.8934735E-1,-7.08374E-1,-1.086319E0,-2.9151368E-1,6.291184E-1,-3.209404E-2,4.5598686E-1,-2.2132347E0,4.455122E0,9.206414E-1,2.8385742E0,-6.647827E-1,4.876384E0,1.2556641E0,-1.8692628E-1,-4.987793E-2,-3.953293E-1,-1.2333126E-1,-5.7067838E-2,-3.46521E-1,5.7343855E-3,4.1873813E-1,-3.785556E-1,-3.2282067E-3,2.778897E-1,1.9207938E-2,1.860433E-1,-6.0302734E-1,3.169678E-1,1.1516389E0,-1.3629733E-1,2.7762556E-1],"categories":[],"categories_nodes":[],"categories_segments":[],"categories_sizes":[],"default_left":[0,0,0,0,0,0,0,0,0,0,0,0,0,0,0,0,0,0,0,0,0,0,0,0,0,0,0,0,0,0,0,0,0,0,0,0,0,0,0,0,0,0,0,0,0],"id":30,"left_children":[1,3,5,7,9,11,13,15,17,19,21,23,25,27,-1,29,31,33,35,37,39,41,43,-1,-1,-1,-1,-1,-1,-1,-1,-1,-1,-1,-1,-1,-1,-1,-1,-1,-1,-1,-1,-1,-1],"loss_changes":[8.858997E2,1.7855351E2,1.0656532E3,3.1698315E1,9.89082E1,6.9833984E1,5.73674E0,6.1026115E0,1.3236126E1,7.273877E1,1.8508775E2,2.6745966E2,2.6043335E1,2.2541285E-3,0E0,2.9626245E0,4.088108E0,2.7201283E1,3.8409588E1,4.8250114E1,3.0532867E1,5.819754E1,6.8353546E1,0E0,0E0,0E0,0E0,0E0,0E0,0E0,0E0,0E0,0E0,0E0,0E0,0E0,0E0,0E0,0E0,0E0,0E0,0E0,0E0,0E0,0E0],"parents":[2147483647,0,0,1,1,2,2,3,3,4,4,5,5,6,6,7,7,8,8,9,9,10,10,11,11,12,12,13,13,15,15,16,16,17,17,18,18,19,19,20,20,21,21,22,22],"right_children":[2,4,6,8,10,12,14,16,18,20,22,24,26,28,-1,30,32,34,36,38,40,42,44,-1,-1,-1,-1,-1,-1,-1,-1,-1,-1,-1,-1,-1,-1,-1,-1,-1,-1,-1,-1,-1,-1],"split_conditions":[1.1E3,5.7515E2,9.86715E5,1.64E2,2.39515E5,6.45456E5,1.14E3,1.12E2,1.8045E2,4.746409E13,3.06292E5,4.95019E5,7.38346E5,1.078E3,-7.08374E-1,4.13952E5,1.6305E2,1.8055E2,1.858E2,3.389E-1,6.5857E5,6.47E2,3.65228E5,2.8385742E0,-6.647827E-1,4.876384E0,1.2556641E0,-1.8692628E-1,-4.987793E-2,-3.953293E-1,-1.2333126E-1,-5.7067838E-2,-3.46521E-1,5.7343855E-3,4.1873813E-1,-3.785556E-1,-3.2282067E-3,2.778897E-1,1.9207938E-2,1.860433E-1,-6.0302734E-1,3.169678E-1,1.1516389E0,-1.3629733E-1,2.7762556E-1],"split_indices":[0,5,6,0,9,6,1,4,3,7,9,6,6,2,0,9,2,1,4,10,6,0,9,0,0,0,0,0,0,0,0,0,0,0,0,0,0,0,0,0,0,0,0,0,0],"split_type":[0,0,0,0,0,0,0,0,0,0,0,0,0,0,0,0,0,0,0,0,0,0,0,0,0,0,0,0,0,0,0,0,0,0,0,0,0,0,0,0,0,0,0,0,0],"sum_hessian":[2.115E3,2.106E3,9E0,1.847E3,2.59E2,5E0,4E0,5.23E2,1.324E3,1.53E2,1.06E2,2E0,3E0,2E0,2E0,9E0,5.14E2,3E1,1.294E3,1.43E2,1E1,1.7E1,8.9E1,1E0,1E0,2E0,1E0,1E0,1E0,2E0,7E0,5.13E2,1E0,2.2E1,8E0,1E1,1.284E3,3.9E1,1.04E2,2E0,8E0,6E0,1.1E1,2E1,6.9E1],"tree_param":{"num_deleted":"0","num_feature":"11","num_nodes":"45","size_leaf_vector":"1"}},{"base_weights":[1.6026337E-2,-2.3779586E-2,8.381628E0,-1.033286E-1,3.6014885E-1,1.3529646E1,-2.7228088E0,-9.187721E-2,-1.8970088E0,1.6060032E-1,1.3389022E0,5.003357E0,1.8673523E1,-2.5528157E-1,-7.062012E-1,-9.681197E-2,5.5689293E-1,-3.7482708E0,2.7042136E-1,3.3691984E-1,-1.6411947E0,4.509674E0,6.096049E-1,2.554712E0,-1.8445638E0,4.2262044E0,1.1301025E0,-4.1484546E-2,3.1170917E-3,-2.241211E-1,-8.099365E-1,4.1717836E-1,-1.0197022E-1,5.5370558E-2,1.138143E0,-6.293542E-1,-4.5389812E-2,6.36081E-2,1.2086629E0,1.6080323E-1,-7.1417236E-1],"categories":[],"categories_nodes":[],"categories_segments":[],"categories_sizes":[],"default_left":[0,0,0,0,0,0,0,0,0,0,0,0,0,0,0,0,0,0,0,0,0,0,0,0,0,0,0,0,0,0,0,0,0,0,0,0,0,0,0,0,0],"id":31,"left_children":[1,3,5,7,9,11,13,15,17,19,21,23,25,-1,-1,27,-1,29,31,33,35,-1,37,-1,39,-1,-1,-1,-1,-1,-1,-1,-1,-1,-1,-1,-1,-1,-1,-1,-1],"loss_changes":[7.031634E2,6.4234665E1,6.084971E2,3.560662E1,7.029144E1,2.135769E2,1.6890335E-1,2.4853712E1,4.5150906E1,9.617812E1,9.29803E2,2.3640056E2,8.61499E0,0E0,0E0,2.1511227E1,0E0,2.1395874E-1,9.562863E0,8.686084E1,5.677571E1,0E0,9.3134544E1,0E0,1.6587744E1,0E0,0E0,0E0,0E0,0E0,0E0,0E0,0E0,0E0,0E0,0E0,0E0,0E0,0E0,0E0,0E0],"parents":[2147483647,0,0,1,1,2,2,3,3,4,4,5,5,6,6,7,7,8,8,9,9,10,10,11,11,12,12,15,15,17,17,18,18,19,19,20,20,22,22,24,24],"right_children":[2,4,6,8,10,12,14,16,18,20,22,24,26,-1,-1,28,-1,30,32,34,36,-1,38,-1,40,-1,-1,-1,-1,-1,-1,-1,-1,-1,-1,-1,-1,-1,-1,-1,-1],"split_conditions":[1.1E3,4.8255E2,9.86715E5,4.85E2,2.853145E6,6.30742E5,1.081969E6,4.94E2,2.915E-1,7.92E2,2.983187E6,4.95019E5,7.38346E5,-2.5528157E-1,-7.062012E-1,2.8985E2,5.5689293E-1,2.71388E5,4.99E2,8.1001E2,4.581E-1,4.509674E0,1.0369E3,2.554712E0,5.35942E5,4.2262044E0,1.1301025E0,-4.1484546E-2,3.1170917E-3,-2.241211E-1,-8.099365E-1,4.1717836E-1,-1.0197022E-1,5.5370558E-2,1.138143E0,-6.293542E-1,-4.5389812E-2,6.36081E-2,1.2086629E0,1.6080323E-1,-7.1417236E-1],"split_indices":[0,2,6,0,6,6,6,1,10,2,6,6,6,0,0,5,0,6,0,5,10,0,3,0,6,0,0,0,0,0,0,0,0,0,0,0,0,0,0,0,0],"split_type":[0,0,0,0,0,0,0,0,0,0,0,0,0,0,0,0,0,0,0,0,0,0,0,0,0,0,0,0,0,0,0,0,0,0,0,0,0,0,0,0,0],"sum_hessian":[2.11E3,2.101E3,9E0,1.741E3,3.6E2,6E0,3E0,1.731E3,1E1,3E2,6E1,3E0,3E0,2E0,1E0,1.729E3,2E0,5E0,5E0,2.74E2,2.6E1,1E0,5.9E1,1E0,2E0,2E0,1E0,8.71E2,8.58E2,1E0,4E0,1E0,4E0,2.72E2,2E0,1.2E1,1.4E1,5.7E1,2E0,1E0,1E0],"tree_param":{"num_deleted":"0","num_feature":"11","num_nodes":"41","size_leaf_vector":"1"}},{"base_weights":[7.436335E-2,3.30447E-2,7.3127036E0,-6.0657393E-3,1.2041464E0,3.5314398E0,1.3992371E1,5.5474807E-3,-1.2398039E0,1.5902877E0,-2.387983E0,3.0516276E0,-1.9987793E0,3.8574054E0,-1.8916015E-1,-6.222923E-3,2.6349623E0,-2.2056835E0,3.6399078E-1,8.419505E-1,1.6026937E1,7.662476E-1,-1.6020416E0,-1.1091145E0,5.2905273E-1,-1.33876745E-2,4.3433584E-2,6.4206195E-1,8.283284E-2,-2.3066406E-1,-6.896655E-1,-1.3977356E-1,2.282959E-1,2.8922805E-1,-2.9073393E-1,7.4937135E-1,4.0587096E0,1.0170898E0,-3.7628174E-1],"categories":[],"categories_nodes":[],"categories_segments":[],"categories_sizes":[],"default_left":[0,0,0,0,0,0,0,0,0,0,0,0,0,0,0,0,0,0,0,0,0,0,0,0,0,0,0,0,0,0,0,0,0,0,0,0,0,0,0],"id":32,"left_children":[1,3,5,7,9,11,13,15,17,19,21,-1,23,-1,-1,25,27,29,31,33,35,-1,-1,-1,37,-1,-1,-1,-1,-1,-1,-1,-1,-1,-1,-1,-1,-1,-1],"loss_changes":[6.323093E2,9.637535E1,2.536778E2,2.9192348E1,9.81183E1,6.141585E2,3.346117E2,6.250298E1,3.0235226E1,6.56322E2,2.7545004E2,0E0,6.569379E1,0E0,0E0,2.7290281E1,1.0169975E1,1.1715519E1,7.4086275E0,8.5321625E1,8.1145996E1,0E0,0E0,0E0,6.44829E1,0E0,0E0,0E0,0E0,0E0,0E0,0E0,0E0,0E0,0E0,0E0,0E0,0E0,0E0],"parents":[2147483647,0,0,1,1,2,2,3,3,4,4,5,5,6,6,7,7,8,8,9,9,10,10,12,12,15,15,16,16,17,17,18,18,19,19,20,20,24,24],"right_children":[2,4,6,8,10,12,14,16,18,20,22,-1,24,-1,-1,26,28,30,32,34,36,-1,-1,-1,38,-1,-1,-1,-1,-1,-1,-1,-1,-1,-1,-1,-1,-1,-1],"split_conditions":[1.1E3,7.58E2,4.143E-1,7.4495E2,3.181588E14,2.28206E5,5.09325E5,7.394E2,7.5035E2,2.853145E6,8.25E2,3.0516276E0,6.45456E5,3.8574054E0,-1.8916015E-1,4.058E2,7.65E2,7.65E2,2.16303E5,3.33046E5,7.89E2,7.662476E-1,-1.6020416E0,-1.1091145E0,9.86715E5,-1.33876745E-2,4.3433584E-2,6.4206195E-1,8.283284E-2,-2.3066406E-1,-6.896655E-1,-1.3977356E-1,2.282959E-1,2.8922805E-1,-2.9073393E-1,7.4937135E-1,4.0587096E0,1.0170898E0,-3.7628174E-1],"split_indices":[0,3,10,4,7,9,9,4,4,6,0,0,6,0,0,1,1,1,9,9,0,0,0,0,6,0,0,0,0,0,0,0,0,0,0,0,0,0,0],"split_type":[0,0,0,0,0,0,0,0,0,0,0,0,0,0,0,0,0,0,0,0,0,0,0,0,0,0,0,0,0,0,0,0,0,0,0,0,0,0,0],"sum_hessian":[2.114E3,2.103E3,1.1E1,2.036E3,6.7E1,8E0,3E0,2.018E3,1.8E1,6.1E1,6E0,2E0,6E0,2E0,1E0,2.01E3,8E0,1.1E1,7E0,5.9E1,2E0,3E0,3E0,2E0,4E0,1.581E3,4.29E2,6E0,2E0,7E0,4E0,3E0,4E0,4.7E1,1.2E1,1E0,1E0,1E0,3E0],"tree_param":{"num_deleted":"0","num_feature":"11","num_nodes":"39","size_leaf_vector":"1"}},{"base_weights":[5.4165244E-2,-7.335981E-3,3.892781E0,-1.2707389E-3,-2.5763183E0,5.342007E0,-3.7606099E0,-6.6679694E-2,2.6665747E-1,-5.693268E-1,-1.4950562E-1,4.135019E0,1.4424235E1,-1.6763306E-1,-1.4595418E0,-1.5022163E-1,8.824893E-3,2.3201199E-1,1.807624E0,5.424299E0,-3.2353863E-1,6.744324E-1,3.6528382E0,-5.341553E-1,3.1140137E-1,-8.2702875E-2,-2.4944462E-2,1.3342175E-1,1.2842183E-4,5.7563942E-2,-5.1887053E-1,6.2668985E-1,-3.7770185E-1,4.172956E-1,2.1174896E0,-2.920166E-1,6.495728E-1],"categories":[],"categories_nodes":[],"categories_segments":[],"categories_sizes":[],"default_left":[0,0,0,0,0,0,0,0,0,0,0,0,0,0,0,0,0,0,0,0,0,0,0,0,0,0,0,0,0,0,0,0,0,0,0,0,0],"id":33,"left_children":[1,3,5,7,9,11,13,15,17,-1,-1,19,21,23,-1,25,27,29,31,33,35,-1,-1,-1,-1,-1,-1,-1,-1,-1,-1,-1,-1,-1,-1,-1,-1],"loss_changes":[5.090161E2,3.307625E1,3.9720007E2,3.715305E1,3.4381485E-1,2.582577E2,7.502894E1,1.0749815E1,2.178982E1,0E0,0E0,1.5695987E2,6.572864E1,2.14265E1,0E0,5.379881E0,4.82596E0,6.510179E1,5.0021378E1,3.3981647E2,3.315555E1,0E0,0E0,0E0,0E0,0E0,0E0,0E0,0E0,0E0,0E0,0E0,0E0,0E0,0E0,0E0,0E0],"parents":[2147483647,0,0,1,1,2,2,3,3,4,4,5,5,6,6,7,7,8,8,11,11,12,12,13,13,15,15,16,16,17,17,18,18,19,19,20,20],"right_children":[2,4,6,8,10,12,14,16,18,-1,-1,20,22,24,-1,26,28,30,32,34,36,-1,-1,-1,-1,-1,-1,-1,-1,-1,-1,-1,-1,-1,-1,-1,-1],"split_conditions":[8.33E2,8.25E2,3.181588E14,4.1495E2,8.2515E2,2.530137E6,2.743E-1,2.701E2,8.1001E2,-5.693268E-1,-1.4950562E-1,1.170407E6,7.89E2,1.073785E6,-1.4595418E0,1.2305E2,2.7025E2,7.9365E2,5.754E-1,8.47394E13,7.00161E5,6.744324E-1,3.6528382E0,-5.341553E-1,3.1140137E-1,-8.2702875E-2,-2.4944462E-2,1.3342175E-1,1.2842183E-4,5.7563942E-2,-5.1887053E-1,6.2668985E-1,-3.7770185E-1,4.172956E-1,2.1174896E0,-2.920166E-1,6.495728E-1],"split_indices":[3,0,7,4,4,6,10,4,5,0,0,6,0,9,0,4,0,4,10,7,9,0,0,0,0,0,0,0,0,0,0,0,0,0,0,0,0],"split_type":[0,0,0,0,0,0,0,0,0,0,0,0,0,0,0,0,0,0,0,0,0,0,0,0,0,0,0,0,0,0,0,0,0,0,0,0,0],"sum_hessian":[2.155E3,2.122E3,3.3E1,2.118E3,4E0,2.8E1,5E0,1.703E3,4.15E2,3E0,1E0,2.6E1,2E0,3E0,2E0,8.08E2,8.95E2,4.07E2,8E0,2E1,6E0,1E0,1E0,1E0,2E0,7E1,7.38E2,1E1,8.85E2,4E2,7E0,6E0,2E0,1.3E1,7E0,5E0,1E0],"tree_param":{"num_deleted":"0","num_feature":"11","num_nodes":"37","size_leaf_vector":"1"}},{"base_weights":[7.87983E-3,-1.2413269E-2,4.2584963E0,-3.4746233E-2,8.656827E-1,2.475765E0,6.810608E-1,-2.6303662E-2,-1.5926957E0,1.5404384E-1,7.5242796E0,-9.2106324E-1,4.77395E0,-1.7134683E-1,3.9502565E-2,-8.618245E-1,-5.102539E-1,5.8372563E-1,-1.2971517E0,2.8653564E0,2.6159973E0,1.7842611E0,-9.647217E-1,-3.0261904E-2,-1.8741666E-1,1.034624E-2,-1.804518E-1,1.6227417E-1,-4.7302553E-1,2.3558037E-1,-4.771698E-1,1.6226807E-1,6.559164E-1,9.256592E-2,-3.8198242E-1],"categories":[],"categories_nodes":[],"categories_segments":[],"categories_sizes":[],"default_left":[0,0,0,0,0,0,0,0,0,0,0,0,0,0,0,0,0,0,0,0,0,0,0,0,0,0,0,0,0,0,0,0,0,0,0],"id":34,"left_children":[1,3,5,7,9,-1,11,13,15,17,19,-1,21,23,25,-1,27,29,-1,31,-1,-1,33,-1,-1,-1,-1,-1,-1,-1,-1,-1,-1,-1,-1],"loss_changes":[1.8154005E2,4.1114048E1,2.820688E2,2.6843044E1,2.4524377E2,0E0,1.95078E2,1.9420774E1,3.0145369E1,1.4073001E2,9.193924E1,0E0,1.2760812E2,9.601206E0,1.616972E1,0E0,2.3982018E1,8.397503E1,0E0,7.424431E-1,0E0,0E0,4.931887E0,0E0,0E0,0E0,0E0,0E0,0E0,0E0,0E0,0E0,0E0,0E0,0E0],"parents":[2147483647,0,0,1,1,2,2,3,3,4,4,6,6,7,7,8,8,9,9,10,10,12,12,13,13,14,14,16,16,17,17,19,19,22,22],"right_children":[2,4,6,8,10,-1,12,14,16,18,20,-1,22,24,26,-1,28,30,-1,32,-1,-1,34,-1,-1,-1,-1,-1,-1,-1,-1,-1,-1,-1,-1],"split_conditions":[1.1E3,7.881E2,2.28206E5,7.739E2,4.9238673E14,2.475765E0,1.0939098E14,2.2535E2,7.7045E2,4.3127652E14,8.25E2,-9.2106324E-1,5.09325E5,2.18E2,7.41E2,-8.618245E-1,7.89E2,1.0369E3,-1.2971517E0,7.575E2,2.6159973E0,1.7842611E0,1.14E3,-3.0261904E-2,-1.8741666E-1,1.034624E-2,-1.804518E-1,1.6227417E-1,-4.7302553E-1,2.3558037E-1,-4.771698E-1,1.6226807E-1,6.559164E-1,9.256592E-2,-3.8198242E-1],"split_indices":[0,4,9,4,7,0,7,4,0,7,0,0,9,4,2,0,0,3,0,0,0,0,1,0,0,0,0,0,0,0,0,0,0,0,0],"split_type":[0,0,0,0,0,0,0,0,0,0,0,0,0,0,0,0,0,0,0,0,0,0,0,0,0,0,0,0,0,0,0,0,0,0,0],"sum_hessian":[2.103E3,2.094E3,9E0,2.043E3,5.1E1,2E0,7E0,2.033E3,1E1,4.7E1,4E0,3E0,4E0,6.34E2,1.399E3,2E0,8E0,4.5E1,2E0,3E0,1E0,2E0,2E0,6.19E2,1.5E1,1.382E3,1.7E1,5E0,3E0,3.8E1,7E0,1E0,2E0,1E0,1E0],"tree_param":{"num_deleted":"0","num_feature":"11","num_nodes":"35","size_leaf_vector":"1"}},{"base_weights":[2.1103993E-2,-4.6342188E-3,4.2187686E0,4.5797094E-3,-2.1673448E0,2.1456707E0,2.0599031E0,-1.6813929E-3,1.3228028E0,5.552368E-1,-7.24235E-1,-2.4349887E0,7.9407716E0,-1.0651484E-2,1.7125744E0,-1.5204264E0,6.7822266E-1,-8.940593E-1,-7.2680664E-1,1.0785431E1,-3.4378663E-1,3.9612813E-5,-2.40023E-1,7.933607E-1,-1.1241944E0,-3.428955E-2,-4.2183837E-1,5.252075E-1,-4.4430542E-1,-1.9063722E-1,3.0032065E0],"categories":[],"categories_nodes":[],"categories_segments":[],"categories_sizes":[],"default_left":[0,0,0,0,0,0,0,0,0,0,0,0,0,0,0,0,0,0,0,0,0,0,0,0,0,0,0,0,0,0,0],"id":35,"left_children":[1,3,5,7,9,-1,11,13,-1,15,-1,17,19,21,23,25,-1,-1,27,29,-1,-1,-1,-1,-1,-1,-1,-1,-1,-1,-1],"loss_changes":[2.3046968E2,4.227522E1,1.6059377E2,8.745201E1,3.7634155E1,0E0,3.1010822E2,3.249453E1,0E0,2.8701235E1,0E0,2.1087688E1,1.5593231E2,2.7126846E1,2.0414374E2,2.0210795E0,0E0,0E0,3.0891636E1,2.1295871E2,0E0,0E0,0E0,0E0,0E0,0E0,0E0,0E0,0E0,0E0,0E0],"parents":[2147483647,0,0,1,1,2,2,3,3,4,4,6,6,7,7,9,9,11,11,12,12,13,13,14,14,15,15,18,18,19,19],"right_children":[2,4,6,8,10,-1,12,14,-1,16,-1,18,20,22,24,26,-1,-1,28,30,-1,-1,-1,-1,-1,-1,-1,-1,-1,-1,-1],"split_conditions":[1.1E3,1.0369E3,2.28206E5,1.064E3,8.21744E5,2.1456707E0,4.143E-1,8.9E2,1.3228028E0,8.47394E13,-7.24235E-1,6.45456E5,5.09325E5,7.92E2,4.3127652E14,7.57694E5,6.7822266E-1,-8.940593E-1,9.86715E5,5.35942E5,-3.4378663E-1,3.9612813E-5,-2.40023E-1,7.933607E-1,-1.1241944E0,-3.428955E-2,-4.2183837E-1,5.252075E-1,-4.4430542E-1,-1.9063722E-1,3.0032065E0],"split_indices":[0,3,9,1,6,0,10,0,0,7,0,6,9,2,7,6,0,0,6,6,0,0,0,0,0,0,0,0,0,0,0],"split_type":[0,0,0,0,0,0,0,0,0,0,0,0,0,0,0,0,0,0,0,0,0,0,0,0,0,0,0,0,0,0,0],"sum_hessian":[2.132E3,2.12E3,1.2E1,2.112E3,8E0,2E0,1E1,2.111E3,1E0,3E0,5E0,6E0,4E0,2.101E3,1E1,2E0,1E0,2E0,4E0,3E0,1E0,2.083E3,1.8E1,8E0,2E0,1E0,1E0,1E0,3E0,1E0,2E0],"tree_param":{"num_deleted":"0","num_feature":"11","num_nodes":"31","size_leaf_vector":"1"}},{"base_weights":[2.6259124E-2,-1.2677129E-2,3.039241E0,-8.840701E-3,-8.026978E-1,-3.3346252E0,3.9749172E0,-5.4103285E-2,2.1390705E-1,-1.7156982E-1,-7.748535E-1,2.4499238E0,2.2095017E0,-4.0949695E-2,-2.3216338E0,2.285138E0,1.5307502E-1,1.1065674E0,2.4268188E0,-9.494886E-3,3.1399712E-1,-1.2812959E-1,-5.901071E-1,5.756348E-1,1.3520813E-1,3.610788E-2,-6.05778E-1,5.181473E-1,-7.728174E-1],"categories":[],"categories_nodes":[],"categories_segments":[],"categories_sizes":[],"default_left":[0,0,0,0,0,0,0,0,0,0,0,0,0,0,0,0,0,0,0,0,0,0,0,0,0,0,0,0,0],"id":36,"left_children":[1,3,5,7,-1,9,11,13,15,-1,-1,-1,17,19,21,23,25,27,-1,-1,-1,-1,-1,-1,-1,-1,-1,-1,-1],"loss_changes":[2.4827544E2,3.204357E1,1.7427946E2,2.1073162E1,0E0,2.0227547E0,3.235333E2,5.1712997E1,4.4127205E1,0E0,0E0,0E0,2.1644244E2,1.8237417E1,8.681492E0,7.59676E0,3.060924E1,1.5755666E2,0E0,0E0,0E0,0E0,0E0,0E0,0E0,0E0,0E0,0E0,0E0],"parents":[2147483647,0,0,1,1,2,2,3,3,5,5,6,6,7,7,8,8,12,12,13,13,14,14,15,15,16,16,17,17],"right_children":[2,4,6,8,-1,10,12,14,16,-1,-1,-1,18,20,22,24,26,28,-1,-1,-1,-1,-1,-1,-1,-1,-1,-1,-1],"split_conditions":[9.1475E2,8.64E2,6.45456E5,4.94E2,-8.026978E-1,5.35942E5,7.38346E5,4.674E2,4.99E2,-1.7156982E-1,-7.748535E-1,2.4499238E0,4.625481E6,4.53E2,7.1037E4,5.225E2,4.528268E6,3.0070385E14,2.4268188E0,-9.494886E-3,3.1399712E-1,-1.2812959E-1,-5.901071E-1,5.756348E-1,1.3520813E-1,3.610788E-2,-6.05778E-1,5.181473E-1,-7.728174E-1],"split_indices":[1,3,6,1,0,6,6,4,0,0,0,0,6,0,8,1,9,7,0,0,0,0,0,0,0,0,0,0,0],"split_type":[0,0,0,0,0,0,0,0,0,0,0,0,0,0,0,0,0,0,0,0,0,0,0,0,0,0,0,0,0],"sum_hessian":[2.115E3,2.089E3,2.6E1,2.088E3,1E0,3E0,2.3E1,1.736E3,3.52E2,1E0,2E0,3E0,2E1,1.727E3,9E0,9E0,3.43E2,1.9E1,1E0,1.721E3,6E0,3E0,6E0,6E0,3E0,3.41E2,2E0,1.5E1,4E0],"tree_param":{"num_deleted":"0","num_feature":"11","num_nodes":"29","size_leaf_vector":"1"}},{"base_weights":[1.629341E-2,-6.706278E-3,2.4143462E0,-1.1244392E-2,9.455261E-1,2.184137E0,1.3918715E0,2.1512872E-3,-3.1014202E0,4.4617796E0,-1.8172241E0,-1.0435053E-2,2.6047912E0,-4.406563E0,7.339722E-1,4.383138E-1,8.397583E0,-1.4923096E-1,-6.9107425E-1,-1.2234084E-3,-4.473999E-1,-3.5679933E-1,7.849976E-1,-5.026563E-1,-1.1343049E0,1.5073853E0,-4.9775878E-1,2.146224E0,6.529704E-1,1.4790528E-1,-4.5930177E-1],"categories":[],"categories_nodes":[],"categories_segments":[],"categories_sizes":[],"default_left":[0,0,0,0,0,0,0,0,0,0,0,0,0,0,0,0,0,0,0,0,0,0,0,0,0,0,0,0,0,0,0],"id":37,"left_children":[1,3,5,7,-1,-1,9,11,13,15,17,19,21,23,-1,25,27,29,-1,-1,-1,-1,-1,-1,-1,-1,-1,-1,-1,-1,-1],"loss_changes":[1.16116356E2,4.4870785E1,1.5875018E2,8.6315254E1,0E0,0E0,1.9528903E2,6.806495E1,9.570886E1,1.546749E2,2.6808533E1,1.986875E1,6.494278E1,4.9052887E0,0E0,1.4342828E2,2.4851593E1,1.3148782E1,0E0,0E0,0E0,0E0,0E0,0E0,0E0,0E0,0E0,0E0,0E0,0E0,0E0],"parents":[2147483647,0,0,1,1,2,2,3,3,6,6,7,7,8,8,9,9,10,10,11,11,12,12,13,13,15,15,16,16,17,17],