{"learner":{"attributes":{"scikit_learn":"{\"_estimator_type\": \"regressor\"}"},"feature_names":["Open","High","Low","Close","Volume"],"feature_types":["float","float","float","float","int"],"gradient_booster":{"model":{"gbtree_model_param":{"num_parallel_tree":"1","num_trees":"100"},"iteration_indptr":[0,1,2,3,4,5,6,7,8,9,10,11,12,13,14,15,16,17,18,19,20,21,22,23,24,25,26,27,28,29,30,31,32,33,34,35,36,37,38,39,40,41,42,43,44,45,46,47,48,49,50,51,52,53,54,55,56,57,58,59,60,61,62,63,64,65,66,67,68,69,70,71,72,73,74,75,76,77,78,79,80,81,82,83,84,85,86,87,88,89,90,91,92,93,94,95,96,97,98,99,100],"tree_info":[0,0,0,0,0,0,0,0,0,0,0,0,0,0,0,0,0,0,0,0,0,0,0,0,0,0,0,0,0,0,0,0,0,0,0,0,0,0,0,0,0,0,0,0,0,0,0,0,0,0,0,0,0,0,0,0,0,0,0,0,0,0,0,0,0,0,0,0,0,0,0,0,0,0,0,0,0,0,0,0,0,0,0,0,0,0,0,0,0,0,0,0,0,0,0,0,0,0,0,0],"trees":[{"base_weights":[-4.143777E-5,-4.5202576E2,1.9029451E3,-7.634254E2,5.398713E1,1.3960371E3,2.932358E3,-9.054993E2,-5.0933374E2,-9.337499E1,4.5918384E2,1.0882502E3,1.6487148E3,7.5105505E2,1.00089044E3,-2.8770468E2,-8.0591473E2,-6.141421E2,-4.277963E2,-1.8371814E2,5.4400055E1,2.9735657E2,5.38474E2,2.4713652E2,3.64427E2,4.4319128E2,5.5546454E2,-2.5476701E2,-2.2679622E2,-1.947209E2,-1.7023087E2,-1.3920723E2,-1.16879135E2,-2.8386063E2,-1.200115E2,-1.0908686E1,1.1941153E2,6.773576E1,1.0421929E2,1.4528593E2,1.8864813E2,-9.368283E1,-7.284572E1,-4.66615E1,-2.9646381E1,-1.1703642E1,6.803302E0,2.6811337E1,4.3035408E1],"categories":[],"categories_nodes":[],"categories_segments":[],"categories_sizes":[],"default_left":[0,0,0,0,0,0,0,0,0,0,0,0,0,0,0,0,0,0,0,0,0,0,0,0,0,0,0,0,0,0,0,0,0,0,0,0,0,0,0,0,0,0,0,0,0,0,0,0,0],"id":0,"left_children":[1,3,5,7,9,11,13,15,17,19,21,23,25,-1,-1,-1,27,29,31,33,35,37,39,-1,-1,-1,-1,-1,-1,-1,-1,-1,-1,41,43,45,47,-1,-1,-1,-1,-1,-1,-1,-1,-1,-1,-1,-1],"loss_changes":[3.6523249E9,5.406716E8,4.2118784E8,7.621478E7,7.81444E7,4.082413E7,3.807232E7,6.480384E6,6.266288E6,1.2826438E7,4.318008E6,7.363328E6,7.660352E6,0E0,0E0,0E0,4.00192E5,1.73296E5,4.18424E5,3.76826E6,1.5510261E6,3.40595E5,8.3624E5,0E0,0E0,0E0,0E0,0E0,0E0,0E0,0E0,0E0,0E0,1.9357E5,2.60162E5,1.7361706E5,1.19336E5,0E0,0E0,0E0,0E0,0E0,0E0,0E0,0E0,0E0,0E0,0E0,0E0],"parents":[2147483647,0,0,1,1,2,2,3,3,4,4,5,5,6,6,7,7,8,8,9,9,10,10,11,11,12,12,16,16,17,17,18,18,19,19,20,20,21,21,22,22,33,33,34,34,35,35,36,36],"right_children":[2,4,6,8,10,12,14,16,18,20,22,24,26,-1,-1,-1,28,30,32,34,36,38,40,-1,-1,-1,-1,-1,-1,-1,-1,-1,-1,42,44,46,48,-1,-1,-1,-1,-1,-1,-1,-1,-1,-1,-1,-1],"split_conditions":[1.9821E3,9.0465E2,3.31115E3,5.512E2,1.44485E3,2.6308E3,4.2808E3,3.781E2,7.4145E2,1.19605E3,1.6797E3,2.2252E3,2.9503E3,7.5105505E2,1.00089044E3,-2.8770468E2,4.586E2,6.536E2,8.3515E2,1.05385E3,1.31865E3,1.5482E3,1.81425E3,2.4713652E2,3.64427E2,4.4319128E2,5.5546454E2,-2.5476701E2,-2.2679622E2,-1.947209E2,-1.7023087E2,-1.3920723E2,-1.16879135E2,9.8545E2,1.1332E3,1.25345E3,1.37785E3,6.773576E1,1.0421929E2,1.4528593E2,1.8864813E2,-9.368283E1,-7.284572E1,-4.66615E1,-2.9646381E1,-1.1703642E1,6.803302E0,2.6811337E1,4.3035408E1],"split_indices":[3,3,3,3,3,3,3,3,3,3,3,3,3,0,0,0,3,3,3,3,3,3,3,0,0,0,0,0,0,0,0,0,0,3,3,3,3,0,0,0,0,0,0,0,0,0,0,0,0],"split_type":[0,0,0,0,0,0,0,0,0,0,0,0,0,0,0,0,0,0,0,0,0,0,0,0,0,0,0,0,0,0,0,0,0,0,0,0,0,0,0,0,0,0,0,0,0,0,0,0,0],"sum_hessian":[4.244E3,3.43E3,8.14E2,2.123E3,1.307E3,5.47E2,2.67E2,1.36E3,7.63E2,9.59E2,3.48E2,2.49E2,2.98E2,1.33E2,1.34E2,8.79E2,4.81E2,3.31E2,4.32E2,5.95E2,3.64E2,1.16E2,2.32E2,8.3E1,1.66E2,1.66E2,1.32E2,2.49E2,2.32E2,1.82E2,1.49E2,2.16E2,2.16E2,2.3E2,3.65E2,1.82E2,1.82E2,5E1,6.6E1,1.49E2,8.3E1,1.32E2,9.8E1,1.34E2,2.31E2,9.9E1,8.3E1,8.3E1,9.9E1],"tree_param":{"num_deleted":"0","num_feature":"5","num_nodes":"49","size_leaf_vector":"1"}},{"base_weights":[5.417724E-1,-3.2064542E2,1.320462E3,-5.4219586E2,2.1150057E1,9.8089984E2,2.1011997E3,-6.3968945E2,-3.7374927E2,-8.169854E1,2.961982E2,8.021358E2,1.2444524E3,5.598955E2,7.2780414E2,-6.765623E2,-5.781348E2,-4.466782E2,-3.1136777E2,-1.9376605E2,-1.9585615E1,1.7651906E2,3.629552E2,6.042936E2,2.7590927E2,3.3375415E2,4.0008817E2,-2.1342741E2,-1.959388E2,-1.8097054E2,-1.6277168E2,-1.451355E2,-1.2498442E2,-1.03420456E2,-8.6293E1,-2.2282265E2,-1.443107E2,-6.0433853E1,5.973206E1,3.917818E1,6.594287E1,9.172174E1,1.21011635E2,1.5921649E2,2.0065387E2,-7.28567E1,-5.9297726E1,-4.7343925E1,-3.54656E1,-2.4614391E1,-9.865526E0,8.909313E0,2.5390564E1],"categories":[],"categories_nodes":[],"categories_segments":[],"categories_sizes":[],"default_left":[0,0,0,0,0,0,0,0,0,0,0,0,0,0,0,0,0,0,0,0,0,0,0,0,0,0,0,0,0,0,0,0,0,0,0,0,0,0,0,0,0,0,0,0,0,0,0,0,0,0,0,0,0],"id":1,"left_children":[1,3,5,7,9,11,13,15,17,19,21,23,25,-1,-1,27,29,31,33,35,37,39,41,43,-1,-1,-1,-1,-1,-1,-1,-1,-1,-1,-1,45,47,49,51,-1,-1,-1,-1,-1,-1,-1,-1,-1,-1,-1,-1,-1,-1],"loss_changes":[1.800055E9,2.5861213E8,2.1824448E8,3.378829E7,3.8043704E7,2.6374912E7,1.4621824E7,2.584416E6,3.327576E6,6.8108685E6,2.860058E6,7.561504E6,1.257696E6,0E0,0E0,2.00288E5,1.17232E5,1.87784E5,2.28564E5,4.69358E5,2.0480418E6,2.35714E5,4.17796E5,2.7668E5,0E0,0E0,0E0,0E0,0E0,0E0,0E0,0E0,0E0,0E0,0E0,6.1891E4,2.784775E4,2.4560125E5,1.5829581E5,0E0,0E0,0E0,0E0,0E0,0E0,0E0,0E0,0E0,0E0,0E0,0E0,0E0,0E0],"parents":[2147483647,0,0,1,1,2,2,3,3,4,4,5,5,6,6,7,7,8,8,9,9,10,10,11,11,12,12,15,15,16,16,17,17,18,18,19,19,20,20,21,21,22,22,23,23,35,35,36,36,37,37,38,38],"right_children":[2,4,6,8,10,12,14,16,18,20,22,24,26,-1,-1,28,30,32,34,36,38,40,42,44,-1,-1,-1,-1,-1,-1,-1,-1,-1,-1,-1,46,48,50,52,-1,-1,-1,-1,-1,-1,-1,-1,-1,-1,-1,-1,-1,-1],"split_conditions":[1.95995E3,8.834E2,3.60255E3,5.2375E2,1.41275E3,2.7329E3,4.42305E3,3.458E2,7.151E2,1.11085E3,1.64015E3,2.39945E3,3.0272E3,5.598955E2,7.2780414E2,2.904E2,4.348E2,6.178E2,8.048E2,1.0025E3,1.26715E3,1.51445E3,1.76215E3,2.1003E3,2.7590927E2,3.3375415E2,4.0008817E2,-2.1342741E2,-1.959388E2,-1.8097054E2,-1.6277168E2,-1.451355E2,-1.2498442E2,-1.03420456E2,-8.6293E1,9.4575E2,1.06995E3,1.1722E3,1.3497E3,3.917818E1,6.594287E1,9.172174E1,1.21011635E2,1.5921649E2,2.0065387E2,-7.28567E1,-5.9297726E1,-4.7343925E1,-3.54656E1,-2.4614391E1,-9.865526E0,8.909313E0,2.5390564E1],"split_indices":[3,3,3,3,3,3,3,3,3,3,3,3,3,0,0,3,3,3,3,3,3,3,3,3,0,0,0,0,0,0,0,0,0,0,0,3,3,3,3,0,0,0,0,0,0,0,0,0,0,0,0,0,0],"split_type":[0,0,0,0,0,0,0,0,0,0,0,0,0,0,0,0,0,0,0,0,0,0,0,0,0,0,0,0,0,0,0,0,0,0,0,0,0,0,0,0,0,0,0,0,0,0,0,0,0,0,0,0,0],"sum_hessian":[4.244E3,3.414E3,8.3E2,2.071E3,1.343E3,5.8E2,2.5E2,1.31E3,7.61E2,9.78E2,3.65E2,3.48E2,2.32E2,1.49E2,1.01E2,8.13E2,4.97E2,3.48E2,4.13E2,3.48E2,6.3E2,1.32E2,2.33E2,1.32E2,2.16E2,9.9E1,1.33E2,3.15E2,4.98E2,2.82E2,2.15E2,1.49E2,1.99E2,1.66E2,2.47E2,2.17E2,1.31E2,4.16E2,2.14E2,6.6E1,6.6E1,1E2,1.33E2,6.6E1,6.6E1,1.16E2,1.01E2,8.3E1,4.8E1,2.32E2,1.84E2,9.8E1,1.16E2],"tree_param":{"num_deleted":"0","num_feature":"5","num_nodes":"53","size_leaf_vector":"1"}},{"base_weights":[7.436817E-1,-2.2773466E2,9.1627277E2,-3.8828052E2,-1.1010197E0,6.899817E2,1.5036195E3,-4.5072803E2,-2.7564545E2,-8.525173E1,1.6109216E2,4.753471E2,8.190913E2,3.692601E2,1.6444589E3,-4.7972095E2,-4.151208E2,-3.224367E2,-2.3002515E2,-1.5121657E2,-3.574185E1,7.8488205E1,2.3743468E2,1.1746017E2,1.6611343E2,2.13056E2,9.3363684E2,4.5885913E2,5.5081836E2,-1.4892279E2,-1.3798146E2,-1.2950008E2,-1.1656666E2,-1.0380124E2,-8.975037E1,-7.6783165E1,-6.4306305E1,-1.7324408E2,-1.1938748E2,-5.2906273E1,8.322911E0,6.45902E1,3.8418926E1,5.810904E1,7.959058E1,2.5923926E2,3.0209036E2,-5.4086006E1,-4.593132E1,-3.9005615E1,-3.026037E1,-2.0143806E1,-1.1862353E1,-1.780005E-2,7.3786473E0,1.5556528E1,2.374012E1],"categories":[],"categories_nodes":[],"categories_segments":[],"categories_sizes":[],"default_left":[0,0,0,0,0,0,0,0,0,0,0,0,0,0,0,0,0,0,0,0,0,0,0,0,0,0,0,0,0,0,0,0,0,0,0,0,0,0,0,0,0,0,0,0,0,0,0,0,0,0,0,0,0,0,0,0,0],"id":2,"left_children":[1,3,5,7,9,11,13,15,17,19,21,23,25,-1,27,29,31,33,35,37,39,41,43,-1,-1,-1,45,-1,-1,-1,-1,-1,-1,-1,-1,-1,-1,47,49,51,53,55,-1,-1,-1,-1,-1,-1,-1,-1,-1,-1,-1,-1,-1,-1,-1],"loss_changes":[8.881717E8,1.2363611E8,1.1167136E8,1.3865952E7,1.925836E7,1.662544E7,7.003296E6,1.120208E6,1.445688E6,3.028626E6,3.02095E6,1.313536E6,4.102208E6,0E0,5.38816E5,2.128E3,8.7656E4,8.7872E4,9.298E4,2.58361E5,4.028165E5,1.5226325E5,2.53325E5,0E0,0E0,0E0,6.2592E4,0E0,0E0,0E0,0E0,0E0,0E0,0E0,0E0,0E0,0E0,5.445E3,1.95685E4,7.023575E4,2.046157E4,2.9975875E4,0E0,0E0,0E0,0E0,0E0,0E0,0E0,0E0,0E0,0E0,0E0,0E0,0E0,0E0,0E0],"parents":[2147483647,0,0,1,1,2,2,3,3,4,4,5,5,6,6,7,7,8,8,9,9,10,10,11,11,12,12,14,14,15,15,16,16,17,17,18,18,19,19,20,20,21,21,22,22,26,26,37,37,38,38,39,39,40,40,41,41],"right_children":[2,4,6,8,10,12,14,16,18,20,22,24,26,-1,28,30,32,34,36,38,40,42,44,-1,-1,-1,46,-1,-1,-1,-1,-1,-1,-1,-1,-1,-1,48,50,52,54,56,-1,-1,-1,-1,-1,-1,-1,-1,-1,-1,-1,-1,-1,-1,-1],"split_conditions":[1.91755E3,8.6255E2,3.67855E3,5.089E2,1.3302E3,2.54815E3,3.94025E3,3.296E2,6.9335E2,1.0869E3,1.5804E3,2.189E3,2.87535E3,3.692601E2,4.68125E3,3.0005E2,4.154E2,6.0485E2,7.814E2,9.6385E2,1.21895E3,1.4696E3,1.7235E3,1.1746017E2,1.6611343E2,2.13056E2,3.15485E3,4.5885913E2,5.5081836E2,-1.4892279E2,-1.3798146E2,-1.2950008E2,-1.1656666E2,-1.0380124E2,-8.975037E1,-7.6783165E1,-6.4306305E1,9.295E2,1.0259E3,1.1521E3,1.2898E3,1.39635E3,3.8418926E1,5.810904E1,7.959058E1,2.5923926E2,3.0209036E2,-5.4086006E1,-4.593132E1,-3.9005615E1,-3.026037E1,-2.0143806E1,-1.1862353E1,-1.780005E-2,7.3786473E0,1.5556528E1,2.374012E1],"split_indices":[3,3,3,3,3,3,3,3,3,3,3,2,3,0,3,3,3,3,3,3,3,3,3,0,0,0,3,0,0,0,0,0,0,0,0,0,0,3,3,3,3,3,0,0,0,0,0,0,0,0,0,0,0,0,0,0,0],"split_type":[0,0,0,0,0,0,0,0,0,0,0,0,0,0,0,0,0,0,0,0,0,0,0,0,0,0,0,0,0,0,0,0,0,0,0,0,0,0,0,0,0,0,0,0,0,0,0,0,0,0,0,0,0,0,0,0,0],"sum_hessian":[4.244E3,3.397E3,8.47E2,1.988E3,1.409E3,6.13E2,2.34E2,1.277E3,7.11E2,9.28E2,4.81E2,2.32E2,3.81E2,8.3E1,1.51E2,6.97E2,5.8E2,3.48E2,3.63E2,3.97E2,5.31E2,2.32E2,2.49E2,1.15E2,1.17E2,1.99E2,1.82E2,1E2,5.1E1,3.65E2,3.32E2,3.48E2,2.32E2,1.66E2,1.82E2,1.31E2,2.32E2,2.32E2,1.65E2,3.82E2,1.49E2,1.83E2,4.9E1,1E2,1.49E2,1E2,8.2E1,1.66E2,6.6E1,1.01E2,6.4E1,1.83E2,1.99E2,9.9E1,5E1,1E2,8.3E1],"tree_param":{"num_deleted":"0","num_feature":"5","num_nodes":"57","size_leaf_vector":"1"}},{"base_weights":[8.953143E-1,-1.5383684E2,6.694612E2,-2.6207266E2,2.322847E1,5.1352325E2,1.0819862E3,-3.1055978E2,-1.7161049E2,-2.9042406E1,1.6709404E2,4.1885675E2,6.5311597E2,9.869029E2,3.8190244E2,-3.282478E2,-2.702246E2,-2.059363E2,-1.4378769E2,-6.03112E1,2.5716291E1,1.322422E2,2.1244919E2,3.270321E2,1.4196185E2,1.8167224E2,2.1907109E2,2.490013E2,3.072187E2,-1.0330801E2,-9.345682E1,-8.541614E1,-7.5540474E1,-6.4983345E1,-5.5313248E1,-4.6786163E1,-3.8942287E1,-9.2847565E1,-3.8188812E1,3.7374268E0,4.552474E1,2.8485897E1,4.496998E1,5.5007114E1,6.9937355E1,8.548059E1,1.0445895E2,-3.064522E1,-2.1970407E1,-1.3751582E1,-7.983348E0,-1.140135E0,4.513414E0,1.0279876E1,1.6331247E1],"categories":[],"categories_nodes":[],"categories_segments":[],"categories_sizes":[],"default_left":[0,0,0,0,0,0,0,0,0,0,0,0,0,0,0,0,0,0,0,0,0,0,0,0,0,0,0,0,0,0,0,0,0,0,0,0,0,0,0,0,0,0,0,0,0,0,0,0,0,0,0,0,0,0,0],"id":3,"left_children":[1,3,5,7,9,11,13,15,17,19,21,23,25,27,-1,29,31,33,35,37,39,41,43,45,-1,-1,-1,-1,-1,-1,-1,-1,-1,-1,-1,-1,-1,47,49,51,53,-1,-1,-1,-1,-1,-1,-1,-1,-1,-1,-1,-1,-1,-1],"loss_changes":[4.3924243E8,6.6086336E7,5.0778336E7,9.333296E6,9.848506E6,7.404208E6,2.703216E6,9.04416E5,6.85714E5,1.6470124E6,5.23573E5,1.586972E6,4.12072E5,2.456E4,0E0,1.5224E5,4.3142E4,3.6698E4,5.0681E4,4.3696075E5,1.5220838E5,1.1745525E5,4.7478E4,1.9284E4,0E0,0E0,0E0,0E0,0E0,0E0,0E0,0E0,0E0,0E0,0E0,0E0,0E0,3.7587E4,3.1195625E4,1.4291075E4,1.6597969E4,0E0,0E0,0E0,0E0,0E0,0E0,0E0,0E0,0E0,0E0,0E0,0E0,0E0,0E0],"parents":[2147483647,0,0,1,1,2,2,3,3,4,4,5,5,6,6,7,7,8,8,9,9,10,10,11,11,12,12,13,13,15,15,16,16,17,17,18,18,19,19,20,20,21,21,22,22,23,23,37,37,38,38,39,39,40,40],"right_children":[2,4,6,8,10,12,14,16,18,20,22,24,26,28,-1,30,32,34,36,38,40,42,44,46,-1,-1,-1,-1,-1,-1,-1,-1,-1,-1,-1,-1,-1,48,50,52,54,-1,-1,-1,-1,-1,-1,-1,-1,-1,-1,-1,-1,-1,-1],"split_conditions":[2.04455E3,9.153E2,3.71895E3,5.75E2,1.4696E3,2.7928E3,4.61055E3,3.955E2,7.627E2,1.20775E3,1.77345E3,2.4716E3,3.17595E3,3.87675E3,3.8190244E2,3.123E2,4.8505E2,6.762E2,8.486E2,1.0869E3,1.34525E3,1.61065E3,1.8448E3,2.15955E3,1.4196185E2,1.8167224E2,2.1907109E2,2.490013E2,3.072187E2,-1.0330801E2,-9.345682E1,-8.541614E1,-7.5540474E1,-6.4983345E1,-5.5313248E1,-4.6786163E1,-3.8942287E1,1.01165E3,1.15935E3,1.282E3,1.3882E3,2.8485897E1,4.496998E1,5.5007114E1,6.9937355E1,8.548059E1,1.0445895E2,-3.064522E1,-2.1970407E1,-1.3751582E1,-7.983348E0,-1.140135E0,4.513414E0,1.0279876E1,1.6331247E1],"split_indices":[3,3,3,3,3,3,3,3,3,3,3,3,3,3,0,3,3,3,3,3,1,3,3,3,0,0,0,0,0,0,0,0,0,0,0,0,0,3,3,3,3,0,0,0,0,0,0,0,0,0,0,0,0,0,0],"split_type":[0,0,0,0,0,0,0,0,0,0,0,0,0,0,0,0,0,0,0,0,0,0,0,0,0,0,0,0,0,0,0,0,0,0,0,0,0,0,0,0,0,0,0,0,0,0,0,0,0,0,0,0,0,0,0],"sum_hessian":[4.244E3,3.447E3,7.97E2,2.139E3,1.308E3,5.8E2,2.17E2,1.391E3,7.48E2,9.6E2,3.48E2,3.48E2,2.32E2,1.49E2,6.8E1,9.62E2,4.29E2,3.32E2,4.16E2,6.11E2,3.49E2,1.99E2,1.49E2,1.32E2,2.16E2,1.49E2,8.3E1,3.3E1,1.16E2,4.8E2,4.82E2,2.32E2,1.97E2,2.16E2,1.16E2,2.17E2,1.99E2,2.46E2,3.65E2,1.66E2,1.83E2,6.6E1,1.33E2,6.6E1,8.3E1,4.9E1,8.3E1,1.64E2,8.2E1,2.18E2,1.47E2,1E2,6.6E1,8.3E1,1E2],"tree_param":{"num_deleted":"0","num_feature":"5","num_nodes":"55","size_leaf_vector":"1"}},{"base_weights":[9.237892E-1,-1.0781058E2,4.707423E2,-1.8231306E2,1.8834738E1,3.6656802E2,7.783317E2,-2.1712007E2,-1.17797485E2,-2.070583E1,1.1128778E2,2.978478E2,4.7219324E2,7.320806E2,2.909942E2,-2.3482811E2,-1.9590161E2,-1.3998137E2,-9.699324E1,-3.8558743E1,1.8302135E1,7.3847534E1,1.395884E2,2.3594028E2,1.0183807E2,1.3051555E2,1.600014E2,1.9091821E2,2.3035161E2,-7.658713E1,-6.814668E1,-6.1728783E1,-5.317576E1,-4.5317066E1,-3.840597E1,-3.0940863E1,-2.5822958E1,-6.1312824E1,-2.4422869E1,8.963112E0,3.1786081E1,5.64902E1,2.7097723E1,3.763883E1,5.0608532E1,6.3396404E1,7.8985306E1,-2.0545551E1,-1.5386768E1,-1.0042079E1,-5.863918E0,1.0039722E0,5.0919366E0,7.188103E0,9.816103E0,1.4554055E1,2.0038128E1],"categories":[],"categories_nodes":[],"categories_segments":[],"categories_sizes":[],"default_left":[0,0,0,0,0,0,0,0,0,0,0,0,0,0,0,0,0,0,0,0,0,0,0,0,0,0,0,0,0,0,0,0,0,0,0,0,0,0,0,0,0,0,0,0,0,0,0,0,0,0,0,0,0,0,0,0,0],"id":4,"left_children":[1,3,5,7,9,11,13,15,17,19,21,23,25,27,-1,29,31,33,35,37,39,41,43,45,-1,-1,-1,-1,-1,-1,-1,-1,-1,-1,-1,-1,-1,47,49,51,53,55,-1,-1,-1,-1,-1,-1,-1,-1,-1,-1,-1,-1,-1,-1,-1],"loss_changes":[2.1690835E8,3.2536664E7,2.5284944E7,4.849608E6,4.67422E6,4.199992E6,1.07156E6,4.83412E5,3.38562E5,6.2468525E5,3.955115E5,8.60192E5,2.99384E5,7.9328E4,0E0,6.1796E4,8.2508E4,2.92815E4,1.774525E4,1.9631656E5,3.5226484E4,4.2662438E4,6.80545E4,4.534E4,0E0,0E0,0E0,0E0,0E0,0E0,0E0,0E0,0E0,0E0,0E0,0E0,0E0,1.338225E4,1.6161391E4,7.5012705E3,5.6804688E1,3.6634062E3,0E0,0E0,0E0,0E0,0E0,0E0,0E0,0E0,0E0,0E0,0E0,0E0,0E0,0E0,0E0],"parents":[2147483647,0,0,1,1,2,2,3,3,4,4,5,5,6,6,7,7,8,8,9,9,10,10,11,11,12,12,13,13,15,15,16,16,17,17,18,18,19,19,20,20,21,21,22,22,23,23,37,37,38,38,39,39,40,40,41,41],"right_children":[2,4,6,8,10,12,14,16,18,20,22,24,26,28,-1,30,32,34,36,38,40,42,44,46,-1,-1,-1,-1,-1,-1,-1,-1,-1,-1,-1,-1,-1,48,50,52,54,56,-1,-1,-1,-1,-1,-1,-1,-1,-1,-1,-1,-1,-1,-1,-1],"split_conditions":[2.0695E3,9.361E2,3.78195E3,5.805E2,1.42575E3,2.8362E3,4.7908E3,3.3815E2,7.8875E2,1.22975E3,1.7093E3,2.5052E3,3.24E3,3.989E3,2.909942E2,2.6695E2,4.781E2,6.6875E2,8.7145E2,1.1018E3,1.36005E3,1.5995E3,1.8749E3,2.3595E3,1.0183807E2,1.3051555E2,1.600014E2,1.9091821E2,2.3035161E2,-7.658713E1,-6.814668E1,-6.1728783E1,-5.317576E1,-4.5317066E1,-3.840597E1,-3.0940863E1,-2.5822958E1,1.029E3,1.1445E3,1.29785E3,1.3691E3,1.52695E3,2.7097723E1,3.763883E1,5.0608532E1,6.3396404E1,7.8985306E1,-2.0545551E1,-1.5386768E1,-1.0042079E1,-5.863918E0,1.0039722E0,5.0919366E0,7.188103E0,9.816103E0,1.4554055E1,2.0038128E1],"split_indices":[1,3,3,3,3,3,3,3,3,3,3,3,3,1,0,3,3,3,3,3,3,1,3,3,0,0,0,0,0,0,0,0,0,0,0,0,0,1,3,3,3,1,0,0,0,0,0,0,0,0,0,0,0,0,0,0,0],"split_type":[0,0,0,0,0,0,0,0,0,0,0,0,0,0,0,0,0,0,0,0,0,0,0,0,0,0,0,0,0,0,0,0,0,0,0,0,0,0,0,0,0,0,0,0,0,0,0,0,0,0,0,0,0,0,0,0,0],"sum_hessian":[4.244E3,3.447E3,7.97E2,2.17E3,1.277E3,5.97E2,2E2,1.408E3,7.62E2,8.95E2,3.82E2,3.64E2,2.33E2,1.65E2,3.5E1,7.62E2,6.46E2,3.66E2,3.96E2,6.14E2,2.81E2,1.66E2,2.16E2,1.49E2,2.15E2,1.5E2,8.3E1,5E1,1.15E2,1.99E2,5.63E2,4.16E2,2.3E2,1.84E2,1.82E2,2.48E2,1.48E2,2.34E2,3.8E2,1.67E2,1.14E2,8.3E1,8.3E1,1.49E2,6.7E1,8.3E1,6.6E1,1.33E2,1.01E2,1.31E2,2.49E2,9.9E1,6.8E1,1.5E1,9.9E1,5E1,3.3E1],"tree_param":{"num_deleted":"0","num_feature":"5","num_nodes":"57","size_leaf_vector":"1"}},{"base_weights":[8.7468696E-1,-7.4624725E1,3.3531088E2,-1.2670918E2,1.669611E1,2.5682312E2,5.371929E2,-1.5177776E2,-8.06841E1,-1.0979672E1,8.45129E1,1.9979073E2,3.1294803E2,1.4319757E2,6.252525E2,-1.6108856E2,-1.2995985E2,-9.875152E1,-6.8298004E1,-2.5159E1,1.5080423E1,6.5969215E1,1.106524E2,4.8727634E1,6.57964E1,8.269633E1,1.05707756E2,1.745294E2,2.237089E2,-5.2935486E1,-4.6574646E1,-4.106839E1,-3.6369312E1,-3.275672E1,-2.838288E1,-2.3876928E1,-6.3597095E1,-3.8987667E1,-1.5960199E1,6.310437E0,2.486752E1,4.667165E1,7.4148994E1,2.9179323E1,3.600409E1,-2.0178726E1,-1.7872513E1,-1.3191029E1,-9.606297E0,-5.681668E0,-2.528752E0,7.057757E-1,3.5865E0,6.1471176E0,8.893647E0,3.5024598E0,1.4107505E1,1.987155E1,2.3872751E1],"categories":[],"categories_nodes":[],"categories_segments":[],"categories_sizes":[],"default_left":[0,0,0,0,0,0,0,0,0,0,0,0,0,0,0,0,0,0,0,0,0,0,0,0,0,0,0,0,0,0,0,0,0,0,0,0,0,0,0,0,0,0,0,0,0,0,0,0,0,0,0,0,0,0,0,0,0,0,0],"id":5,"left_children":[1,3,5,7,9,11,13,15,17,19,21,23,25,-1,27,29,31,33,35,37,39,41,43,-1,-1,-1,-1,-1,-1,-1,-1,-1,-1,-1,-1,-1,45,47,49,51,53,55,57,-1,-1,-1,-1,-1,-1,-1,-1,-1,-1,-1,-1,-1,-1,-1,-1],"loss_changes":[1.0721015E8,1.6478274E7,1.2253032E7,2.533E6,2.3639235E6,1.746008E6,8.50828E5,2.6895E5,1.678075E5,3.3109506E5,1.6962425E5,1.709E5,3.1882E5,0E0,1.1396E4,6.1962E4,9.554E3,3.2875E3,1.96745E4,7.315784E4,2.696621E4,3.0634938E4,7.126E3,0E0,0E0,0E0,0E0,0E0,0E0,0E0,0E0,0E0,0E0,0E0,0E0,0E0,9.16625E2,6.6102812E3,7.6917812E3,3.7250508E3,2.5087031E3,2.795625E2,1.1683125E3,0E0,0E0,0E0,0E0,0E0,0E0,0E0,0E0,0E0,0E0,0E0,0E0,0E0,0E0,0E0,0E0],"parents":[2147483647,0,0,1,1,2,2,3,3,4,4,5,5,6,6,7,7,8,8,9,9,10,10,11,11,12,12,14,14,15,15,16,16,17,17,18,18,19,19,20,20,21,21,22,22,36,36,37,37,38,38,39,39,40,40,41,41,42,42],"right_children":[2,4,6,8,10,12,14,16,18,20,22,24,26,-1,28,30,32,34,36,38,40,42,44,-1,-1,-1,-1,-1,-1,-1,-1,-1,-1,-1,-1,-1,46,48,50,52,54,56,58,-1,-1,-1,-1,-1,-1,-1,-1,-1,-1,-1,-1,-1,-1,-1,-1],"split_conditions":[2.07135E3,9.5485E2,3.71895E3,5.901E2,1.4696E3,2.70065E3,4.5261E3,4.0185E2,7.7335E2,1.22975E3,1.79255E3,2.4257E3,3.0969E3,1.4319757E2,4.8851E3,2.734E2,4.9715E2,6.44E2,8.227E2,1.1174E3,1.36005E3,1.61065E3,1.8537E3,4.8727634E1,6.57964E1,8.269633E1,1.05707756E2,1.745294E2,2.237089E2,-5.2935486E1,-4.6574646E1,-4.106839E1,-3.6369312E1,-3.275672E1,-2.838288E1,-2.3876928E1,8.749E2,1.0352E3,1.18315E3,1.29785E3,1.402E3,1.4799E3,1.7093E3,2.9179323E1,3.600409E1,-2.0178726E1,-1.7872513E1,-1.3191029E1,-9.606297E0,-5.681668E0,-2.528752E0,7.057757E-1,3.5865E0,6.1471176E0,8.893647E0,3.5024598E0,1.4107505E1,1.987155E1,2.3872751E1],"split_indices":[3,3,3,3,3,3,3,3,3,3,3,3,3,0,3,3,3,3,3,3,3,3,2,0,0,0,0,0,0,0,0,0,0,0,0,0,3,3,3,3,3,1,3,0,0,0,0,0,0,0,0,0,0,0,0,0,0,0,0],"split_type":[0,0,0,0,0,0,0,0,0,0,0,0,0,0,0,0,0,0,0,0,0,0,0,0,0,0,0,0,0,0,0,0,0,0,0,0,0,0,0,0,0,0,0,0,0,0,0,0,0,0,0,0,0,0,0,0,0,0,0],"sum_hessian":[4.244E3,3.463E3,7.81E2,2.205E3,1.258E3,5.64E2,2.17E2,1.426E3,7.79E2,8.94E2,3.64E2,2.82E2,2.82E2,1.33E2,8.4E1,9.95E2,4.31E2,3.14E2,4.65E2,5.79E2,3.15E2,2.15E2,1.49E2,1E2,1.82E2,1.49E2,1.33E2,6.6E1,1.8E1,2.66E2,7.29E2,2.32E2,1.99E2,8.2E1,2.32E2,1.32E2,3.33E2,2.3E2,3.49E2,1.67E2,1.48E2,6.6E1,1.49E2,6.6E1,8.3E1,1.66E2,1.67E2,1.31E2,9.9E1,2.49E2,1E2,9.9E1,6.8E1,8E1,6.8E1,1E0,6.5E1,6.6E1,8.3E1],"tree_param":{"num_deleted":"0","num_feature":"5","num_nodes":"59","size_leaf_vector":"1"}},{"base_weights":[7.6757336E-1,-5.2290764E1,2.357974E2,-8.8492165E1,1.2384161E1,1.8266074E2,3.8848264E2,-1.0636843E2,-5.6293526E1,-6.597982E0,6.10822E1,1.3731989E2,2.2013078E2,3.63184E2,1.4830388E2,-1.1834679E2,-9.717648E1,-6.652935E1,-4.5052883E1,-1.7112911E1,1.1316274E1,4.8170013E1,7.789123E1,1.2061699E2,4.73636E1,5.854418E1,7.583813E1,9.212809E1,1.1501938E2,-4.0639412E1,-3.4427963E1,-3.0366447E1,-2.568007E1,-2.1834692E1,-1.7842436E1,-1.459261E1,-1.2611638E1,-2.6123755E1,-1.0756636E1,4.4428153E0,1.824612E1,1.0424305E1,5.2412476E1,2.047939E1,2.5392696E1,3.1842953E1,3.926939E1,-8.9724655E0,-6.6348047E0,-4.2279363E0,-2.2067218E0,4.9614993E-1,2.5261288E0,4.647718E0,7.2293224E0,1.4506024E1,1.780312E1],"categories":[],"categories_nodes":[],"categories_segments":[],"categories_sizes":[],"default_left":[0,0,0,0,0,0,0,0,0,0,0,0,0,0,0,0,0,0,0,0,0,0,0,0,0,0,0,0,0,0,0,0,0,0,0,0,0,0,0,0,0,0,0,0,0,0,0,0,0,0,0,0,0,0,0,0,0],"id":6,"left_children":[1,3,5,7,9,11,13,15,17,19,21,23,25,27,-1,29,31,33,35,37,39,41,43,45,-1,-1,-1,-1,-1,-1,-1,-1,-1,-1,-1,-1,-1,47,49,51,53,-1,55,-1,-1,-1,-1,-1,-1,-1,-1,-1,-1,-1,-1,-1,-1],"loss_changes":[5.2948716E7,8.11144E6,6.273544E6,1.2724E6,1.150348E6,9.58546E5,3.5878E5,1.45619E5,8.8473E4,1.6897058E5,7.1995375E4,7.2299E4,2.09352E5,7.0474E4,0E0,2.2214E4,2.94045E4,1.3933625E4,2.0876875E3,3.207961E4,1.573277E4,9.5675E3,3.970375E3,8.5755E3,0E0,0E0,0E0,0E0,0E0,0E0,0E0,0E0,0E0,0E0,0E0,0E0,0E0,2.8724844E3,3.6748945E3,1.8497812E3,2.2854375E3,0E0,1.3506875E3,0E0,0E0,0E0,0E0,0E0,0E0,0E0,0E0,0E0,0E0,0E0,0E0,0E0,0E0],"parents":[2147483647,0,0,1,1,2,2,3,3,4,4,5,5,6,6,7,7,8,8,9,9,10,10,11,11,12,12,13,13,15,15,16,16,17,17,18,18,19,19,20,20,21,21,22,22,23,23,37,37,38,38,39,39,40,40,42,42],"right_children":[2,4,6,8,10,12,14,16,18,20,22,24,26,28,-1,30,32,34,36,38,40,42,44,46,-1,-1,-1,-1,-1,-1,-1,-1,-1,-1,-1,-1,-1,48,50,52,54,-1,56,-1,-1,-1,-1,-1,-1,-1,-1,-1,-1,-1,-1,-1,-1],"split_conditions":[2.07135E3,9.6385E2,3.8489E3,5.901E2,1.52695E3,2.67575E3,4.755E3,3.235E2,8.219E2,1.22975E3,1.79255E3,2.5258E3,3.1302E3,3.947E3,1.4830388E2,2.5335E2,4.9E2,7.0255E2,8.669E2,1.12335E3,1.36005E3,1.6387E3,1.8749E3,2.317E3,4.73636E1,5.854418E1,7.583813E1,9.212809E1,1.1501938E2,-4.0639412E1,-3.4427963E1,-3.0366447E1,-2.568007E1,-2.1834692E1,-1.7842436E1,-1.459261E1,-1.2611638E1,1.0352E3,1.16305E3,1.29785E3,1.42575E3,1.0424305E1,1.74295E3,2.047939E1,2.5392696E1,3.1842953E1,3.926939E1,-8.9724655E0,-6.6348047E0,-4.2279363E0,-2.2067218E0,4.9614993E-1,2.5261288E0,4.647718E0,7.2293224E0,1.4506024E1,1.780312E1],"split_indices":[3,3,1,3,1,3,2,3,1,3,3,3,3,0,0,3,3,3,3,3,3,1,3,2,0,0,0,0,0,0,0,0,0,0,0,0,0,3,3,3,3,0,3,0,0,0,0,0,0,0,0,0,0,0,0,0,0],"split_type":[0,0,0,0,0,0,0,0,0,0,0,0,0,0,0,0,0,0,0,0,0,0,0,0,0,0,0,0,0,0,0,0,0,0,0,0,0,0,0,0,0,0,0,0,0,0,0,0,0,0,0,0,0,0,0,0,0],"sum_hessian":[4.244E3,3.463E3,7.81E2,2.22E3,1.243E3,5.81E2,2E2,1.426E3,7.94E2,8.95E2,3.48E2,2.65E2,3.16E2,1.65E2,3.5E1,6.14E2,8.12E2,4.13E2,3.81E2,5.64E2,3.31E2,1.99E2,1.49E2,1.5E2,1.15E2,1.83E2,1.33E2,4.8E1,1.17E2,1E2,5.14E2,5.96E2,2.16E2,2.14E2,1.99E2,1.67E2,2.14E2,2.32E2,3.32E2,1.67E2,1.64E2,5E1,1.49E2,6.6E1,8.3E1,6.7E1,8.3E1,1.16E2,1.16E2,1.66E2,1.66E2,9.9E1,6.8E1,1.14E2,5E1,9.9E1,5E1],"tree_param":{"num_deleted":"0","num_feature":"5","num_nodes":"57","size_leaf_vector":"1"}},{"base_weights":[6.531508E-1,-3.6646408E1,1.6587697E2,-6.227977E1,8.297069E0,1.1936765E2,2.5463228E2,-7.40012E1,-3.8478634E1,-4.958114E0,4.3010944E1,8.789031E1,1.3645338E2,6.305953E1,2.9685083E2,-8.0963715E1,-6.496896E1,-4.4848755E1,-3.1434359E1,-1.2103121E1,8.491041E0,3.404692E1,5.461648E1,7.492958E1,2.8401552E1,3.6015434E1,1.4915195E2,8.3500565E1,1.1857327E2,-3.0869253E1,-7.942578E1,-2.116857E1,-1.839054E1,-1.4339678E1,-1.1996052E1,-9.849154E0,-2.8373377E1,-1.9221985E1,-7.576998E0,4.040574E0,1.3356848E1,2.7234154E1,1.15766735E1,4.5989212E1,1.7541067E1,8.047445E1,5.505637E1,1.5069275E2,1.2758387E1,-2.4510046E1,-2.2542866E1,-7.1486793E0,-8.984359E0,-6.46829E0,-4.7826934E0,-2.831678E0,-1.0601281E0,6.6381645E-1,2.0207062E0,3.215805E0,4.925553E0,6.955186E0,8.796261E0,1.5177254E1,1.0422688E1,2.0779633E1,2.9152866E1,1.9859924E1,6.520899E0,4.1205273E1,4.82079E1],"categories":[],"categories_nodes":[],"categories_segments":[],"categories_sizes":[],"default_left":[0,0,0,0,0,0,0,0,0,0,0,0,0,0,0,0,0,0,0,0,0,0,0,0,0,0,0,0,0,0,0,0,0,0,0,0,0,0,0,0,0,0,0,0,0,0,0,0,0,0,0,0,0,0,0,0,0,0,0,0,0,0,0,0,0,0,0,0,0,0,0],"id":7,"left_children":[1,3,5,7,9,11,13,15,17,19,21,23,25,-1,27,29,31,33,35,37,39,41,43,45,-1,-1,47,-1,-1,-1,49,-1,-1,-1,-1,-1,51,53,55,57,59,61,-1,63,-1,65,67,69,-1,-1,-1,-1,-1,-1,-1,-1,-1,-1,-1,-1,-1,-1,-1,-1,-1,-1,-1,-1,-1,-1,-1],"loss_changes":[2.6167064E7,3.9912255E6,3.197662E6,6.1259E5,5.79528E5,2.64981E5,4.40352E5,8.7624E4,3.1347375E4,8.7740766E4,3.434375E4,9.07875E3,5.12435E4,0E0,1.35934E5,1.9825E4,8.96525E3,3.5535625E3,5.6421875E2,1.9057984E4,6.810701E3,5.106828E3,2.2980625E3,3.0625938E3,0E0,0E0,2.36555E4,0E0,0E0,0E0,1.459E3,0E0,0E0,0E0,0E0,0E0,1.2353125E2,1.4282891E3,2.7219727E3,8.077827E2,1.0433496E3,2.1710938E1,0E0,8.818125E2,0E0,2.81675E3,5.244414E3,1.94475E3,0E0,0E0,0E0,0E0,0E0,0E0,0E0,0E0,0E0,0E0,0E0,0E0,0E0,0E0,0E0,0E0,0E0,0E0,0E0,0E0,0E0,0E0,0E0],"parents":[2147483647,0,0,1,1,2,2,3,3,4,4,5,5,6,6,7,7,8,8,9,9,10,10,11,11,12,12,14,14,15,15,16,16,17,17,18,18,19,19,20,20,21,21,22,22,23,23,26,26,30,30,36,36,37,37,38,38,39,39,40,40,41,41,43,43,45,45,46,46,47,47],"right_children":[2,4,6,8,10,12,14,16,18,20,22,24,26,-1,28,30,32,34,36,38,40,42,44,46,-1,-1,48,-1,-1,-1,50,-1,-1,-1,-1,-1,52,54,56,58,60,62,-1,64,-1,66,68,70,-1,-1,-1,-1,-1,-1,-1,-1,-1,-1,-1,-1,-1,-1,-1,-1,-1,-1,-1,-1,-1,-1,-1],"split_conditions":[2.045E3,9.5485E2,3.315E3,6.2635E2,1.509E3,2.58165E3,4.338E3,3.553E2,8.1615E2,1.24405E3,1.79255E3,2.3595E3,2.8273E3,6.305953E1,4.9299E3,2.4645E2,4.251E2,7.565E2,8.894E2,1.1174E3,1.3691E3,1.6615E3,1.8748E3,2.2252E3,2.8401552E1,3.6015434E1,3.31115E3,8.3500565E1,1.1857327E2,-3.0869253E1,3.181E2,-2.116857E1,-1.839054E1,-1.4339678E1,-1.1996052E1,-9.849154E0,9.0465E2,1.0352E3,1.18315E3,1.3E3,1.3989E3,1.5554E3,1.15766735E1,1.81425E3,1.7541067E1,2.15955E3,1.531811E6,3.06785E3,1.2758387E1,-2.4510046E1,-2.2542866E1,-7.1486793E0,-8.984359E0,-6.46829E0,-4.7826934E0,-2.831678E0,-1.0601281E0,6.6381645E-1,2.0207062E0,3.215805E0,4.925553E0,6.955186E0,8.796261E0,1.5177254E1,1.0422688E1,2.0779633E1,2.9152866E1,1.9859924E1,6.520899E0,4.1205273E1,4.82079E1],"split_indices":[2,3,0,3,0,3,1,3,3,3,3,3,1,0,1,3,3,3,3,3,3,2,1,3,0,0,3,0,0,0,3,0,0,0,0,0,3,3,3,2,2,2,0,3,0,3,4,3,0,0,0,0,0,0,0,0,0,0,0,0,0,0,0,0,0,0,0,0,0,0,0],"split_type":[0,0,0,0,0,0,0,0,0,0,0,0,0,0,0,0,0,0,0,0,0,0,0,0,0,0,0,0,0,0,0,0,0,0,0,0,0,0,0,0,0,0,0,0,0,0,0,0,0,0,0,0,0,0,0,0,0,0,0,0,0,0,0,0,0,0,0,0,0,0,0],"sum_hessian":[4.244E3,3.463E3,7.81E2,2.205E3,1.258E3,5.14E2,2.67E2,1.476E3,7.29E2,9.11E2,3.47E2,1.83E2,3.31E2,1.33E2,1.34E2,8.29E2,6.47E2,3.8E2,3.49E2,5.95E2,3.16E2,1.98E2,1.49E2,6.7E1,1.16E2,1.49E2,1.82E2,1.16E2,1.8E1,5E1,7.79E2,2.49E2,3.98E2,2.31E2,1.49E2,2.33E2,1.16E2,2.3E2,3.65E2,1.66E2,1.5E2,8.2E1,1.16E2,5E1,9.9E1,5E1,1.7E1,1.79E2,3E0,4.97E2,2.82E2,3.4E1,8.2E1,1.31E2,9.9E1,2.49E2,1.16E2,1E2,6.6E1,8.3E1,6.7E1,3.2E1,5E1,3.3E1,1.7E1,3.3E1,1.7E1,1.2E1,5E0,8.3E1,9.6E1],"tree_param":{"num_deleted":"0","num_feature":"5","num_nodes":"71","size_leaf_vector":"1"}},{"base_weights":[5.5246997E-1,-2.6345293E1,1.1395857E2,-4.656118E1,4.4456825E-1,8.7446655E1,1.9437828E2,-5.3952938E1,-3.357059E1,-8.715225E0,2.5044699E1,6.857469E1,1.1171629E2,1.8375482E2,8.594055E1,-6.656236E1,-5.238494E1,-3.8802647E1,-2.7986477E1,-1.7195894E1,-1.418521E0,1.776891E1,3.5029762E1,5.4709656E1,7.856128E1,1.026713E2,1.3019917E2,5.0910007E1,6.1666706E1,-2.3094675E1,-1.8674936E1,-1.644124E1,-1.4461712E1,-1.2186038E1,-3.4551167E1,-8.99861E0,-7.672994E0,-6.253695E0,-1.2334426E1,-5.0703278E0,4.081044E0,1.1653827E1,2.2325071E1,3.5860966E1,1.0789027E1,1.3499194E1,1.770562E1,2.0851948E1,2.4780033E1,3.0926077E1,3.9918458E0,6.2227295E1,3.984598E1,-8.899672E0,-1.1304433E1,-4.0824623E0,-3.0130367E0,-2.1227472E0,-9.63741E-1,4.439753E-1,1.812115E0,2.6921237E0,3.893917E0,5.500763E0,7.0374436E0,9.974596E0,1.400852E1,1.5664246E0,6.6292057E0,3.4641434E1,-3.5277834E0],"categories":[],"categories_nodes":[],"categories_segments":[],"categories_sizes":[],"default_left":[0,0,0,0,0,0,0,0,0,0,0,0,0,0,0,0,0,0,0,0,0,0,0,0,0,0,0,0,0,0,0,0,0,0,0,0,0,0,0,0,0,0,0,0,0,0,0,0,0,0,0,0,0,0,0,0,0,0,0,0,0,0,0,0,0,0,0,0,0,0,0],"id":8,"left_children":[1,3,5,7,9,11,13,15,17,19,21,23,25,27,-1,29,31,33,35,37,39,41,43,45,47,49,51,-1,-1,-1,-1,-1,-1,-1,53,-1,-1,-1,55,57,59,61,63,65,67,-1,-1,-1,-1,-1,-1,69,-1,-1,-1,-1,-1,-1,-1,-1,-1,-1,-1,-1,-1,-1,-1,-1,-1,-1,-1],"loss_changes":[1.2951824E7,1.858726E6,1.718516E6,1.860105E5,3.330338E5,2.73561E5,1.440015E5,2.11285E4,1.9716125E4,6.662135E4,2.8509922E4,4.38875E4,3.12685E4,2.11895E4,0E0,1.229375E3,8.60075E3,1.416875E3,9.175E2,8.579E3,1.1669036E4,6.259367E3,2.998125E3,3.5801875E3,1.573E3,5.462625E3,6.6985E3,0E0,0E0,0E0,0E0,0E0,0E0,0E0,6.561875E2,0E0,0E0,0E0,4.9365625E2,1.2776172E3,1.1734458E3,2.4598242E2,1.7103906E2,3.0323906E3,3.2534308E2,0E0,0E0,0E0,0E0,0E0,0E0,2.1054615E4,0E0,0E0,0E0,0E0,0E0,0E0,0E0,0E0,0E0,0E0,0E0,0E0,0E0,0E0,0E0,0E0,0E0,0E0,0E0],"parents":[2147483647,0,0,1,1,2,2,3,3,4,4,5,5,6,6,7,7,8,8,9,9,10,10,11,11,12,12,13,13,15,15,16,16,17,17,18,18,19,19,20,20,21,21,22,22,23,23,24,24,25,25,26,26,34,34,38,38,39,39,40,40,41,41,42,42,43,43,44,44,51,51],"right_children":[2,4,6,8,10,12,14,16,18,20,22,24,26,28,-1,30,32,34,36,38,40,42,44,46,48,50,52,-1,-1,-1,-1,-1,-1,-1,54,-1,-1,-1,56,58,60,62,64,66,68,-1,-1,-1,-1,-1,-1,70,-1,-1,-1,-1,-1,-1,-1,-1,-1,-1,-1,-1,-1,-1,-1,-1,-1,-1,-1],"split_conditions":[1.9937E3,8.5335E2,3.78195E3,5.0175E2,1.402E3,2.7554E3,4.8851E3,2.596E2,6.71E2,1.12335E3,1.74295E3,2.5E3,3.20005E3,4.5595E3,8.594055E1,2.368E2,3.553E2,6.359E2,7.941E2,9.7355E2,1.24405E3,1.57E3,1.9821E3,2.07395E3,2.58165E3,3.31115E3,2.4826E4,5.0910007E1,6.1666706E1,-2.3094675E1,-1.8674936E1,-1.644124E1,-1.4461712E1,-1.2186038E1,6.536E2,-8.99861E0,-7.672994E0,-6.253695E0,1.0922E3,1.16305E3,1.3146E3,1.417E3,1.6387E3,1.955E3,2.0695E3,1.3499194E1,1.770562E1,2.0851948E1,2.4780033E1,3.0926077E1,3.9918458E0,2.3079E4,3.984598E1,-8.899672E0,-1.1304433E1,-4.0824623E0,-3.0130367E0,-2.1227472E0,-9.63741E-1,4.439753E-1,1.812115E0,2.6921237E0,3.893917E0,5.500763E0,7.0374436E0,9.974596E0,1.400852E1,1.5664246E0,6.6292057E0,3.4641434E1,-3.5277834E0],"split_indices":[0,3,3,3,3,3,3,3,2,3,3,1,2,1,0,3,3,3,3,3,3,1,3,2,3,3,4,0,0,0,0,0,0,0,3,0,0,0,1,3,0,2,1,1,1,0,0,0,0,0,0,4,0,0,0,0,0,0,0,0,0,0,0,0,0,0,0,0,0,0,0],"split_type":[0,0,0,0,0,0,0,0,0,0,0,0,0,0,0,0,0,0,0,0,0,0,0,0,0,0,0,0,0,0,0,0,0,0,0,0,0,0,0,0,0,0,0,0,0,0,0,0,0,0,0,0,0,0,0,0,0,0,0,0,0,0,0,0,0,0,0,0,0,0,0],"sum_hessian":[4.244E3,3.431E3,8.13E2,1.955E3,1.476E3,6.13E2,2E2,1.244E3,7.11E2,1.076E3,4E2,3.47E2,2.66E2,1.82E2,1.8E1,1.33E2,1.111E3,3.64E2,3.47E2,4.97E2,5.79E2,2.33E2,1.67E2,1.48E2,1.99E2,1.83E2,8.3E1,1.16E2,6.6E1,3.4E1,9.9E1,6.96E2,4.15E2,2.49E2,1.15E2,1.83E2,1.64E2,2.82E2,2.15E2,3.48E2,2.31E2,1.01E2,1.32E2,1.61E2,6E0,4.9E1,9.9E1,6.7E1,1.32E2,1.82E2,1E0,4E0,7.9E1,4.9E1,6.6E1,1.35E2,8E1,1.66E2,1.82E2,1E2,1.31E2,3.6E1,6.5E1,3.3E1,9.9E1,1.33E2,2.8E1,5E0,1E0,2E0,2E0],"tree_param":{"num_deleted":"0","num_feature":"5","num_nodes":"71","size_leaf_vector":"1"}},{"base_weights":[4.566142E-1,-1.8466352E1,8.023937E1,-3.1051607E1,2.7697086E0,6.149737E1,1.3709187E2,-3.73986E1,-2.0834387E1,-3.6176648E0,1.8756804E1,4.5735497E1,7.612053E1,1.292582E2,2.0532715E2,-4.146272E1,-3.435342E1,-2.4921373E1,-1.7030294E1,-7.5856843E0,1.8787832E0,1.3608873E1,2.4712358E1,3.5277416E1,5.0760986E1,6.61272E1,2.6000597E1,1.0590072E2,1.3677863E2,1.6017994E1,6.324049E1,-1.6401255E1,-1.2153676E1,-1.084342E1,-9.508137E0,-2.6347326E1,-6.5778155E0,-1.951453E1,-1.586E1,-1.0527059E1,-4.93134E0,-6.071826E-1,4.556158E0,9.111082E0,1.5738538E1,2.5250706E1,8.723145E0,3.7714794E1,2.2078545E1,4.6455826E1,5.4558537E1,6.9237335E1,5.7464725E1,3.2689526E1,1.7142393E1,1.3422584E1,4.134787E1,-6.110041E0,-8.134056E0,-5.4910927E0,-6.799778E0,-4.0185666E0,-4.893857E0,-3.903073E0,-2.7668417E0,-1.9264749E0,-1.1534209E0,-6.6959155E-1,6.292297E-2,9.0638775E-1,1.7326492E0,2.7961283E0,-6.744507E-1,4.8632603E0,2.7078803E0,6.605382E0,9.032915E0,1.174823E0,5.634833E0,9.898858E0,1.5876319E1,2.9744666E0,1.3426013E1,1.8175161E1,1.2784717E1,1.8927258E1,1.3429322E1,1.9466845E1,2.6543013E1,5.149234E0,1.81788E1],"categories":[],"categories_nodes":[],"categories_segments":[],"categories_sizes":[],"default_left":[0,0,0,0,0,0,0,0,0,0,0,0,0,0,0,0,0,0,0,0,0,0,0,0,0,0,0,0,0,0,0,0,0,0,0,0,0,0,0,0,0,0,0,0,0,0,0,0,0,0,0,0,0,0,0,0,0,0,0,0,0,0,0,0,0,0,0,0,0,0,0,0,0,0,0,0,0,0,0,0,0,0,0,0,0,0,0,0,0,0,0],"id":9,"left_children":[1,3,5,7,9,11,13,15,17,19,21,23,25,27,29,31,33,35,37,39,41,43,45,47,49,51,-1,53,55,-1,-1,-1,-1,-1,-1,57,-1,59,61,63,65,67,69,71,73,75,77,79,81,83,85,87,89,-1,-1,-1,-1,-1,-1,-1,-1,-1,-1,-1,-1,-1,-1,-1,-1,-1,-1,-1,-1,-1,-1,-1,-1,-1,-1,-1,-1,-1,-1,-1,-1,-1,-1,-1,-1,-1,-1],"loss_changes":[6.4102715E6,9.173264E5,8.5891E5,1.3896962E5,1.3057153E5,1.380385E5,8.090075E4,1.5011E4,1.2448719E4,1.9948605E4,1.0854133E4,1.387125E4,2.768425E4,1.76605E4,4.548E3,4.8655625E3,2.4990625E3,1.1179844E3,9.464531E2,4.0938281E3,2.5586177E3,1.753207E3,1.2258438E3,2.3843828E3,7.18875E2,5.205625E2,0E0,1.0950625E3,6.84975E3,0E0,0E0,0E0,0E0,0E0,0E0,6.575E2,0E0,9.647656E1,1.1521875E2,6.929238E2,4.3033496E2,2.6593457E2,3.2878223E2,1.7790234E2,2.7533594E2,1.8817422E3,2.6494647E2,4.2092344E3,4.520835E3,2.8434844E3,5.5324375E3,4.1295E3,5.2695312E3,0E0,0E0,0E0,0E0,0E0,0E0,0E0,0E0,0E0,0E0,0E0,0E0,0E0,0E0,0E0,0E0,0E0,0E0,0E0,0E0,0E0,0E0,0E0,0E0,0E0,0E0,0E0,0E0,0E0,0E0,0E0,0E0,0E0,0E0,0E0,0E0,0E0,0E0],"parents":[2147483647,0,0,1,1,2,2,3,3,4,4,5,5,6,6,7,7,8,8,9,9,10,10,11,11,12,12,13,13,14,14,15,15,16,16,17,17,18,18,19,19,20,20,21,21,22,22,23,23,24,24,25,25,27,27,28,28,35,35,37,37,38,38,39,39,40,40,41,41,42,42,43,43,44,44,45,45,46,46,47,47,48,48,49,49,50,50,51,51,52,52],"right_children":[2,4,6,8,10,12,14,16,18,20,22,24,26,28,30,32,34,36,38,40,42,44,46,48,50,52,-1,54,56,-1,-1,-1,-1,-1,-1,58,-1,60,62,64,66,68,70,72,74,76,78,80,82,84,86,88,90,-1,-1,-1,-1,-1,-1,-1,-1,-1,-1,-1,-1,-1,-1,-1,-1,-1,-1,-1,-1,-1,-1,-1,-1,-1,-1,-1,-1,-1,-1,-1,-1,-1,-1,-1,-1,-1,-1],"split_conditions":[1.9937E3,9.295E2,3.76205E3,5.3645E2,1.417E3,2.67575E3,4.9299E3,3.199E2,7.784E2,1.18315E3,1.74295E3,2.317E3,3.0969E3,3.947E3,4.784E3,2.45E2,4.051E2,6.61E2,8.1615E2,1.1018E3,1.29785E3,1.52405E3,1.9821E3,2.2252E3,2.599E3,2.9503E3,2.6000597E1,3.94025E3,3.86235E3,1.6017994E1,6.324049E1,-1.6401255E1,-1.2153676E1,-1.084342E1,-9.508137E0,5.512E2,-6.5778155E0,8.048E2,8.3515E2,9.7355E2,1.1419E3,1.20775E3,1.3691E3,1.5798E3,3.178784E6,1.8448E3,2.0695E3,2.15955E3,2.3595E3,2.39945E3,2.6308E3,2.834E3,2.994E3,3.2689526E1,1.7142393E1,1.3422584E1,4.134787E1,-6.110041E0,-8.134056E0,-5.4910927E0,-6.799778E0,-4.0185666E0,-4.893857E0,-3.903073E0,-2.7668417E0,-1.9264749E0,-1.1534209E0,-6.6959155E-1,6.292297E-2,9.0638775E-1,1.7326492E0,2.7961283E0,-6.744507E-1,4.8632603E0,2.7078803E0,6.605382E0,9.032915E0,1.174823E0,5.634833E0,9.898858E0,1.5876319E1,2.9744666E0,1.3426013E1,1.8175161E1,1.2784717E1,1.8927258E1,1.3429322E1,1.9466845E1,2.6543013E1,5.149234E0,1.81788E1],"split_indices":[0,3,2,3,2,3,1,3,1,3,3,2,3,0,0,1,3,2,3,3,3,2,3,3,1,3,0,3,2,0,0,0,0,0,0,3,0,3,3,3,3,3,3,0,4,3,1,3,3,3,3,2,1,0,0,0,0,0,0,0,0,0,0,0,0,0,0,0,0,0,0,0,0,0,0,0,0,0,0,0,0,0,0,0,0,0,0,0,0,0,0],"split_type":[0,0,0,0,0,0,0,0,0,0,0,0,0,0,0,0,0,0,0,0,0,0,0,0,0,0,0,0,0,0,0,0,0,0,0,0,0,0,0,0,0,0,0,0,0,0,0,0,0,0,0,0,0,0,0,0,0,0,0,0,0,0,0,0,0,0,0,0,0,0,0,0,0,0,0,0,0,0,0,0,0,0,0,0,0,0,0,0,0,0,0],"sum_hessian":[4.244E3,3.431E3,8.13E2,2.154E3,1.277E3,6.13E2,2E2,1.327E3,8.27E2,9.13E2,3.64E2,2.97E2,3.16E2,1.82E2,1.8E1,5.63E2,7.64E2,3.96E2,4.31E2,5.3E2,3.83E2,1.97E2,1.67E2,9.9E1,1.98E2,1.66E2,1.5E2,4.8E1,1.34E2,1E0,1.7E1,3.4E1,5.29E2,4.49E2,3.15E2,2.63E2,1.33E2,1.33E2,2.98E2,2.5E2,2.8E2,1.99E2,1.84E2,6.5E1,1.32E2,1.61E2,6E0,8.2E1,1.7E1,9.9E1,9.9E1,1.17E2,4.9E1,4.4E1,4E0,2E0,1.32E2,3.3E1,2.3E2,1.01E2,3.2E1,5.1E1,2.47E2,8.3E1,1.67E2,1.16E2,1.64E2,6.6E1,1.33E2,8.3E1,1.01E2,6.4E1,1E0,1.22E2,1E1,1E2,6.1E1,5E0,1E0,6.5E1,1.7E1,1.2E1,5E0,1.8E1,8.1E1,5E1,4.9E1,9.9E1,1.8E1,4E0,4.5E1],"tree_param":{"num_deleted":"0","num_feature":"5","num_nodes":"91","size_leaf_vector":"1"}},{"base_weights":[3.945994E-1,-1.3298592E1,5.5263783E1,-2.2936222E1,-2.2547652E-1,3.9164425E1,8.995954E1,-2.6215845E1,-1.5975531E1,-4.750451E0,1.0375217E1,2.8474287E1,4.709626E1,7.932481E1,1.194811E2,-3.3358044E1,-2.527808E1,-1.829022E1,-1.3836354E1,-8.87966E0,-1.6720198E0,5.636125E0,1.4398579E1,2.2083723E1,3.1518198E1,4.7616436E1,-7.462097E0,6.9719765E1,8.823266E1,3.1609728E1,4.5324356E1,-1.276723E1,-9.56201E0,-2.633339E1,-6.6305285E0,-1.9548286E1,-1.657302E1,-1.4710811E1,-1.2867441E1,-1.002546E1,-6.681014E0,-3.1169853E0,1.0545093E0,4.562475E0,8.6041565E0,1.20951605E1,1.6578932E1,8.741907E0,1.9858482E1,1.9044617E1,3.2108185E1,4.3631016E1,1.700963E1,-4.4526124E0,-5.476888E-2,4.0799072E1,7.0801056E1,9.662704E1,6.90957E1,-8.223431E0,-7.573422E0,-4.330939E0,-6.20983E0,-3.8917656E0,-5.5556583E0,-3.8871424E0,-4.718546E0,-3.475265E0,-4.7006607E0,-2.119433E0,-3.0530965E0,-6.276007E-1,-2.1859064E0,-1.371423E0,-6.9184643E-1,4.0405154E-2,5.974153E-1,2.1827333E0,1.2473748E0,1.0926331E0,2.7163625E0,4.6784644E0,3.1603854E0,6.605409E0,4.776541E0,4.60793E0,6.395769E0,6.46519E0,-5.264282E-1,9.851526E0,7.235949E0,1.3576373E1,9.839224E0,-5.0701904E-1,4.8237306E-1,2.1665966E1,2.1101074E0,2.4496878E1,1.9388899E1,2.5601923E1,3.678375E1,5.7406983E0,2.3114897E1],"categories":[],"categories_nodes":[],"categories_segments":[],"categories_sizes":[],"default_left":[0,0,0,0,0,0,0,0,0,0,0,0,0,0,0,0,0,0,0,0,0,0,0,0,0,0,0,0,0,0,0,0,0,0,0,0,0,0,0,0,0,0,0,0,0,0,0,0,0,0,0,0,0,0,0,0,0,0,0,0,0,0,0,0,0,0,0,0,0,0,0,0,0,0,0,0,0,0,0,0,0,0,0,0,0,0,0,0,0,0,0,0,0,0,0,0,0,0,0,0,0,0,0],"id":10,"left_children":[1,3,5,7,9,11,13,15,17,19,21,23,25,27,29,31,33,35,37,39,41,43,45,47,49,51,53,55,57,-1,-1,-1,-1,59,-1,61,63,65,67,69,71,73,75,77,79,81,83,-1,85,87,89,91,-1,-1,93,95,97,99,101,-1,-1,-1,-1,-1,-1,-1,-1,-1,-1,-1,-1,-1,-1,-1,-1,-1,-1,-1,-1,-1,-1,-1,-1,-1,-1,-1,-1,-1,-1,-1,-1,-1,-1,-1,-1,-1,-1,-1,-1,-1,-1,-1,-1],"loss_changes":[3.1901485E6,4.28122E5,4.7015225E5,4.4233625E4,6.926693E4,4.7923312E4,7.466175E4,8.051375E3,2.8614375E3,1.2849174E4,8.155824E3,4.167047E3,9.7775E3,1.09605E4,1.48583125E4,7.059375E2,3.366625E3,3.2197656E2,9.116016E1,1.0213203E3,2.292276E3,5.9806885E2,9.6966406E2,7.402344E2,6.175E2,9.434875E3,2.1784978E2,2.6984375E2,9.3878125E3,0E0,0E0,0E0,0E0,3.39625E2,0E0,6.83875E2,6.915508E2,9.424219E1,4.1163867E2,5.461328E1,4.042212E2,4.3758862E2,1.7380762E2,1.333042E2,8.323364E1,4.7470703E2,6.7615234E1,0E0,1.1283203E2,5.5905176E2,1.29625E2,2.614E3,0E0,0E0,1.087438E1,5.8576426E3,1.1537812E3,9.18775E3,1.2036516E4,0E0,0E0,0E0,0E0,0E0,0E0,0E0,0E0,0E0,0E0,0E0,0E0,0E0,0E0,0E0,0E0,0E0,0E0,0E0,0E0,0E0,0E0,0E0,0E0,0E0,0E0,0E0,0E0,0E0,0E0,0E0,0E0,0E0,0E0,0E0,0E0,0E0,0E0,0E0,0E0,0E0,0E0,0E0,0E0],"parents":[2147483647,0,0,1,1,2,2,3,3,4,4,5,5,6,6,7,7,8,8,9,9,10,10,11,11,12,12,13,13,14,14,15,15,16,16,17,17,18,18,19,19,20,20,21,21,22,22,23,23,24,24,25,25,26,26,27,27,28,28,33,33,35,35,36,36,37,37,38,38,39,39,40,40,41,41,42,42,43,43,44,44,45,45,46,46,48,48,49,49,50,50,51,51,54,54,55,55,56,56,57,57,58,58],"right_children":[2,4,6,8,10,12,14,16,18,20,22,24,26,28,30,32,34,36,38,40,42,44,46,48,50,52,54,56,58,-1,-1,-1,-1,60,-1,62,64,66,68,70,72,74,76,78,80,82,84,-1,86,88,90,92,-1,-1,94,96,98,100,102,-1,-1,-1,-1,-1,-1,-1,-1,-1,-1,-1,-1,-1,-1,-1,-1,-1,-1,-1,-1,-1,-1,-1,-1,-1,-1,-1,-1,-1,-1,-1,-1,-1,-1,-1,-1,-1,-1,-1,-1,-1,-1,-1,-1],"split_conditions":[1.955E3,8.5335E2,3.315E3,5.3645E2,1.35235E3,2.58165E3,4.61055E3,2.6155E2,6.81E2,1.1101E3,1.6387E3,2.0978E3,3.31115E3,3.896E3,4.8851E3,2.2855E2,4.1E2,6.359E2,7.941E2,9.7355E2,1.198E3,1.48605E3,1.784E3,1.95995E3,1.8312E4,3.06785E3,7.7479E4,2.4826E4,4.42305E3,3.1609728E1,4.5324356E1,-1.276723E1,-9.56201E0,3.202E2,-6.6305285E0,5.512E2,6.536E2,7.4145E2,8.3515E2,5.44E3,9.8545E2,1.1419E3,1.2898E3,4.5129E4,5.5485E5,1.6797E3,1.76215E3,8.741907E0,1.9937E3,1.6701E4,2.54815E3,2.9503E3,1.700963E1,-4.4526124E0,3.2444E3,1.5696E4,3.67855E3,4.3875E3,4.4188E3,-8.223431E0,-7.573422E0,-4.330939E0,-6.20983E0,-3.8917656E0,-5.5556583E0,-3.8871424E0,-4.718546E0,-3.475265E0,-4.7006607E0,-2.119433E0,-3.0530965E0,-6.276007E-1,-2.1859064E0,-1.371423E0,-6.9184643E-1,4.0405154E-2,5.974153E-1,2.1827333E0,1.2473748E0,1.0926331E0,2.7163625E0,4.6784644E0,3.1603854E0,6.605409E0,4.776541E0,4.60793E0,6.395769E0,6.46519E0,-5.264282E-1,9.851526E0,7.235949E0,1.3576373E1,9.839224E0,-5.0701904E-1,4.8237306E-1,2.1665966E1,2.1101074E0,2.4496878E1,1.9388899E1,2.5601923E1,3.678375E1,5.7406983E0,2.3114897E1],"split_indices":[1,3,0,3,2,3,3,3,2,1,1,0,3,3,3,3,3,3,3,3,2,2,1,3,4,3,4,4,3,0,0,0,0,3,0,3,3,3,3,4,3,3,3,4,4,3,3,0,0,4,3,3,0,0,0,4,3,1,0,0,0,0,0,0,0,0,0,0,0,0,0,0,0,0,0,0,0,0,0,0,0,0,0,0,0,0,0,0,0,0,0,0,0,0,0,0,0,0,0,0,0,0,0],"split_type":[0,0,0,0,0,0,0,0,0,0,0,0,0,0,0,0,0,0,0,0,0,0,0,0,0,0,0,0,0,0,0,0,0,0,0,0,0,0,0,0,0,0,0,0,0,0,0,0,0,0,0,0,0,0,0,0,0,0,0,0,0,0,0,0,0,0,0,0,0,0,0,0,0,0,0,0,0,0,0,0,0,0,0,0,0,0,0,0,0,0,0,0,0,0,0,0,0,0,0,0,0,0,0],"sum_hessian":[4.244E3,3.397E3,8.47E2,1.955E3,1.442E3,5.8E2,2.67E2,1.327E3,6.28E2,1.011E3,4.31E2,2.49E2,3.31E2,1.99E2,6.8E1,1.5E2,1.177E3,2.98E2,3.3E2,4.31E2,5.8E2,1.99E2,2.32E2,8.3E1,1.66E2,3.28E2,3E0,1E2,9.9E1,5E1,1.8E1,1.7E1,1.33E2,8.78E2,2.99E2,1.66E2,1.32E2,1.66E2,1.64E2,2.81E2,1.5E2,3.79E2,2.01E2,1.48E2,5.1E1,1.16E2,1.16E2,1.7E1,6.6E1,9E0,1.57E2,2.32E2,9.6E1,1E0,2E0,5E0,9.5E1,6.6E1,3.3E1,4.29E2,4.49E2,3.3E1,1.33E2,4.9E1,8.3E1,6.6E1,1E2,1.16E2,4.8E1,1.6E1,2.65E2,1.8E1,1.32E2,1.34E2,2.45E2,1.02E2,9.9E1,1.7E1,1.31E2,5E0,4.6E1,3.3E1,8.3E1,9E0,1.07E2,1.9E1,4.7E1,8E0,1E0,1.41E2,1.6E1,1.99E2,3.3E1,1E0,1E0,2E0,3E0,3E1,6.5E1,4.9E1,1.7E1,5E0,2.8E1],"tree_param":{"num_deleted":"0","num_feature":"5","num_nodes":"103","size_leaf_vector":"1"}},{"base_weights":[3.3514178E-1,-9.327977E0,3.9055595E1,-1.6027153E1,-4.1309837E-2,2.7550592E1,6.3851677E1,-1.8265238E1,-1.0834344E1,-3.2492826E0,7.340093E0,2.1292164E1,3.4881844E1,5.496698E1,8.233324E1,-2.0993298E1,-1.6997252E1,-1.2277772E1,-9.35468E0,-6.2441063E0,-1.2389067E0,4.513573E0,1.1161349E1,1.7896095E1,2.5771183E1,3.5376205E1,-6.3427734E0,5.7212673E1,3.2453743E1,2.2135607E1,1.0814245E2,-8.414191E0,-2.032191E1,-1.7884274E1,-1.5435682E1,-1.197902E1,-1.6276115E1,-2.009489E0,-9.762856E0,-6.819869E0,-4.523274E0,-2.5201576E0,3.6008906E-1,5.060619E0,-2.8183796E0,1.0174463E1,1.271813E1,1.6607906E1,2.8781826E1,2.9786945E1,1.3084035E1,3.430345E1,1.5601695E1,-3.7847168E0,-4.654948E-2,5.3395622E1,2.6258118E1,2.9240723E0,3.78078E1,1.3635901E1,1.1705591E2,-6.73575E0,-5.9073725E0,-5.1405287E0,-6.0007772E0,-4.500827E0,-6.7761884E0,-3.701492E0,-1.9069086E0,-5.0024967E0,-1.4242951E0,-1.292829E0,3.349869E-1,-5.321215E0,-2.7655647E0,-1.9796196E0,-3.0873506E0,-1.0418519E0,-2.3508759E0,-9.325836E-1,-5.368096E-1,-1.01200335E-1,3.7945136E-1,1.2932713E0,6.9723597E0,-9.762657E-1,1.3366699E-1,3.5396523E0,2.3522935E0,5.722772E0,3.104849E0,5.360984E0,2.924893E0,9.240612E0,-8.342652E-1,7.863317E0,1.3774266E1,1.4854065E0,5.773192E0,9.172557E0,1.0963597E1,-4.3095705E-1,4.1000977E-1,1.940198E1,1.4739185E1,1.3614259E0,-2.8769532E-1,4.9053516E0,1.3079225E1,6.816651E0,3.6549004E1],"categories":[],"categories_nodes":[],"categories_segments":[],"categories_sizes":[],"default_left":[0,0,0,0,0,0,0,0,0,0,0,0,0,0,0,0,0,0,0,0,0,0,0,0,0,0,0,0,0,0,0,0,0,0,0,0,0,0,0,0,0,0,0,0,0,0,0,0,0,0,0,0,0,0,0,0,0,0,0,0,0,0,0,0,0,0,0,0,0,0,0,0,0,0,0,0,0,0,0,0,0,0,0,0,0,0,0,0,0,0,0,0,0,0,0,0,0,0,0,0,0,0,0,0,0,0,0,0,0,0,0],"id":11,"left_children":[1,3,5,7,9,11,13,15,17,19,21,23,25,27,29,31,33,35,37,39,41,43,45,47,49,51,53,55,57,-1,59,-1,61,63,65,67,69,71,73,75,77,79,81,83,85,87,89,91,93,95,97,99,-1,-1,101,103,-1,105,107,-1,109,-1,-1,-1,-1,-1,-1,-1,-1,-1,-1,-1,-1,-1,-1,-1,-1,-1,-1,-1,-1,-1,-1,-1,-1,-1,-1,-1,-1,-1,-1,-1,-1,-1,-1,-1,-1,-1,-1,-1,-1,-1,-1,-1,-1,-1,-1,-1,-1,-1,-1],"loss_changes":[1.588675E6,2.1139919E5,2.4015738E5,2.2743812E4,3.3766906E4,2.5914812E4,3.9480875E4,4.4098438E3,1.1602109E3,5.9768613E3,4.6155938E3,4.3455E3,5.6454062E3,7.445875E3,1.0772875E4,1.4807031E3,1.0343125E3,1.621836E2,8.768203E2,3.6447754E2,1.2219414E3,1.01699023E3,1.5175586E2,2.0881797E3,6.437375E3,2.90775E3,1.5739633E2,1.45345E4,2.893416E3,0E0,5.2962812E3,0E0,9.4015625E1,6.046719E2,7.4477344E2,4.912578E2,3.604004E0,1.27039856E2,1.064873E3,1.6007812E2,3.312329E2,1.3678003E2,1.6827081E2,3.0756582E3,2.7055878E1,3.5096973E2,8.1154297E2,1.2625703E3,1.2333984E3,4.6211484E3,1.6080078E3,9.7221875E2,0E0,0E0,7.856432E0,4.0374375E3,0E0,2.942118E1,1.2747402E3,0E0,4.4375E3,0E0,0E0,0E0,0E0,0E0,0E0,0E0,0E0,0E0,0E0,0E0,0E0,0E0,0E0,0E0,0E0,0E0,0E0,0E0,0E0,0E0,0E0,0E0,0E0,0E0,0E0,0E0,0E0,0E0,0E0,0E0,0E0,0E0,0E0,0E0,0E0,0E0,0E0,0E0,0E0,0E0,0E0,0E0,0E0,0E0,0E0,0E0,0E0,0E0,0E0],"parents":[2147483647,0,0,1,1,2,2,3,3,4,4,5,5,6,6,7,7,8,8,9,9,10,10,11,11,12,12,13,13,14,14,15,15,16,16,17,17,18,18,19,19,20,20,21,21,22,22,23,23,24,24,25,25,26,26,27,27,28,28,30,30,32,32,33,33,34,34,35,35,36,36,37,37,38,38,39,39,40,40,41,41,42,42,43,43,44,44,45,45,46,46,47,47,48,48,49,49,50,50,51,51,54,54,55,55,57,57,58,58,60,60],"right_children":[2,4,6,8,10,12,14,16,18,20,22,24,26,28,30,32,34,36,38,40,42,44,46,48,50,52,54,56,58,-1,60,-1,62,64,66,68,70,72,74,76,78,80,82,84,86,88,90,92,94,96,98,100,-1,-1,102,104,-1,106,108,-1,110,-1,-1,-1,-1,-1,-1,-1,-1,-1,-1,-1,-1,-1,-1,-1,-1,-1,-1,-1,-1,-1,-1,-1,-1,-1,-1,-1,-1,-1,-1,-1,-1,-1,-1,-1,-1,-1,-1,-1,-1,-1,-1,-1,-1,-1,-1,-1,-1,-1,-1],"split_conditions":[1.955E3,8.586E2,3.315E3,5.6885E2,1.3691E3,2.66285E3,4.5595E3,3.0655E2,7.2845E2,1.0922E3,1.6899E3,2.5E3,3.31115E3,4.42305E3,4.8851E3,2.3225E2,4.1E2,7.151E2,7.4145E2,9.9305E2,1.17115E3,1.6797E3,1.80055E3,3.178784E6,2.6308E3,3.24E3,7.7479E4,4.3875E3,4.4548E3,2.2135607E1,4.9299E3,-8.414191E0,2.5595E2,3.781E2,5.512E2,7.0255E2,1.21308E5,7.275E2,7.565E2,9.8545E2,1.05385E3,1.14965E3,1.282E3,1.6615E3,3.014876E6,1.76215E3,1.81425E3,2.39945E3,2.398E3,2.6008E3,2.6523E3,2.8362E3,1.5601695E1,-3.7847168E0,3.2444E3,4.2908E4,2.6258118E1,4.351E3,3.8557E4,1.3635901E1,4.784E3,-6.73575E0,-5.9073725E0,-5.1405287E0,-6.0007772E0,-4.500827E0,-6.7761884E0,-3.701492E0,-1.9069086E0,-5.0024967E0,-1.4242951E0,-1.292829E0,3.349869E-1,-5.321215E0,-2.7655647E0,-1.9796196E0,-3.0873506E0,-1.0418519E0,-2.3508759E0,-9.325836E-1,-5.368096E-1,-1.01200335E-1,3.7945136E-1,1.2932713E0,6.9723597E0,-9.762657E-1,1.3366699E-1,3.5396523E0,2.3522935E0,5.722772E0,3.104849E0,5.360984E0,2.924893E0,9.240612E0,-8.342652E-1,7.863317E0,1.3774266E1,1.4854065E0,5.773192E0,9.172557E0,1.0963597E1,-4.3095705E-1,4.1000977E-1,1.940198E1,1.4739185E1,1.3614259E0,-2.8769532E-1,4.9053516E0,1.3079225E1,6.816651E0,3.6549004E1],"split_indices":[1,3,0,3,3,3,1,3,3,1,3,1,3,3,3,2,3,3,3,3,2,3,3,4,3,3,4,1,1,0,1,0,3,3,3,3,4,2,3,3,3,3,3,2,4,3,3,3,2,3,3,3,0,0,0,4,0,0,4,0,0,0,0,0,0,0,0,0,0,0,0,0,0,0,0,0,0,0,0,0,0,0,0,0,0,0,0,0,0,0,0,0,0,0,0,0,0,0,0,0,0,0,0,0,0,0,0,0,0,0,0],"split_type":[0,0,0,0,0,0,0,0,0,0,0,0,0,0,0,0,0,0,0,0,0,0,0,0,0,0,0,0,0,0,0,0,0,0,0,0,0,0,0,0,0,0,0,0,0,0,0,0,0,0,0,0,0,0,0,0,0,0,0,0,0,0,0,0,0,0,0,0,0,0,0,0,0,0,0,0,0,0,0,0,0,0,0,0,0,0,0,0,0,0,0,0,0,0,0,0,0,0,0,0,0,0,0,0,0,0,0,0,0,0,0],"sum_hessian":[4.244E3,3.397E3,8.47E2,1.973E3,1.424E3,5.8E2,2.67E2,1.377E3,5.96E2,9.93E2,4.31E2,3.15E2,2.65E2,1.83E2,8.4E1,4.32E2,9.45E2,2.98E2,2.98E2,3.98E2,5.95E2,2.49E2,1.82E2,1.82E2,1.33E2,2.62E2,3E0,1.65E2,1.8E1,6.6E1,1.8E1,3.4E1,3.98E2,5.96E2,3.49E2,2.81E2,1.7E1,1.6E1,2.82E2,2.96E2,1.02E2,3.3E2,2.65E2,2.32E2,1.7E1,1.16E2,6.6E1,1.65E2,1.7E1,1E2,3.3E1,2.49E2,1.3E1,1E0,2E0,1.49E2,1.6E1,3E0,1.5E1,3E0,1.5E1,8.3E1,3.15E2,4.47E2,1.49E2,3.32E2,1.7E1,2.63E2,1.8E1,1.6E1,1E0,9E0,7E0,1.6E1,2.66E2,2.81E2,1.5E1,7.9E1,2.3E1,1.81E2,1.49E2,1.5E2,1.15E2,2.24E2,8E0,1.5E1,2E0,6.6E1,5E1,1.6E1,5E1,1.38E2,2.7E1,1.6E1,1E0,8.4E1,1.6E1,1.5E1,1.8E1,9.9E1,1.5E2,1E0,1E0,3.7E1,1.12E2,2E0,1E0,4E0,1.1E1,1E0,1.4E1],"tree_param":{"num_deleted":"0","num_feature":"5","num_nodes":"111","size_leaf_vector":"1"}},{"base_weights":[2.7795693E-1,-6.142422E0,2.9492416E1,-1.0750315E1,1.354379E0,2.2255192E1,4.9689133E1,-1.2930235E1,-7.245266E0,-1.1214801E0,7.4756684E0,1.7600685E1,2.7384188E1,4.6405556E1,7.8699936E1,-1.6610472E1,-1.2447514E1,-8.65686E0,-5.9343E0,-2.6249723E0,6.6999334E-1,5.2398195E0,9.151591E0,1.8339727E1,4.2624655E0,2.5316593E1,3.1587204E1,4.2545376E1,5.2453846E1,8.8177216E1,3.4528126E1,-6.7658296E0,-4.7064886E0,-3.9723313E0,-1.1274112E1,-9.583449E0,-7.8360457E0,-6.890612E0,-5.40831E0,-3.8800611E0,-1.9311252E0,-2.1008188E-1,1.5510412E0,6.1373677E0,4.3123045E0,8.823064E0,1.7746983E1,1.695157E1,8.307444E0,4.7287327E-1,2.2735353E0,2.94239E1,2.271306E1,3.4945885E1,1.7330606E1,4.6304688E1,1.9296684E1,1.6023268E1,7.2083135E0,6.526587E1,4.0460083E1,1.0798503E1,1.4024512E1,-2.258579E-1,-3.6137135E0,-1.7593302E0,-3.1103299E0,-1.1572261E0,-2.5674334E0,-1.7274464E0,-2.7322047E0,-4.8114067E-1,-1.7809919E0,-1.2414993E0,-6.0220647E-1,9.0760094E-1,-6.6220325E-1,9.9338725E-2,-4.2800716E-1,1.1260113E0,4.0321243E-1,2.7715921E0,1.5915489E0,-4.3901005E-1,1.5046562E0,2.7129483E0,-6.123047E-2,2.3607607E0,6.956406E0,5.368451E0,3.851842E0,6.946728E-1,-4.393213E-1,7.2485404E0,1.3136676E1,3.7819574E0,7.9600224E0,1.6922169E0,1.1015099E1,6.743864E0,3.2890503E0,1.8785313E1,1.2185626E1,-6.8906255E-2,7.467617E0,5.7941165E0,2.0306265E1,8.673413E0,-3.8140872E0],"categories":[],"categories_nodes":[],"categories_segments":[],"categories_sizes":[],"default_left":[0,0,0,0,0,0,0,0,0,0,0,0,0,0,0,0,0,0,0,0,0,0,0,0,0,0,0,0,0,0,0,0,0,0,0,0,0,0,0,0,0,0,0,0,0,0,0,0,0,0,0,0,0,0,0,0,0,0,0,0,0,0,0,0,0,0,0,0,0,0,0,0,0,0,0,0,0,0,0,0,0,0,0,0,0,0,0,0,0,0,0,0,0,0,0,0,0,0,0,0,0,0,0,0,0,0,0,0,0],"id":12,"left_children":[1,3,5,7,9,11,13,15,17,19,21,23,25,27,29,31,33,35,37,39,41,43,45,47,49,51,53,55,57,59,61,-1,-1,-1,63,65,67,69,71,73,75,77,79,81,83,85,87,89,-1,91,-1,93,95,97,99,101,103,-1,-1,105,-1,107,-1,-1,-1,-1,-1,-1,-1,-1,-1,-1,-1,-1,-1,-1,-1,-1,-1,-1,-1,-1,-1,-1,-1,-1,-1,-1,-1,-1,-1,-1,-1,-1,-1,-1,-1,-1,-1,-1,-1,-1,-1,-1,-1,-1,-1,-1,-1],"loss_changes":[7.964069E5,1.2026378E5,1.10712875E5,1.637975E4,2.0104512E4,1.300625E4,1.54949375E4,2.1524688E3,1.4827344E3,2.547085E3,1.3834434E3,2.8692266E3,1.5205781E3,2.0409375E3,4.9093594E3,4.7364062E2,9.4765625E2,2.268457E2,1.8053711E2,4.4011865E2,3.3529364E2,1.1172705E2,4.561875E2,3.2044062E3,2.1004233E2,1.2993047E3,3.4165703E3,9.332156E3,5.3940625E2,7.2436484E3,9.450967E2,0E0,0E0,0E0,3.9039023E3,4.7007227E2,5.875176E2,3.241123E2,5.6132715E2,7.971948E1,4.6257776E2,1.433543E2,9.342578E1,1.626206E2,3.525708E2,4.210703E2,1.937461E2,7.360547E2,0E0,3.5519386E1,0E0,4.0821133E3,4.1829297E3,3.2703594E3,3.436548E2,6.7320312E3,1.9723481E3,0E0,0E0,2.8074219E1,0E0,1.6451849E3,0E0,0E0,0E0,0E0,0E0,0E0,0E0,0E0,0E0,0E0,0E0,0E0,0E0,0E0,0E0,0E0,0E0,0E0,0E0,0E0,0E0,0E0,0E0,0E0,0E0,0E0,0E0,0E0,0E0,0E0,0E0,0E0,0E0,0E0,0E0,0E0,0E0,0E0,0E0,0E0,0E0,0E0,0E0,0E0,0E0,0E0,0E0],"parents":[2147483647,0,0,1,1,2,2,3,3,4,4,5,5,6,6,7,7,8,8,9,9,10,10,11,11,12,12,13,13,14,14,15,15,16,16,17,17,18,18,19,19,20,20,21,21,22,22,23,23,24,24,25,25,26,26,27,27,28,28,29,29,30,30,34,34,35,35,36,36,37,37,38,38,39,39,40,40,41,41,42,42,43,43,44,44,45,45,46,46,47,47,49,49,51,51,52,52,53,53,54,54,55,55,56,56,59,59,61,61],"right_children":[2,4,6,8,10,12,14,16,18,20,22,24,26,28,30,32,34,36,38,40,42,44,46,48,50,52,54,56,58,60,62,-1,-1,-1,64,66,68,70,72,74,76,78,80,82,84,86,88,90,-1,92,-1,94,96,98,100,102,104,-1,-1,106,-1,108,-1,-1,-1,-1,-1,-1,-1,-1,-1,-1,-1,-1,-1,-1,-1,-1,-1,-1,-1,-1,-1,-1,-1,-1,-1,-1,-1,-1,-1,-1,-1,-1,-1,-1,-1,-1,-1,-1,-1,-1,-1,-1,-1,-1,-1,-1,-1],"split_conditions":[2.0978E3,9.447E2,3.76205E3,5.3645E2,1.446E3,2.7554E3,4.8851E3,2.6155E2,7.5015E2,1.1601E3,1.74295E3,2.7329E3,3.24E3,4.4769E3,1.88038E5,2.2855E2,3.6025E2,6.44E2,8.227E2,1.0352E3,1.29785E3,1.339308E6,4.964904E6,2.67575E3,2.725E3,2.9503E3,3.71895E3,4.42305E3,4.9299E3,1.62495E5,2.24985E5,-6.7658296E0,-4.7064886E0,-3.9723313E0,3.781E2,5.512E2,6.536E2,8.048E2,8.3515E2,1.339308E6,1.05385E3,1.25345E3,1.31865E3,1.5482E3,1.427667E6,2.1003E3,1.878E3,2.6308E3,8.307444E0,2.701E3,2.2735353E0,2.9202E3,3.06785E3,2.4826E4,7.5269E4,4.2908E4,3.8557E4,1.6023268E1,7.2083135E0,4.784E3,4.0460083E1,2.05009E5,1.4024512E1,-2.258579E-1,-3.6137135E0,-1.7593302E0,-3.1103299E0,-1.1572261E0,-2.5674334E0,-1.7274464E0,-2.7322047E0,-4.8114067E-1,-1.7809919E0,-1.2414993E0,-6.0220647E-1,9.0760094E-1,-6.6220325E-1,9.9338725E-2,-4.2800716E-1,1.1260113E0,4.0321243E-1,2.7715921E0,1.5915489E0,-4.3901005E-1,1.5046562E0,2.7129483E0,-6.123047E-2,2.3607607E0,6.956406E0,5.368451E0,3.851842E0,6.946728E-1,-4.393213E-1,7.2485404E0,1.3136676E1,3.7819574E0,7.9600224E0,1.6922169E0,1.1015099E1,6.743864E0,3.2890503E0,1.8785313E1,1.2185626E1,-6.8906255E-2,7.467617E0,5.7941165E0,2.0306265E1,8.673413E0,-3.8140872E0],"split_indices":[0,1,2,3,2,3,3,3,2,2,3,3,3,2,4,3,3,3,3,3,3,4,4,3,2,3,3,3,1,4,4,0,0,0,3,3,3,3,3,4,3,3,3,3,4,3,0,3,0,0,0,1,3,4,4,4,4,0,0,0,0,4,0,0,0,0,0,0,0,0,0,0,0,0,0,0,0,0,0,0,0,0,0,0,0,0,0,0,0,0,0,0,0,0,0,0,0,0,0,0,0,0,0,0,0,0,0,0,0],"split_type":[0,0,0,0,0,0,0,0,0,0,0,0,0,0,0,0,0,0,0,0,0,0,0,0,0,0,0,0,0,0,0,0,0,0,0,0,0,0,0,0,0,0,0,0,0,0,0,0,0,0,0,0,0,0,0,0,0,0,0,0,0,0,0,0,0,0,0,0,0,0,0,0,0,0,0,0,0,0,0,0,0,0,0,0,0,0,0,0,0,0,0,0,0,0,0,0,0,0,0,0,0,0,0,0,0,0,0,0,0],"sum_hessian":[4.244E3,3.48E3,7.64E2,2.155E3,1.325E3,5.64E2,2E2,1.327E3,8.28E2,9.44E2,3.81E2,2.98E2,2.66E2,1.82E2,1.8E1,1.5E2,1.177E3,3.96E2,4.32E2,5.13E2,4.31E2,1.65E2,2.16E2,2.82E2,1.6E1,1.83E2,8.3E1,1.16E2,6.6E1,1.4E1,4E0,1.7E1,1.33E2,6.96E2,4.81E2,1.81E2,2.15E2,1.49E2,2.83E2,1.81E2,3.32E2,2.16E2,2.15E2,8.1E1,8.4E1,2.1E2,6E0,2.48E2,3.4E1,8E0,8E0,6.7E1,1.16E2,6.6E1,1.7E1,9.9E1,1.7E1,6.3E1,3E0,1.1E1,3E0,2E0,2E0,3.3E1,4.48E2,3.3E1,1.48E2,3.4E1,1.81E2,1.01E2,4.8E1,3.5E1,2.48E2,1.58E2,2.3E1,1.7E1,3.15E2,1.5E2,6.6E1,1.7E1,1.98E2,1.5E1,6.6E1,9E0,7.5E1,2.05E2,5E0,3E0,3E0,1.99E2,4.9E1,4E0,4E0,5.1E1,1.6E1,3.3E1,8.3E1,4E0,6.2E1,8E0,9E0,2.3E1,7.6E1,4E0,1.3E1,1E0,1E1,1E0,1E0],"tree_param":{"num_deleted":"0","num_feature":"5","num_nodes":"109","size_leaf_vector":"1"}},{"base_weights":[2.4271889E-1,-4.132624E0,2.1849844E1,-7.6516533E0,1.0612707E0,1.6951365E1,3.7698154E1,-9.252688E0,-5.403677E0,-8.040665E-1,5.869217E0,1.3655062E1,2.0369366E1,3.4674232E1,5.958712E1,-1.2176686E1,-8.933801E0,-6.690419E0,-4.5461736E0,-1.7590739E0,1.0617332E0,6.3005238E0,-3.6101346E0,2.3637413E1,1.2884911E1,4.3546143E1,2.0030123E1,4.2542164E1,3.209146E1,1.9996582E1,6.576056E1,-4.8372555E0,-3.376865E0,-9.311383E0,-7.88678E0,-6.324056E0,-9.898665E0,-5.0269094E0,-3.9834685E0,3.2093139E0,-1.906519E0,3.9568481E0,7.468737E-1,5.7089467E0,1.7946358E1,-1.2164946E1,1.5526978E1,1.3261597E0,7.33783E0,-5.259247E0,1.3999054E1,3.5444093E0,1.6051355E1,1.8303358E1,2.3532991E1,3.247235E1,4.0731834E1,8.531681E0,3.5739235E1,1.4843262E0,7.0090823E0,7.603638E1,2.7946484E1,-2.6786933E0,-4.5227904E0,-2.1547399E0,-2.769188E0,-1.9987398E0,-2.0505404E-1,-3.609131E0,-2.1177669E0,-1.4181573E0,-2.0319526E0,-6.2077475E-1,-1.3398224E0,5.317536E-1,1.0710242E0,-2.7310388E0,-5.1425236E-1,1.10024855E-1,2.1383018E0,-8.242191E-1,3.492123E-1,1.361166E0,2.3156242E0,6.509058E0,-1.8138428E-1,3.317322E0,-6.0712576E0,6.811359E0,2.3437501E-1,-9.940963E-1,-2.3848877E0,4.9527416E-1,4.289146E0,5.7902656E0,2.2458425E0,1.8767702E1,6.545467E0,1.1369783E1,7.917358E-1,-1.8361608E0,5.1240635E0,1.4597038E1,9.763716E0,4.9250245E0,2.3989174E1,2.7536135E0,1.1219629E1],"categories":[],"categories_nodes":[],"categories_segments":[],"categories_sizes":[],"default_left":[0,0,0,0,0,0,0,0,0,0,0,0,0,0,0,0,0,0,0,0,0,0,0,0,0,0,0,0,0,0,0,0,0,0,0,0,0,0,0,0,0,0,0,0,0,0,0,0,0,0,0,0,0,0,0,0,0,0,0,0,0,0,0,0,0,0,0,0,0,0,0,0,0,0,0,0,0,0,0,0,0,0,0,0,0,0,0,0,0,0,0,0,0,0,0,0,0,0,0,0,0,0,0,0,0,0,0,0,0],"id":13,"left_children":[1,3,5,7,9,11,13,15,17,19,21,23,25,27,29,31,33,35,37,39,41,43,45,47,49,51,53,55,57,59,61,-1,-1,63,65,67,69,71,73,75,77,79,81,83,85,87,89,-1,-1,91,93,-1,-1,95,97,99,-1,101,103,-1,-1,105,107,-1,-1,-1,-1,-1,-1,-1,-1,-1,-1,-1,-1,-1,-1,-1,-1,-1,-1,-1,-1,-1,-1,-1,-1,-1,-1,-1,-1,-1,-1,-1,-1,-1,-1,-1,-1,-1,-1,-1,-1,-1,-1,-1,-1,-1,-1],"loss_changes":[4.0140656E5,6.4545848E4,5.4868312E4,7.5260938E3,1.2802686E4,5.8960312E3,9.053859E3,1.0362422E3,9.383574E2,1.835394E3,1.6540596E3,1.8634258E3,1.2270781E3,1.6829219E3,3.3287969E3,2.4726172E2,3.6578125E2,3.476084E2,1.2334668E2,5.0499512E2,3.1517728E2,2.5292979E3,3.1357434E3,1.9201172E2,5.4104297E3,3.158418E2,1.1721484E3,2.7510852E4,9.750148E3,8.708179E1,4.0921797E3,0E0,0E0,1.6531719E3,2.1859375E2,5.986328E2,1.2087793E2,1.1557715E2,2.2078857E2,4.038986E0,9.0079663E2,3.8442725E2,4.6382974E2,8.245322E2,1.2654766E3,2.6608516E3,6.172914E2,0E0,0E0,5.7407776E1,8.9295703E2,0E0,0E0,1.819375E3,4.2564023E3,5.080867E3,0E0,2.233874E3,2.5829219E3,0E0,0E0,1.4971484E3,5.437185E2,0E0,0E0,0E0,0E0,0E0,0E0,0E0,0E0,0E0,0E0,0E0,0E0,0E0,0E0,0E0,0E0,0E0,0E0,0E0,0E0,0E0,0E0,0E0,0E0,0E0,0E0,0E0,0E0,0E0,0E0,0E0,0E0,0E0,0E0,0E0,0E0,0E0,0E0,0E0,0E0,0E0,0E0,0E0,0E0,0E0,0E0],"parents":[2147483647,0,0,1,1,2,2,3,3,4,4,5,5,6,6,7,7,8,8,9,9,10,10,11,11,12,12,13,13,14,14,15,15,16,16,17,17,18,18,19,19,20,20,21,21,22,22,23,23,24,24,25,25,26,26,27,27,28,28,29,29,30,30,33,33,34,34,35,35,36,36,37,37,38,38,39,39,40,40,41,41,42,42,43,43,44,44,45,45,46,46,49,49,50,50,53,53,54,54,55,55,57,57,58,58,61,61,62,62],"right_children":[2,4,6,8,10,12,14,16,18,20,22,24,26,28,30,32,34,36,38,40,42,44,46,48,50,52,54,56,58,60,62,-1,-1,64,66,68,70,72,74,76,78,80,82,84,86,88,90,-1,-1,92,94,-1,-1,96,98,100,-1,102,104,-1,-1,106,108,-1,-1,-1,-1,-1,-1,-1,-1,-1,-1,-1,-1,-1,-1,-1,-1,-1,-1,-1,-1,-1,-1,-1,-1,-1,-1,-1,-1,-1,-1,-1,-1,-1,-1,-1,-1,-1,-1,-1,-1,-1,-1,-1,-1,-1,-1],"split_conditions":[2.317E3,8.9705E2,3.9383E3,4.8825E2,1.57E3,2.8362E3,4.8851E3,2.5595E2,6.6445E2,1.24965E3,2.2252E3,2.39945E3,8.057E3,4.2808E3,4.9299E3,2.2875E2,3.908E2,6.536E2,8.299E2,9.0465E2,1.25345E3,2.15955E3,2.3595E3,1.0669E4,2.4257E3,3.18005E3,3.51515E3,4.275E3,4.352E3,4.84115E3,1.88038E5,-4.8372555E0,-3.376865E0,3.781E2,4.586E2,6.4695E2,6.607E2,8.048E2,8.3515E2,8.815E2,9.153E2,1.24405E3,1.282E3,1.8748E3,2.189E3,4.7329E4,2.39945E3,1.3261597E0,7.33783E0,2.272545E6,2.46775E3,3.5444093E0,1.6051355E1,3.31115E3,3.60255E3,9.4039E4,4.0731834E1,5.411E4,4.42305E3,1.4843262E0,7.0090823E0,4.784E3,2.24985E5,-2.6786933E0,-4.5227904E0,-2.1547399E0,-2.769188E0,-1.9987398E0,-2.0505404E-1,-3.609131E0,-2.1177669E0,-1.4181573E0,-2.0319526E0,-6.2077475E-1,-1.3398224E0,5.317536E-1,1.0710242E0,-2.7310388E0,-5.1425236E-1,1.10024855E-1,2.1383018E0,-8.242191E-1,3.492123E-1,1.361166E0,2.3156242E0,6.509058E0,-1.8138428E-1,3.317322E0,-6.0712576E0,6.811359E0,2.3437501E-1,-9.940963E-1,-2.3848877E0,4.9527416E-1,4.289146E0,5.7902656E0,2.2458425E0,1.8767702E1,6.545467E0,1.1369783E1,7.917358E-1,-1.8361608E0,5.1240635E0,1.4597038E1,9.763716E0,4.9250245E0,2.3989174E1,2.7536135E0,1.1219629E1],"split_indices":[2,3,1,2,1,3,3,3,3,1,3,3,4,3,1,0,3,3,1,3,3,3,3,4,3,0,2,0,3,2,4,0,0,3,3,3,3,3,3,2,3,3,3,1,2,4,3,0,0,4,1,0,0,3,3,4,0,4,3,0,0,0,4,0,0,0,0,0,0,0,0,0,0,0,0,0,0,0,0,0,0,0,0,0,0,0,0,0,0,0,0,0,0,0,0,0,0,0,0,0,0,0,0,0,0,0,0,0,0],"split_type":[0,0,0,0,0,0,0,0,0,0,0,0,0,0,0,0,0,0,0,0,0,0,0,0,0,0,0,0,0,0,0,0,0,0,0,0,0,0,0,0,0,0,0,0,0,0,0,0,0,0,0,0,0,0,0,0,0,0,0,0,0,0,0,0,0,0,0,0,0,0,0,0,0,0,0,0,0,0,0,0,0,0,0,0,0,0,0,0,0,0,0,0,0,0,0,0,0,0,0,0,0,0,0,0,0,0,0,0,0],"sum_hessian":[4.244E3,3.53E3,7.14E2,2.104E3,1.426E3,5.47E2,1.67E2,1.227E3,8.77E2,1.028E3,3.98E2,2.81E2,2.66E2,1.49E2,1.8E1,1.17E2,1.11E3,3.48E2,5.29E2,6.8E2,3.48E2,3.81E2,1.7E1,1.8E1,2.63E2,2E0,2.64E2,3.3E1,1.16E2,3E0,1.5E1,1.9E1,9.8E1,8.1E2,3E2,3.15E2,3.3E1,2.81E2,2.48E2,1.9E1,6.61E2,3.3E1,3.15E2,3.64E2,1.7E1,1.2E1,5E0,1E0,1.7E1,1.5E1,2.48E2,1E0,1E0,1.81E2,8.3E1,3.1E1,2E0,1.6E1,1E2,1E0,2E0,1.1E1,4E0,7.62E2,4.8E1,2.01E2,9.9E1,2.97E2,1.8E1,1.7E1,1.6E1,2.43E2,3.8E1,5.1E1,1.97E2,5E0,1.4E1,1.6E1,6.45E2,1.6E1,1.7E1,3.3E1,2.82E2,2.32E2,1.32E2,1.4E1,3E0,3E0,9E0,3E0,2E0,1E1,5E0,6E0,2.42E2,1.65E2,1.6E1,2E0,8.1E1,2.6E1,5E0,6E0,1E1,1.7E1,8.3E1,1E0,1E1,2E0,2E0],"tree_param":{"num_deleted":"0","num_feature":"5","num_nodes":"109","size_leaf_vector":"1"}},{"base_weights":[2.1129096E-1,-2.901453E0,1.5583161E1,-5.2031965E0,1.0817025E0,1.1973708E1,2.7264097E1,-6.641882E0,-3.7325761E0,-4.4725636E-1,3.7993531E0,1.013014E1,1.5536331E1,2.4499254E1,4.3629448E1,-7.389655E0,-5.969033E0,-4.722673E0,-3.0594149E0,-1.474535E0,8.7898225E-2,4.0598054E0,-2.9085557E0,1.8239082E1,9.68031E0,3.701424E1,1.5099336E1,3.4841E1,2.117077E1,5.870642E1,2.4916687E1,-3.5723875E0,-7.21705E0,-5.319305E0,-6.851247E0,4.175304E0,-4.9358425E0,-3.4956334E0,-2.4613278E0,-1.0037935E0,-4.906347E0,-3.209459E-1,4.71784E-1,3.671905E0,1.3143867E1,-2.3077393E1,1.0548859E0,1.0012207E1,5.9623384E0,-3.316837E0,1.0318592E1,3.0127442E0,1.3643665E1,1.1631348E0,1.5813489E1,1.8919052E1,7.1161766E1,-1.13207035E1,2.2466978E1,4.1929638E1,2.8518066E1,1.4279506E1,9.952186E0,-2.100093E0,-2.7142363E0,-1.7783707E0,1.8705775E0,-3.8435075E0,-1.7670625E0,-1.714824E0,1.7208153E0,-3.7258668E0,-1.4248372E0,-9.6549815E-1,-1.5926538E0,-5.5680555E-1,-9.988401E-1,-4.4598207E-1,1.4909565E0,-2.0760202E0,-8.8570625E-1,5.0347842E-2,-5.054768E-1,8.5078126E-1,4.4121947E-2,7.978266E-1,1.5105041E0,4.818721E0,-3.259827E-1,-1.7752442E0,-8.609583E0,3.2386873E0,-2.3162274E0,3.867212E0,1.1388917E0,8.843262E-1,-1.1677827E0,3.3175642E0,1.7503164E0,4.27865E0,-4.436499E0,5.5050344E0,3.9377973E0,6.7936344E0,3.3194752E0,3.1634584E1,1.2420997E1,-6.662146E0,4.833765E0,5.62196E0,8.602847E0,2.3123804E1,8.837923E0,6.845537E0,-1.4135742E0],"categories":[],"categories_nodes":[],"categories_segments":[],"categories_sizes":[],"default_left":[0,0,0,0,0,0,0,0,0,0,0,0,0,0,0,0,0,0,0,0,0,0,0,0,0,0,0,0,0,0,0,0,0,0,0,0,0,0,0,0,0,0,0,0,0,0,0,0,0,0,0,0,0,0,0,0,0,0,0,0,0,0,0,0,0,0,0,0,0,0,0,0,0,0,0,0,0,0,0,0,0,0,0,0,0,0,0,0,0,0,0,0,0,0,0,0,0,0,0,0,0,0,0,0,0,0,0,0,0,0,0,0,0,0,0],"id":14,"left_children":[1,3,5,7,9,11,13,15,17,19,21,23,25,27,29,31,33,35,37,39,41,43,45,47,49,51,53,55,57,59,61,-1,63,65,67,69,71,73,75,77,79,81,83,85,87,89,91,93,-1,95,97,-1,-1,99,101,103,105,107,109,111,-1,113,-1,-1,-1,-1,-1,-1,-1,-1,-1,-1,-1,-1,-1,-1,-1,-1,-1,-1,-1,-1,-1,-1,-1,-1,-1,-1,-1,-1,-1,-1,-1,-1,-1,-1,-1,-1,-1,-1,-1,-1,-1,-1,-1,-1,-1,-1,-1,-1,-1,-1,-1,-1,-1],"loss_changes":[2.0316292E5,3.2378549E4,2.9819234E4,4.7102773E3,5.3784966E3,3.4418438E3,6.5327188E3,5.244375E2,7.246953E2,4.558747E2,8.2595166E2,1.1511797E3,1.1774688E3,4.288047E3,5.0262617E3,3.2817773E2,3.0747656E2,8.684678E2,1.643706E2,4.5387616E2,8.584581E1,1.5338823E3,1.4632281E3,4.3186035E1,2.912879E3,2.2819775E2,1.8029258E3,1.8315797E4,5.013418E3,3.332957E3,5.803003E2,0E0,1.4058008E2,2.4981865E3,1.3623193E3,2.026051E2,5.5056445E2,1.744873E2,1.4253491E2,7.313118E2,1.1335254E2,1.7695128E2,2.1606479E2,5.828242E2,7.650322E2,1.195553E2,1.4510502E3,4.052533E1,0E0,7.2792984E1,1.0337773E3,0E0,0E0,2.300401E3,9.453281E2,4.811211E2,5.8373086E3,1.8510675E3,1.985125E3,2.1123945E3,0E0,1.2426863E3,0E0,0E0,0E0,0E0,0E0,0E0,0E0,0E0,0E0,0E0,0E0,0E0,0E0,0E0,0E0,0E0,0E0,0E0,0E0,0E0,0E0,0E0,0E0,0E0,0E0,0E0,0E0,0E0,0E0,0E0,0E0,0E0,0E0,0E0,0E0,0E0,0E0,0E0,0E0,0E0,0E0,0E0,0E0,0E0,0E0,0E0,0E0,0E0,0E0,0E0,0E0,0E0,0E0],"parents":[2147483647,0,0,1,1,2,2,3,3,4,4,5,5,6,6,7,7,8,8,9,9,10,10,11,11,12,12,13,13,14,14,15,15,16,16,17,17,18,18,19,19,20,20,21,21,22,22,23,23,24,24,25,25,26,26,27,27,28,28,29,29,30,30,32,32,33,33,34,34,35,35,36,36,37,37,38,38,39,39,40,40,41,41,42,42,43,43,44,44,45,45,46,46,47,47,49,49,50,50,53,53,54,54,55,55,56,56,57,57,58,58,59,59,61,61],"right_children":[2,4,6,8,10,12,14,16,18,20,22,24,26,28,30,32,34,36,38,40,42,44,46,48,50,52,54,56,58,60,62,-1,64,66,68,70,72,74,76,78,80,82,84,86,88,90,92,94,-1,96,98,-1,-1,100,102,104,106,108,110,112,-1,114,-1,-1,-1,-1,-1,-1,-1,-1,-1,-1,-1,-1,-1,-1,-1,-1,-1,-1,-1,-1,-1,-1,-1,-1,-1,-1,-1,-1,-1,-1,-1,-1,-1,-1,-1,-1,-1,-1,-1,-1,-1,-1,-1,-1,-1,-1,-1,-1,-1,-1,-1,-1,-1],"split_conditions":[2.34525E3,9.7355E2,3.896E3,4.59E2,1.42575E3,3.145E3,1.50487E5,3.164E2,6.6445E2,1.1419E3,2.2252E3,2.39945E3,8.057E3,4.2908E4,1.88038E5,2.33E2,3.781E2,4.586E2,8.5335E2,1.1332E3,1.24965E3,2.195E3,2.2446E3,7.3366E4,2.4257E3,3.18005E3,2.4826E4,3.9403E4,4.5129E4,1.7334E5,2.24985E5,-3.5723875E0,3.123E2,3.71E2,3.8715E2,4.36E2,4.671E2,8.3515E2,9.0465E2,1.12775E3,1.13715E3,1.19605E3,1.25345E3,1.79255E3,2.213E3,2.189E3,7.7479E4,4.6205E4,5.9623384E0,2.317E3,2.9503E3,3.0127442E0,1.3643665E1,3.315E3,6.5246E4,3.559E4,4.2955E3,4.351E3,8.4377E4,4.4188E3,2.8518066E1,2.05009E5,9.952186E0,-2.100093E0,-2.7142363E0,-1.7783707E0,1.8705775E0,-3.8435075E0,-1.7670625E0,-1.714824E0,1.7208153E0,-3.7258668E0,-1.4248372E0,-9.6549815E-1,-1.5926538E0,-5.5680555E-1,-9.988401E-1,-4.4598207E-1,1.4909565E0,-2.0760202E0,-8.8570625E-1,5.0347842E-2,-5.054768E-1,8.5078126E-1,4.4121947E-2,7.978266E-1,1.5105041E0,4.818721E0,-3.259827E-1,-1.7752442E0,-8.609583E0,3.2386873E0,-2.3162274E0,3.867212E0,1.1388917E0,8.843262E-1,-1.1677827E0,3.3175642E0,1.7503164E0,4.27865E0,-4.436499E0,5.5050344E0,3.9377973E0,6.7936344E0,3.3194752E0,3.1634584E1,1.2420997E1,-6.662146E0,4.833765E0,5.62196E0,8.602847E0,2.3123804E1,8.837923E0,6.845537E0,-1.4135742E0],"split_indices":[0,3,3,0,3,1,4,3,3,3,3,3,4,4,4,1,3,3,3,3,1,1,1,4,3,0,4,4,4,4,4,0,3,3,3,2,3,3,3,3,3,3,3,3,0,2,4,4,0,2,3,0,0,0,4,4,2,0,4,0,0,4,0,0,0,0,0,0,0,0,0,0,0,0,0,0,0,0,0,0,0,0,0,0,0,0,0,0,0,0,0,0,0,0,0,0,0,0,0,0,0,0,0,0,0,0,0,0,0,0,0,0,0,0,0],"split_type":[0,0,0,0,0,0,0,0,0,0,0,0,0,0,0,0,0,0,0,0,0,0,0,0,0,0,0,0,0,0,0,0,0,0,0,0,0,0,0,0,0,0,0,0,0,0,0,0,0,0,0,0,0,0,0,0,0,0,0,0,0,0,0,0,0,0,0,0,0,0,0,0,0,0,0,0,0,0,0,0,0,0,0,0,0,0,0,0,0,0,0,0,0,0,0,0,0,0,0,0,0,0,0,0,0,0,0,0,0,0,0,0,0,0,0],"sum_hessian":[4.244E3,3.53E3,7.14E2,2.237E3,1.293E3,5.47E2,1.67E2,1.129E3,1.108E3,8.28E2,4.65E2,3.63E2,1.84E2,1.45E2,2.2E1,5.3E2,5.99E2,4.46E2,6.62E2,2.83E2,5.45E2,4.48E2,1.7E1,1.7E1,3.46E2,2E0,1.82E2,3.3E1,1.12E2,1.1E1,1.1E1,1.7E1,5.13E2,3.49E2,2.5E2,1E1,4.36E2,3.8E2,2.82E2,2.5E2,3.3E1,2.64E2,2.81E2,4.31E2,1.7E1,2E0,1.5E1,4E0,1.3E1,1.6E1,3.3E2,1E0,1E0,9E0,1.73E2,2.4E1,9E0,4E0,1.08E2,9E0,2E0,6E0,5E0,4.63E2,5E1,3.32E2,1.7E1,3.3E1,2.17E2,1E0,9E0,9E0,4.27E2,3.32E2,4.8E1,1.68E2,1.14E2,2.32E2,1.8E1,1.5E1,1.8E1,1.95E2,6.9E1,3.3E1,2.48E2,2.49E2,1.82E2,1.4E1,3E0,1E0,1E0,7E0,8E0,2E0,2E0,1E0,1.5E1,2.82E2,4.8E1,5E0,4E0,8.6E1,8.7E1,1.5E1,9E0,3E0,6E0,3E0,1E0,7E1,3.8E1,1E0,8E0,4E0,2E0],"tree_param":{"num_deleted":"0","num_feature":"5","num_nodes":"115","size_leaf_vector":"1"}},{"base_weights":[1.8484724E-1,-2.04056E0,1.1174676E1,-3.592094E0,8.721231E-1,8.469374E0,1.9932598E1,-4.4609375E0,-2.2966695E0,7.0979935E-3,3.1970193E0,6.178896E0,1.0328408E1,1.6746513E1,3.1149727E1,-4.3841825E0,-1.0016625E1,-2.761296E0,-1.7167895E0,-4.1170788E-1,9.1571885E-1,4.118681E0,2.8955293E0,1.4641831E1,5.532134E0,3.1462158E1,1.00818205E1,2.350756E1,1.42802925E1,2.2470215E1,4.4777306E1,-4.4749675E0,2.6380072E0,-3.3954713E0,-4.368787E0,6.783488E-1,-2.8591585E0,3.2671058E0,-1.9509891E0,-7.266029E-1,5.5946104E-2,5.7055336E-1,2.1625416E0,2.6107965E0,1.3851715E1,1.0690234E1,5.32533E0,-2.303277E0,6.162391E0,2.56084E0,1.1597132E1,1.047862E1,3.305203E0,1.6505028E1,2.710962E1,1.1407399E0,1.6769485E1,3.2216564E1,-1.2138265E1,5.4482098E1,1.8353222E1,-1.6101983E0,-1.2139158E0,1.036025E0,4.9210146E-1,-1.6665345E0,5.6478884E-2,2.672882E-1,-3.4473267E-1,-1.2041548E0,-7.5898516E-1,5.9192735E-1,1.1572572E0,-2.2120228E0,-5.156294E-1,-1.6040143E-1,-8.5944337E-1,5.893763E-1,-1.2716796E-1,3.4797707E-1,-1.8238087E-1,1.2542138E0,2.2213961E-1,-1.5138507E0,8.8611114E-1,2.0849855E0,6.9114013E0,3.5692873E0,-2.644043E-2,-2.4550782E-1,-1.3559431E0,2.0701673E0,-2.9563686E-1,2.9683712E0,1.2256818E1,-1.1596192E0,1.9081393E0,6.1426544E0,-1.233899E0,-2.4759629E0,2.1045012E0,8.355795E0,4.0624886E0,5.7168274E0,2.3041298E1,-1.1006983E1,2.7930176E0,4.2944827E0,1.917403E1,-3.4429688E0,8.603943E0],"categories":[],"categories_nodes":[],"categories_segments":[],"categories_sizes":[],"default_left":[0,0,0,0,0,0,0,0,0,0,0,0,0,0,0,0,0,0,0,0,0,0,0,0,0,0,0,0,0,0,0,0,0,0,0,0,0,0,0,0,0,0,0,0,0,0,0,0,0,0,0,0,0,0,0,0,0,0,0,0,0,0,0,0,0,0,0,0,0,0,0,0,0,0,0,0,0,0,0,0,0,0,0,0,0,0,0,0,0,0,0,0,0,0,0,0,0,0,0,0,0,0,0,0,0,0,0,0,0,0,0],"id":15,"left_children":[1,3,5,7,9,11,13,15,17,19,21,23,25,27,29,31,33,35,37,39,41,-1,43,45,47,49,51,53,55,57,59,61,63,-1,65,67,69,71,73,75,77,79,81,83,85,87,-1,89,91,-1,-1,93,95,97,-1,99,101,103,105,107,109,-1,-1,-1,-1,-1,-1,-1,-1,-1,-1,-1,-1,-1,-1,-1,-1,-1,-1,-1,-1,-1,-1,-1,-1,-1,-1,-1,-1,-1,-1,-1,-1,-1,-1,-1,-1,-1,-1,-1,-1,-1,-1,-1,-1,-1,-1,-1,-1,-1,-1],"loss_changes":[1.0384211E5,1.5960169E4,1.6771547E4,2.582957E3,2.4696006E3,2.2696094E3,5.482461E3,5.437012E2,2.4501904E2,3.4133707E2,1.0176116E3,1.2764287E3,1.2514121E3,1.8819766E3,3.2519492E3,8.794551E2,8.287634E1,1.7462158E2,4.9077295E2,9.045946E1,1.2055809E2,0E0,9.777012E2,1.9108154E1,1.1598843E3,1.6487231E2,7.6936523E2,1.4426443E4,3.2515566E3,8.486407E3,2.3337988E3,4.9229492E2,8.978386E0,0E0,2.8076607E1,6.8518987E0,1.7953174E2,6.9049377E0,4.8723645E2,1.4908124E2,2.2796135E2,1.5559352E2,1.7197394E2,8.49855E2,3.4709985E2,1.311853E2,0E0,5.5545815E1,1.1412046E3,0E0,0E0,4.5989707E3,4.1893073E2,2.7038496E3,0E0,9.959993E2,2.62792E3,9.685535E3,3.5011392E3,2.4945508E3,1.869345E3,0E0,0E0,0E0,0E0,0E0,0E0,0E0,0E0,0E0,0E0,0E0,0E0,0E0,0E0,0E0,0E0,0E0,0E0,0E0,0E0,0E0,0E0,0E0,0E0,0E0,0E0,0E0,0E0,0E0,0E0,0E0,0E0,0E0,0E0,0E0,0E0,0E0,0E0,0E0,0E0,0E0,0E0,0E0,0E0,0E0,0E0,0E0,0E0,0E0,0E0],"parents":[2147483647,0,0,1,1,2,2,3,3,4,4,5,5,6,6,7,7,8,8,9,9,10,10,11,11,12,12,13,13,14,14,15,15,16,16,17,17,18,18,19,19,20,20,22,22,23,23,24,24,25,25,26,26,27,27,28,28,29,29,30,30,31,31,32,32,34,34,35,35,36,36,37,37,38,38,39,39,40,40,41,41,42,42,43,43,44,44,45,45,47,47,48,48,51,51,52,52,53,53,55,55,56,56,57,57,58,58,59,59,60,60],"right_children":[2,4,6,8,10,12,14,16,18,20,22,24,26,28,30,32,34,36,38,40,42,-1,44,46,48,50,52,54,56,58,60,62,64,-1,66,68,70,72,74,76,78,80,82,84,86,88,-1,90,92,-1,-1,94,96,98,-1,100,102,104,106,108,110,-1,-1,-1,-1,-1,-1,-1,-1,-1,-1,-1,-1,-1,-1,-1,-1,-1,-1,-1,-1,-1,-1,-1,-1,-1,-1,-1,-1,-1,-1,-1,-1,-1,-1,-1,-1,-1,-1,-1,-1,-1,-1,-1,-1,-1,-1,-1,-1,-1,-1],"split_conditions":[2.3595E3,1.01165E3,3.896E3,5.6885E2,1.6615E3,2.799E3,4.8488E3,5.512E2,8.301E2,1.31185E3,1.6797E3,2.39945E3,8.057E3,4.2808E3,1.21308E5,5.415E2,5.5255E2,5.75E2,8.3515E2,1.1939E3,1.885275E6,4.118681E0,4.964904E6,1.732715E6,2.4257E3,3.18005E3,3.87675E3,4.275E3,4.352E3,8.9974E4,2.05009E5,3.0655E2,5.5485E5,-3.3954713E0,8.4377E4,6.22558E5,1.1875E4,1.50487E5,8.4075E2,1.1722E3,1.19605E3,1.127201E6,2.50828E6,1.6899E3,1.9937E3,1.600594E6,5.32533E0,2.272545E6,2.7329E3,2.56084E0,1.1597132E1,3.8389E3,4.2908E4,9.8607E4,2.710962E1,5.411E4,4.42305E3,7.7479E4,1.01606E5,4.89E3,2.24985E5,-1.6101983E0,-1.2139158E0,1.036025E0,4.9210146E-1,-1.6665345E0,5.6478884E-2,2.672882E-1,-3.4473267E-1,-1.2041548E0,-7.5898516E-1,5.9192735E-1,1.1572572E0,-2.2120228E0,-5.156294E-1,-1.6040143E-1,-8.5944337E-1,5.893763E-1,-1.2716796E-1,3.4797707E-1,-1.8238087E-1,1.2542138E0,2.2213961E-1,-1.5138507E0,8.8611114E-1,2.0849855E0,6.9114013E0,3.5692873E0,-2.644043E-2,-2.4550782E-1,-1.3559431E0,2.0701673E0,-2.9563686E-1,2.9683712E0,1.2256818E1,-1.1596192E0,1.9081393E0,6.1426544E0,-1.233899E0,-2.4759629E0,2.1045012E0,8.355795E0,4.0624886E0,5.7168274E0,2.3041298E1,-1.1006983E1,2.7930176E0,4.2944827E0,1.917403E1,-3.4429688E0,8.603943E0],"split_indices":[3,3,3,3,2,1,1,3,3,2,3,3,4,3,4,3,2,3,3,1,4,0,4,4,3,0,3,0,3,4,4,3,4,0,4,4,4,4,3,3,3,4,4,3,0,4,0,4,3,0,0,2,4,4,0,4,3,4,4,0,4,0,0,0,0,0,0,0,0,0,0,0,0,0,0,0,0,0,0,0,0,0,0,0,0,0,0,0,0,0,0,0,0,0,0,0,0,0,0,0,0,0,0,0,0,0,0,0,0,0,0],"split_type":[0,0,0,0,0,0,0,0,0,0,0,0,0,0,0,0,0,0,0,0,0,0,0,0,0,0,0,0,0,0,0,0,0,0,0,0,0,0,0,0,0,0,0,0,0,0,0,0,0,0,0,0,0,0,0,0,0,0,0,0,0,0,0,0,0,0,0,0,0,0,0,0,0,0,0,0,0,0,0,0,0,0,0,0,0,0,0,0,0,0,0,0,0,0,0,0,0,0,0,0,0,0,0,0,0,0,0,0,0,0,0],"sum_hessian":[4.244E3,3.53E3,7.14E2,2.303E3,1.227E3,5.47E2,1.67E2,1.377E3,9.26E2,8.95E2,3.32E2,2.47E2,3E2,1.32E2,3.5E1,1.36E3,1.7E1,5.12E2,4.14E2,6.13E2,2.82E2,8E0,3.24E2,1.6E1,2.31E2,2E0,2.98E2,3.3E1,9.9E1,2.3E1,1.2E1,1.343E3,1.7E1,1.3E1,4E0,1.4E1,4.98E2,1.8E1,3.96E2,3.66E2,2.47E2,2.22E2,6E1,3.17E2,7E0,9E0,7E0,1.7E1,2.14E2,1E0,1E0,2.81E2,1.7E1,3.1E1,2E0,1.6E1,8.3E1,1.8E1,5E0,8E0,4E0,4.32E2,9.11E2,8E0,9E0,3E0,1E0,1.3E1,1E0,1.08E2,3.9E2,7E0,1.1E1,1.5E1,3.81E2,3.37E2,2.9E1,4.9E1,1.98E2,1.48E2,7.4E1,2.4E1,3.6E1,1.3E1,3.04E2,5E0,2E0,8E0,1E0,1.1E1,6E0,1.94E2,2E1,2.77E2,4E0,5E0,1.2E1,2.6E1,5E0,6E0,1E1,1.7E1,6.6E1,1.5E1,3E0,2E0,3E0,2E0,6E0,1E0,3E0],"tree_param":{"num_deleted":"0","num_feature":"5","num_nodes":"111","size_leaf_vector":"1"}},{"base_weights":[1.6159727E-1,-1.3239902E0,8.656458E0,-2.4576213E0,9.303131E-1,7.136075E0,1.8356611E1,-3.2972698E0,-1.7121197E0,1.6030839E-1,2.4950085E0,7.5283794E0,-4.8333607E0,1.54696245E1,2.7570904E1,-5.415285E0,-3.1586788E0,4.026819E0,-1.7606317E0,-7.276984E-2,9.5064795E-1,2.2790892E0,7.8706055E0,6.632879E0,1.5826565E1,-1.12002325E1,9.76709E0,1.6280624E1,-1.3737793E0,1.8148462E1,2.2380968E1,-1.4429716E0,-2.5336502E0,-3.0951636E0,-8.4636E0,-1.2755127E0,5.2798433E0,-2.392124E0,-1.709803E0,7.1418536E-1,-2.1090259E-1,1.3620777E0,-2.1595848E0,2.6110995E0,5.4070175E-1,9.407039E0,-1.4108073E0,5.6028404E0,9.285891E0,3.3957886E1,9.991504E0,-4.741127E0,9.412761E0,1.4266357E1,5.123698E-1,1.8398693E1,1.0295795E1,2.3891602E-1,-2.3626301E0,-1.5009229E1,2.9583467E1,-9.490382E-1,1.551352E0,-3.1631951E0,-1.0326802E0,9.802338E-1,1.9916254E0,-6.4996E-1,-3.6839163E-1,-3.0663365E-1,3.0164075E-1,-2.3060563E-1,2.4379455E-2,2.9841605E-1,2.8377843E0,-1.5788116E0,4.2658916E-1,6.4522517E-1,3.23126E0,1.5562623E0,-1.6261315E-1,1.5087078E0,4.6218166E0,-5.986817E-1,-3.6181644E-2,1.9097482E0,-4.9597025E-1,2.986318E0,-1.9569459E0,1.8057539E1,3.995087E0,-9.953931E0,3.9410486E0,3.6684084E0,5.67334E-1,4.8449707E0,1.2923584E0,-8.723145E-2,3.1779787E-1,2.8103654E0,5.855735E0,4.240563E0,1.3377604E0,-1.193628E0,1.3044435E-1,2.2764406E0,1.0126423E1],"categories":[],"categories_nodes":[],"categories_segments":[],"categories_sizes":[],"default_left":[0,0,0,0,0,0,0,0,0,0,0,0,0,0,0,0,0,0,0,0,0,0,0,0,0,0,0,0,0,0,0,0,0,0,0,0,0,0,0,0,0,0,0,0,0,0,0,0,0,0,0,0,0,0,0,0,0,0,0,0,0,0,0,0,0,0,0,0,0,0,0,0,0,0,0,0,0,0,0,0,0,0,0,0,0,0,0,0,0,0,0,0,0,0,0,0,0,0,0,0,0,0,0,0,0,0,0],"id":16,"left_children":[1,3,5,7,9,11,13,15,17,19,21,23,25,27,29,31,33,35,37,39,41,43,45,47,49,51,53,55,57,-1,59,-1,-1,61,63,-1,65,-1,67,69,71,73,75,77,79,81,83,85,87,89,91,-1,93,95,97,99,101,-1,103,-1,105,-1,-1,-1,-1,-1,-1,-1,-1,-1,-1,-1,-1,-1,-1,-1,-1,-1,-1,-1,-1,-1,-1,-1,-1,-1,-1,-1,-1,-1,-1,-1,-1,-1,-1,-1,-1,-1,-1,-1,-1,-1,-1,-1,-1,-1,-1],"loss_changes":[5.3582758E4,9.238039E3,9.189707E3,1.4997852E3,1.4574357E3,2.6096113E3,1.8346191E3,3.1459277E2,3.6233765E2,1.4964847E2,4.4517993E2,3.8409023E3,1.7826593E3,9.3758496E2,1.8926602E3,8.4119385E1,3.3197363E2,1.3655345E2,3.8617554E2,6.841691E1,2.396753E2,2.2079565E2,2.271756E2,1.2624023E3,5.056374E3,1.3823577E3,2.4252716E2,6.218535E2,1.046545E1,0E0,1.08679E4,0E0,0E0,6.102803E2,8.9060425E1,0E0,5.6548767E0,0E0,2.7396338E2,4.8568684E1,8.724926E1,4.7842004E2,2.5199088E2,1.1901323E3,3.1978656E2,2.6395166E2,2.022842E0,1.9426885E3,1.4705312E3,5.696336E3,5.867383E3,0E0,4.0401764E1,5.4575195E0,1.6258714E0,2.8259082E2,3.627411E2,0E0,1.5293119E1,0E0,1.3035918E3,0E0,0E0,0E0,0E0,0E0,0E0,0E0,0E0,0E0,0E0,0E0,0E0,0E0,0E0,0E0,0E0,0E0,0E0,0E0,0E0,0E0,0E0,0E0,0E0,0E0,0E0,0E0,0E0,0E0,0E0,0E0,0E0,0E0,0E0,0E0,0E0,0E0,0E0,0E0,0E0,0E0,0E0,0E0,0E0,0E0,0E0],"parents":[2147483647,0,0,1,1,2,2,3,3,4,4,5,5,6,6,7,7,8,8,9,9,10,10,11,11,12,12,13,13,14,14,15,15,16,16,17,17,18,18,19,19,20,20,21,21,22,22,23,23,24,24,25,25,26,26,27,27,28,28,30,30,33,33,34,34,36,36,38,38,39,39,40,40,41,41,42,42,43,43,44,44,45,45,46,46,47,47,48,48,49,49,50,50,52,52,53,53,54,54,55,55,56,56,58,58,60,60],"right_children":[2,4,6,8,10,12,14,16,18,20,22,24,26,28,30,32,34,36,38,40,42,44,46,48,50,52,54,56,58,-1,60,-1,-1,62,64,-1,66,-1,68,70,72,74,76,78,80,82,84,86,88,90,92,-1,94,96,98,100,102,-1,104,-1,106,-1,-1,-1,-1,-1,-1,-1,-1,-1,-1,-1,-1,-1,-1,-1,-1,-1,-1,-1,-1,-1,-1,-1,-1,-1,-1,-1,-1,-1,-1,-1,-1,-1,-1,-1,-1,-1,-1,-1,-1,-1,-1,-1,-1,-1,-1],"split_conditions":[2.5258E3,1.081E3,4.4769E3,4.59E2,1.7149E3,4.42305E3,4.8851E3,2.496E2,4.586E2,1.402E3,4.194809E6,3.94025E3,4.5261E3,4.9299E3,4.2908E4,1.6311E4,4.586E2,4.36E2,4.671E2,1.0154E4,1.6797E3,2.39945E3,2.4266E3,3.24E3,4.2908E4,8.4377E4,4.53E3,8.9974E4,5.8738E4,1.8148462E1,5.2205E4,-1.4429716E0,-2.5336502E0,4.446E2,4.671E2,-1.2755127E0,4.65E2,-2.392124E0,7.941E2,2.863E3,5.25701E5,1.6615E3,1.6899E3,2.3595E3,5.8738E4,2.2446E3,2.46885E3,3.15485E3,3.947E3,4.2808E3,4.5129E4,-4.741127E0,4.4188E3,7.0221E4,4.7329E4,3.4186E4,4.68125E3,2.3891602E-1,7.0221E4,-1.5009229E1,4.9299E3,-9.490382E-1,1.551352E0,-3.1631951E0,-1.0326802E0,9.802338E-1,1.9916254E0,-6.4996E-1,-3.6839163E-1,-3.0663365E-1,3.0164075E-1,-2.3060563E-1,2.4379455E-2,2.9841605E-1,2.8377843E0,-1.5788116E0,4.2658916E-1,6.4522517E-1,3.23126E0,1.5562623E0,-1.6261315E-1,1.5087078E0,4.6218166E0,-5.986817E-1,-3.6181644E-2,1.9097482E0,-4.9597025E-1,2.986318E0,-1.9569459E0,1.8057539E1,3.995087E0,-9.953931E0,3.9410486E0,3.6684084E0,5.67334E-1,4.8449707E0,1.2923584E0,-8.723145E-2,3.1779787E-1,2.8103654E0,5.855735E0,4.240563E0,1.3377604E0,-1.193628E0,1.3044435E-1,2.2764406E0,1.0126423E1],"split_indices":[3,2,2,0,1,3,3,3,3,3,4,3,3,1,4,4,3,2,3,4,3,3,0,3,4,4,0,4,4,0,4,0,0,3,3,0,1,0,3,4,4,2,3,3,4,1,0,3,0,3,4,0,0,4,4,4,3,0,4,0,1,0,0,0,0,0,0,0,0,0,0,0,0,0,0,0,0,0,0,0,0,0,0,0,0,0,0,0,0,0,0,0,0,0,0,0,0,0,0,0,0,0,0,0,0,0,0],"split_type":[0,0,0,0,0,0,0,0,0,0,0,0,0,0,0,0,0,0,0,0,0,0,0,0,0,0,0,0,0,0,0,0,0,0,0,0,0,0,0,0,0,0,0,0,0,0,0,0,0,0,0,0,0,0,0,0,0,0,0,0,0,0,0,0,0,0,0,0,0,0,0,0,0,0,0,0,0,0,0,0,0,0,0,0,0,0,0,0,0,0,0,0,0,0,0,0,0,0,0,0,0,0,0,0,0,0,0],"sum_hessian":[4.244E3,3.613E3,6.31E2,2.404E3,1.209E3,5.47E2,8.4E1,1.129E3,1.275E3,8.11E2,3.98E2,5.3E2,1.7E1,6.6E1,1.8E1,6.7E1,1.062E3,1E1,1.265E3,6.27E2,1.84E2,3.84E2,1.4E1,4.8E2,5E1,1.2E1,5E0,6.3E1,3E0,1E0,1.7E1,5.8E1,9E0,1.051E3,1.1E1,1E0,9E0,9E0,1.256E3,9.3E1,5.34E2,1.63E2,2.1E1,3.22E2,6.2E1,1.2E1,2E0,3.48E2,1.32E2,1.1E1,3.9E1,1E1,2E0,3E0,2E0,4.5E1,1.8E1,1E0,2E0,1E0,1.6E1,1.043E3,8E0,7E0,4E0,5E0,4E0,6.43E2,6.13E2,1.3E1,8E1,1.83E2,3.51E2,1.57E2,6E0,1.1E1,1E1,3.06E2,1.6E1,1.1E1,5.1E1,8E0,4E0,1E0,1E0,3.15E2,3.3E1,1.27E2,5E0,4E0,7E0,2E0,3.7E1,1E0,1E0,2E0,1E0,1E0,1E0,6E0,3.9E1,1E1,8E0,1E0,1E0,3E0,1.3E1],"tree_param":{"num_deleted":"0","num_feature":"5","num_nodes":"107","size_leaf_vector":"1"}},{"base_weights":[1.2643988E-1,-8.380393E-1,6.8449855E0,-1.7033144E0,8.4785223E-1,5.866468E0,1.5783457E1,-2.1684804E0,-9.783809E-1,1.0261582E0,-5.6118307E0,6.092954E0,-2.2721924E1,1.7390722E1,4.7696533E0,-2.0965905E0,-5.1053553E0,4.2191896E-1,-1.0540789E0,8.0117124E-1,1.6992805E1,-1.0914505E1,-8.5106134E-1,5.7493916E0,1.6337208E1,-8.129346E0,-1.4391358E0,1.4239258E1,2.3408278E1,3.9939456E0,-2.9703775E-1,-2.167937E0,3.7394986E0,-7.277466E0,-3.1123993E0,-6.860218E-1,2.2657182E0,-5.772315E0,-9.580093E-1,3.2063493E-1,2.259331E0,8.5385746E-1,1.7699081E1,-1.1394222E1,-5.578125E-1,-1.4187622E0,1.6325073E0,2.511084E1,5.6115217E0,2.6617432E0,5.8602786E0,1.8426548E1,6.50494E0,-8.543457E0,3.2391603E0,-7.878522E-1,-5.4761267E-1,3.4140933E-1,1.3957567E0,-2.6026552E0,-1.4384927E0,-1.2155954E0,-7.2608775E-1,-9.3847656E-1,-1.2567933E-1,8.45398E-2,7.860272E-1,-1.7743901E0,-5.029358E-1,-1.048757E0,-2.7935365E-1,1.3142857E-1,-1.6612692E0,8.200626E-1,-4.2276648E-1,5.535859E0,9.5885015E-1,-1.1787843E0,-3.6721268E0,-8.136292E-1,-3.3447266E-2,7.58667E-1,-1.584961E-1,1.8902711E0,9.409607E0,1.4138231E0,2.3418415E0,4.2459965E0,-1.7659669E0,3.2811708E0,1.5206983E1,-5.446106E0,3.9256873E0,-4.5371094E-1,-4.445508E0],"categories":[],"categories_nodes":[],"categories_segments":[],"categories_sizes":[],"default_left":[0,0,0,0,0,0,0,0,0,0,0,0,0,0,0,0,0,0,0,0,0,0,0,0,0,0,0,0,0,0,0,0,0,0,0,0,0,0,0,0,0,0,0,0,0,0,0,0,0,0,0,0,0,0,0,0,0,0,0,0,0,0,0,0,0,0,0,0,0,0,0,0,0,0,0,0,0,0,0,0,0,0,0,0,0,0,0,0,0,0,0,0,0,0,0],"id":17,"left_children":[1,3,5,7,9,11,13,15,17,19,21,23,25,27,29,31,33,35,37,39,41,43,45,47,49,-1,-1,51,-1,-1,53,55,57,59,61,63,65,67,69,71,73,-1,75,77,-1,79,81,83,85,87,-1,89,91,93,-1,-1,-1,-1,-1,-1,-1,-1,-1,-1,-1,-1,-1,-1,-1,-1,-1,-1,-1,-1,-1,-1,-1,-1,-1,-1,-1,-1,-1,-1,-1,-1,-1,-1,-1,-1,-1,-1,-1,-1,-1],"loss_changes":[2.7512898E4,5.4178203E3,4.5692676E3,8.2540283E2,1.4570264E3,3.2593398E3,8.375615E2,3.0472607E2,1.0231073E2,4.3941216E3,8.4903467E2,1.5919316E3,1.8375659E2,7.4882197E3,3.5025262E2,6.160288E2,1.2886188E2,1.0369534E2,4.0786072E2,8.478218E2,1.19479004E2,4.8316284E1,2.9104698E1,1.1003418E3,6.038225E2,0E0,0E0,1.3051133E3,0E0,0E0,6.411719E2,2.2172021E2,3.7458923E1,1.39314575E1,3.198883E0,1.9563011E1,1.2619537E1,5.769043E-1,5.7686707E1,6.299783E2,5.2575195E2,0E0,1.1593457E2,4.6656494E1,0E0,2.6749462E1,9.083778E0,1.5531116E2,8.764658E2,4.7624808E2,0E0,6.21125E3,2.9961526E3,1.5406668E2,0E0,0E0,0E0,0E0,0E0,0E0,0E0,0E0,0E0,0E0,0E0,0E0,0E0,0E0,0E0,0E0,0E0,0E0,0E0,0E0,0E0,0E0,0E0,0E0,0E0,0E0,0E0,0E0,0E0,0E0,0E0,0E0,0E0,0E0,0E0,0E0,0E0,0E0,0E0,0E0,0E0],"parents":[2147483647,0,0,1,1,2,2,3,3,4,4,5,5,6,6,7,7,8,8,9,9,10,10,11,11,12,12,13,13,14,14,15,15,16,16,17,17,18,18,19,19,20,20,21,21,22,22,23,23,24,24,27,27,30,30,31,31,32,32,33,33,34,34,35,35,36,36,37,37,38,38,39,39,40,40,42,42,43,43,45,45,46,46,47,47,48,48,49,49,51,51,52,52,53,53],"right_children":[2,4,6,8,10,12,14,16,18,20,22,24,26,28,30,32,34,36,38,40,42,44,46,48,50,-1,-1,52,-1,-1,54,56,58,60,62,64,66,68,70,72,74,-1,76,78,-1,80,82,84,86,88,-1,90,92,94,-1,-1,-1,-1,-1,-1,-1,-1,-1,-1,-1,-1,-1,-1,-1,-1,-1,-1,-1,-1,-1,-1,-1,-1,-1,-1,-1,-1,-1,-1,-1,-1,-1,-1,-1,-1,-1,-1,-1,-1,-1],"split_conditions":[2.66285E3,1.1233E3,4.64E3,6.447E2,2.6308E3,4.68125E3,1.88038E5,6.178E2,6.536E2,2.6008E3,2.6523E3,4.545E3,4.74E3,1.7334E5,4.74E3,5.93E2,6.2635E2,6.4695E2,6.607E2,1.8448E3,2.62E3,2.741E3,2.6516E3,8.057E3,4.59215E3,-8.129346E0,-1.4391358E0,8.9974E4,2.3408278E1,3.9939456E0,2.24985E5,3.2685E2,6.18E2,6.1775E2,6.1775E2,6.25E2,6.52E2,6.552E2,2.334E3,1.81425E3,2.54815E3,8.5385746E-1,3.666313E6,2.575E3,-5.578125E-1,5.5463E4,2.6985E3,3.18005E3,3.78195E3,4.61055E3,5.8602786E0,7.9712E4,1.01606E5,2.05009E5,3.2391603E0,-7.878522E-1,-5.4761267E-1,3.4140933E-1,1.3957567E0,-2.6026552E0,-1.4384927E0,-1.2155954E0,-7.2608775E-1,-9.3847656E-1,-1.2567933E-1,8.45398E-2,7.860272E-1,-1.7743901E0,-5.029358E-1,-1.048757E0,-2.7935365E-1,1.3142857E-1,-1.6612692E0,8.200626E-1,-4.2276648E-1,5.535859E0,9.5885015E-1,-1.1787843E0,-3.6721268E0,-8.136292E-1,-3.3447266E-2,7.58667E-1,-1.584961E-1,1.8902711E0,9.409607E0,1.4138231E0,2.3418415E0,4.2459965E0,-1.7659669E0,3.2811708E0,1.5206983E1,-5.446106E0,3.9256873E0,-4.5371094E-1,-4.445508E0],"split_indices":[3,0,2,1,3,3,4,3,3,3,3,2,1,4,1,2,3,3,3,3,1,0,2,4,0,0,0,4,0,0,4,1,1,2,2,2,1,2,4,3,3,0,4,2,0,4,1,0,3,3,0,4,4,4,0,0,0,0,0,0,0,0,0,0,0,0,0,0,0,0,0,0,0,0,0,0,0,0,0,0,0,0,0,0,0,0,0,0,0,0,0,0,0,0,0],"split_type":[0,0,0,0,0,0,0,0,0,0,0,0,0,0,0,0,0,0,0,0,0,0,0,0,0,0,0,0,0,0,0,0,0,0,0,0,0,0,0,0,0,0,0,0,0,0,0,0,0,0,0,0,0,0,0,0,0,0,0,0,0,0,0,0,0,0,0,0,0,0,0,0,0,0,0,0,0,0,0,0,0,0,0,0,0,0,0,0,0,0,0,0,0,0,0],"sum_hessian":[4.244E3,3.712E3,5.32E2,2.453E3,1.259E3,4.81E2,5.1E1,1.493E3,9.6E2,1.226E3,3.3E1,4.78E2,3E0,4.4E1,7E0,1.459E3,3.4E1,4.9E1,9.11E2,1.21E3,1.6E1,1.5E1,1.8E1,4.64E2,1.4E1,2E0,1E0,4.3E1,1E0,2E0,5E0,1.442E3,1.7E1,1.5E1,1.9E1,3.1E1,1.8E1,1.7E1,8.94E2,9.11E2,2.99E2,1E0,1.5E1,1.4E1,1E0,1.5E1,3E0,2E0,4.62E2,3E0,1.1E1,2.7E1,1.6E1,3E0,2E0,6.14E2,8.28E2,5E0,1.2E1,8E0,7E0,6E0,1.3E1,2E0,2.9E1,3E0,1.5E1,1.6E1,1E0,8E0,8.86E2,8.94E2,1.7E1,2.65E2,3.4E1,1.4E1,1E0,2E0,1.2E1,7E0,8E0,2E0,1E0,1E0,1E0,3.3E2,1.32E2,1E0,2E0,2.3E1,4E0,3E0,1.3E1,2E0,1E0],"tree_param":{"num_deleted":"0","num_feature":"5","num_nodes":"95","size_leaf_vector":"1"}},{"base_weights":[9.973805E-2,-6.7490077E-1,4.3929214E0,-1.3565415E0,2.1704306E-1,3.7354214E0,1.1869695E1,-1.8021966E0,-1.1160679E0,-2.352512E-1,1.0519058E0,3.8772638E0,-1.8297485E1,-1.0386719E0,1.2967031E1,-1.6915516E0,-4.4486356E0,-1.7315783E-1,-1.2516651E0,1.5873197E0,-2.9830754E-1,1.2501897E0,-1.9824506E0,3.194739E0,6.7290144E0,-6.503467E0,-1.223291E0,-1.5104004E0,3.303548E0,3.3993164E1,9.731593E0,-1.8121265E0,1.2066803E0,-1.3589329E0,-3.3867645E-1,-1.1279491E0,6.948695E0,-6.4503813E0,-1.0937166E0,-2.915585E-1,1.1157842E0,-4.135601E0,-2.2212973E-1,1.1343963E0,9.49142E0,-4.5511127E0,-1.7560686E-1,1.6804321E1,3.0744195E0,1.1605849E1,4.598874E0,2.2845705E0,-7.979737E-1,9.5361334E-1,3.9520313E1,-1.3250025E1,1.2066476E1,-1.4297875E0,-5.179459E-1,1.3160583E-1,5.830019E-1,-8.9938894E-2,-8.5928255E-1,5.260117E-1,2.1389554E0,-2.4428134E0,-1.2837207E0,-3.452623E-1,-1.1867872E-2,-4.179726E-1,1.4015809E-1,-3.9714357E-1,-1.3165586E0,6.4124167E-1,-9.329392E-2,3.0209586E-1,2.2174401E0,-1.1107545E0,3.6922486E0,-1.8310615E0,2.567505E-1,1.6282837E-1,-2.1814454E0,1.3896241E0,7.998157E0,-1.2161866E-2,1.0051831E0,1.916288E0,1.9019484E1,-1.2976362E0,2.058653E0,4.6035156E0,1.5156642E1,8.4786625E0,3.1650405E0],"categories":[],"categories_nodes":[],"categories_segments":[],"categories_sizes":[],"default_left":[0,0,0,0,0,0,0,0,0,0,0,0,0,0,0,0,0,0,0,0,0,0,0,0,0,0,0,0,0,0,0,0,0,0,0,0,0,0,0,0,0,0,0,0,0,0,0,0,0,0,0,0,0,0,0,0,0,0,0,0,0,0,0,0,0,0,0,0,0,0,0,0,0,0,0,0,0,0,0,0,0,0,0,0,0,0,0,0,0,0,0,0,0,0,0],"id":18,"left_children":[1,3,5,7,9,11,13,15,17,19,21,23,25,27,29,31,33,35,37,39,41,43,45,47,49,-1,-1,-1,51,53,55,57,59,-1,-1,61,63,65,67,69,-1,71,73,75,77,79,81,83,85,87,89,-1,-1,-1,91,-1,93,-1,-1,-1,-1,-1,-1,-1,-1,-1,-1,-1,-1,-1,-1,-1,-1,-1,-1,-1,-1,-1,-1,-1,-1,-1,-1,-1,-1,-1,-1,-1,-1,-1,-1,-1,-1,-1,-1],"loss_changes":[1.412042E4,2.1872175E3,3.1461328E3,2.1650464E2,5.8893146E2,1.9398125E3,7.500386E2,2.0125244E2,1.6944836E2,1.1677727E2,3.3219037E2,1.1366055E3,1.03898315E2,1.0338974E2,2.9345718E3,2.4191235E2,2.4284058E0,1.1502183E3,9.4545544E2,1.3727802E2,2.8525934E2,4.8068683E2,1.5700058E2,7.3761084E2,1.1308975E3,0E0,0E0,0E0,9.7393555E1,8.9627344E2,5.944329E3,1.5847705E2,1.4988491E1,0E0,0E0,2.1339482E2,6.3218994E0,9.009253E1,6.785974E1,1.65331E1,0E0,7.70282E0,2.0213892E2,3.9833923E2,3.0565448E2,1.2273801E2,1.1099317E2,3.5639453E2,4.1223047E2,8.784024E3,1.665757E3,0E0,0E0,0E0,5.5459424E2,0E0,7.3327734E2,0E0,0E0,0E0,0E0,0E0,0E0,0E0,0E0,0E0,0E0,0E0,0E0,0E0,0E0,0E0,0E0,0E0,0E0,0E0,0E0,0E0,0E0,0E0,0E0,0E0,0E0,0E0,0E0,0E0,0E0,0E0,0E0,0E0,0E0,0E0,0E0,0E0,0E0],"parents":[2147483647,0,0,1,1,2,2,3,3,4,4,5,5,6,6,7,7,8,8,9,9,10,10,11,11,12,12,13,13,14,14,15,15,16,16,17,17,18,18,19,19,20,20,21,21,22,22,23,23,24,24,28,28,29,29,30,30,31,31,32,32,35,35,36,36,37,37,38,38,39,39,41,41,42,42,43,43,44,44,45,45,46,46,47,47,48,48,49,49,50,50,54,54,56,56],"right_children":[2,4,6,8,10,12,14,16,18,20,22,24,26,28,30,32,34,36,38,40,42,44,46,48,50,-1,-1,-1,52,54,56,58,60,-1,-1,62,64,66,68,70,-1,72,74,76,78,80,82,84,86,88,90,-1,-1,-1,92,-1,94,-1,-1,-1,-1,-1,-1,-1,-1,-1,-1,-1,-1,-1,-1,-1,-1,-1,-1,-1,-1,-1,-1,-1,-1,-1,-1,-1,-1,-1,-1,-1,-1,-1,-1,-1,-1,-1,-1],"split_conditions":[2.46E3,8.749E2,4.64E3,3.36E2,1.3989E3,4.68125E3,3.4186E4,3.296E2,3.781E2,8.834E2,2.4266E3,3.9383E3,4.74E3,4.8488E3,4.7329E4,3.2665E2,3.35E2,3.64E2,3.8715E2,8.7945E2,8.894E2,2.46775E3,2.24985E5,8.057E3,4.2808E3,-6.503467E0,-1.223291E0,-1.5104004E0,4.784E3,4.0959E4,5.2205E4,2.2305E2,3.283E2,-1.3589329E0,-3.3867645E-1,3.458E2,1.076E3,3.8195E2,1.779318E6,8.7215E2,1.1157842E0,8.68E2,9.0465E2,4.964904E6,2.4257E3,2.5052E3,2.5011E3,3.18005E3,2.5458E4,4.275E3,4.352E3,2.2845705E0,-7.979737E-1,9.5361334E-1,4.7908E3,-1.3250025E1,5.7562E4,-1.4297875E0,-5.179459E-1,1.3160583E-1,5.830019E-1,-8.9938894E-2,-8.5928255E-1,5.260117E-1,2.1389554E0,-2.4428134E0,-1.2837207E0,-3.452623E-1,-1.1867872E-2,-4.179726E-1,1.4015809E-1,-3.9714357E-1,-1.3165586E0,6.4124167E-1,-9.329392E-2,3.0209586E-1,2.2174401E0,-1.1107545E0,3.6922486E0,-1.8310615E0,2.567505E-1,1.6282837E-1,-2.1814454E0,1.3896241E0,7.998157E0,-1.2161866E-2,1.0051831E0,1.916288E0,1.9019484E1,-1.2976362E0,2.058653E0,4.6035156E0,1.5156642E1,8.4786625E0,3.1650405E0],"split_indices":[2,3,2,1,2,3,4,3,3,3,0,1,1,1,4,3,0,2,3,3,3,1,4,4,3,0,0,0,0,4,4,2,3,0,0,3,4,3,4,0,0,0,3,4,3,3,0,0,4,0,3,0,0,0,3,0,4,0,0,0,0,0,0,0,0,0,0,0,0,0,0,0,0,0,0,0,0,0,0,0,0,0,0,0,0,0,0,0,0,0,0,0,0,0,0],"split_type":[0,0,0,0,0,0,0,0,0,0,0,0,0,0,0,0,0,0,0,0,0,0,0,0,0,0,0,0,0,0,0,0,0,0,0,0,0,0,0,0,0,0,0,0,0,0,0,0,0,0,0,0,0,0,0,0,0,0,0,0,0,0,0,0,0,0,0,0,0,0,0,0,0,0,0,0,0,0,0,0,0,0,0,0,0,0,0,0,0,0,0,0,0,0,0],"sum_hessian":[4.244E3,3.596E3,6.48E2,2.038E3,1.558E3,5.97E2,5.1E1,7.12E2,1.326E3,1.011E3,5.47E2,5.94E2,3E0,4E0,4.7E1,6.85E2,2.7E1,1.67E2,1.159E3,3.3E1,9.78E2,5.14E2,3.3E1,4.81E2,1.13E2,2E0,1E0,2E0,2E0,5E0,4.2E1,6.58E2,2.7E1,2.6E1,1E0,1.48E2,1.9E1,3.3E1,1.126E3,1.8E1,1.5E1,1.8E1,9.6E2,5.08E2,6E0,1.3E1,2E1,3E0,4.78E2,3.3E1,8E1,1E0,1E0,1E0,4E0,1E0,4.1E1,1.7E1,6.41E2,1.4E1,1.3E1,1.01E2,4.7E1,1E0,1.8E1,1.7E1,1.6E1,1.068E3,5.8E1,7E0,1.1E1,2E0,1.6E1,3.4E1,9.26E2,4.99E2,9E0,1E0,5E0,1E1,3E0,1.9E1,1E0,2E0,1E0,3.9E1,4.39E2,3.1E1,2E0,1.6E1,6.4E1,2E0,2E0,2E0,3.9E1],"tree_param":{"num_deleted":"0","num_feature":"5","num_nodes":"95","size_leaf_vector":"1"}},{"base_weights":[7.90847E-2,-4.2192557E-1,3.5690887E0,-7.9027224E-1,6.307676E-1,3.2012334E0,1.3352051E1,-1.0720737E0,-4.1194797E-1,8.334546E-1,-4.9318705E0,1.8214926E1,3.107194E0,1.2660499E1,9.404758E0,-2.102199E0,-1.0008577E0,-3.3966875E-1,-2.905144E0,6.352459E-1,1.1441062E1,-8.729767E0,-1.4740697E0,1.3982667E0,6.79845E0,2.555265E0,4.953421E0,-2.8911295E1,1.600122E1,-3.5179012E0,-1.7738082E0,-9.569654E-1,-2.8342626E0,-4.2502576E-1,5.0234985E0,-1.4517965E0,-5.476227E-1,1.3229861E0,2.869375E-1,5.750244E-1,1.1916534E1,-3.2062988E0,-9.289812E0,-1.8611755E0,4.428711E-1,2.6375167E0,-2.7378907E0,1.5215576E1,3.7164743E0,-1.7475587E0,-1.1262525E1,1.8927612E1,8.655697E0,-1.3124306E0,-3.225113E-1,-5.6352615E-1,-1.0641828E-1,-2.9855177E-1,5.8768183E-1,-1.1523072E0,-4.804677E-1,-1.08629994E-1,-5.2366084E-1,1.5751351E0,6.415772E-1,4.458008E-2,-6.3271E-1,2.6307788E-1,1.579821E0,-6.58462E-2,3.7224734E-1,3.724722E0,6.6427004E-1,3.233643E-2,-1.475171E0,-2.9051852E0,-6.2490237E-1,-1.2609166E-1,-8.0510014E-1,3.674805E-1,-2.8549805E-1,1.4872516E0,6.860751E-1,3.274464E-1,1.6742312E0,-1.2677125E1,4.593206E0],"categories":[],"categories_nodes":[],"categories_segments":[],"categories_sizes":[],"default_left":[0,0,0,0,0,0,0,0,0,0,0,0,0,0,0,0,0,0,0,0,0,0,0,0,0,0,0,0,0,0,0,0,0,0,0,0,0,0,0,0,0,0,0,0,0,0,0,0,0,0,0,0,0,0,0,0,0,0,0,0,0,0,0,0,0,0,0,0,0,0,0,0,0,0,0,0,0,0,0,0,0,0,0,0,0,0,0],"id":19,"left_children":[1,3,5,7,9,11,13,15,17,19,21,23,25,-1,27,29,31,33,35,37,39,41,43,-1,-1,45,47,49,51,53,55,57,59,61,63,-1,65,67,69,-1,71,73,75,77,79,81,-1,-1,83,-1,-1,-1,85,-1,-1,-1,-1,-1,-1,-1,-1,-1,-1,-1,-1,-1,-1,-1,-1,-1,-1,-1,-1,-1,-1,-1,-1,-1,-1,-1,-1,-1,-1,-1,-1,-1,-1],"loss_changes":[7.424007E3,1.4402366E3,1.8753706E3,2.9284875E2,1.0898684E3,6.70522E2,1.766783E3,1.1351367E2,2.1093576E2,1.9480759E3,4.336324E2,7.5184265E1,5.1008203E2,0E0,5.0121235E3,4.071518E1,1.1606494E2,5.258399E2,1.4782544E2,2.1856512E2,5.414453E1,1.9708374E1,1.4923382E1,0E0,0E0,4.0552002E2,6.4347686E3,3.7904224E2,4.9884023E3,3.2974747E1,1.1803741E1,1.6271179E2,3.60437E1,9.3015015E1,5.5667114E-1,0E0,1.7706839E1,5.353495E2,2.9398016E2,0E0,5.0003418E1,1.7540604E1,1.959497E1,1.7833687E1,5.5281715E0,3.0995068E2,0E0,0E0,5.566904E2,0E0,0E0,0E0,5.7293447E3,0E0,0E0,0E0,0E0,0E0,0E0,0E0,0E0,0E0,0E0,0E0,0E0,0E0,0E0,0E0,0E0,0E0,0E0,0E0,0E0,0E0,0E0,0E0,0E0,0E0,0E0,0E0,0E0,0E0,0E0,0E0,0E0,0E0,0E0],"parents":[2147483647,0,0,1,1,2,2,3,3,4,4,5,5,6,6,7,7,8,8,9,9,10,10,11,11,12,12,14,14,15,15,16,16,17,17,18,18,19,19,20,20,21,21,22,22,25,25,26,26,27,27,28,28,29,29,30,30,31,31,32,32,33,33,34,34,36,36,37,37,38,38,40,40,41,41,42,42,43,43,44,44,45,45,48,48,52,52],"right_children":[2,4,6,8,10,12,14,16,18,20,22,24,26,-1,28,30,32,34,36,38,40,42,44,-1,-1,46,48,50,52,54,56,58,60,62,64,-1,66,68,70,-1,72,74,76,78,80,82,-1,-1,84,-1,-1,-1,86,-1,-1,-1,-1,-1,-1,-1,-1,-1,-1,-1,-1,-1,-1,-1,-1,-1,-1,-1,-1,-1,-1,-1,-1,-1,-1,-1,-1,-1,-1,-1,-1,-1,-1],"split_conditions":[2.66285E3,1.20775E3,4.8851E3,6.6445E2,2.6308E3,8.057E3,4.2908E4,2.486E2,1.19605E3,2.6008E3,2.6523E3,3.18005E3,4.338E3,1.2660499E1,7.7479E4,2.2855E2,6.536E2,1.1903E3,1.2014E3,2.05009E5,2.62E3,2.1519E4,2.6516E3,1.3982667E0,6.79845E0,4.2536E3,4.2808E3,4.9299E3,8.713E4,2.2305E2,4.4013E4,6.4695E2,6.607E2,1.1722E3,1.208E3,-1.4517965E0,1.228E3,1.10987E5,1.779318E6,5.750244E-1,3.666313E6,2.63E3,2.741E3,2.688E3,2.6985E3,2.7329E3,-2.7378907E0,1.5215576E1,4.5261E3,-1.7475587E0,-1.1262525E1,1.8927612E1,1.01606E5,-1.3124306E0,-3.225113E-1,-5.6352615E-1,-1.0641828E-1,-2.9855177E-1,5.8768183E-1,-1.1523072E0,-4.804677E-1,-1.08629994E-1,-5.2366084E-1,1.5751351E0,6.415772E-1,4.458008E-2,-6.3271E-1,2.6307788E-1,1.579821E0,-6.58462E-2,3.7224734E-1,3.724722E0,6.6427004E-1,3.233643E-2,-1.475171E0,-2.9051852E0,-6.2490237E-1,-1.2609166E-1,-8.0510014E-1,3.674805E-1,-2.8549805E-1,1.4872516E0,6.860751E-1,3.274464E-1,1.6742312E0,-1.2677125E1,4.593206E0],"split_indices":[3,3,3,3,3,4,4,2,3,3,3,0,1,0,4,3,3,3,3,4,1,4,2,0,0,2,3,1,4,2,4,3,3,3,0,0,1,4,4,0,4,0,0,1,1,3,0,0,3,0,0,0,4,0,0,0,0,0,0,0,0,0,0,0,0,0,0,0,0,0,0,0,0,0,0,0,0,0,0,0,0,0,0,0,0,0,0],"split_type":[0,0,0,0,0,0,0,0,0,0,0,0,0,0,0,0,0,0,0,0,0,0,0,0,0,0,0,0,0,0,0,0,0,0,0,0,0,0,0,0,0,0,0,0,0,0,0,0,0,0,0,0,0,0,0,0,0,0,0,0,0,0,0,0,0,0,0,0,0,0,0,0,0,0,0,0,0,0,0,0,0,0,0,0,0,0,0],"sum_hessian":[4.244E3,3.712E3,5.32E2,2.75E3,9.62E2,5.14E2,1.8E1,1.575E3,1.175E3,9.29E2,3.3E1,2E0,5.12E2,1E0,1.7E1,1E2,1.475E3,1.143E3,3.2E1,9.13E2,1.6E1,1.5E1,1.8E1,1E0,1E0,3.96E2,1.16E2,2E0,1.5E1,1.7E1,8.3E1,1.442E3,3.3E1,1.126E3,1.7E1,1.7E1,1.5E1,3.06E2,6.07E2,1E0,1.5E1,2E0,1.3E1,1.5E1,3E0,3.94E2,2E0,2E0,1.14E2,1E0,1E0,1E0,1.4E1,1.2E1,5E0,7.7E1,6E0,1.424E3,1.8E1,1.7E1,1.6E1,1.076E3,5E1,1.5E1,2E0,1.1E1,4E0,2.76E2,3E1,3.97E2,2.1E2,1.4E1,1E0,1E0,1E0,1.2E1,1E0,6E0,9E0,2E0,1E0,5E1,3.44E2,4.8E1,6.6E1,1E0,1.3E1],"tree_param":{"num_deleted":"0","num_feature":"5","num_nodes":"87","size_leaf_vector":"1"}},{"base_weights":[6.301981E-2,-2.5759426E-1,3.1455665E0,-2.2832088E-1,-4.281885E0,1.977481E1,2.7990537E0,-4.5646352E-1,9.848129E-1,2.9527588E0,8.783248E0,-3.7346644E0,3.272109E0,-6.6564393E-1,-3.7873276E-2,8.370388E-1,8.928822E0,-2.4048707E0,9.281169E0,-9.978056E0,6.253729E0,2.9019723E0,9.89872E0,-6.326797E-1,-2.8328438E0,3.6060505E-2,-2.309136E0,9.168566E-1,-3.3735354E0,-3.3754396E0,1.2071997E1,-1.0311036E0,5.2076297E0,-6.6611757E0,-5.7722344E0,4.397139E0,-6.4208984E-1,4.3038917E0,1.3833369E0,1.0761402E1,6.462945E0,-2.0136477E-1,1.0364667E0,8.82721E-3,-1.3000585E0,-7.7021546E-3,2.143567E0,-1.3482724E0,-3.514201E-2,2.2925371E-1,1.6515536E0,1.6518018E0,4.6594973E0,3.9936526E0,-3.018695E0,1.3605957E-1,-1.0823731E0,1.1023506E0,3.8584778E0,-8.6566126E-1,1.1463535E0,-7.3723636E0,3.5635622E0],"categories":[],"categories_nodes":[],"categories_segments":[],"categories_sizes":[],"default_left":[0,0,0,0,0,0,0,0,0,0,0,0,0,0,0,0,0,0,0,0,0,0,0,0,0,0,0,0,0,0,0,0,0,0,0,0,0,0,0,0,0,0,0,0,0,0,0,0,0,0,0,0,0,0,0,0,0,0,0,0,0,0,0],"id":20,"left_children":[1,3,5,7,-1,9,11,13,15,17,-1,19,21,23,25,27,29,-1,31,33,35,37,39,41,43,45,47,49,-1,-1,51,-1,-1,-1,53,-1,55,57,59,-1,61,-1,-1,-1,-1,-1,-1,-1,-1,-1,-1,-1,-1,-1,-1,-1,-1,-1,-1,-1,-1,-1,-1],"loss_changes":[4.196177E3,1.5746648E3,2.2495476E3,1.0629602E3,0E0,1.1923867E3,1.2269087E3,2.8297156E2,7.0626886E2,3.520652E2,0E0,1.7461592E3,8.714341E2,1.5216113E2,1.811043E2,5.87004E2,8.3355963E2,0E0,3.6785928E2,7.4597034E2,6.468428E2,7.3706885E2,1.4636511E3,3.3688995E2,1.3757904E2,4.5881256E2,1.6232474E2,4.1261072E2,0E0,0E0,1.4164343E2,0E0,0E0,0E0,1.280183E3,0E0,2.4382221E1,9.2762964E2,1.7697819E3,0E0,3.3174663E3,0E0,0E0,0E0,0E0,0E0,0E0,0E0,0E0,0E0,0E0,0E0,0E0,0E0,0E0,0E0,0E0,0E0,0E0,0E0,0E0,0E0,0E0],"parents":[2147483647,0,0,1,1,2,2,3,3,5,5,6,6,7,7,8,8,9,9,11,11,12,12,13,13,14,14,15,15,16,16,18,18,19,19,20,20,21,21,22,22,23,23,24,24,25,25,26,26,27,27,30,30,34,34,36,36,37,37,38,38,40,40],"right_children":[2,4,6,8,-1,10,12,14,16,18,-1,20,22,24,26,28,30,-1,32,34,36,38,40,42,44,46,48,50,-1,-1,52,-1,-1,-1,54,-1,56,58,60,-1,62,-1,-1,-1,-1,-1,-1,-1,-1,-1,-1,-1,-1,-1,-1,-1,-1,-1,-1,-1,-1,-1,-1],"split_conditions":[2.9501E3,2.9503E3,2.9503E3,1.685E3,-4.281885E0,2.994E3,3.06785E3,9.295E2,2.9202E3,6.5246E4,8.783248E0,8.9974E4,4.8851E3,9.0465E2,1.6797E3,2.87535E3,2.8362E3,-2.4048707E0,2.688E3,2.994E3,3.0272E3,6.5246E4,4.2908E4,8.9705E2,1.6701E4,1.6615E3,1.6899E3,2.802E3,-3.3735354E0,-3.3754396E0,8.4377E4,-1.0311036E0,5.2076297E0,-6.6611757E0,3.0272E3,4.397139E0,1.43357E5,6.1903E4,8.4377E4,1.0761402E1,7.7479E4,-2.0136477E-1,1.0364667E0,8.82721E-3,-1.3000585E0,-7.7021546E-3,2.143567E0,-1.3482724E0,-3.514201E-2,2.2925371E-1,1.6515536E0,1.6518018E0,4.6594973E0,3.9936526E0,-3.018695E0,1.3605957E-1,-1.0823731E0,1.1023506E0,3.8584778E0,-8.6566126E-1,1.1463535E0,-7.3723636E0,3.5635622E0],"split_indices":[0,3,3,2,0,1,3,3,1,4,0,4,3,3,3,3,3,0,2,2,3,4,4,3,4,2,3,2,0,0,4,0,0,0,3,0,4,4,4,0,4,0,0,0,0,0,0,0,0,0,0,0,0,0,0,0,0,0,0,0,0,0,0],"split_type":[0,0,0,0,0,0,0,0,0,0,0,0,0,0,0,0,0,0,0,0,0,0,0,0,0,0,0,0,0,0,0,0,0,0,0,0,0,0,0,0,0,0,0,0,0,0,0,0,0,0,0,0,0,0,0,0,0,0,0,0,0,0,0],"sum_hessian":[4.244E3,3.845E3,3.99E2,3.838E3,7E0,7E0,3.92E2,3.231E3,6.07E2,3E0,4E0,2.6E1,3.66E2,2.154E3,1.077E3,5.97E2,1E1,1E0,2E0,1.6E1,1E1,3.48E2,1.8E1,2.123E3,3.1E1,1.044E3,3.3E1,5.94E2,3E0,1E0,9E0,1E0,1E0,3E0,1.3E1,4E0,6E0,1.8E2,1.68E2,1E0,1.7E1,2.104E3,1.9E1,1.1E1,2E1,1.036E3,8E0,1.6E1,1.7E1,5.76E2,1.8E1,4E0,5E0,2E0,1.1E1,5E0,1E0,1.69E2,1.1E1,6.1E1,1.07E2,2E0,1.5E1],"tree_param":{"num_deleted":"0","num_feature":"5","num_nodes":"63","size_leaf_vector":"1"}},{"base_weights":[4.834243E-2,-1.809967E-1,2.2533174E0,-1.6528887E-1,-1.0206462E1,7.2156377E0,1.9164915E0,-4.1263723E-1,3.9765918E-1,-4.750884E0,2.691394E0,-4.437439E0,2.178982E0,-3.867884E-1,-1.2594321E0,3.2164416E-1,3.1875787E0,3.0161743E0,-2.1438623E1,-2.59493E0,2.5808008E0,-4.140372E-1,4.1283264E0,4.5911536E-1,-2.7569804E0,-1.9725278E-1,7.889442E0,1.4747884E1,-8.049561E-1,-1.4053955E1,1.11154785E1,-6.4557157E0,2.9503832E0,2.2297535E0,7.0692677E0,-2.1196714E-1,-8.271241E-2,1.3087752E0,4.977051E-1,1.12337545E-1,4.0691166E0,-2.724101E0,1.7521529E-1,8.44419E-1,-2.7581253E0,3.5501745E0,8.453718E-1,1.0231934E0,5.6133547E0,-2.6188478E0,1.7798951E0,6.98855E0,-1.9865845E0,-1.0617019E0,-3.5097902E0,1.60552E0,-1.1371765E0,8.12451E-1,-7.790528E-1,8.125914E0,5.8999723E-1],"categories":[],"categories_nodes":[],"categories_segments":[],"categories_sizes":[],"default_left":[0,0,0,0,0,0,0,0,0,0,0,0,0,0,0,0,0,0,0,0,0,0,0,0,0,0,0,0,0,0,0,0,0,0,0,0,0,0,0,0,0,0,0,0,0,0,0,0,0,0,0,0,0,0,0,0,0,0,0,0,0],"id":21,"left_children":[1,3,5,7,9,-1,11,13,15,-1,-1,17,19,21,-1,23,25,27,29,31,33,35,37,39,41,43,45,47,49,-1,51,53,55,57,59,-1,-1,-1,-1,-1,-1,-1,-1,-1,-1,-1,-1,-1,-1,-1,-1,-1,-1,-1,-1,-1,-1,-1,-1,-1,-1],"loss_changes":[2.1470493E3,6.039747E2,2.8908638E3,5.3500134E2,7.898765E2,0E0,6.684685E2,2.5953772E2,2.4773962E2,0E0,0E0,2.0921865E3,7.3563086E2,3.2798856E2,0E0,4.850088E2,4.9492163E2,5.4981213E2,4.6563774E3,6.6132477E2,5.3729565E2,1.0650885E2,2.0176697E0,1.2097085E3,1.0405034E3,5.407265E2,2.267121E2,7.0981384E1,5.857424E2,0E0,8.023683E2,2.3388837E2,2.3072285E2,7.6211597E2,2.5002178E3,0E0,0E0,0E0,0E0,0E0,0E0,0E0,0E0,0E0,0E0,0E0,0E0,0E0,0E0,0E0,0E0,0E0,0E0,0E0,0E0,0E0,0E0,0E0,0E0,0E0,0E0],"parents":[2147483647,0,0,1,1,2,2,3,3,4,4,6,6,7,7,8,8,11,11,12,12,13,13,15,15,16,16,17,17,18,18,19,19,20,20,21,21,22,22,23,23,24,24,25,25,26,26,27,27,28,28,30,30,31,31,32,32,33,33,34,34],"right_children":[2,4,6,8,10,-1,12,14,16,-1,-1,18,20,22,-1,24,26,28,30,32,34,36,38,40,42,44,46,48,50,-1,52,54,56,58,60,-1,-1,-1,-1,-1,-1,-1,-1,-1,-1,-1,-1,-1,-1,-1,-1,-1,-1,-1,-1,-1,-1,-1,-1,-1,-1],"split_conditions":[2.905E3,2.9503E3,2.9503E3,1.1785E3,3.02385E3,7.2156377E0,2.4826E4,1.1722E3,2.802E3,-4.750884E0,2.691394E0,2.3079E4,3.06785E3,1.16875E3,-1.2594321E0,2.7329E3,8.4377E4,8.057E3,3.599E3,8.9974E4,1.7334E5,3.551E2,1.199E3,2.688E3,2.7554E3,6.4462E4,1.62495E5,3.18005E3,1.7021E4,-1.4053955E1,3.901E3,6.6996E4,1.43357E5,1.34602E5,1.88038E5,-2.1196714E-1,-8.271241E-2,1.3087752E0,4.977051E-1,1.12337545E-1,4.0691166E0,-2.724101E0,1.7521529E-1,8.44419E-1,-2.7581253E0,3.5501745E0,8.453718E-1,1.0231934E0,5.6133547E0,-2.6188478E0,1.7798951E0,6.98855E0,-1.9865845E0,-1.0617019E0,-3.5097902E0,1.60552E0,-1.1371765E0,8.12451E-1,-7.790528E-1,8.125914E0,5.8999723E-1],"split_indices":[2,3,3,3,0,0,4,3,2,0,0,4,3,3,0,3,4,4,0,4,4,2,1,2,3,4,4,0,4,0,0,4,4,4,4,0,0,0,0,0,0,0,0,0,0,0,0,0,0,0,0,0,0,0,0,0,0,0,0,0,0],"split_type":[0,0,0,0,0,0,0,0,0,0,0,0,0,0,0,0,0,0,0,0,0,0,0,0,0,0,0,0,0,0,0,0,0,0,0,0,0,0,0,0,0,0,0,0,0,0,0,0,0,0,0,0,0,0,0,0,0,0,0,0,0],"sum_hessian":[4.244E3,3.845E3,3.99E2,3.84E3,5E0,5E0,3.94E2,2.668E3,1.172E3,4E0,1E0,