{"learner":{"attributes":{"scikit_learn":"{\"_estimator_type\": \"regressor\"}"},"feature_names":["Open","High","Low","Close","Volume"],"feature_types":["float","float","float","float","int"],"gradient_booster":{"model":{"gbtree_model_param":{"num_parallel_tree":"1","num_trees":"100"},"iteration_indptr":[0,1,2,3,4,5,6,7,8,9,10,11,12,13,14,15,16,17,18,19,20,21,22,23,24,25,26,27,28,29,30,31,32,33,34,35,36,37,38,39,40,41,42,43,44,45,46,47,48,49,50,51,52,53,54,55,56,57,58,59,60,61,62,63,64,65,66,67,68,69,70,71,72,73,74,75,76,77,78,79,80,81,82,83,84,85,86,87,88,89,90,91,92,93,94,95,96,97,98,99,100],"tree_info":[0,0,0,0,0,0,0,0,0,0,0,0,0,0,0,0,0,0,0,0,0,0,0,0,0,0,0,0,0,0,0,0,0,0,0,0,0,0,0,0,0,0,0,0,0,0,0,0,0,0,0,0,0,0,0,0,0,0,0,0,0,0,0,0,0,0,0,0,0,0,0,0,0,0,0,0,0,0,0,0,0,0,0,0,0,0,0,0,0,0,0,0,0,0,0,0,0,0,0,0],"trees":[{"base_weights":[-4.14809E-5,-4.4265308E2,1.9126161E3,-7.4863855E2,5.6690636E1,1.42137E3,2.9775173E3,-8.8871484E2,-4.940081E2,-8.90016E1,4.5853857E2,1.1629836E3,1.7656993E3,7.577263E2,1.0040968E3,-2.824028E2,-7.88931E2,-5.949015E2,-4.149601E2,-1.9333006E2,3.968299E1,2.9003992E2,5.411815E2,2.5379176E2,1.3037123E3,4.6188358E2,5.6416113E2,-2.4918803E2,-2.2025534E2,-1.8864624E2,-1.648662E2,-1.3542918E2,-1.13021225E2,-2.7513336E2,-1.2038252E2,-2.788672E1,1.1820329E2,6.6265816E1,1.0098693E2,1.4215558E2,1.8116571E2,3.4777332E2,4.0815393E2,-9.210126E1,-7.088405E1,-4.8881477E1,-3.0572163E1,-1.5252487E1,4.0308466E0,2.0648594E1,4.260255E1],"categories":[],"categories_nodes":[],"categories_segments":[],"categories_sizes":[],"default_left":[0,0,0,0,0,0,0,0,0,0,0,0,0,0,0,0,0,0,0,0,0,0,0,0,0,0,0,0,0,0,0,0,0,0,0,0,0,0,0,0,0,0,0,0,0,0,0,0,0,0,0],"id":0,"left_children":[1,3,5,7,9,11,13,15,17,19,21,23,25,-1,-1,-1,27,29,31,33,35,37,39,-1,41,-1,-1,-1,-1,-1,-1,-1,-1,43,45,47,49,-1,-1,-1,-1,-1,-1,-1,-1,-1,-1,-1,-1,-1,-1],"loss_changes":[3.594771E9,5.2686906E8,4.1322445E8,7.58185E7,7.679478E7,4.670208E7,3.3441792E7,6.493824E6,5.822416E6,1.2936397E7,4.702936E6,1.2994688E7,3.154176E6,0E0,0E0,0E0,4.90432E5,1.65104E5,4.2936E5,3.141508E6,2.295313E6,3.02549E5,6.97536E5,0E0,2.03456E5,0E0,0E0,0E0,0E0,0E0,0E0,0E0,0E0,2.37032E5,2.0589825E5,2.2169817E5,2.253005E5,0E0,0E0,0E0,0E0,0E0,0E0,0E0,0E0,0E0,0E0,0E0,0E0,0E0,0E0],"parents":[2147483647,0,0,1,1,2,2,3,3,4,4,5,5,6,6,7,7,8,8,9,9,10,10,11,11,12,12,16,16,17,17,18,18,19,19,20,20,21,21,22,22,24,24,33,33,34,34,35,35,36,36],"right_children":[2,4,6,8,10,12,14,16,18,20,22,24,26,-1,-1,-1,28,30,32,34,36,38,40,-1,42,-1,-1,-1,-1,-1,-1,-1,-1,44,46,48,50,-1,-1,-1,-1,-1,-1,-1,-1,-1,-1,-1,-1,-1,-1],"split_conditions":[1.9694E3,8.9835E2,3.5061E3,5.566E2,1.42945E3,2.70765E3,4.19985E3,3.781E2,7.4025E2,1.16635E3,1.6606E3,2.29625E3,2.9428E3,7.577263E2,1.0040968E3,-2.824028E2,4.635E2,6.5515E2,8.3015E2,1.04305E3,1.28785E3,1.5211E3,1.77925E3,2.5379176E2,2.50825E3,4.6188358E2,5.6416113E2,-2.4918803E2,-2.2025534E2,-1.8864624E2,-1.648662E2,-1.3542918E2,-1.13021225E2,9.7345E2,1.1121E3,1.22595E3,1.349E3,6.6265816E1,1.0098693E2,1.4215558E2,1.8116571E2,3.4777332E2,4.0815393E2,-9.210126E1,-7.088405E1,-4.8881477E1,-3.0572163E1,-1.5252487E1,4.0308466E0,2.0648594E1,4.260255E1],"split_indices":[3,3,3,3,3,3,1,3,3,3,3,3,3,0,0,0,3,3,3,3,3,3,3,0,3,0,0,0,0,0,0,0,0,3,3,3,3,0,0,0,0,0,0,0,0,0,0,0,0,0,0],"split_type":[0,0,0,0,0,0,0,0,0,0,0,0,0,0,0,0,0,0,0,0,0,0,0,0,0,0,0,0,0,0,0,0,0,0,0,0,0,0,0,0,0,0,0,0,0,0,0,0,0,0,0],"sum_hessian":[4.244E3,3.447E3,7.97E2,2.137E3,1.31E3,5.47E2,2.5E2,1.377E3,7.6E2,9.62E2,3.48E2,3.15E2,2.32E2,1.16E2,1.34E2,8.96E2,4.81E2,3.31E2,4.29E2,5.31E2,4.31E2,1.16E2,2.32E2,9.9E1,2.16E2,8.3E1,1.49E2,2.65E2,2.16E2,1.82E2,1.49E2,2.14E2,2.15E2,2.49E2,2.82E2,2.32E2,1.99E2,4.9E1,6.7E1,1.16E2,1.16E2,6.7E1,1.49E2,1.33E2,1.16E2,8.3E1,1.99E2,1.49E2,8.3E1,6.6E1,1.33E2],"tree_param":{"num_deleted":"0","num_feature":"5","num_nodes":"51","size_leaf_vector":"1"}},{"base_weights":[6.4637107E-1,-3.0645013E2,1.360981E3,-5.2021106E2,5.3309097E1,1.01356946E3,2.091905E3,-6.263029E2,-3.477921E2,-5.2429527E1,3.391657E2,8.5422186E2,1.2738153E3,5.428185E2,7.1702185E2,-6.641218E2,-5.641359E2,-4.3015967E2,-2.9201663E2,-1.1634269E2,4.972975E1,2.4516254E2,4.0797223E2,6.372103E2,9.4462506E2,3.4456747E2,4.0585684E2,-2.097765E2,-1.9238246E2,-1.7718108E2,-1.574291E2,-1.3976979E2,-1.2121901E2,-9.898753E1,-2.660881E2,-1.7840076E2,-6.991531E1,3.3565009E0,9.557785E1,1.8777054E2,8.640627E1,1.1068664E2,1.43975E2,1.6809833E2,2.1047958E2,2.588091E2,2.996148E2,-8.4443756E1,-7.4615364E1,-5.8590393E1,-4.2923832E1,-2.748347E1,-1.6530994E1,-4.9950223E0,8.068716E0,2.22721E1,3.595255E1,4.3618305E1,5.9781174E1],"categories":[],"categories_nodes":[],"categories_segments":[],"categories_sizes":[],"default_left":[0,0,0,0,0,0,0,0,0,0,0,0,0,0,0,0,0,0,0,0,0,0,0,0,0,0,0,0,0,0,0,0,0,0,0,0,0,0,0,0,0,0,0,0,0,0,0,0,0,0,0,0,0,0,0,0,0,0,0],"id":1,"left_children":[1,3,5,7,9,11,13,15,17,19,21,23,25,-1,-1,27,29,31,33,35,37,39,41,43,45,-1,-1,-1,-1,-1,-1,-1,-1,-1,47,49,51,53,55,57,-1,-1,-1,-1,-1,-1,-1,-1,-1,-1,-1,-1,-1,-1,-1,-1,-1,-1,-1],"loss_changes":[1.7737828E9,2.6641786E8,1.9645389E8,3.95312E7,3.906988E7,2.0973696E7,1.681856E7,2.785216E6,3.68748E6,6.169466E6,2.157324E6,5.931072E6,4.2624E5,0E0,0E0,2.17824E5,2.26736E5,1.22324E5,4.0212E5,1.6615005E6,7.735887E5,3.14878E5,3.8434E5,1.06864E5,1.7096E5,0E0,0E0,0E0,0E0,0E0,0E0,0E0,0E0,0E0,1.0464E4,1.200995E5,1.0228775E5,8.615874E4,8.5848125E4,3.678E3,0E0,0E0,0E0,0E0,0E0,0E0,0E0,0E0,0E0,0E0,0E0,0E0,0E0,0E0,0E0,0E0,0E0,0E0,0E0],"parents":[2147483647,0,0,1,1,2,2,3,3,4,4,5,5,6,6,7,7,8,8,9,9,10,10,11,11,12,12,15,15,16,16,17,17,18,18,19,19,20,20,21,21,22,22,23,23,24,24,34,34,35,35,36,36,37,37,38,38,39,39],"right_children":[2,4,6,8,10,12,14,16,18,20,22,24,26,-1,-1,28,30,32,34,36,38,40,42,44,46,-1,-1,-1,-1,-1,-1,-1,-1,-1,48,50,52,54,56,58,-1,-1,-1,-1,-1,-1,-1,-1,-1,-1,-1,-1,-1,-1,-1,-1,-1,-1,-1],"split_conditions":[2.0216E3,9.155E2,3.549E3,5.3905E2,1.45005E3,2.773E3,4.3562E3,3.454E2,7.153E2,1.19605E3,1.71395E3,2.3827E3,3.0589E3,5.428185E2,7.1702185E2,2.909E2,4.401E2,6.207E2,8.1015E2,1.0699E3,1.3145E3,1.593E3,1.85785E3,2.1185E3,2.5877E3,3.4456747E2,4.0585684E2,-2.097765E2,-1.9238246E2,-1.7718108E2,-1.574291E2,-1.3976979E2,-1.2121901E2,-9.898753E1,8.6505E2,1.00605E3,1.1383E3,1.2511E3,1.38585E3,1.49585E3,8.640627E1,1.1068664E2,1.43975E2,1.6809833E2,2.1047958E2,2.588091E2,2.996148E2,-8.4443756E1,-7.4615364E1,-5.8590393E1,-4.2923832E1,-2.748347E1,-1.6530994E1,-4.9950223E0,8.068716E0,2.22721E1,3.595255E1,4.3618305E1,5.9781174E1],"split_indices":[3,3,1,3,3,3,3,3,3,3,3,3,3,0,0,3,3,3,3,3,3,3,3,3,3,0,0,0,0,0,0,0,0,0,3,3,3,3,3,3,0,0,0,0,0,0,0,0,0,0,0,0,0,0,0,0,0,0,0],"split_type":[0,0,0,0,0,0,0,0,0,0,0,0,0,0,0,0,0,0,0,0,0,0,0,0,0,0,0,0,0,0,0,0,0,0,0,0,0,0,0,0,0,0,0,0,0,0,0,0,0,0,0,0,0,0,0,0,0,0,0],"sum_hessian":[4.244E3,3.463E3,7.81E2,2.172E3,1.291E3,5.31E2,2.5E2,1.343E3,8.29E2,9.43E2,3.48E2,3.32E2,1.99E2,1.32E2,1.18E2,8.29E2,5.14E2,3.32E2,4.97E2,5.8E2,3.63E2,1.49E2,1.99E2,1E2,2.32E2,8.3E1,1.16E2,3.15E2,5.14E2,2.99E2,2.15E2,1.33E2,1.99E2,1.97E2,3E2,2.47E2,3.33E2,1.81E2,1.82E2,6.6E1,8.3E1,1.33E2,6.6E1,5E1,5E1,9.9E1,1.33E2,1.51E2,1.49E2,1.64E2,8.3E1,1.33E2,2E2,9.8E1,8.3E1,9.9E1,8.3E1,1.7E1,4.9E1],"tree_param":{"num_deleted":"0","num_feature":"5","num_nodes":"59","size_leaf_vector":"1"}},{"base_weights":[9.3578273E-1,-2.2039488E2,9.32696E2,-3.7415247E2,1.4021375E1,7.0251794E2,1.4978054E3,-4.4150217E2,-2.5778812E2,-6.601548E1,1.8610521E2,5.261374E2,8.48767E2,1.3359623E3,5.3030817E2,-4.7009802E2,-4.0476367E2,-3.1058765E2,-2.1673618E2,-1.3647021E2,-2.0383627E1,1.0509745E2,2.542011E2,1.1891269E2,1.805758E2,2.2469217E2,2.8626352E2,3.4671948E2,4.2412274E2,-1.4747011E2,-1.3623024E2,-1.2659987E2,-1.131629E2,-1.0055936E2,-8.770909E1,-7.420361E1,-5.982228E1,-4.9426136E1,-1.1204899E2,-4.3511433E1,2.2042177E1,8.3255974E1,4.435496E1,6.513047E1,8.422263E1,-3.6947075E1,-2.8512255E1,-1.701737E1,-8.9965E0,1.19365156E-1,1.1217982E1,2.0768686E1,2.875571E1],"categories":[],"categories_nodes":[],"categories_segments":[],"categories_sizes":[],"default_left":[0,0,0,0,0,0,0,0,0,0,0,0,0,0,0,0,0,0,0,0,0,0,0,0,0,0,0,0,0,0,0,0,0,0,0,0,0,0,0,0,0,0,0,0,0,0,0,0,0,0,0,0,0],"id":2,"left_children":[1,3,5,7,9,11,13,15,17,19,21,23,25,27,-1,29,31,33,35,37,39,41,43,-1,-1,-1,-1,-1,-1,-1,-1,-1,-1,-1,-1,-1,-1,-1,45,47,49,51,-1,-1,-1,-1,-1,-1,-1,-1,-1,-1,-1],"loss_changes":[8.7563955E8,1.236697E8,1.0495949E8,1.6124672E7,1.8743632E7,1.4540608E7,7.903136E6,1.187008E6,1.58434E6,2.9839352E6,2.356325E6,2.37716E6,2.61048E6,4.8288E5,0E0,2.784E4,1.16752E5,5.045E4,1.79816E5,2.336515E5,5.55346E5,1.73512E5,1.69461E5,0E0,0E0,0E0,0E0,0E0,0E0,0E0,0E0,0E0,0E0,0E0,0E0,0E0,0E0,0E0,2.589125E4,6.369675E4,6.643785E4,1.7040625E4,0E0,0E0,0E0,0E0,0E0,0E0,0E0,0E0,0E0,0E0,0E0],"parents":[2147483647,0,0,1,1,2,2,3,3,4,4,5,5,6,6,7,7,8,8,9,9,10,10,11,11,12,12,13,13,15,15,16,16,17,17,18,18,19,19,20,20,21,21,22,22,38,38,39,39,40,40,41,41],"right_children":[2,4,6,8,10,12,14,16,18,20,22,24,26,28,-1,30,32,34,36,38,40,42,44,-1,-1,-1,-1,-1,-1,-1,-1,-1,-1,-1,-1,-1,-1,-1,46,48,50,52,-1,-1,-1,-1,-1,-1,-1,-1,-1,-1,-1],"split_conditions":[1.93235E3,8.761E2,3.6513E3,5.184E2,1.36625E3,2.64105E3,4.5261E3,3.315E2,6.9555E2,1.08625E3,1.6182E3,2.18765E3,3.065E3,3.84255E3,5.3030817E2,2.775E2,4.183E2,5.9435E2,7.8605E2,9.538E2,1.21505E3,1.504E3,1.74575E3,1.1891269E2,1.805758E2,2.2469217E2,2.8626352E2,3.4671948E2,4.2412274E2,-1.4747011E2,-1.3623024E2,-1.2659987E2,-1.131629E2,-1.0055936E2,-8.770909E1,-7.420361E1,-5.982228E1,-4.9426136E1,1.02235E3,1.154E3,1.2786E3,1.40365E3,4.435496E1,6.513047E1,8.422263E1,-3.6947075E1,-2.8512255E1,-1.701737E1,-8.9965E0,1.19365156E-1,1.1217982E1,2.0768686E1,2.875571E1],"split_indices":[0,3,3,3,3,3,3,3,3,3,3,3,1,3,0,2,3,3,3,3,3,1,3,0,0,0,0,0,0,0,0,0,0,0,0,0,0,0,3,3,3,3,0,0,0,0,0,0,0,0,0,0,0],"split_type":[0,0,0,0,0,0,0,0,0,0,0,0,0,0,0,0,0,0,0,0,0,0,0,0,0,0,0,0,0,0,0,0,0,0,0,0,0,0,0,0,0,0,0,0,0,0,0,0,0,0,0,0,0],"sum_hessian":[4.244E3,3.43E3,8.14E2,2.071E3,1.359E3,5.8E2,2.34E2,1.31E3,7.61E2,9.28E2,4.31E2,2.65E2,3.15E2,1.5E2,8.4E1,7.3E2,5.8E2,3.3E2,4.31E2,3.64E2,5.64E2,1.98E2,2.33E2,1E2,1.65E2,1.66E2,1.49E2,5E1,1E2,2.99E2,4.31E2,3.48E2,2.32E2,1.33E2,1.97E2,1.51E2,2.8E2,1.66E2,1.98E2,3.65E2,1.99E2,1.33E2,6.5E1,1.01E2,1.32E2,1.16E2,8.2E1,1.83E2,1.82E2,8.3E1,1.16E2,6.6E1,6.7E1],"tree_param":{"num_deleted":"0","num_feature":"5","num_nodes":"53","size_leaf_vector":"1"}},{"base_weights":[9.8000747E-1,-1.4863948E2,6.8179626E2,-2.5376662E2,3.300029E1,4.9742358E2,1.0218553E3,-3.0463705E2,-1.6351543E2,-2.2516764E1,1.7124771E2,4.3280902E2,1.868701E2,2.5114491E2,1.1573073E3,-3.2185245E2,-2.6248453E2,-1.9902501E2,-1.3555025E2,-5.647124E1,2.1672222E1,1.2491852E2,2.0907634E2,9.930303E1,1.423926E2,3.1622916E2,4.0065518E2,-1.0170921E2,-9.154499E1,-8.258645E1,-7.244828E1,-6.316536E1,-5.3544476E1,-4.456127E1,-3.6828712E1,-8.165571E1,-3.5772057E1,1.1146057E0,5.057072E1,2.5313242E1,1.4152258E2,5.3345108E1,7.138684E1,-2.8241344E1,-2.1497017E1,-1.4243158E1,-9.167996E0,-2.37639E0,4.9955425E0,1.2779341E1,1.8479044E1,3.8628696E1,4.6653336E1],"categories":[],"categories_nodes":[],"categories_segments":[],"categories_sizes":[],"default_left":[0,0,0,0,0,0,0,0,0,0,0,0,0,0,0,0,0,0,0,0,0,0,0,0,0,0,0,0,0,0,0,0,0,0,0,0,0,0,0,0,0,0,0,0,0,0,0,0,0,0,0,0,0],"id":3,"left_children":[1,3,5,7,9,11,13,15,17,19,21,23,-1,-1,25,27,29,31,33,35,37,39,41,-1,-1,-1,-1,-1,-1,-1,-1,-1,-1,-1,-1,43,45,47,49,-1,51,-1,-1,-1,-1,-1,-1,-1,-1,-1,-1,-1,-1],"loss_changes":[4.3251142E8,6.6479E7,4.745539E7,1.00736E7,9.804944E6,3.768E6,5.73616E6,9.38E5,7.64468E5,1.3696014E6,6.15324E5,1.256728E6,0E0,0E0,1.387984E6,1.82312E5,4.4782E4,4.506E4,5.6335E4,2.6606875E5,2.3579506E5,1.0047425E5,1.38239E5,0E0,0E0,0E0,0E0,0E0,0E0,0E0,0E0,0E0,0E0,0E0,0E0,2.221E4,1.5936375E4,3.2843406E4,1.1881281E4,0E0,8.6E2,0E0,0E0,0E0,0E0,0E0,0E0,0E0,0E0,0E0,0E0,0E0,0E0],"parents":[2147483647,0,0,1,1,2,2,3,3,4,4,5,5,6,6,7,7,8,8,9,9,10,10,11,11,14,14,15,15,16,16,17,17,18,18,19,19,20,20,21,21,22,22,35,35,36,36,37,37,38,38,40,40],"right_children":[2,4,6,8,10,12,14,16,18,20,22,24,-1,-1,26,28,30,32,34,36,38,40,42,-1,-1,-1,-1,-1,-1,-1,-1,-1,-1,-1,-1,44,46,48,50,-1,52,-1,-1,-1,-1,-1,-1,-1,-1,-1,-1,-1,-1],"split_conditions":[2.05655E3,9.361E2,3.2632E3,5.7985E2,1.45005E3,2.8125E3,3.92115E3,3.995E2,7.6735E2,1.1841E3,1.72515E3,2.4171E3,1.868701E2,2.5114491E2,4.67525E3,3.1185E2,4.98E2,6.831E2,8.503E2,1.08625E3,1.32425E3,1.55295E3,1.8244E3,9.930303E1,1.423926E2,3.1622916E2,4.0065518E2,-1.0170921E2,-9.154499E1,-8.258645E1,-7.244828E1,-6.316536E1,-5.3544476E1,-4.456127E1,-3.6828712E1,9.9185E2,1.12945E3,1.2608E3,1.39645E3,2.5313242E1,1.6831E3,5.3345108E1,7.138684E1,-2.8241344E1,-2.1497017E1,-1.4243158E1,-9.167996E0,-2.37639E0,4.9955425E0,1.2779341E1,1.8479044E1,3.8628696E1,4.6653336E1],"split_indices":[3,3,3,3,3,3,3,3,3,3,3,3,0,0,3,3,3,3,3,3,3,3,3,0,0,0,0,0,0,0,0,0,0,0,0,3,3,3,3,0,3,0,0,0,0,0,0,0,0,0,0,0,0],"split_type":[0,0,0,0,0,0,0,0,0,0,0,0,0,0,0,0,0,0,0,0,0,0,0,0,0,0,0,0,0,0,0,0,0,0,0,0,0,0,0,0,0,0,0,0,0,0,0,0,0,0,0,0,0],"sum_hessian":[4.244E3,3.48E3,7.64E2,2.204E3,1.276E3,4.97E2,2.67E2,1.408E3,7.96E2,9.11E2,3.65E2,3.31E2,1.66E2,1.16E2,1.51E2,9.95E2,4.13E2,3.48E2,4.48E2,5.15E2,3.96E2,1.66E2,1.99E2,9.9E1,2.32E2,1E2,5.1E1,4.81E2,5.14E2,2.49E2,1.64E2,2.17E2,1.31E2,2.17E2,2.31E2,2.31E2,2.84E2,2.32E2,1.64E2,5E1,1.16E2,9.9E1,1E2,9.9E1,1.32E2,8.5E1,1.99E2,1.47E2,8.5E1,9.8E1,6.6E1,6.6E1,5E1],"tree_param":{"num_deleted":"0","num_feature":"5","num_nodes":"53","size_leaf_vector":"1"}},{"base_weights":[9.3247265E-1,-1.08343155E2,4.609616E2,-1.8789201E2,1.3803481E0,3.2746405E2,7.0941144E2,-2.1810919E2,-1.3339E2,-3.9294964E1,8.701422E1,2.4017377E2,3.863708E2,6.410465E2,2.739426E2,-2.3454703E2,-2.0255591E2,-1.5673488E2,-1.1281266E2,-7.346421E1,-1.4022447E1,4.555244E1,1.22182625E2,5.8370068E1,8.324732E1,1.0545917E2,1.2932033E2,1.6268445E2,2.0958138E2,-7.601582E1,-6.83775E1,-6.290964E1,-5.65872E1,-4.9899174E1,-4.3169296E1,-3.6746918E1,-2.9803051E1,-2.5378162E1,-5.8831394E1,-2.3983938E1,6.848113E0,3.3444084E1,5.9402195E1,1.1206453E2,4.4329258E1,-1.908611E1,-1.5688514E1,-9.584865E0,-4.972646E0,6.7565095E-1,5.609801E0,8.242482E0,1.1246578E1,1.5092493E1,2.0296494E1,2.8780455E1,3.6207855E1],"categories":[],"categories_nodes":[],"categories_segments":[],"categories_sizes":[],"default_left":[0,0,0,0,0,0,0,0,0,0,0,0,0,0,0,0,0,0,0,0,0,0,0,0,0,0,0,0,0,0,0,0,0,0,0,0,0,0,0,0,0,0,0,0,0,0,0,0,0,0,0,0,0,0,0,0,0],"id":4,"left_children":[1,3,5,7,9,11,13,15,17,19,21,23,25,27,-1,29,31,33,35,37,39,41,43,-1,-1,-1,-1,-1,-1,-1,-1,-1,-1,-1,-1,-1,-1,-1,45,47,49,51,53,55,-1,-1,-1,-1,-1,-1,-1,-1,-1,-1,-1,-1,-1],"loss_changes":[2.13446E8,2.9947332E7,2.6799152E7,3.246584E6,5.0296545E6,2.642732E6,3.370192E6,2.79236E5,3.24347E5,8.443781E5,6.7247125E5,3.15328E5,3.4056E5,8.49056E5,0E0,1.8968E4,2.6524E4,1.6838E4,3.7622E4,6.27725E4,1.1742093E5,3.4068375E4,4.8409E4,0E0,0E0,0E0,0E0,0E0,0E0,0E0,0E0,0E0,0E0,0E0,0E0,0E0,0E0,0E0,2.4013125E3,2.2013312E4,9.925447E3,1.7946562E3,4.0263438E3,1.4029E4,0E0,0E0,0E0,0E0,0E0,0E0,0E0,0E0,0E0,0E0,0E0,0E0,0E0],"parents":[2147483647,0,0,1,1,2,2,3,3,4,4,5,5,6,6,7,7,8,8,9,9,10,10,11,11,12,12,13,13,15,15,16,16,17,17,18,18,19,19,20,20,21,21,22,22,38,38,39,39,40,40,41,41,42,42,43,43],"right_children":[2,4,6,8,10,12,14,16,18,20,22,24,26,28,-1,30,32,34,36,38,40,42,44,-1,-1,-1,-1,-1,-1,-1,-1,-1,-1,-1,-1,-1,-1,-1,46,48,50,52,54,56,-1,-1,-1,-1,-1,-1,-1,-1,-1,-1,-1,-1,-1],"split_conditions":[1.942E3,8.554E2,3.20615E3,5.0495E2,1.32545E3,2.55175E3,4.5768E3,3.226E2,6.695E2,1.05785E3,1.56E3,2.21855E3,2.85845E3,3.75005E3,2.739426E2,2.6195E2,4.0965E2,6.112E2,7.959E2,9.4545E2,1.205E3,1.41835E3,1.8031E3,5.8370068E1,8.324732E1,1.0545917E2,1.2932033E2,1.6268445E2,2.0958138E2,-7.601582E1,-6.83775E1,-6.290964E1,-5.65872E1,-4.9899174E1,-4.3169296E1,-3.6746918E1,-2.9803051E1,-2.5378162E1,9.9955E2,1.14835E3,1.29735E3,1.37615E3,1.49585E3,1.69985E3,4.4329258E1,-1.908611E1,-1.5688514E1,-9.584865E0,-4.972646E0,6.7565095E-1,5.609801E0,8.242482E0,1.1246578E1,1.5092493E1,2.0296494E1,2.8780455E1,3.6207855E1],"split_indices":[3,3,3,3,2,3,3,3,3,3,2,1,3,3,0,3,3,3,3,3,3,3,3,0,0,0,0,0,0,0,0,0,0,0,0,0,0,0,3,3,3,3,3,3,0,0,0,0,0,0,0,0,0,0,0,0,0],"split_type":[0,0,0,0,0,0,0,0,0,0,0,0,0,0,0,0,0,0,0,0,0,0,0,0,0,0,0,0,0,0,0,0,0,0,0,0,0,0,0,0,0,0,0,0,0,0,0,0,0,0,0,0,0,0,0,0,0],"sum_hessian":[4.244E3,3.43E3,8.14E2,1.988E3,1.442E3,5.31E2,2.83E2,1.277E3,7.11E2,9.78E2,4.64E2,2.16E2,3.15E2,2.15E2,6.8E1,6.14E2,6.63E2,3.3E2,3.81E2,4.15E2,5.63E2,2.14E2,2.5E2,1E2,1.16E2,1.82E2,1.33E2,8.3E1,1.32E2,1.5E2,4.64E2,4.29E2,2.34E2,1.82E2,1.48E2,2.17E2,1.64E2,2.33E2,1.82E2,3.81E2,1.82E2,1.16E2,9.8E1,1.83E2,6.7E1,1E2,8.2E1,1.82E2,1.99E2,1.32E2,5E1,5E1,6.6E1,5E1,4.8E1,6.8E1,1.15E2],"tree_param":{"num_deleted":"0","num_feature":"5","num_nodes":"57","size_leaf_vector":"1"}},{"base_weights":[8.164259E-1,-7.2132385E1,3.4140546E2,-1.2533096E2,1.6776482E1,2.6138885E2,5.351092E2,-1.4930519E2,-8.026987E1,-1.1766053E1,8.614622E1,2.1157384E2,3.1673392E2,4.9426376E2,2.1836282E2,-1.6067299E2,-1.3247586E2,-9.797262E1,-6.75756E1,-2.9365911E1,1.01030855E1,7.1902756E1,1.1779248E2,5.1712376E1,6.9615685E1,8.442842E1,1.1006352E2,1.2894331E2,1.5808444E2,-5.2579315E1,-4.6620125E1,-4.198212E1,-3.57643E1,-3.2323902E1,-2.7925406E1,-2.2104841E1,-1.8495052E1,-4.0335083E1,-1.7577246E1,-7.205187E-1,2.382875E1,4.8689972E1,8.2164894E1,2.9588911E1,3.7336197E1,-1.350644E1,-9.631642E0,-7.1269927E0,-4.7740846E0,-1.7876531E0,1.9289788E0,5.2919474E0,8.636749E0,1.2521362E1,1.730582E1,2.1264608E1,2.576209E1],"categories":[],"categories_nodes":[],"categories_segments":[],"categories_sizes":[],"default_left":[0,0,0,0,0,0,0,0,0,0,0,0,0,0,0,0,0,0,0,0,0,0,0,0,0,0,0,0,0,0,0,0,0,0,0,0,0,0,0,0,0,0,0,0,0,0,0,0,0,0,0,0,0,0,0,0,0],"id":5,"left_children":[1,3,5,7,9,11,13,15,17,19,21,23,25,27,-1,29,31,33,35,37,39,41,43,-1,-1,-1,-1,-1,-1,-1,-1,-1,-1,-1,-1,-1,-1,45,47,49,51,53,55,-1,-1,-1,-1,-1,-1,-1,-1,-1,-1,-1,-1,-1,-1],"loss_changes":[1.0549405E8,1.6542302E7,1.1469256E7,2.35172E6,2.5947978E6,1.39972E6,1.356696E6,2.51718E5,1.64619E5,3.5786297E5,1.6371775E5,1.87175E5,3.39348E5,1.59016E5,0E0,3.7928E4,4.0831E4,5.0665E3,1.16335E4,6.5886625E4,6.167006E4,5.9364E4,2.6605E3,0E0,0E0,0E0,0E0,0E0,0E0,0E0,0E0,0E0,0E0,0E0,0E0,0E0,0E0,8.8134375E3,2.1920078E3,8.765648E3,5.1101875E3,2.8458125E3,1.57075E3,0E0,0E0,0E0,0E0,0E0,0E0,0E0,0E0,0E0,0E0,0E0,0E0,0E0,0E0],"parents":[2147483647,0,0,1,1,2,2,3,3,4,4,5,5,6,6,7,7,8,8,9,9,10,10,11,11,12,12,13,13,15,15,16,16,17,17,18,18,19,19,20,20,21,21,22,22,37,37,38,38,39,39,40,40,41,41,42,42],"right_children":[2,4,6,8,10,12,14,16,18,20,22,24,26,28,-1,30,32,34,36,38,40,42,44,-1,-1,-1,-1,-1,-1,-1,-1,-1,-1,-1,-1,-1,-1,46,48,50,52,54,56,-1,-1,-1,-1,-1,-1,-1,-1,-1,-1,-1,-1,-1,-1],"split_conditions":[2.08175E3,9.278E2,3.7E3,5.865E2,1.46E3,2.74085E3,4.7886E3,3.5545E2,7.594E2,1.1777E3,1.8244E3,2.474E3,3.149E3,3.96E3,2.1836282E2,2.6845E2,4.8555E2,6.4295E2,8.446E2,1.10355E3,1.30055E3,1.65065E3,1.8781E3,5.1712376E1,6.9615685E1,8.442842E1,1.1006352E2,1.2894331E2,1.5808444E2,-5.2579315E1,-4.6620125E1,-4.198212E1,-3.57643E1,-3.2323902E1,-2.7925406E1,-2.2104841E1,-1.8495052E1,1.02235E3,1.12395E3,1.24095E3,1.37615E3,1.55295E3,1.69985E3,2.9588911E1,3.7336197E1,-1.350644E1,-9.631642E0,-7.1269927E0,-4.7740846E0,-1.7876531E0,1.9289788E0,5.2919474E0,8.636749E0,1.2521362E1,1.730582E1,2.1264608E1,2.576209E1],"split_indices":[3,3,3,3,1,3,3,3,3,3,3,3,3,1,0,3,3,3,3,3,2,1,3,0,0,0,0,0,0,0,0,0,0,0,0,0,0,3,3,3,3,3,3,0,0,0,0,0,0,0,0,0,0,0,0,0,0],"split_type":[0,0,0,0,0,0,0,0,0,0,0,0,0,0,0,0,0,0,0,0,0,0,0,0,0,0,0,0,0,0,0,0,0,0,0,0,0,0,0,0,0,0,0,0,0,0,0,0,0,0,0,0,0,0,0,0,0],"sum_hessian":[4.244E3,3.496E3,7.48E2,2.187E3,1.309E3,5.31E2,2.17E2,1.426E3,7.61E2,9.28E2,3.81E2,2.82E2,2.49E2,1.82E2,3.5E1,8.46E2,5.8E2,3.15E2,4.46E2,5.14E2,4.14E2,2.65E2,1.16E2,1E2,1.82E2,1.5E2,9.9E1,6.6E1,1.16E2,2.16E2,6.3E2,3.65E2,2.15E2,9.8E1,2.17E2,2.14E2,2.32E2,2.65E2,2.49E2,2.32E2,1.82E2,8.3E1,1.82E2,3.4E1,8.2E1,1.66E2,9.9E1,5E1,1.99E2,1.34E2,9.8E1,8.3E1,9.9E1,5E1,3.3E1,5E1,1.32E2],"tree_param":{"num_deleted":"0","num_feature":"5","num_nodes":"57","size_leaf_vector":"1"}},{"base_weights":[7.284345E-1,-5.0539562E1,2.4009218E2,-8.7858635E1,1.1830419E1,1.8662286E2,3.8494077E2,-1.0435693E2,-5.5762787E1,-8.258825E0,6.0655228E1,1.6321005E2,7.7374405E1,3.542907E2,1.5467366E2,-1.149137E2,-9.481046E1,-6.723732E1,-4.6426292E1,-1.9823307E1,8.279111E0,4.590706E1,7.6442E1,1.3423393E2,5.5617607E1,8.822763E1,1.10104805E2,-3.9757862E1,-3.3674263E1,-2.9989384E1,-2.5144102E1,-2.1471226E1,-1.8450686E1,-1.4749107E1,-1.2384216E1,-3.0095354E1,-1.3029175E1,1.1187226E0,1.7732723E1,9.581837E0,1.5764482E1,1.9989368E1,2.6237827E1,3.206753E1,4.309156E1,-1.0234442E1,-7.89047E0,-5.574241E0,-3.1740215E0,-6.740897E-1,1.9049779E0,4.591144E0,6.858594E0],"categories":[],"categories_nodes":[],"categories_segments":[],"categories_sizes":[],"default_left":[0,0,0,0,0,0,0,0,0,0,0,0,0,0,0,0,0,0,0,0,0,0,0,0,0,0,0,0,0,0,0,0,0,0,0,0,0,0,0,0,0,0,0,0,0,0,0,0,0,0,0,0,0],"id":6,"left_children":[1,3,5,7,9,11,13,15,17,19,21,23,-1,25,-1,27,29,31,33,35,37,39,41,43,-1,-1,-1,-1,-1,-1,-1,-1,-1,-1,-1,45,47,49,51,-1,-1,-1,-1,-1,-1,-1,-1,-1,-1,-1,-1,-1,-1],"loss_changes":[5.21055E7,8.140622E6,5.729132E6,1.152784E6,1.2854191E6,8.74266E5,6.22154E5,1.34632E5,7.66915E4,1.7783783E5,8.543025E4,2.42496E5,0E0,1.9228E4,0E0,1.7103E4,3.4924E4,3.849375E3,3.801875E3,3.778283E4,2.5906018E4,1.6874031E4,1.3952875E4,3.196025E4,0E0,0E0,0E0,0E0,0E0,0E0,0E0,0E0,0E0,0E0,0E0,2.4117344E3,4.3038633E3,3.8701133E3,1.7057812E3,0E0,0E0,0E0,0E0,0E0,0E0,0E0,0E0,0E0,0E0,0E0,0E0,0E0,0E0],"parents":[2147483647,0,0,1,1,2,2,3,3,4,4,5,5,6,6,7,7,8,8,9,9,10,10,11,11,13,13,15,15,16,16,17,17,18,18,19,19,20,20,21,21,22,22,23,23,35,35,36,36,37,37,38,38],"right_children":[2,4,6,8,10,12,14,16,18,20,22,24,-1,26,-1,28,30,32,34,36,38,40,42,44,-1,-1,-1,-1,-1,-1,-1,-1,-1,-1,-1,46,48,50,52,-1,-1,-1,-1,-1,-1,-1,-1,-1,-1,-1,-1,-1,-1],"split_conditions":[2.105E3,9.278E2,3.715E3,6.05E2,1.46E3,3.12085E3,4.7886E3,3.2725E2,7.772E2,1.18935E3,1.76505E3,2.6044E3,7.7374405E1,3.8861E3,1.5467366E2,2.5105E2,4.7835E2,6.73E2,8.6985E2,1.05785E3,1.32425E3,1.6096E3,1.8781E3,2.2753E3,5.5617607E1,8.822763E1,1.10104805E2,-3.9757862E1,-3.3674263E1,-2.9989384E1,-2.5144102E1,-2.1471226E1,-1.8450686E1,-1.4749107E1,-1.2384216E1,9.8545E2,1.12395E3,1.2608E3,1.4216E3,9.581837E0,1.5764482E1,1.9989368E1,2.6237827E1,3.206753E1,4.309156E1,-1.0234442E1,-7.89047E0,-5.574241E0,-3.1740215E0,-6.740897E-1,1.9049779E0,4.591144E0,6.858594E0],"split_indices":[1,3,2,1,1,3,3,3,3,3,3,3,0,3,0,3,3,2,3,3,3,1,3,2,0,0,0,0,0,0,0,0,0,0,0,3,3,3,1,0,0,0,0,0,0,0,0,0,0,0,0,0,0],"split_type":[0,0,0,0,0,0,0,0,0,0,0,0,0,0,0,0,0,0,0,0,0,0,0,0,0,0,0,0,0,0,0,0,0,0,0,0,0,0,0,0,0,0,0,0,0,0,0,0,0,0,0,0,0],"sum_hessian":[4.244E3,3.496E3,7.48E2,2.187E3,1.309E3,5.48E2,2E2,1.443E3,7.44E2,9.28E2,3.81E2,4.15E2,1.33E2,1.65E2,3.5E1,6.8E2,7.63E2,3.31E2,4.13E2,5.46E2,3.82E2,1.99E2,1.82E2,1.83E2,2.32E2,3.3E1,1.32E2,8.3E1,5.97E2,5.14E2,2.49E2,1.82E2,1.49E2,2.64E2,1.49E2,2.16E2,3.3E2,2.18E2,1.64E2,6.6E1,1.33E2,1E2,8.2E1,5E1,1.33E2,1.01E2,1.15E2,9.9E1,2.31E2,1.33E2,8.5E1,1.14E2,5E1],"tree_param":{"num_deleted":"0","num_feature":"5","num_nodes":"53","size_leaf_vector":"1"}},{"base_weights":[6.0952044E-1,-3.5426327E1,1.6885619E2,-6.2955074E1,6.1985383E0,1.1978773E2,2.4877534E2,-7.502644E1,-4.367926E1,-8.398874E0,4.0619427E1,9.776251E1,1.4139337E2,2.3504257E2,1.283822E2,-8.445482E1,-7.0473785E1,-5.125856E1,-3.4993565E1,-1.9610897E1,4.918106E-1,2.8134789E1,5.1991226E1,2.365371E1,3.1417439E1,4.033783E1,4.687231E1,6.041346E1,8.001051E1,-3.0806303E1,-2.4768957E1,-2.1929722E1,-1.9237535E1,-1.6885263E1,-1.3777314E1,-1.2041081E1,-9.779909E0,-2.3654348E1,-1.2964781E1,-4.8133407E0,8.581733E0,5.7472014E0,3.433967E1,1.3457164E1,5.9818108E1,-7.850165E0,-6.056278E0,-4.512689E0,-3.2571893E0,-2.249728E0,-6.295777E-1,1.5754104E0,3.7277243E0,8.956907E0,1.11077385E1,1.8534672E1,1.3370767E1],"categories":[],"categories_nodes":[],"categories_segments":[],"categories_sizes":[],"default_left":[0,0,0,0,0,0,0,0,0,0,0,0,0,0,0,0,0,0,0,0,0,0,0,0,0,0,0,0,0,0,0,0,0,0,0,0,0,0,0,0,0,0,0,0,0,0,0,0,0,0,0,0,0,0,0,0,0],"id":7,"left_children":[1,3,5,7,9,11,13,15,17,19,21,23,25,27,-1,29,31,33,35,37,39,41,43,-1,-1,-1,-1,-1,-1,-1,-1,-1,-1,-1,-1,-1,-1,45,47,49,51,-1,53,-1,55,-1,-1,-1,-1,-1,-1,-1,-1,-1,-1,-1,-1],"loss_changes":[2.5743038E7,4.007534E6,2.90741E6,4.86526E5,7.0026225E5,2.07932E5,5.9818E5,4.9549E4,5.172725E4,9.7598875E4,5.7455938E4,2.25615E4,2.98E3,2.2979E5,0E0,5.86975E3,9.9465E3,8.996125E3,3.3949688E3,1.1329453E4,2.3517596E4,1.04829375E4,9.3775625E3,0E0,0E0,0E0,0E0,0E0,0E0,0E0,0E0,0E0,0E0,0E0,0E0,0E0,0E0,1.8064219E3,5.634844E2,2.3976309E3,2.7127754E3,0E0,3.0354688E2,0E0,2.4146875E2,0E0,0E0,0E0,0E0,0E0,0E0,0E0,0E0,0E0,0E0,0E0,0E0],"parents":[2147483647,0,0,1,1,2,2,3,3,4,4,5,5,6,6,7,7,8,8,9,9,10,10,11,11,12,12,13,13,15,15,16,16,17,17,18,18,19,19,20,20,21,21,22,22,37,37,38,38,39,39,40,40,42,42,44,44],"right_children":[2,4,6,8,10,12,14,16,18,20,22,24,26,28,-1,30,32,34,36,38,40,42,44,-1,-1,-1,-1,-1,-1,-1,-1,-1,-1,-1,-1,-1,-1,46,48,50,52,-1,54,-1,56,-1,-1,-1,-1,-1,-1,-1,-1,-1,-1,-1,-1],"split_conditions":[2.08175E3,8.855E2,3.1622E3,5.0985E2,1.41835E3,2.6639E3,4.89645E3,3.0485E2,7.499E2,1.1341E3,1.72515E3,2.375E3,3.09175E3,3.91495E3,1.283822E2,2.4075E2,4.0525E2,6.36E2,8.0095E2,1.0307E3,1.2829E3,1.55295E3,1.8765E3,2.365371E1,3.1417439E1,4.033783E1,4.687231E1,6.041346E1,8.001051E1,-3.0806303E1,-2.4768957E1,-2.1929722E1,-1.9237535E1,-1.6885263E1,-1.3777314E1,-1.2041081E1,-9.779909E0,9.647E2,1.10135E3,1.1777E3,1.35965E3,5.7472014E0,1.621E3,1.3457164E1,2.420319E6,-7.850165E0,-6.056278E0,-4.512689E0,-3.2571893E0,-2.249728E0,-6.295777E-1,1.5754104E0,3.7277243E0,8.956907E0,1.11077385E1,1.8534672E1,1.3370767E1],"split_indices":[3,3,2,3,3,3,3,3,3,3,3,0,3,0,0,3,3,3,3,3,1,3,1,0,0,0,0,0,0,0,0,0,0,0,0,0,0,3,0,3,3,0,2,0,4,0,0,0,0,0,0,0,0,0,0,0,0],"split_type":[0,0,0,0,0,0,0,0,0,0,0,0,0,0,0,0,0,0,0,0,0,0,0,0,0,0,0,0,0,0,0,0,0,0,0,0,0,0,0,0,0,0,0,0,0,0,0,0,0,0,0,0,0,0,0,0,0],"sum_hessian":[4.244E3,3.496E3,7.48E2,2.104E3,1.392E3,4.65E2,2.83E2,1.292E3,8.12E2,9.78E2,4.14E2,2.33E2,2.32E2,2.65E2,1.8E1,4.15E2,8.77E2,4.31E2,3.81E2,4.32E2,5.46E2,1.99E2,2.15E2,6.6E1,1.67E2,1.65E2,6.7E1,1.32E2,1.33E2,3.4E1,3.81E2,6.13E2,2.64E2,2.17E2,2.14E2,1.16E2,2.65E2,2.67E2,1.65E2,3.3E2,2.16E2,8.3E1,1.16E2,1.16E2,9.9E1,1.51E2,1.16E2,8E1,8.5E1,1.65E2,1.65E2,1.17E2,9.9E1,4.8E1,6.8E1,8.5E1,1.4E1],"tree_param":{"num_deleted":"0","num_feature":"5","num_nodes":"57","size_leaf_vector":"1"}},{"base_weights":[5.005696E-1,-2.4491703E1,1.2047645E2,-4.300043E1,6.6809993E0,9.150385E1,1.8836826E2,-5.2451027E1,-2.910911E1,-3.50549E0,3.1436413E1,7.567411E1,1.12893654E2,1.7596986E2,9.268904E1,-5.8032104E1,-4.8391815E1,-3.502896E1,-2.2654728E1,-8.30944E0,6.6945157E0,2.5597132E1,1.26157255E1,1.8351942E1,8.0963036E1,3.053196E1,1.2928946E2,1.5873862E2,5.9362698E1,-2.110234E1,-1.6995672E1,-1.5047295E1,-1.2945767E1,-1.1768599E1,-9.521881E0,-2.4537725E1,-6.1008506E0,-1.3721847E1,-4.778193E0,3.3924675E0,9.92992E0,5.318126E0,2.8280966E1,2.2969465E1,2.6880377E1,8.364295E0,1.3017534E2,1.6576129E2,3.327146E1,-8.099602E0,-7.0274606E0,-4.551843E0,-3.1745412E0,-1.8743414E0,-7.481996E-1,6.240923E-1,1.4774668E0,2.6205726E0,3.623317E0,7.8058305E0,9.21584E0,4.200876E1,3.330059E1,4.6309708E1,6.369549E1],"categories":[],"categories_nodes":[],"categories_segments":[],"categories_sizes":[],"default_left":[0,0,0,0,0,0,0,0,0,0,0,0,0,0,0,0,0,0,0,0,0,0,0,0,0,0,0,0,0,0,0,0,0,0,0,0,0,0,0,0,0,0,0,0,0,0,0,0,0,0,0,0,0,0,0,0,0,0,0,0,0,0,0,0,0],"id":8,"left_children":[1,3,5,7,9,11,13,15,17,19,21,23,25,27,-1,29,31,33,35,37,39,41,-1,-1,43,-1,45,47,-1,-1,-1,-1,-1,-1,-1,49,-1,51,53,55,57,-1,59,-1,-1,-1,61,63,-1,-1,-1,-1,-1,-1,-1,-1,-1,-1,-1,-1,-1,-1,-1,-1,-1],"loss_changes":[1.2731455E7,2.0277495E6,1.422609E6,2.8794875E5,3.3045388E5,1.658335E5,2.715825E5,2.689225E4,3.3403375E4,4.5576926E4,2.2603688E4,1.7979E4,2.640725E4,4.40825E4,0E0,5.305625E3,4.913E3,5.1785625E3,1.3826719E3,1.2013559E4,3.1499844E3,4.7580156E3,0E0,0E0,1.346E3,0E0,3.91675E3,2.091925E4,0E0,0E0,0E0,0E0,0E0,0E0,0E0,5.671875E0,0E0,9.7391016E2,1.273459E3,2.893612E2,2.7938965E2,0E0,2.1540625E2,0E0,0E0,0E0,1.37875E2,2.027975E4,0E0,0E0,0E0,0E0,0E0,0E0,0E0,0E0,0E0,0E0,0E0,0E0,0E0,0E0,0E0,0E0,0E0],"parents":[2147483647,0,0,1,1,2,2,3,3,4,4,5,5,6,6,7,7,8,8,9,9,10,10,11,11,12,12,13,13,15,15,16,16,17,17,18,18,19,19,20,20,21,21,24,24,26,26,27,27,35,35,37,37,38,38,39,39,40,40,42,42,46,46,47,47],"right_children":[2,4,6,8,10,12,14,16,18,20,22,24,26,28,-1,30,32,34,36,38,40,42,-1,-1,44,-1,46,48,-1,-1,-1,-1,-1,-1,-1,50,-1,52,54,56,58,-1,60,-1,-1,-1,62,64,-1,-1,-1,-1,-1,-1,-1,-1,-1,-1,-1,-1,-1,-1,-1,-1,-1],"split_conditions":[2.12015E3,9.5E2,3.744E3,5.111E2,1.45905E3,2.85855E3,4.8502E3,3.1805E2,7.611E2,1.24095E3,1.79905E3,2.474E3,3.16935E3,4.42305E3,9.268904E1,2.467E2,4.298E2,6.36E2,8.6E2,1.10355E3,1.35965E3,1.6182E3,1.26157255E1,1.8351942E1,2.68055E3,3.053196E1,8.029E3,4.3562E3,5.9362698E1,-2.110234E1,-1.6995672E1,-1.5047295E1,-1.2945767E1,-1.1768599E1,-9.521881E0,8.0095E2,-6.1008506E0,1.0307E3,1.17205E3,1.29735E3,1.41835E3,5.318126E0,1.72E3,2.2969465E1,2.6880377E1,8.364295E0,3.5061E3,4.09185E3,3.327146E1,-8.099602E0,-7.0274606E0,-4.551843E0,-3.1745412E0,-1.8743414E0,-7.481996E-1,6.240923E-1,1.4774668E0,2.6205726E0,3.623317E0,7.8058305E0,9.21584E0,4.200876E1,3.330059E1,4.6309708E1,6.369549E1],"split_indices":[0,1,1,2,2,1,2,3,2,3,2,3,3,3,0,3,3,3,3,3,3,3,0,0,3,0,4,3,0,0,0,0,0,0,0,3,0,3,3,3,3,0,2,0,0,0,3,2,0,0,0,0,0,0,0,0,0,0,0,0,0,0,0,0,0],"split_type":[0,0,0,0,0,0,0,0,0,0,0,0,0,0,0,0,0,0,0,0,0,0,0,0,0,0,0,0,0,0,0,0,0,0,0,0,0,0,0,0,0,0,0,0,0,0,0,0,0,0,0,0,0,0,0,0,0,0,0,0,0,0,0,0,0],"sum_hessian":[4.244E3,3.513E3,7.31E2,2.204E3,1.309E3,5.14E2,2.17E2,1.31E3,8.94E2,9.28E2,3.81E2,2.98E2,2.16E2,1.99E2,1.8E1,5.46E2,7.64E2,4.64E2,4.3E2,6.31E2,2.97E2,2.48E2,1.33E2,8.3E1,2.15E2,1.33E2,8.3E1,1.16E2,8.3E1,5E1,4.96E2,5.65E2,1.99E2,1.99E2,2.65E2,2.32E2,1.98E2,2.48E2,3.83E2,1.48E2,1.49E2,6.5E1,1.83E2,1.49E2,6.6E1,1E0,8.2E1,9.9E1,1.7E1,6.5E1,1.67E2,1.67E2,8.1E1,2.32E2,1.51E2,8.1E1,6.7E1,9.9E1,5E1,1.01E2,8.2E1,5E1,3.2E1,8.3E1,1.6E1],"tree_param":{"num_deleted":"0","num_feature":"5","num_nodes":"65","size_leaf_vector":"1"}},{"base_weights":[4.4511116E-1,-1.716572E1,8.4986115E1,-3.09679E1,3.4518366E0,6.645688E1,1.3941335E2,-3.7302692E1,-2.2089905E1,-3.4732456E0,2.2097013E1,5.7399426E1,9.010664E1,1.2890768E2,6.732451E1,-4.2217205E1,-3.503102E1,-2.6898268E1,-1.8036917E1,-8.138771E0,2.5478165E0,1.7984058E1,2.9574842E1,4.9478523E1,6.647832E1,2.3665724E1,9.492824E1,1.18832054E2,4.2651703E1,-1.57028475E1,-1.2324233E1,-1.0818996E1,-9.724592E0,-8.432093E0,-2.4260431E1,-6.0688524E0,-1.6196901E1,-1.149711E1,-5.237258E0,-1.6073415E-1,6.4643126E0,1.3786311E1,2.0662663E1,2.3820023E1,3.129328E1,4.183115E1,1.5763219E1,6.853287E1,5.5458855E1,1.4185785E1,9.591422E1,1.2633507E2,1.0107395E2,-6.3753624E0,-8.072268E0,-2.673472E0,-4.8822346E0,-3.848323E0,-2.9010477E0,-2.1651917E0,-1.2104118E0,-5.064726E-1,5.61874E-1,1.5214782E0,2.4185805E0,3.0551288E0,4.6226115E0,6.5478725E0,5.3927965E0,4.9617834E0,8.069872E0,1.1996858E1,7.9239593E0,1.2943334E1,7.3232565E0,1.8893797E1,2.3423521E1,1.2508439E1,1.961316E1,2.8900942E1,8.306726E0,3.4553925E1,4.571086E1,2.384454E1,3.511527E1],"categories":[],"categories_nodes":[],"categories_segments":[],"categories_sizes":[],"default_left":[0,0,0,0,0,0,0,0,0,0,0,0,0,0,0,0,0,0,0,0,0,0,0,0,0,0,0,0,0,0,0,0,0,0,0,0,0,0,0,0,0,0,0,0,0,0,0,0,0,0,0,0,0,0,0,0,0,0,0,0,0,0,0,0,0,0,0,0,0,0,0,0,0,0,0,0,0,0,0,0,0,0,0,0,0],"id":9,"left_children":[1,3,5,7,9,11,13,15,17,19,21,23,25,27,-1,29,31,33,35,37,39,41,43,45,47,-1,49,51,-1,-1,-1,-1,-1,-1,53,-1,55,57,59,61,63,65,67,69,71,73,-1,75,77,-1,79,81,83,-1,-1,-1,-1,-1,-1,-1,-1,-1,-1,-1,-1,-1,-1,-1,-1,-1,-1,-1,-1,-1,-1,-1,-1,-1,-1,-1,-1,-1,-1,-1,-1],"loss_changes":[6.3215735E6,1.0000762E6,7.289535E5,1.17561625E5,1.821351E5,1.1221325E5,1.36276E5,1.22195E4,1.6644969E4,2.8926807E4,1.1216906E4,2.5404E4,6.2675E2,5.42475E3,0E0,2.2569375E3,1.112625E3,5.9346875E2,1.6088594E3,5.591465E3,4.7746514E3,2.5149219E3,5.797656E2,2.8891875E3,3.423125E2,0E0,1.620625E2,6.87875E2,0E0,0E0,0E0,0E0,0E0,0E0,4.8764062E2,0E0,4.6015625E0,5.2746094E2,7.1616797E2,8.32574E2,3.6852002E2,4.275547E2,7.657422E1,3.398496E2,3.1875938E3,4.796328E2,0E0,3.034375E3,1.9156719E3,0E0,1.269375E2,1.9085E3,2.77075E3,0E0,0E0,0E0,0E0,0E0,0E0,0E0,0E0,0E0,0E0,0E0,0E0,0E0,0E0,0E0,0E0,0E0,0E0,0E0,0E0,0E0,0E0,0E0,0E0,0E0,0E0,0E0,0E0,0E0,0E0,0E0,0E0],"parents":[2147483647,0,0,1,1,2,2,3,3,4,4,5,5,6,6,7,7,8,8,9,9,10,10,11,11,12,12,13,13,15,15,16,16,17,17,18,18,19,19,20,20,21,21,22,22,23,23,24,24,26,26,27,27,34,34,36,36,37,37,38,38,39,39,40,40,41,41,42,42,43,43,44,44,45,45,47,47,48,48,50,50,51,51,52,52],"right_children":[2,4,6,8,10,12,14,16,18,20,22,24,26,28,-1,30,32,34,36,38,40,42,44,46,48,-1,50,52,-1,-1,-1,-1,-1,-1,54,-1,56,58,60,62,64,66,68,70,72,74,-1,76,78,-1,80,82,84,-1,-1,-1,-1,-1,-1,-1,-1,-1,-1,-1,-1,-1,-1,-1,-1,-1,-1,-1,-1,-1,-1,-1,-1,-1,-1,-1,-1,-1,-1,-1,-1],"split_conditions":[2.12015E3,8.855E2,3.7811E3,4.905E2,1.45905E3,3.12085E3,4.945E3,3.0135E2,6.831E2,1.156E3,1.845E3,2.6639E3,3.20615E3,4.47655E3,6.732451E1,2.475E2,3.954E2,6.291E2,8.0095E2,1.0307E3,1.329E3,1.6831E3,1.9024E3,2.4549E3,3.0589E3,2.3665724E1,2.2765E4,4.3562E3,4.2651703E1,-1.57028475E1,-1.2324233E1,-1.0818996E1,-9.724592E0,-8.432093E0,6.5515E2,-6.0688524E0,4.279E3,9.647E2,1.12E3,1.24095E3,1.382E3,1.5242E3,1.77925E3,7.26455E5,1.9694E3,2.4171E3,1.5763219E1,2.85845E3,3.09175E3,1.4185785E1,3.91495E3,4.09185E3,4.42305E3,-6.3753624E0,-8.072268E0,-2.673472E0,-4.8822346E0,-3.848323E0,-2.9010477E0,-2.1651917E0,-1.2104118E0,-5.064726E-1,5.61874E-1,1.5214782E0,2.4185805E0,3.0551288E0,4.6226115E0,6.5478725E0,5.3927965E0,4.9617834E0,8.069872E0,1.1996858E1,7.9239593E0,1.2943334E1,7.3232565E0,1.8893797E1,2.3423521E1,1.2508439E1,1.961316E1,2.8900942E1,8.306726E0,3.4553925E1,4.571086E1,2.384454E1,3.511527E1],"split_indices":[0,3,2,3,2,3,1,3,3,2,1,3,3,2,0,1,3,3,3,3,0,3,1,1,3,0,4,3,0,0,0,0,0,0,3,0,4,3,3,3,2,2,3,4,3,3,0,3,3,0,0,2,3,0,0,0,0,0,0,0,0,0,0,0,0,0,0,0,0,0,0,0,0,0,0,0,0,0,0,0,0,0,0,0,0],"split_type":[0,0,0,0,0,0,0,0,0,0,0,0,0,0,0,0,0,0,0,0,0,0,0,0,0,0,0,0,0,0,0,0,0,0,0,0,0,0,0,0,0,0,0,0,0,0,0,0,0,0,0,0,0,0,0,0,0,0,0,0,0,0,0,0,0,0,0,0,0,0,0,0,0,0,0,0,0,0,0,0,0,0,0,0,0],"sum_hessian":[4.244E3,3.513E3,7.31E2,2.104E3,1.409E3,5.47E2,1.84E2,1.226E3,8.78E2,1.028E3,3.81E2,3.98E2,1.49E2,1.66E2,1.8E1,3.82E2,8.44E2,3.99E2,4.79E2,5.79E2,4.49E2,2.48E2,1.33E2,2.16E2,1.82E2,5E1,9.9E1,1E2,6.6E1,3.4E1,3.48E2,5.96E2,2.48E2,2.67E2,1.32E2,2.14E2,2.65E2,2.67E2,3.12E2,2.66E2,1.83E2,9.9E1,1.49E2,3.4E1,9.9E1,6.6E1,1.5E2,1.49E2,3.3E1,3E0,9.6E1,6.6E1,3.4E1,6.6E1,6.6E1,4E0,2.61E2,1.51E2,1.16E2,1.16E2,1.96E2,1.52E2,1.14E2,1E2,8.3E1,3.3E1,6.6E1,9.9E1,5E1,1.2E1,2.2E1,3.3E1,6.6E1,6E1,6E0,9.9E1,5E1,1.6E1,1.7E1,9.5E1,1E0,5E1,1.6E1,1.7E1,1.7E1],"tree_param":{"num_deleted":"0","num_feature":"5","num_nodes":"85","size_leaf_vector":"1"}},{"base_weights":[4.048818E-1,-1.237743E1,5.8568047E1,-2.1717949E1,1.9102749E0,4.474462E1,9.6874214E1,-2.6151474E1,-1.5504463E1,-2.8832211E0,1.3666972E1,3.663001E1,5.7648575E1,8.9562614E1,1.625826E2,-2.9523094E1,-2.4497158E1,-1.8670944E1,-1.2402471E1,-6.579799E0,4.6006453E-1,9.644086E0,1.7621523E1,2.9989853E1,4.1426975E1,5.112399E1,6.470586E1,8.1832504E1,2.933728E1,2.77823E1,5.4287647E1,-1.24073105E1,-2.8888157E1,-7.7269754E0,-2.3363249E1,-1.958247E1,-1.6513779E1,-1.3577622E1,-1.1071248E1,-8.519393E0,-4.848303E0,-1.2819812E0,3.2101965E0,6.4545784E0,1.1851562E1,1.5833496E1,2.093457E1,3.1501055E1,4.8941765E0,1.1576322E1,4.488845E1,6.597536E1,4.7939503E1,7.254347E1,5.541737E1,8.655663E1,1.6572104E1,-9.398163E0,-8.373647E0,-6.123123E0,-7.3009257E0,-5.9060926E0,-3.3594027E0,-3.5767124E0,-5.400464E0,-2.491973E0,-4.1862054E0,-1.9353212E0,-3.5531693E0,-1.4662278E0,-2.7422516E0,-1.7381161E0,-1.1324255E0,-6.0458994E-1,-5.2465196E-3,6.210394E-1,1.2988683E0,3.264671E0,1.5506164E0,3.8066676E0,1.9623923E0,2.3146791E0,4.8265E0,8.63714E0,3.7388856E0,8.589151E0,1.4522877E1,1.6768015E1,1.2443129E1,2.0337856E1,5.2616825E0,5.5830617E0,1.46903105E1,1.814192E1,2.739388E1,9.932863E0,1.9209564E1,2.3875809E1,3.2804245E1],"categories":[],"categories_nodes":[],"categories_segments":[],"categories_sizes":[],"default_left":[0,0,0,0,0,0,0,0,0,0,0,0,0,0,0,0,0,0,0,0,0,0,0,0,0,0,0,0,0,0,0,0,0,0,0,0,0,0,0,0,0,0,0,0,0,0,0,0,0,0,0,0,0,0,0,0,0,0,0,0,0,0,0,0,0,0,0,0,0,0,0,0,0,0,0,0,0,0,0,0,0,0,0,0,0,0,0,0,0,0,0,0,0,0,0,0,0,0,0],"id":10,"left_children":[1,3,5,7,9,11,13,15,17,19,21,23,25,27,29,31,33,35,37,39,41,43,45,47,49,51,53,55,-1,-1,-1,-1,57,-1,59,61,63,65,67,69,71,73,75,77,79,81,83,85,-1,-1,87,89,91,93,95,97,-1,-1,-1,-1,-1,-1,-1,-1,-1,-1,-1,-1,-1,-1,-1,-1,-1,-1,-1,-1,-1,-1,-1,-1,-1,-1,-1,-1,-1,-1,-1,-1,-1,-1,-1,-1,-1,-1,-1,-1,-1,-1,-1],"loss_changes":[3.156711E6,4.645968E5,4.0075025E5,5.7582438E4,7.764117E4,5.694525E4,8.2486125E4,6.1205625E3,8.4023125E3,1.210221E4,6.177633E3,9.874156E3,6.6378125E3,3.701E3,7.6734688E3,1.8034688E3,5.82125E2,5.2803125E2,5.4896094E2,1.5203516E3,2.471406E3,1.3316562E3,8.5329297E2,2.5861719E3,2.334375E2,2.3705625E3,3.2598125E3,7.9066875E3,0E0,0E0,0E0,0E0,3.49375E1,0E0,7.877969E2,4.153125E1,7.075547E2,3.4636328E2,6.910957E2,4.473672E2,2.2983838E2,2.929839E2,2.4626685E2,4.2199292E2,4.3723047E2,1.5308203E2,4.1001797E3,5.1179375E3,0E0,0E0,8.352031E2,3.9557812E2,2.1043594E3,6.0323438E3,7.4884844E3,4.6421875E3,0E0,0E0,0E0,0E0,0E0,0E0,0E0,0E0,0E0,0E0,0E0,0E0,0E0,0E0,0E0,0E0,0E0,0E0,0E0,0E0,0E0,0E0,0E0,0E0,0E0,0E0,0E0,0E0,0E0,0E0,0E0,0E0,0E0,0E0,0E0,0E0,0E0,0E0,0E0,0E0,0E0,0E0,0E0],"parents":[2147483647,0,0,1,1,2,2,3,3,4,4,5,5,6,6,7,7,8,8,9,9,10,10,11,11,12,12,13,13,14,14,15,15,16,16,17,17,18,18,19,19,20,20,21,21,22,22,23,23,24,24,25,25,26,26,27,27,32,32,34,34,35,35,36,36,37,37,38,38,39,39,40,40,41,41,42,42,43,43,44,44,45,45,46,46,47,47,50,50,51,51,52,52,53,53,54,54,55,55],"right_children":[2,4,6,8,10,12,14,16,18,20,22,24,26,28,30,32,34,36,38,40,42,44,46,48,50,52,54,56,-1,-1,-1,-1,58,-1,60,62,64,66,68,70,72,74,76,78,80,82,84,86,-1,-1,88,90,92,94,96,98,-1,-1,-1,-1,-1,-1,-1,-1,-1,-1,-1,-1,-1,-1,-1,-1,-1,-1,-1,-1,-1,-1,-1,-1,-1,-1,-1,-1,-1,-1,-1,-1,-1,-1,-1,-1,-1,-1,-1,-1,-1,-1,-1],"split_conditions":[2.025E3,8.855E2,3.78E3,4.905E2,1.41835E3,2.899E3,4.89645E3,3.04E2,7.0255E2,1.1435E3,1.72515E3,2.52605E3,3.16935E3,4.4548E3,4.89465E3,2.2945E2,3.3965E2,6.4295E2,8.187E2,9.8625E2,1.258E3,1.55295E3,1.8781E3,2.50825E3,2.68055E3,2.9428E3,3.5061E3,4.3562E3,2.933728E1,2.77823E1,5.4287647E1,-1.24073105E1,2.577E2,-7.7269754E0,3.781E2,2.011978E6,6.5515E2,7.153E2,8.3015E2,8.9835E2,1.10135E3,1.20015E3,1.35965E3,1.42945E3,1.71395E3,1.2841E4,1.9694E3,2.474E3,4.8941765E0,1.1576322E1,2.70765E3,1.76502E5,2.91E3,3.26505E3,3.6111E3,4.09185E3,1.6572104E1,-9.398163E0,-8.373647E0,-6.123123E0,-7.3009257E0,-5.9060926E0,-3.3594027E0,-3.5767124E0,-5.400464E0,-2.491973E0,-4.1862054E0,-1.9353212E0,-3.5531693E0,-1.4662278E0,-2.7422516E0,-1.7381161E0,-1.1324255E0,-6.0458994E-1,-5.2465196E-3,6.210394E-1,1.2988683E0,3.264671E0,1.5506164E0,3.8066676E0,1.9623923E0,2.3146791E0,4.8265E0,8.63714E0,3.7388856E0,8.589151E0,1.4522877E1,1.6768015E1,1.2443129E1,2.0337856E1,5.2616825E0,5.5830617E0,1.46903105E1,1.814192E1,2.739388E1,9.932863E0,1.9209564E1,2.3875809E1,3.2804245E1],"split_indices":[2,3,1,3,3,1,3,3,3,3,3,3,3,1,0,3,3,3,3,2,2,3,3,3,3,3,3,3,0,0,0,0,3,0,3,4,3,3,3,3,0,3,3,3,3,4,3,3,0,0,3,4,2,0,2,2,0,0,0,0,0,0,0,0,0,0,0,0,0,0,0,0,0,0,0,0,0,0,0,0,0,0,0,0,0,0,0,0,0,0,0,0,0,0,0,0,0,0,0],"split_type":[0,0,0,0,0,0,0,0,0,0,0,0,0,0,0,0,0,0,0,0,0,0,0,0,0,0,0,0,0,0,0,0,0,0,0,0,0,0,0,0,0,0,0,0,0,0,0,0,0,0,0,0,0,0,0,0,0,0,0,0,0,0,0,0,0,0,0,0,0,0,0,0,0,0,0,0,0,0,0,0,0,0,0,0,0,0,0,0,0,0,0,0,0,0,0,0,0,0,0],"sum_hessian":[4.244E3,3.48E3,7.64E2,2.104E3,1.376E3,5.63E2,2.01E2,1.226E3,8.78E2,9.78E2,3.98E2,3.48E2,2.15E2,1.83E2,1.8E1,3.98E2,8.28E2,4.32E2,4.46E2,4.64E2,5.14E2,1.99E2,1.99E2,1.49E2,1.99E2,1.16E2,9.9E1,1E2,8.3E1,5E0,1.3E1,1.7E1,3.81E2,3.82E2,4.46E2,2.98E2,1.34E2,2.32E2,2.14E2,2.17E2,2.47E2,3.15E2,1.99E2,8.3E1,1.16E2,1.33E2,6.6E1,1.33E2,1.6E1,1.16E2,8.3E1,1.7E1,9.9E1,5E1,4.9E1,8.3E1,1.7E1,1E2,2.81E2,1.16E2,3.3E2,2.93E2,5E0,3.5E1,9.9E1,1.7E1,2.15E2,3.2E1,1.82E2,3.3E1,1.84E2,1.29E2,1.18E2,1.99E2,1.16E2,1E2,9.9E1,1.7E1,6.6E1,9.9E1,1.7E1,5E0,1.28E2,3.3E1,3.3E1,1.16E2,1.7E1,1.6E1,6.7E1,1.6E1,1E0,4E0,9.5E1,3.3E1,1.7E1,1.5E1,3.4E1,6.7E1,1.6E1],"tree_param":{"num_deleted":"0","num_feature":"5","num_nodes":"99","size_leaf_vector":"1"}},{"base_weights":[3.579967E-1,-8.448967E0,4.2635746E1,-1.4930308E1,2.2440407E0,3.3138504E1,7.053767E1,-1.7826757E1,-9.668532E0,-1.2618E0,1.092017E1,2.8589212E1,4.501869E1,6.470089E1,1.1812734E2,-1.9104177E1,-1.5041079E1,-1.1777054E1,-7.9476204E0,-3.1792707E0,1.7855011E0,8.6564455E0,1.4325892E1,2.4283825E1,3.2751656E1,4.256697E1,5.5074303E1,6.1500854E1,2.2622953E1,2.0836744E1,1.305489E2,-2.3370728E1,-1.8486498E1,-1.4635106E1,-1.9413404E1,-1.2810325E1,-1.056702E1,-8.751015E0,-7.2239013E0,-4.8230944E0,-1.940558E0,1.3509685E-1,2.9181054E0,6.997815E0,1.0254749E1,1.4619027E1,-1.015625E-1,1.8800228E1,2.5254833E1,8.86598E0,3.7179817E1,1.3354126E1,2.5323015E1,4.0291893E1,6.896279E1,1.8583899E1,6.4199224E0,4.2173035E1,4.6921062E1,-8.945847E0,-6.597015E0,-5.426548E0,-6.8532205E0,-4.5796494E0,-2.8883362E0,-7.039143E0,-4.4302807E0,-3.5542939E0,-5.0481358E0,-2.8039036E0,-3.9190142E0,-2.3860443E0,-3.7232802E0,-1.9943808E0,-2.7446864E0,-1.7247456E0,-1.2488984E0,-8.763018E-1,-4.5216852E-1,1.8909003E-1,-1.132865E0,6.093246E-1,1.0976657E0,2.1455047E0,2.5894776E-1,3.6187842E0,1.602649E0,3.9764183E0,5.155554E0,4.9218753E-1,-3.6875E-1,8.406641E0,2.3789883E0,1.6008301E0,7.6391797E0,1.1559911E1,6.666903E0,3.1277802E0,1.1116416E1,1.2506597E1,3.110596E0,3.072705E1,1.560849E1,3.5709963E0,1.7543482E1],"categories":[],"categories_nodes":[],"categories_segments":[],"categories_sizes":[],"default_left":[0,0,0,0,0,0,0,0,0,0,0,0,0,0,0,0,0,0,0,0,0,0,0,0,0,0,0,0,0,0,0,0,0,0,0,0,0,0,0,0,0,0,0,0,0,0,0,0,0,0,0,0,0,0,0,0,0,0,0,0,0,0,0,0,0,0,0,0,0,0,0,0,0,0,0,0,0,0,0,0,0,0,0,0,0,0,0,0,0,0,0,0,0,0,0,0,0,0,0,0,0,0,0,0,0],"id":11,"left_children":[1,3,5,7,9,11,13,15,17,19,21,23,25,27,29,31,33,35,37,39,41,43,45,47,49,51,53,55,-1,-1,57,59,61,63,65,67,69,71,73,75,77,79,81,83,85,87,89,91,93,-1,95,-1,97,99,101,-1,-1,-1,103,-1,-1,-1,-1,-1,-1,-1,-1,-1,-1,-1,-1,-1,-1,-1,-1,-1,-1,-1,-1,-1,-1,-1,-1,-1,-1,-1,-1,-1,-1,-1,-1,-1,-1,-1,-1,-1,-1,-1,-1,-1,-1,-1,-1,-1,-1],"loss_changes":[1.5809379E6,2.4357136E5,1.9163625E5,3.317378E4,4.037731E4,2.8330375E4,4.3744562E4,4.730125E3,2.7330625E3,5.533259E3,2.8210664E3,6.355125E3,1.3536562E3,1.0851875E3,2.4195938E3,2.1058125E3,5.1110156E2,2.9973438E2,1.8796094E2,1.173687E3,6.8375305E2,5.4326953E2,6.4008984E2,5.90125E2,1.7338125E3,3.0690625E3,2.5592969E3,1.0680938E3,0E0,0E0,5.1445312E3,3.9489844E2,1.0540312E3,1.1598594E3,3.121045E2,5.0827734E2,3.8375E2,4.8507227E2,1.9752051E2,1.2827734E2,1.3707495E2,2.9291437E2,1.3515686E2,1.0426514E2,9.6578906E2,2.9036523E2,9.874594E0,3.1861016E3,5.596719E2,0E0,7.628672E2,0E0,2.2351914E3,1.9467383E2,1.4707617E3,0E0,0E0,0E0,5.180366E2,0E0,0E0,0E0,0E0,0E0,0E0,0E0,0E0,0E0,0E0,0E0,0E0,0E0,0E0,0E0,0E0,0E0,0E0,0E0,0E0,0E0,0E0,0E0,0E0,0E0,0E0,0E0,0E0,0E0,0E0,0E0,0E0,0E0,0E0,0E0,0E0,0E0,0E0,0E0,0E0,0E0,0E0,0E0,0E0,0E0,0E0],"parents":[2147483647,0,0,1,1,2,2,3,3,4,4,5,5,6,6,7,7,8,8,9,9,10,10,11,11,12,12,13,13,14,14,15,15,16,16,17,17,18,18,19,19,20,20,21,21,22,22,23,23,24,24,25,25,26,26,27,27,30,30,31,31,32,32,33,33,34,34,35,35,36,36,37,37,38,38,39,39,40,40,41,41,42,42,43,43,44,44,45,45,46,46,47,47,48,48,50,50,52,52,53,53,54,54,58,58],"right_children":[2,4,6,8,10,12,14,16,18,20,22,24,26,28,30,32,34,36,38,40,42,44,46,48,50,52,54,56,-1,-1,58,60,62,64,66,68,70,72,74,76,78,80,82,84,86,88,90,92,94,-1,96,-1,98,100,102,-1,-1,-1,104,-1,-1,-1,-1,-1,-1,-1,-1,-1,-1,-1,-1,-1,-1,-1,-1,-1,-1,-1,-1,-1,-1,-1,-1,-1,-1,-1,-1,-1,-1,-1,-1,-1,-1,-1,-1,-1,-1,-1,-1,-1,-1,-1,-1,-1,-1],"split_conditions":[2.149E3,9.278E2,3.88795E3,5.9E2,1.45905E3,3.12085E3,4.89645E3,3.914E2,7.7995E2,1.20015E3,1.8031E3,2.65655E3,1.18727E5,4.735E3,4.89465E3,2.577E2,5.566E2,6.6495E2,8.446E2,1.1101E3,1.29735E3,1.69985E3,2.1185E3,2.2753E3,8.2484E4,1.00134E5,3.26505E3,4.67525E3,2.2622953E1,2.0836744E1,1.91702E5,2.349E2,3.781E2,5.2745E2,5.719E2,6.5515E2,7.4025E2,8.3015E2,8.9835E2,9.8545E2,1.1495E3,1.28785E3,1.37615E3,1.7499E3,1.77925E3,2E3,1.3504E4,2.18765E3,1.0556E4,8.86598E0,3.0589E3,1.3354126E1,3.6949E3,3.245E3,3.513E3,1.8583899E1,6.4199224E0,4.2173035E1,2.3766E5,-8.945847E0,-6.597015E0,-5.426548E0,-6.8532205E0,-4.5796494E0,-2.8883362E0,-7.039143E0,-4.4302807E0,-3.5542939E0,-5.0481358E0,-2.8039036E0,-3.9190142E0,-2.3860443E0,-3.7232802E0,-1.9943808E0,-2.7446864E0,-1.7247456E0,-1.2488984E0,-8.763018E-1,-4.5216852E-1,1.8909003E-1,-1.132865E0,6.093246E-1,1.0976657E0,2.1455047E0,2.5894776E-1,3.6187842E0,1.602649E0,3.9764183E0,5.155554E0,4.9218753E-1,-3.6875E-1,8.406641E0,2.3789883E0,1.6008301E0,7.6391797E0,1.1559911E1,6.666903E0,3.1277802E0,1.1116416E1,1.2506597E1,3.110596E0,3.072705E1,1.560849E1,3.5709963E0,1.7543482E1],"split_indices":[1,3,1,1,2,3,3,3,1,3,3,3,4,1,0,3,3,3,3,1,3,3,3,2,4,4,0,3,0,0,4,1,3,3,3,3,3,3,3,3,1,3,3,1,3,2,4,3,4,0,3,0,1,2,0,0,0,0,4,0,0,0,0,0,0,0,0,0,0,0,0,0,0,0,0,0,0,0,0,0,0,0,0,0,0,0,0,0,0,0,0,0,0,0,0,0,0,0,0,0,0,0,0,0,0],"split_type":[0,0,0,0,0,0,0,0,0,0,0,0,0,0,0,0,0,0,0,0,0,0,0,0,0,0,0,0,0,0,0,0,0,0,0,0,0,0,0,0,0,0,0,0,0,0,0,0,0,0,0,0,0,0,0,0,0,0,0,0,0,0,0,0,0,0,0,0,0,0,0,0,0,0,0,0,0,0,0,0,0,0,0,0,0,0,0,0,0,0,0,0,0,0,0,0,0,0,0,0,0,0,0,0,0],"sum_hessian":[4.244E3,3.513E3,7.31E2,2.187E3,1.326E3,5.47E2,1.84E2,1.409E3,7.78E2,9.45E2,3.81E2,3.98E2,1.49E2,1.66E2,1.8E1,9.62E2,4.47E2,3.47E2,4.31E2,5.8E2,3.65E2,2.31E2,1.5E2,1.99E2,1.99E2,1.24E2,2.5E1,1.33E2,3.3E1,5E0,1.3E1,1.17E2,8.45E2,4.13E2,3.4E1,1.82E2,1.65E2,1.99E2,2.32E2,2.48E2,3.32E2,1.49E2,2.16E2,1.16E2,1.15E2,1.47E2,3E0,3.3E1,1.66E2,1.2E2,7.9E1,1.1E2,1.4E1,1.4E1,1.1E1,1.31E2,2E0,1.1E1,2E0,1.7E1,1E2,7.79E2,6.6E1,3.65E2,4.8E1,1.6E1,1.8E1,1.5E2,3.2E1,1.14E2,5.1E1,1.66E2,3.3E1,1.82E2,5E1,1E2,1.48E2,1E2,2.32E2,1.33E2,1.6E1,1E2,1.16E2,1.13E2,3E0,8.3E1,3.2E1,1E2,4.7E1,1E0,2E0,1.7E1,1.6E1,2E0,1.64E2,7.1E1,8E0,7E0,7E0,1.3E1,1E0,2E0,9E0,1E0,1E0],"tree_param":{"num_deleted":"0","num_feature":"5","num_nodes":"105","size_leaf_vector":"1"}},{"base_weights":[2.997898E-1,-6.018501E0,2.9798803E1,-1.0581533E1,1.307898E0,2.3468538E1,5.155128E1,-1.3194877E1,-7.787836E0,-1.0766749E0,7.3096027E0,1.8244595E1,3.0332954E1,4.6675106E1,8.733417E1,-1.4952715E1,-1.2254539E1,-9.312913E0,-5.8614187E0,-2.1699607E0,1.5806121E0,5.0995197E0,9.316365E0,1.5527172E1,2.0387142E1,3.0822548E1,1.7841797E-1,3.3757683E1,4.840273E1,9.9710455E0,9.1743454E1,-6.5138354E0,-1.4579398E1,-1.1846257E1,-1.3171252E1,-5.124129E0,-9.697687E0,7.645128E-1,-6.1151223E0,-3.474758E0,-1.2357945E0,1.7993823E0,-1.9226074E0,3.8512137E0,6.0872245E0,1.0238746E1,6.3628955E0,1.4627116E1,2.3290073E1,1.6885191E1,2.183735E1,2.670981E1,3.5426834E1,9.3698734E-1,-8.477784E-1,1.2202192E1,3.4907715E0,5.9060425E1,4.4757843E1,1.1695264E1,2.8853722E1,-4.191018E0,-5.1132874E0,-3.7834494E0,-1.9483015E-1,-5.995767E0,-3.5499513E0,-2.3949752E0,1.6833243E-1,-5.5334263E0,-2.811751E0,-3.4252876E-1,9.870232E-1,-4.5050197E0,-1.7313833E0,-1.274539E0,-9.073574E-1,-3.1963086E-1,-1.3760666E0,4.2268026E-1,1.9535779E0,-1.0631104E0,3.6022341E0,1.6143419E0,8.267248E-1,2.290518E0,9.2413133E-1,2.5535002E0,6.729336E0,-1.0578046E0,3.3360622E0,4.9750485E0,3.3529904E0,7.5652986E0,-2.6528323E-1,5.166481E0,-3.435425E-1,6.631417E0,1.0520753E0,1.1807158E1,7.3607316E0,9.674217E0,1.4837846E1,1.6922241E0,-7.6636964E-1,6.4905033E0,1.8725252E1,6.4893394E0,1.475422E1],"categories":[],"categories_nodes":[],"categories_segments":[],"categories_sizes":[],"default_left":[0,0,0,0,0,0,0,0,0,0,0,0,0,0,0,0,0,0,0,0,0,0,0,0,0,0,0,0,0,0,0,0,0,0,0,0,0,0,0,0,0,0,0,0,0,0,0,0,0,0,0,0,0,0,0,0,0,0,0,0,0,0,0,0,0,0,0,0,0,0,0,0,0,0,0,0,0,0,0,0,0,0,0,0,0,0,0,0,0,0,0,0,0,0,0,0,0,0,0,0,0,0,0,0,0,0,0,0,0],"id":12,"left_children":[1,3,5,7,9,11,13,15,17,19,21,23,25,27,29,31,33,35,37,39,41,43,45,47,49,51,53,55,57,-1,59,-1,61,63,65,67,69,71,73,75,77,79,81,83,85,87,89,91,93,95,97,99,101,-1,-1,-1,103,105,107,-1,-1,-1,-1,-1,-1,-1,-1,-1,-1,-1,-1,-1,-1,-1,-1,-1,-1,-1,-1,-1,-1,-1,-1,-1,-1,-1,-1,-1,-1,-1,-1,-1,-1,-1,-1,-1,-1,-1,-1,-1,-1,-1,-1,-1,-1,-1,-1,-1,-1],"loss_changes":[7.913766E5,1.1692062E5,1.0192669E5,1.5630656E4,1.9228219E4,2.0316719E4,2.5236906E4,1.654875E3,3.012621E3,2.7982075E3,1.6467031E3,1.6222422E3,3.6853438E3,1.7135E3,1.4828125E3,6.5E2,1.1717969E2,8.8672266E2,7.846699E2,8.269939E2,2.1881793E2,2.0342139E2,4.7697266E2,7.143789E2,5.606406E2,3.7120781E3,5.306328E1,4.254045E3,2.4065938E3,0E0,2.2889062E2,0E0,3.1160156E2,4.4044688E3,1.7331055E3,8.334735E2,1.3375078E3,9.041606E1,1.281498E3,8.60813E1,2.2289697E2,4.7842633E2,4.2644354E2,1.25953125E2,4.4653564E2,2.9676514E3,2.3914417E3,7.4621484E2,6.746738E2,3.7152734E2,5.400078E2,2.7187969E3,3.4466719E3,0E0,0E0,0E0,7.9396286E1,2.4187969E3,9.267141E3,0E0,0E0,0E0,0E0,0E0,0E0,0E0,0E0,0E0,0E0,0E0,0E0,0E0,0E0,0E0,0E0,0E0,0E0,0E0,0E0,0E0,0E0,0E0,0E0,0E0,0E0,0E0,0E0,0E0,0E0,0E0,0E0,0E0,0E0,0E0,0E0,0E0,0E0,0E0,0E0,0E0,0E0,0E0,0E0,0E0,0E0,0E0,0E0,0E0,0E0],"parents":[2147483647,0,0,1,1,2,2,3,3,4,4,5,5,6,6,7,7,8,8,9,9,10,10,11,11,12,12,13,13,14,14,15,15,16,16,17,17,18,18,19,19,20,20,21,21,22,22,23,23,24,24,25,25,26,26,27,27,28,28,30,30,32,32,33,33,34,34,35,35,36,36,37,37,38,38,39,39,40,40,41,41,42,42,43,43,44,44,45,45,46,46,47,47,48,48,49,49,50,50,51,51,52,52,56,56,57,57,58,58],"right_children":[2,4,6,8,10,12,14,16,18,20,22,24,26,28,30,32,34,36,38,40,42,44,46,48,50,52,54,56,58,-1,60,-1,62,64,66,68,70,72,74,76,78,80,82,84,86,88,90,92,94,96,98,100,102,-1,-1,-1,104,106,108,-1,-1,-1,-1,-1,-1,-1,-1,-1,-1,-1,-1,-1,-1,-1,-1,-1,-1,-1,-1,-1,-1,-1,-1,-1,-1,-1,-1,-1,-1,-1,-1,-1,-1,-1,-1,-1,-1,-1,-1,-1,-1,-1,-1,-1,-1,-1,-1,-1,-1],"split_conditions":[2.08175E3,9.03E2,3.8861E3,4.298E2,1.431E3,2.85845E3,4.945E3,3.0135E2,7.279E2,1.24095E3,1.7709E3,2.515E3,3.96E3,3.96E3,4.89645E3,2.2945E2,3.781E2,4.635E2,7.4025E2,1.09E3,1.42945E3,1.65065E3,1.9694E3,3.666313E6,4.1801E4,3.20615E3,3.85E3,3.92115E3,4.3562E3,9.9710455E0,4.8502E3,-6.5138354E0,2.909E2,3.6065E2,3.8715E2,4.5715E2,4.7295E2,7.2625E2,7.499E2,9.647E2,1.22595E3,1.399E3,5.015712E6,1.5211E3,1.71395E3,1.942E3,2E3,1.5628E6,2.46005E3,4.0778E4,5.015712E6,2.9428E3,1.13566E5,9.3698734E-1,-8.477784E-1,1.2202192E1,3.91495E3,3.91495E3,4.42305E3,1.1695264E1,2.8853722E1,-4.191018E0,-5.1132874E0,-3.7834494E0,-1.9483015E-1,-5.995767E0,-3.5499513E0,-2.3949752E0,1.6833243E-1,-5.5334263E0,-2.811751E0,-3.4252876E-1,9.870232E-1,-4.5050197E0,-1.7313833E0,-1.274539E0,-9.073574E-1,-3.1963086E-1,-1.3760666E0,4.2268026E-1,1.9535779E0,-1.0631104E0,3.6022341E0,1.6143419E0,8.267248E-1,2.290518E0,9.2413133E-1,2.5535002E0,6.729336E0,-1.0578046E0,3.3360622E0,4.9750485E0,3.3529904E0,7.5652986E0,-2.6528323E-1,5.166481E0,-3.435425E-1,6.631417E0,1.0520753E0,1.1807158E1,7.3607316E0,9.674217E0,1.4837846E1,1.6922241E0,-7.6636964E-1,6.4905033E0,1.8725252E1,6.4893394E0,1.475422E1],"split_indices":[3,3,3,3,2,3,1,3,3,3,1,2,1,1,3,3,3,3,3,0,3,1,3,4,4,3,2,3,3,0,2,0,3,3,3,3,3,2,3,3,3,2,4,3,3,3,2,4,0,4,4,3,4,0,0,0,0,0,3,0,0,0,0,0,0,0,0,0,0,0,0,0,0,0,0,0,0,0,0,0,0,0,0,0,0,0,0,0,0,0,0,0,0,0,0,0,0,0,0,0,0,0,0,0,0,0,0,0,0],"split_type":[0,0,0,0,0,0,0,0,0,0,0,0,0,0,0,0,0,0,0,0,0,0,0,0,0,0,0,0,0,0,0,0,0,0,0,0,0,0,0,0,0,0,0,0,0,0,0,0,0,0,0,0,0,0,0,0,0,0,0,0,0,0,0,0,0,0,0,0,0,0,0,0,0,0,0,0,0,0,0,0,0,0,0,0,0,0,0,0,0,0,0,0,0,0,0,0,0,0,0,0,0,0,0,0,0,0,0,0,0],"sum_hessian":[4.244E3,3.496E3,7.48E2,2.154E3,1.342E3,5.81E2,1.67E2,1.111E3,1.043E3,9.61E2,3.81E2,3.32E2,2.49E2,1.49E2,1.8E1,3.82E2,7.29E2,5.8E2,4.63E2,6.81E2,2.8E2,1.83E2,1.98E2,1.5E2,1.82E2,2.45E2,4E0,2E1,1.29E2,2E0,1.6E1,1.7E1,3.65E2,5.14E2,2.15E2,5E1,5.3E2,1.7E1,4.46E2,2.83E2,3.98E2,2.64E2,1.6E1,8.3E1,1E2,1.49E2,4.9E1,1.37E2,1.3E1,5.7E1,1.25E2,1.33E2,1.12E2,2E0,2E0,1.6E1,4E0,2.9E1,1E2,2E0,1.4E1,2.98E2,6.7E1,4.81E2,3.3E1,3.3E1,1.82E2,3.3E1,1.7E1,1.7E1,5.13E2,1E1,7E0,1.5E1,4.31E2,1.01E2,1.82E2,3.8E2,1.8E1,2.45E2,1.9E1,1.5E1,1E0,3.3E1,5E1,6.5E1,3.5E1,1.32E2,1.7E1,1.6E1,3.3E1,8.5E1,5.2E1,1.2E1,1E0,5.6E1,1E0,1.23E2,2E0,1.7E1,1.16E2,9.4E1,1.8E1,3E0,1E0,3E0,2.6E1,1.7E1,8.3E1],"tree_param":{"num_deleted":"0","num_feature":"5","num_nodes":"109","size_leaf_vector":"1"}},{"base_weights":[2.4629632E-1,-4.16395E0,2.1417553E1,-7.5606203E0,8.207547E-1,1.5890949E1,3.4375275E1,-8.809487E0,-4.865298E0,-7.705498E-1,5.7291045E0,1.3105218E1,2.021295E1,2.993106E1,5.6011826E1,-1.1121413E1,-8.3137455E0,-5.6636333E0,-4.128509E0,-2.0015063E0,8.5385215E-1,4.257658E0,6.8040442E0,1.0307495E1,1.4225759E1,2.1792223E1,1.1861428E1,5.0414795E1,2.9309582E1,4.7738037E1,2.2658691E1,-4.720457E0,-3.214661E0,-8.975337E0,-7.576416E0,-6.975429E0,-5.0149503E0,-3.952429E0,-2.0936155E0,-2.7399395E0,-1.3641104E0,2.1827208E-1,1.832078E0,4.8508816E0,3.010991E0,1.3841274E1,6.074677E0,5.5274887E0,1.2571824E1,1.6635187E1,1.1506135E1,1.924195E1,4.183382E1,1.5021398E0,2.0986233E1,3.1839113E0,1.804331E1,2.2836035E1,3.093818E1,5.9570953E1,2.048169E1,-1.9367183E0,-2.7813215E0,-2.2911784E-1,-2.4077153E0,-1.9660915E0,-3.0601633E0,-1.4253304E0,-2.0490484E0,-1.2368112E0,-1.02743916E-1,-2.6392338E-1,-9.3484515E-1,7.0851976E-1,-4.6453315E-1,1.00475475E-2,7.5660926E-1,6.592035E-1,-4.9148357E-1,1.1628296E0,2.8146327E0,6.4925134E-2,1.3205738E0,4.5346437E0,2.2515748E0,-1.0735755E0,2.1062908E0,4.5816574E0,4.9287418E-1,4.591619E0,2.1457E0,1.0272656E1,4.7594147E0,1.2724016E0,3.9945762E0,8.659395E0,5.3384857E0,6.5358253E0,1.7838266E1,-1.6728798E0,5.88167E0,7.0168114E0,3.0180619E0,7.4092155E0,2.4516482E0,7.4998155E0,9.843193E0,1.2840455E1,2.6631348E1,7.893018E0,-5.6635743E-1],"categories":[],"categories_nodes":[],"categories_segments":[],"categories_sizes":[],"default_left":[0,0,0,0,0,0,0,0,0,0,0,0,0,0,0,0,0,0,0,0,0,0,0,0,0,0,0,0,0,0,0,0,0,0,0,0,0,0,0,0,0,0,0,0,0,0,0,0,0,0,0,0,0,0,0,0,0,0,0,0,0,0,0,0,0,0,0,0,0,0,0,0,0,0,0,0,0,0,0,0,0,0,0,0,0,0,0,0,0,0,0,0,0,0,0,0,0,0,0,0,0,0,0,0,0,0,0,0,0,0,0],"id":13,"left_children":[1,3,5,7,9,11,13,15,17,19,21,23,25,27,29,31,33,35,37,39,41,43,45,47,49,51,53,55,57,59,-1,-1,-1,61,63,65,67,69,-1,71,73,75,77,79,81,83,85,87,89,91,93,95,97,99,101,-1,-1,103,105,107,109,-1,-1,-1,-1,-1,-1,-1,-1,-1,-1,-1,-1,-1,-1,-1,-1,-1,-1,-1,-1,-1,-1,-1,-1,-1,-1,-1,-1,-1,-1,-1,-1,-1,-1,-1,-1,-1,-1,-1,-1,-1,-1,-1,-1,-1,-1,-1,-1,-1,-1],"loss_changes":[3.9644675E5,5.950314E4,5.1873875E4,6.9922812E3,1.1134632E4,5.935664E3,1.9285828E4,1.5430469E3,3.6718555E2,2.1552441E3,5.230508E2,8.440156E2,2.3793828E3,8.519844E2,2.2076953E3,2.9764258E2,5.071328E2,2.3391504E2,1.4756787E2,2.8478564E2,2.8870963E2,9.6326904E1,9.424629E2,9.4791895E2,1.2698555E3,7.730664E3,3.1823765E3,9.1070215E2,1.1912031E3,7.810504E3,0E0,0E0,0E0,3.9915234E2,1.7202461E3,7.190234E1,7.0521484E1,2.0204785E2,0E0,1.9530957E2,2.30987E2,1.2038556E2,2.355719E2,4.0533008E2,1.9728607E2,3.1875488E1,1.696794E3,1.1862378E3,8.2384863E2,1.0303789E3,1.362957E3,1.574957E3,5.065467E3,2.2877637E3,2.3731934E2,0E0,0E0,8.899531E2,7.477031E2,5.504211E3,1.3534492E3,0E0,0E0,0E0,0E0,0E0,0E0,0E0,0E0,0E0,0E0,0E0,0E0,0E0,0E0,0E0,0E0,0E0,0E0,0E0,0E0,0E0,0E0,0E0,0E0,0E0,0E0,0E0,0E0,0E0,0E0,0E0,0E0,0E0,0E0,0E0,0E0,0E0,0E0,0E0,0E0,0E0,0E0,0E0,0E0,0E0,0E0,0E0,0E0,0E0,0E0],"parents":[2147483647,0,0,1,1,2,2,3,3,4,4,5,5,6,6,7,7,8,8,9,9,10,10,11,11,12,12,13,13,14,14,15,15,16,16,17,17,18,18,19,19,20,20,21,21,22,22,23,23,24,24,25,25,26,26,27,27,28,28,29,29,33,33,34,34,35,35,36,36,37,37,39,39,40,40,41,41,42,42,43,43,44,44,45,45,46,46,47,47,48,48,49,49,50,50,51,51,52,52,53,53,54,54,57,57,58,58,59,59,60,60],"right_children":[2,4,6,8,10,12,14,16,18,20,22,24,26,28,30,32,34,36,38,40,42,44,46,48,50,52,54,56,58,60,-1,-1,-1,62,64,66,68,70,-1,72,74,76,78,80,82,84,86,88,90,92,94,96,98,100,102,-1,-1,104,106,108,110,-1,-1,-1,-1,-1,-1,-1,-1,-1,-1,-1,-1,-1,-1,-1,-1,-1,-1,-1,-1,-1,-1,-1,-1,-1,-1,-1,-1,-1,-1,-1,-1,-1,-1,-1,-1,-1,-1,-1,-1,-1,-1,-1,-1,-1,-1,-1,-1,-1,-1],"split_conditions":[2.149E3,8.808E2,3.7E3,5.865E2,1.55295E3,2.82625E3,4.8488E3,2.721E2,7.594E2,1.1777E3,1.76505E3,5.1481E4,3.549E3,2.0984E4,1.62388E5,2.349E2,3.562E2,1.4928E4,8.761E2,1.0307E3,1.35965E3,1.71395E3,1.77925E3,2.58795E3,3.57491E5,3.26505E3,3.6949E3,3.83E3,4.5446E4,9.2547E4,2.2658691E1,-4.720457E0,-3.214661E0,2.909E2,3.781E2,7.4025E2,7.4025E2,8.736E2,-2.0936155E0,8.9835E2,1.04305E3,1.682365E6,1.5211E3,1.69985E3,1.72515E3,1.805E3,1.79485E3,2.32595E3,2.70765E3,2.3E3,2.3E3,2.9428E3,6.066E4,3.6111E3,3.744E3,3.1839113E0,1.804331E1,4.2908E4,3.8861E3,7.1104E4,1.33136E5,-1.9367183E0,-2.7813215E0,-2.2911784E-1,-2.4077153E0,-1.9660915E0,-3.0601633E0,-1.4253304E0,-2.0490484E0,-1.2368112E0,-1.02743916E-1,-2.6392338E-1,-9.3484515E-1,7.0851976E-1,-4.6453315E-1,1.00475475E-2,7.5660926E-1,6.592035E-1,-4.9148357E-1,1.1628296E0,2.8146327E0,6.4925134E-2,1.3205738E0,4.5346437E0,2.2515748E0,-1.0735755E0,2.1062908E0,4.5816574E0,4.9287418E-1,4.591619E0,2.1457E0,1.0272656E1,4.7594147E0,1.2724016E0,3.9945762E0,8.659395E0,5.3384857E0,6.5358253E0,1.7838266E1,-1.6728798E0,5.88167E0,7.0168114E0,3.0180619E0,7.4092155E0,2.4516482E0,7.4998155E0,9.843193E0,1.2840455E1,2.6631348E1,7.893018E0,-5.6635743E-1],"split_indices":[1,3,3,3,3,2,1,3,3,3,3,4,1,4,4,1,2,4,3,3,3,3,3,0,4,0,1,0,4,4,0,0,0,3,3,3,3,3,0,3,3,4,3,3,3,1,3,1,3,0,0,3,4,2,1,0,0,4,3,4,4,0,0,0,0,0,0,0,0,0,0,0,0,0,0,0,0,0,0,0,0,0,0,0,0,0,0,0,0,0,0,0,0,0,0,0,0,0,0,0,0,0,0,0,0,0,0,0,0,0,0],"split_type":[0,0,0,0,0,0,0,0,0,0,0,0,0,0,0,0,0,0,0,0,0,0,0,0,0,0,0,0,0,0,0,0,0,0,0,0,0,0,0,0,0,0,0,0,0,0,0,0,0,0,0,0,0,0,0,0,0,0,0,0,0,0,0,0,0,0,0,0,0,0,0,0,0,0,0,0,0,0,0,0,0,0,0,0,0,0,0,0,0,0,0,0,0,0,0,0,0,0,0,0,0,0,0,0,0,0,0,0,0,0,0],"sum_hessian":[4.244E3,3.513E3,7.31E2,2.089E3,1.424E3,5.14E2,2.17E2,1.426E3,6.63E2,1.076E3,3.48E2,3.15E2,1.99E2,1.82E2,3.5E1,2.48E2,1.178E3,3.15E2,3.48E2,6.12E2,4.64E2,1.49E2,1.99E2,9.3E1,2.22E2,1.66E2,3.3E1,3E0,1.79E2,2.7E1,8E0,1.7E1,2.31E2,6.15E2,5.63E2,1.01E2,2.14E2,3.3E2,1.8E1,2.82E2,3.3E2,2.82E2,1.82E2,9.9E1,5E1,1.7E1,1.82E2,3.1E1,6.2E1,1.15E2,1.07E2,1.49E2,1.7E1,1.6E1,1.7E1,1E0,2E0,3.9E1,1.4E2,1.8E1,9E0,6.7E1,5.48E2,3.5E1,5.28E2,9.2E1,9E0,1.9E2,2.4E1,3.15E2,1.5E1,4.8E1,2.34E2,1.5E1,3.15E2,2.62E2,2E1,1.65E2,1.7E1,8.3E1,1.6E1,1.7E1,3.3E1,1.3E1,4E0,1.6E1,1.66E2,8E0,2.3E1,4E1,2.2E1,3E0,1.12E2,2.2E1,8.5E1,1.7E1,1.32E2,9E0,8E0,1.2E1,4E0,1.3E1,4E0,3.4E1,5E0,3.7E1,1.03E2,1.3E1,5E0,7E0,2E0],"tree_param":{"num_deleted":"0","num_feature":"5","num_nodes":"111","size_leaf_vector":"1"}},{"base_weights":[2.1682304E-1,-2.9193304E0,1.5271777E1,-5.227796E0,7.407161E-1,1.150129E1,2.5175394E1,-6.5671062E0,-3.7962444E0,-5.168892E-1,3.7709808E0,9.643682E0,1.6124506E1,2.2454721E1,5.0054764E1,-7.605283E0,-6.0496497E0,-4.69232E0,-2.9766352E0,-1.4997917E0,2.7704132E-1,3.5637298E0,1.2355889E1,1.0236354E1,-3.6834788E0,1.8222618E1,1.1653254E1,2.167932E1,3.6706726E1,7.180888E1,3.9466408E1,-7.138062E0,-1.0351096E1,-5.911896E0,-8.764546E0,-1.2700369E0,-5.072284E0,-2.795005E0,-2.4508066E0,-1.6799725E0,-7.9056025E-1,-1.9938117E-1,8.9131653E-1,4.0780516E0,1.413403E0,7.3002234E0,2.0033813E1,9.332418E0,1.878853E1,2.3548462E0,-4.894882E0,1.5233834E1,3.1157906E1,-7.83772E0,1.2931348E1,2.20797E1,-1.0570068E0,1.2201437E1,1.343042E0,6.377344E0,2.3739662E1,1.6782715E1,6.2993095E1,-2.3240762E0,-1.1231997E0,-4.8076785E-1,-3.2026424E0,-1.8031045E0,-5.313533E-1,-3.3001564E0,-1.7644447E0,-9.965407E-1,8.0282336E-1,-3.2466013E0,-1.4375265E0,-8.977201E-1,1.2584631E0,-4.2866343E-1,-1.196349E0,1.2315406E-2,-4.410794E-1,1.8147223E-1,-1.5560523E-1,3.3949256E-1,-6.6863877E-1,9.7632325E-1,2.1408348E0,7.2390455E-1,-7.6452947E-1,4.3271484E0,4.698047E-1,7.8111515E0,1.204065E0,2.8503928E0,-1.0941358E0,1.0762238E1,4.5943947E0,-1.8553418E0,2.1673462E0,4.047203E0,5.5810633E0,2.0202918E0,1.2842555E1,1.2901521E0,4.952223E0,1.2179151E1,6.4542346E0,-1.5803223E0,1.7362794E0,6.6675086E0,-4.5307618E-1,2.6131092E1,6.9402833E0],"categories":[],"categories_nodes":[],"categories_segments":[],"categories_sizes":[],"default_left":[0,0,0,0,0,0,0,0,0,0,0,0,0,0,0,0,0,0,0,0,0,0,0,0,0,0,0,0,0,0,0,0,0,0,0,0,0,0,0,0,0,0,0,0,0,0,0,0,0,0,0,0,0,0,0,0,0,0,0,0,0,0,0,0,0,0,0,0,0,0,0,0,0,0,0,0,0,0,0,0,0,0,0,0,0,0,0,0,0,0,0,0,0,0,0,0,0,0,0,0,0,0,0,0,0,0,0,0,0,0,0,0,0],"id":14,"left_children":[1,3,5,7,9,11,13,15,17,19,21,23,25,27,29,31,33,35,37,39,41,43,45,47,49,51,53,55,57,59,61,63,65,67,69,71,73,75,-1,77,79,81,83,85,87,89,91,93,95,-1,97,99,101,-1,103,105,107,-1,-1,-1,-1,109,111,-1,-1,-1,-1,-1,-1,-1,-1,-1,-1,-1,-1,-1,-1,-1,-1,-1,-1,-1,-1,-1,-1,-1,-1,-1,-1,-1,-1,-1,-1,-1,-1,-1,-1,-1,-1,-1,-1,-1,-1,-1,-1,-1,-1,-1,-1,-1,-1,-1,-1],"loss_changes":[2.0047077E5,2.9693986E4,2.704439E4,4.106832E3,5.1847417E3,4.413383E3,1.2481445E4,5.513672E2,7.527793E2,7.511183E2,6.658804E2,3.0549805E3,1.204207E3,1.2265703E3,1.5424297E3,3.9565625E2,2.2755469E2,6.398301E2,4.9401562E2,5.362152E1,1.561626E2,4.26667E2,2.031018E2,2.6540664E3,2.7593057E2,3.430082E3,2.8003809E3,1.6255E3,8.4018555E2,1.6882812E2,6.947885E3,6.2400977E2,1.2762109E2,2.8042578E2,1.5447998E2,4.2181107E2,6.691387E2,7.452095E2,0E0,1.9248749E2,5.0367615E1,7.7614075E1,1.7723538E2,7.7018164E2,3.1109232E2,2.6334967E2,1.8402466E2,7.646328E2,1.4686133E3,0E0,2.9474405E2,2.4243555E2,4.8336113E3,0E0,1.4722305E3,9.384531E2,1.4577081E2,0E0,0E0,0E0,0E0,9.295696E2,4.712045E3,0E0,0E0,0E0,0E0,0E0,0E0,0E0,0E0,0E0,0E0,0E0,0E0,0E0,0E0,0E0,0E0,0E0,0E0,0E0,0E0,0E0,0E0,0E0,0E0,0E0,0E0,0E0,0E0,0E0,0E0,0E0,0E0,0E0,0E0,0E0,0E0,0E0,0E0,0E0,0E0,0E0,0E0,0E0,0E0,0E0,0E0,0E0,0E0,0E0,0E0],"parents":[2147483647,0,0,1,1,2,2,3,3,4,4,5,5,6,6,7,7,8,8,9,9,10,10,11,11,12,12,13,13,14,14,15,15,16,16,17,17,18,18,19,19,20,20,21,21,22,22,23,23,24,24,25,25,26,26,27,27,28,28,29,29,30,30,31,31,32,32,33,33,34,34,35,35,36,36,37,37,39,39,40,40,41,41,42,42,43,43,44,44,45,45,46,46,47,47,48,48,50,50,51,51,52,52,54,54,55,55,56,56,61,61,62,62],"right_children":[2,4,6,8,10,12,14,16,18,20,22,24,26,28,30,32,34,36,38,40,42,44,46,48,50,52,54,56,58,60,62,64,66,68,70,72,74,76,-1,78,80,82,84,86,88,90,92,94,96,-1,98,100,102,-1,104,106,108,-1,-1,-1,-1,110,112,-1,-1,-1,-1,-1,-1,-1,-1,-1,-1,-1,-1,-1,-1,-1,-1,-1,-1,-1,-1,-1,-1,-1,-1,-1,-1,-1,-1,-1,-1,-1,-1,-1,-1,-1,-1,-1,-1,-1,-1,-1,-1,-1,-1,-1,-1,-1,-1,-1,-1],"split_conditions":[2.12015E3,9.03E2,3.7499E3,4.298E2,1.46E3,3.09175E3,4.89645E3,3E2,6.695E2,1.16E3,5.015712E6,3.0589E3,3.5061E3,1.76502E5,8.53E4,2.909E2,4.183E2,4.635E2,8.9835E2,1.12395E3,1.258E3,2.235848E6,1.88E3,2.91E3,3.021E3,3.245E3,3.513E3,1.62388E5,4.67525E3,4.89465E3,1.62388E5,2.7405E2,2.725E2,4.15E2,4.2095E2,4.5715E2,4.7885E2,8.9105E2,-2.4508066E0,1.1121E3,1.1383E3,1.16635E3,1.42945E3,1.97375E3,1.9694E3,1.585E3,1.93235E3,2.9428E3,2.9428E3,2.3548462E0,3.075E3,8.2484E4,4.8039E4,-7.83772E0,3.6949E3,2.0984E4,4.5886E3,1.2201437E1,1.343042E0,6.377344E0,2.3739662E1,1.33136E5,1.91702E5,-2.3240762E0,-1.1231997E0,-4.8076785E-1,-3.2026424E0,-1.8031045E0,-5.313533E-1,-3.3001564E0,-1.7644447E0,-9.965407E-1,8.0282336E-1,-3.2466013E0,-1.4375265E0,-8.977201E-1,1.2584631E0,-4.2866343E-1,-1.196349E0,1.2315406E-2,-4.410794E-1,1.8147223E-1,-1.5560523E-1,3.3949256E-1,-6.6863877E-1,9.7632325E-1,2.1408348E0,7.2390455E-1,-7.6452947E-1,4.3271484E0,4.698047E-1,7.8111515E0,1.204065E0,2.8503928E0,-1.0941358E0,1.0762238E1,4.5943947E0,-1.8553418E0,2.1673462E0,4.047203E0,5.5810633E0,2.0202918E0,1.2842555E1,1.2901521E0,4.952223E0,1.2179151E1,6.4542346E0,-1.5803223E0,1.7362794E0,6.6675086E0,-4.5307618E-1,2.6131092E1,6.9402833E0],"split_indices":[0,3,0,3,1,3,3,3,3,1,4,3,3,4,4,3,3,3,3,3,2,4,0,2,0,2,0,4,3,0,4,3,2,3,3,3,1,3,0,3,3,3,3,1,3,0,0,3,3,0,2,4,4,0,1,4,0,0,0,0,0,4,4,0,0,0,0,0,0,0,0,0,0,0,0,0,0,0,0,0,0,0,0,0,0,0,0,0,0,0,0,0,0,0,0,0,0,0,0,0,0,0,0,0,0,0,0,0,0,0,0,0,0],"split_type":[0,0,0,0,0,0,0,0,0,0,0,0,0,0,0,0,0,0,0,0,0,0,0,0,0,0,0,0,0,0,0,0,0,0,0,0,0,0,0,0,0,0,0,0,0,0,0,0,0,0,0,0,0,0,0,0,0,0,0,0,0,0,0,0,0,0,0,0,0,0,0,0,0,0,0,0,0,0,0,0,0,0,0,0,0,0,0,0,0,0,0,0,0,0,0,0,0,0,0,0,0,0,0,0,0,0,0,0,0,0,0,0,0],"sum_hessian":[4.244E3,3.513E3,7.31E2,2.154E3,1.359E3,5.31E2,2E2,1.111E3,1.043E3,9.61E2,3.98E2,3.81E2,1.5E2,1.82E2,1.8E1,3.65E2,7.46E2,4.96E2,5.47E2,4.29E2,5.32E2,3.9E2,8E0,3.65E2,1.6E1,1E2,5E1,1.75E2,7E0,4E0,1.4E1,3.15E2,5E1,7.13E2,3.3E1,5E1,4.46E2,5.3E2,1.7E1,3.41E2,8.8E1,3E2,2.32E2,3.14E2,7.6E1,6E0,2E0,3.32E2,3.3E1,1E0,1.5E1,8.3E1,1.7E1,1E0,4.9E1,1.72E2,3E0,6E0,1E0,1E0,3E0,8E0,6E0,2.66E2,4.9E1,2E0,4.8E1,6.96E2,1.7E1,1.7E1,1.6E1,3.3E1,1.7E1,1.9E1,4.27E2,5.16E2,1.4E1,3.09E2,3.2E1,4E1,4.8E1,8.5E1,2.15E2,2.16E2,1.6E1,2.49E2,6.5E1,6.1E1,1.5E1,2E0,4E0,1E0,1E0,3.28E2,4E0,4E0,2.9E1,1.4E1,1E0,5.8E1,2.5E1,6E0,1.1E1,1.5E1,3.4E1,3E0,1.69E2,2E0,1E0,6E0,2E0,3E0,3E0],"tree_param":{"num_deleted":"0","num_feature":"5","num_nodes":"113","size_leaf_vector":"1"}},{"base_weights":[1.8415792E-1,-1.9905566E0,1.1219249E1,-3.5794137E0,7.853351E-1,1.0072224E1,3.2063828E1,-4.301941E0,-2.1140914E0,-1.5397723E-1,3.0233672E0,7.142977E0,1.3624171E1,2.3287027E1,3.8691124E1,-5.1465044E0,-3.8386014E0,-4.5739985E-1,-2.2322798E0,4.2609177E0,-2.3264278E-1,3.3089807E0,-3.3035674E0,8.722999E0,6.942581E0,1.2384206E1,1.9551514E1,1.4825488E1,3.0101292E1,5.628955E1,3.0245573E1,-2.803446E0,-4.9897738E0,-3.7571397E0,-5.9922557E0,-2.4914389E0,3.410085E0,-2.5293941E0,-2.0742533E0,4.7045946E0,1.7537384E0,-5.690446E0,-1.1427046E-1,2.9353194E0,1.0370022E1,-6.12854E0,6.2843995E0,-7.124158E0,7.0925455E0,1.3329647E1,1.8807822E-1,9.004532E0,2.3814377E1,2.4630665E1,4.1835938E0,1.1705518E1,9.200317E0,3.0747192E1,2.3768848E1,1.8584799E0,4.4253273E1,-1.4240601E0,-2.1320035E0,-1.157151E0,3.2013428E-1,-2.4826813E0,-9.666321E-1,-7.971823E-1,3.2385256E-2,6.244153E-1,1.3522563E0,-7.488384E-1,-5.1130337E-1,1.5149947E0,5.609924E-1,7.1599734E-1,-2.1752931E-2,-2.4882367E0,-9.128557E-1,-2.0191525E-1,1.3846505E-1,8.317533E-1,2.858542E0,-6.257813E-1,4.59637E0,2.8322754E0,-3.1343153E0,1.5080534E0,2.5771766E0,6.7993655E0,3.8944597E0,3.2499316E0,-1.0118408E0,-2.6047487E0,3.22875E0,1.5477881E1,6.170222E0,2.936084E0,9.379249E0,-3.344165E0,2.84376E0,-1.020044E0,4.3601565E0,1.8757545E1,-2.0615236E-1,3.6950686E0,-1.9349854E0,1.5892154E1,5.378687E0],"categories":[],"categories_nodes":[],"categories_segments":[],"categories_sizes":[],"default_left":[0,0,0,0,0,0,0,0,0,0,0,0,0,0,0,0,0,0,0,0,0,0,0,0,0,0,0,0,0,0,0,0,0,0,0,0,0,0,0,0,0,0,0,0,0,0,0,0,0,0,0,0,0,0,0,0,0,0,0,0,0,0,0,0,0,0,0,0,0,0,0,0,0,0,0,0,0,0,0,0,0,0,0,0,0,0,0,0,0,0,0,0,0,0,0,0,0,0,0,0,0,0,0,0,0,0,0,0,0],"id":15,"left_children":[1,3,5,7,9,11,13,15,17,19,21,23,25,27,29,31,33,35,37,39,41,43,45,-1,47,49,51,53,55,57,59,-1,61,63,65,67,69,-1,71,73,75,77,79,81,83,85,-1,-1,87,89,91,93,95,97,99,-1,101,103,-1,105,107,-1,-1,-1,-1,-1,-1,-1,-1,-1,-1,-1,-1,-1,-1,-1,-1,-1,-1,-1,-1,-1,-1,-1,-1,-1,-1,-1,-1,-1,-1,-1,-1,-1,-1,-1,-1,-1,-1,-1,-1,-1,-1,-1,-1,-1,-1,-1,-1],"loss_changes":[1.0189457E5,1.5646837E4,1.6389594E4,2.379414E3,2.7165225E3,6.811297E3,1.1929961E3,5.711367E2,1.4524268E2,3.173817E2,7.012273E2,1.4068574E3,1.9554297E3,5.9159863E2,1.1214297E3,3.034287E2,1.4924414E2,4.096934E2,6.652993E2,9.547424E0,5.7821313E2,9.352283E2,1.2930508E3,0E0,1.8436855E3,2.880168E3,2.0335801E3,9.4041187E2,1.3184023E3,4.936172E2,5.882324E3,0E0,2.3108398E2,4.6062695E2,1.8839233E2,1.4943253E1,1.6865067E1,0E0,1.0201953E2,3.2842102E0,4.796527E0,1.0573822E2,2.8281348E2,3.4820654E2,1.1420565E3,1.1745918E3,0E0,0E0,1.080125E3,4.596953E2,7.567457E2,5.90937E2,2.0957324E3,1.863479E2,5.927822E2,0E0,3.1823737E2,4.0386453E3,0E0,6.0080145E2,1.3458652E3,0E0,0E0,0E0,0E0,0E0,0E0,0E0,0E0,0E0,0E0,0E0,0E0,0E0,0E0,0E0,0E0,0E0,0E0,0E0,0E0,0E0,0E0,0E0,0E0,0E0,0E0,0E0,0E0,0E0,0E0,0E0,0E0,0E0,0E0,0E0,0E0,0E0,0E0,0E0,0E0,0E0,0E0,0E0,0E0,0E0,0E0,0E0,0E0],"parents":[2147483647,0,0,1,1,2,2,3,3,4,4,5,5,6,6,7,7,8,8,9,9,10,10,11,11,12,12,13,13,14,14,15,15,16,16,17,17,18,18,19,19,20,20,21,21,22,22,24,24,25,25,26,26,27,27,28,28,29,29,30,30,32,32,33,33,34,34,35,35,36,36,38,38,39,39,40,40,41,41,42,42,43,43,44,44,45,45,48,48,49,49,50,50,51,51,52,52,53,53,54,54,56,56,57,57,59,59,60,60],"right_children":[2,4,6,8,10,12,14,16,18,20,22,24,26,28,30,32,34,36,38,40,42,44,46,-1,48,50,52,54,56,58,60,-1,62,64,66,68,70,-1,72,74,76,78,80,82,84,86,-1,-1,88,90,92,94,96,98,100,-1,102,104,-1,106,108,-1,-1,-1,-1,-1,-1,-1,-1,-1,-1,-1,-1,-1,-1,-1,-1,-1,-1,-1,-1,-1,-1,-1,-1,-1,-1,-1,-1,-1,-1,-1,-1,-1,-1,-1,-1,-1,-1,-1,-1,-1,-1,-1,-1,-1,-1,-1,-1],"split_conditions":[2.2753E3,9.647E2,4.8488E3,6.36E2,1.575E3,3.159E3,4.89645E3,3.1645E2,6.5515E2,9.7345E2,2.21855E3,2.29625E3,1.18727E5,6.7537E4,8.53E4,2.25E2,6.207E2,6.489E2,6.607E2,9.42542E5,9.8545E2,2.149E3,2.3E3,8.722999E0,2.32595E3,1.00134E5,3.26505E3,5.2365E4,9.2547E4,7.1104E4,1.18727E5,-2.803446E0,3.1185E2,5.9965E2,6.291E2,6.4525E2,6.4525E2,-2.5293941E0,8.187E2,9.99E2,9.67E2,9.71E2,1.18935E3,5.015712E6,4.5446E4,9.2547E4,6.2843995E0,-7.124158E0,6.7537E4,2.0984E4,3.315E3,3.02005E3,3.513E3,3.4843E4,5.8107E4,1.1705518E1,9.6105E4,4.2908E4,2.3768848E1,4.945E3,1.91702E5,-1.4240601E0,-2.1320035E0,-1.157151E0,3.2013428E-1,-2.4826813E0,-9.666321E-1,-7.971823E-1,3.2385256E-2,6.244153E-1,1.3522563E0,-7.488384E-1,-5.1130337E-1,1.5149947E0,5.609924E-1,7.1599734E-1,-2.1752931E-2,-2.4882367E0,-9.128557E-1,-2.0191525E-1,1.3846505E-1,8.317533E-1,2.858542E0,-6.257813E-1,4.59637E0,2.8322754E0,-3.1343153E0,1.5080534E0,2.5771766E0,6.7993655E0,3.8944597E0,3.2499316E0,-1.0118408E0,-2.6047487E0,3.22875E0,1.5477881E1,6.170222E0,2.936084E0,9.379249E0,-3.344165E0,2.84376E0,-1.020044E0,4.3601565E0,1.8757545E1,-2.0615236E-1,3.6950686E0,-1.9349854E0,1.5892154E1,5.378687E0],"split_indices":[2,3,1,3,1,1,3,3,3,3,1,3,4,4,4,2,3,3,3,4,3,1,0,0,1,4,0,4,4,4,4,0,3,2,3,2,2,0,3,1,0,2,3,4,4,4,0,0,4,4,1,2,0,4,4,0,4,4,0,1,4,0,0,0,0,0,0,0,0,0,0,0,0,0,0,0,0,0,0,0,0,0,0,0,0,0,0,0,0,0,0,0,0,0,0,0,0,0,0,0,0,0,0,0,0,0,0,0,0],"split_type":[0,0,0,0,0,0,0,0,0,0,0,0,0,0,0,0,0,0,0,0,0,0,0,0,0,0,0,0,0,0,0,0,0,0,0,0,0,0,0,0,0,0,0,0,0,0,0,0,0,0,0,0,0,0,0,0,0,0,0,0,0,0,0,0,0,0,0,0,0,0,0,0,0,0,0,0,0,0,0,0,0,0,0,0,0,0,0,0,0,0,0,0,0,0,0,0,0,0,0,0,0,0,0,0,0,0,0,0,0],"sum_hessian":[4.244E3,3.546E3,6.98E2,2.255E3,1.291E3,6.63E2,3.5E1,1.509E3,7.46E2,9.1E2,3.81E2,3.65E2,2.98E2,1.7E1,1.8E1,5.31E2,9.78E2,5E1,6.96E2,1.5E1,8.95E2,3.65E2,1.6E1,2E0,3.63E2,2.49E2,4.9E1,9E0,8E0,4E0,1.4E1,1.7E1,5.14E2,9.45E2,3.3E1,3.3E1,1.7E1,1.6E1,6.8E2,1.2E1,3E0,1.8E1,8.77E2,3.48E2,1.7E1,1.5E1,1E0,1E0,3.62E2,2.31E2,1.8E1,1.5E1,3.4E1,4E0,5E0,5E0,3E0,3E0,1E0,5E0,9E0,4.64E2,5E1,9.26E2,1.9E1,1.7E1,1.6E1,3.1E1,2E0,9E0,8E0,3.15E2,3.65E2,1E1,2E0,2E0,1E0,8E0,1E1,4.45E2,4.32E2,3.41E2,7E0,5E0,1.2E1,3E0,1.2E1,1.54E2,2.08E2,6E0,2.25E2,4E0,1.4E1,1E0,1.4E1,2E0,3.2E1,2E0,2E0,1E0,4E0,1E0,2E0,1E0,2E0,2E0,3E0,6E0,3E0],"tree_param":{"num_deleted":"0","num_feature":"5","num_nodes":"109","size_leaf_vector":"1"}},{"base_weights":[1.6019991E-1,-1.3404256E0,8.476979E0,-2.5114448E0,6.2914217E-1,7.49404E0,2.5006077E1,-3.2735493E0,-1.7691114E0,-4.4515744E-2,2.425685E0,5.5729604E0,9.986382E0,1.779313E1,3.0523283E1,-4.877422E0,-3.1102443E0,2.5357428E0,-1.8362375E0,-3.3413053E-1,7.308611E-1,2.0331855E0,9.486951E0,1.4198961E1,5.0884995E0,8.806117E0,1.5587098E1,2.6610254E1,1.3373221E1,4.78667E1,2.2707258E1,-2.0473394E0,-4.402134E0,-2.8915982E0,-3.9026089E0,1.5149689E-1,4.039218E0,-2.4352522E0,-1.4155172E0,3.1557693E0,-4.1376364E-1,7.82754E-1,-1.9531128E0,2.3067818E0,-4.1944337E0,-1.2227967E0,1.0466892E1,8.316731E0,6.676308E0,-6.9570885E0,5.720419E0,9.635862E0,-4.209804E0,1.8110474E1,8.706019E0,7.8740234E0,1.094292E1,6.3799915E0,2.1634195E1,2.6160889E1,2.0203491E1,6.964898E0,3.9703545E1,-1.1714171E0,-1.802713E0,-9.3365324E-1,2.0482433E0,-2.6836174E0,-8.833119E-1,-2.642151E-1,6.496277E-1,-9.402924E-2,1.3517479E0,-2.3324237E0,-7.044981E-1,-1.1877881E0,-4.0641916E-1,1.0358685E0,4.2035067E-1,-1.2486994E0,-9.2478186E-2,1.8415245E-1,8.4637207E-1,9.5602775E-1,5.254492E-1,-2.504417E0,1.7347267E0,4.8317873E-1,3.267933E0,3.6221113E0,-6.646912E-1,-3.526758E-1,-2.5936751E0,1.3787345E0,2.1699893E0,2.1304624E0,3.234487E0,-7.609589E0,1.1597434E0,4.136725E0,8.286572E0,-1.108667E0,4.210862E0,4.4103518E0,-8.6704105E-1,5.781006E-1,3.4393435E0,7.4596E0,8.217774E-1,1.5943946E1,-1.6494142E-1,4.203976E0,-3.5408695E0,1.6675928E1,4.1684327E0],"categories":[],"categories_nodes":[],"categories_segments":[],"categories_sizes":[],"default_left":[0,0,0,0,0,0,0,0,0,0,0,0,0,0,0,0,0,0,0,0,0,0,0,0,0,0,0,0,0,0,0,0,0,0,0,0,0,0,0,0,0,0,0,0,0,0,0,0,0,0,0,0,0,0,0,0,0,0,0,0,0,0,0,0,0,0,0,0,0,0,0,0,0,0,0,0,0,0,0,0,0,0,0,0,0,0,0,0,0,0,0,0,0,0,0,0,0,0,0,0,0,0,0,0,0,0,0,0,0,0,0,0,0,0,0],"id":16,"left_children":[1,3,5,7,9,11,13,15,17,19,21,23,25,27,29,31,33,35,37,39,41,43,45,47,49,51,53,55,57,59,61,-1,63,65,67,69,71,73,75,77,79,81,-1,83,85,-1,87,89,-1,91,93,95,97,99,101,103,-1,105,107,109,-1,111,113,-1,-1,-1,-1,-1,-1,-1,-1,-1,-1,-1,-1,-1,-1,-1,-1,-1,-1,-1,-1,-1,-1,-1,-1,-1,-1,-1,-1,-1,-1,-1,-1,-1,-1,-1,-1,-1,-1,-1,-1,-1,-1,-1,-1,-1,-1,-1,-1,-1,-1,-1,-1],"loss_changes":[5.2990535E4,8.297707E3,1.0356965E4,1.2705098E3,1.6242705E3,2.884168E3,8.895254E2,2.7608496E2,3.355244E2,2.1963991E2,9.9509546E2,1.386206E3,1.6210859E3,3.4561133E2,1.4886543E3,6.342383E1,1.6404199E2,6.391185E1,2.808291E2,1.9917877E2,1.05050476E2,6.026162E2,2.9518958E2,6.67823E2,2.5669277E3,2.4381445E3,6.2368945E2,6.370559E2,6.7076636E2,3.521543E2,3.736893E3,0E0,4.3677002E1,1.729877E3,1.0174114E3,1.8537567E1,2.3753036E1,1.9710156E2,9.7463745E1,3.503296E0,2.743701E2,8.951456E1,0E0,1.5762341E2,6.698733E2,0E0,5.040039E1,5.0158875E2,0E0,1.5579095E2,5.044121E2,5.3031055E2,2.489868E3,9.344033E2,9.7730945E2,2.6295395E2,0E0,1.8167844E2,2.982002E2,2.912436E3,0E0,1.3559358E3,2.0970625E3,0E0,0E0,0E0,0E0,0E0,0E0,0E0,0E0,0E0,0E0,0E0,0E0,0E0,0E0,0E0,0E0,0E0,0E0,0E0,0E0,0E0,0E0,0E0,0E0,0E0,0E0,0E0,0E0,0E0,0E0,0E0,0E0,0E0,0E0,0E0,0E0,0E0,0E0,0E0,0E0,0E0,0E0,0E0,0E0,0E0,0E0,0E0,0E0,0E0,0E0,0E0,0E0],"parents":[2147483647,0,0,1,1,2,2,3,3,4,4,5,5,6,6,7,7,8,8,9,9,10,10,11,11,12,12,13,13,14,14,15,15,16,16,17,17,18,18,19,19,20,20,21,21,22,22,23,23,24,24,25,25,26,26,27,27,28,28,29,29,30,30,32,32,33,33,34,34,35,35,36,36,37,37,38,38,39,39,40,40,41,41,43,43,44,44,46,46,47,47,49,49,50,50,51,51,52,52,53,53,54,54,55,55,57,57,58,58,59,59,61,61,62,62],"right_children":[2,4,6,8,10,12,14,16,18,20,22,24,26,28,30,32,34,36,38,40,42,44,46,48,50,52,54,56,58,60,62,-1,64,66,68,70,72,74,76,78,80,82,-1,84,86,-1,88,90,-1,92,94,96,98,100,102,104,-1,106,108,110,-1,112,114,-1,-1,-1,-1,-1,-1,-1,-1,-1,-1,-1,-1,-1,-1,-1,-1,-1,-1,-1,-1,-1,-1,-1,-1,-1,-1,-1,-1,-1,-1,-1,-1,-1,-1,-1,-1,-1,-1,-1,-1,-1,-1,-1,-1,-1,-1,-1,-1,-1,-1,-1,-1],"split_conditions":[2.5E3,9.647E2,4.8488E3,4.298E2,1.6831E3,3.16935E3,4.89645E3,2.5395E2,4.401E2,1.32545E3,3.666313E6,2.50825E3,1.13566E5,4.7886E3,8.53E4,2.2945E2,3.781E2,4.4E2,6.6495E2,9.7345E2,1.7499E3,2.4171E3,1.69E3,2.475E3,2.52605E3,1.00134E5,1.62388E5,4.755E3,6.7537E4,7.1104E4,1.62388E5,-2.0473394E0,2.5105E2,3.7205E2,3.8715E2,4.298E2,3.709E3,4.499E2,3.551E3,9.42542E5,9.8545E2,3.014876E6,-1.9531128E0,2.07887E5,2.42805E3,-1.2227967E0,1.68E3,2.54E3,6.676308E0,2.54E3,8.53E4,4.6572E4,3.6949E3,1.43172E5,1.76502E5,4.64E3,1.094292E1,4.89465E3,4.945E3,4.2908E4,2.0203491E1,1.33136E5,1.91702E5,-1.1714171E0,-1.802713E0,-9.3365324E-1,2.0482433E0,-2.6836174E0,-8.833119E-1,-2.642151E-1,6.496277E-1,-9.402924E-2,1.3517479E0,-2.3324237E0,-7.044981E-1,-1.1877881E0,-4.0641916E-1,1.0358685E0,4.2035067E-1,-1.2486994E0,-9.2478186E-2,1.8415245E-1,8.4637207E-1,9.5602775E-1,5.254492E-1,-2.504417E0,1.7347267E0,4.8317873E-1,3.267933E0,3.6221113E0,-6.646912E-1,-3.526758E-1,-2.5936751E0,1.3787345E0,2.1699893E0,2.1304624E0,3.234487E0,-7.609589E0,1.1597434E0,4.136725E0,8.286572E0,-1.108667E0,4.210862E0,4.4103518E0,-8.6704105E-1,5.781006E-1,3.4393435E0,7.4596E0,8.217774E-1,1.5943946E1,-1.6494142E-1,4.203976E0,-3.5408695E0,1.6675928E1,4.1684327E0],"split_indices":[1,3,1,3,3,3,3,3,3,2,4,3,4,3,4,3,3,1,3,3,1,3,0,2,3,4,4,2,4,4,4,0,3,3,3,0,4,1,4,4,3,4,0,4,2,0,2,1,0,1,4,4,1,4,4,2,0,0,1,4,0,4,4,0,0,0,0,0,0,0,0,0,0,0,0,0,0,0,0,0,0,0,0,0,0,0,0,0,0,0,0,0,0,0,0,0,0,0,0,0,0,0,0,0,0,0,0,0,0,0,0,0,0,0,0],"split_type":[0,0,0,0,0,0,0,0,0,0,0,0,0,0,0,0,0,0,0,0,0,0,0,0,0,0,0,0,0,0,0,0,0,0,0,0,0,0,0,0,0,0,0,0,0,0,0,0,0,0,0,0,0,0,0,0,0,0,0,0,0,0,0,0,0,0,0,0,0,0,0,0,0,0,0,0,0,0,0,0,0,0,0,0,0,0,0,0,0,0,0,0,0,0,0,0,0,0,0,0,0,0,0,0,0,0,0,0,0,0,0,0,0,0,0],"sum_hessian":[4.244E3,3.596E3,6.48E2,2.255E3,1.341E3,6.13E2,3.5E1,1.111E3,1.144E3,9.76E2,3.65E2,3.48E2,2.65E2,1.7E1,1.8E1,1E2,1.011E3,1.7E1,1.127E3,7.11E2,2.65E2,3.47E2,1.8E1,1.7E1,3.31E2,2.21E2,4.4E1,4E0,1.3E1,4E0,1.4E1,1.7E1,8.3E1,7.96E2,2.15E2,7E0,1E1,4.63E2,6.64E2,1.5E1,6.96E2,2.64E2,1E0,3.33E2,1.4E1,1E0,1.7E1,1.1E1,6E0,1.6E1,3.15E2,2.08E2,1.3E1,3.1E1,1.3E1,2E0,2E0,8E0,5E0,3E0,1E0,8E0,6E0,6.6E1,1.7E1,7.79E2,1.7E1,3.3E1,1.82E2,5E0,2E0,1E0,9E0,6E0,4.57E2,1.4E1,6.5E2,1.2E1,3E0,1.8E1,6.78E2,2.45E2,1.9E1,1.27E2,2.06E2,1E1,4E0,1E0,1.6E1,8E0,3E0,4E0,1.2E1,1.83E2,1.32E2,6.7E1,1.41E2,3E0,1E1,2.3E1,8E0,4E0,9E0,1E0,1E0,5E0,3E0,4E0,1E0,1E0,2E0,6E0,2E0,3E0,3E0],"tree_param":{"num_deleted":"0","num_feature":"5","num_nodes":"115","size_leaf_vector":"1"}},{"base_weights":[1.3593225E-1,-8.021686E-1,7.1639123E0,-1.6210084E0,9.8425037E-1,6.1667256E0,1.9845242E1,-2.2457912E0,-1.032725E0,2.7445647E-1,2.1402214E0,1.4494182E1,5.818375E0,1.3943278E1,2.439209E1,-3.4639156E0,-2.1363795E0,-1.3617604E0,-6.483285E-1,3.449334E-1,-1.1368827E0,1.9166899E0,7.0864515E0,2.8374025E-1,1.523551E1,-2.7478745E0,6.1420045E0,2.1524511E1,1.0239746E1,4.0703224E1,1.7328907E1,-5.001562E0,-3.0931828E0,-2.0456302E0,-3.2582765E0,-1.2233194E0,-3.6604476E0,-5.808687E-1,-2.9792194E0,2.4585965E-1,4.2934213E0,3.2648315E0,-1.6515694E0,4.6225357E0,1.657723E0,9.087982E0,-2.6912842E0,2.9092739E0,5.2123804E0,-7.724292E0,3.8161316E0,5.2336535E0,8.51479E0,6.6930337E0,8.754346E0,4.9123263E0,1.6524252E1,2.2257446E1,1.717295E1,-1.9091797E0,2.7138866E1,-1.0086826E0,-2.129178E0,-8.163158E-1,-1.291947E0,-6.4365566E-1,1.1601293E0,-1.9566991E0,-6.998207E-1,-4.0942144E-1,1.524198E0,-2.374253E0,-3.196761E-1,-1.9973616E-1,7.066536E-1,-1.0380249E0,-6.017212E-1,6.471658E-2,1.0801209E0,5.0794375E-1,1.7832898E0,1.2254883E0,1.2066651E-1,-7.585007E-1,-2.1876797E-1,4.8658273E-1,2.417171E0,-1.4507985E0,5.836149E-1,4.1477933E0,1.9069458E0,-1.2497315E0,-2.4335939E-1,-1.0218457E0,-3.010608E0,2.0445313E0,-1.0361573E0,1.6500639E0,-2.8232543E0,4.653746E0,1.6493148E0,3.7488282E0,-7.369629E-1,2.6815064E0,4.2287597E-1,5.669327E0,6.9851077E-1,1.3552369E1,-1.319336E-1,2.1151857E0,-2.4455202E0,9.784926E0,3.23053E0],"categories":[],"categories_nodes":[],"categories_segments":[],"categories_sizes":[],"default_left":[0,0,0,0,0,0,0,0,0,0,0,0,0,0,0,0,0,0,0,0,0,0,0,0,0,0,0,0,0,0,0,0,0,0,0,0,0,0,0,0,0,0,0,0,0,0,0,0,0,0,0,0,0,0,0,0,0,0,0,0,0,0,0,0,0,0,0,0,0,0,0,0,0,0,0,0,0,0,0,0,0,0,0,0,0,0,0,0,0,0,0,0,0,0,0,0,0,0,0,0,0,0,0,0,0,0,0,0,0,0,0,0,0],"id":17,"left_children":[1,3,5,7,9,11,13,15,17,19,21,23,25,27,29,31,33,35,37,39,41,43,45,-1,47,49,51,53,55,57,59,61,63,65,67,69,71,73,75,77,79,81,83,85,87,89,91,-1,-1,93,95,97,99,101,-1,103,105,107,-1,109,111,-1,-1,-1,-1,-1,-1,-1,-1,-1,-1,-1,-1,-1,-1,-1,-1,-1,-1,-1,-1,-1,-1,-1,-1,-1,-1,-1,-1,-1,-1,-1,-1,-1,-1,-1,-1,-1,-1,-1,-1,-1,-1,-1,-1,-1,-1,-1,-1,-1,-1,-1,-1],"loss_changes":[2.7992836E4,5.48121E3,6.2004473E3,9.4191504E2,9.659629E2,1.2645742E3,6.259658E2,1.5852979E2,1.6670325E2,7.31024E1,4.8174365E2,1.6637866E2,1.2588623E3,2.8498657E2,1.4836201E3,4.210486E1,1.0990869E2,2.2242188E2,9.465839E1,2.7160486E2,8.468472E1,2.9364856E2,3.9629675E2,0E0,3.2892822E1,5.847859E2,8.8653613E2,3.7248608E2,3.875503E2,2.5137305E2,2.8826855E3,3.797516E1,2.6208374E1,6.355288E2,2.3855042E2,6.0780536E2,4.3308008E2,1.5043188E2,1.0178833E0,6.807132E1,6.2911987E1,7.7477837E0,2.4034004E1,3.682588E2,7.453932E2,1.1918445E2,7.7093887E0,0E0,0E0,6.561316E1,1.9795836E2,1.2814043E3,2.406E3,1.8998383E2,0E0,1.1431978E2,1.5816296E2,2.1004866E3,0E0,3.930669E2,5.454712E2,0E0,0E0,0E0,0E0,0E0,0E0,0E0,0E0,0E0,0E0,0E0,0E0,0E0,0E0,0E0,0E0,0E0,0E0,0E0,0E0,0E0,0E0,0E0,0E0,0E0,0E0,0E0,0E0,0E0,0E0,0E0,0E0,0E0,0E0,0E0,0E0,0E0,0E0,0E0,0E0,0E0,0E0,0E0,0E0,0E0,0E0,0E0,0E0,0E0,0E0,0E0,0E0],"parents":[2147483647,0,0,1,1,2,2,3,3,4,4,5,5,6,6,7,7,8,8,9,9,10,10,11,11,12,12,13,13,14,14,15,15,16,16,17,17,18,18,19,19,20,20,21,21,22,22,24,24,25,25,26,26,27,27,28,28,29,29,30,30,31,31,32,32,33,33,34,34,35,35,36,36,37,37,38,38,39,39,40,40,41,41,42,42,43,43,44,44,45,45,46,46,49,49,50,50,51,51,52,52,53,53,55,55,56,56,57,57,59,59,60,60],"right_children":[2,4,6,8,10,12,14,16,18,20,22,24,26,28,30,32,34,36,38,40,42,44,46,-1,48,50,52,54,56,58,60,62,64,66,68,70,72,74,76,78,80,82,84,86,88,90,92,-1,-1,94,96,98,100,102,-1,104,106,108,-1,110,112,-1,-1,-1,-1,-1,-1,-1,-1,-1,-1,-1,-1,-1,-1,-1,-1,-1,-1,-1,-1,-1,-1,-1,-1,-1,-1,-1,-1,-1,-1,-1,-1,-1,-1,-1,-1,-1,-1,-1,-1,-1,-1,-1,-1,-1,-1,-1,-1,-1,-1,-1,-1],"split_conditions":[2.68055E3,1.1435E3,4.8488E3,4.8995E2,1.72E3,2.70765E3,4.89645E3,2.5395E2,8.47E2,1.71395E3,3.666313E6,2.69095E3,2.74085E3,4.7886E3,8.53E4,2.349E2,4.635E2,8.3015E2,1.1383E3,1.69985E3,1.68E3,1.77925E3,2.46005E3,2.8374025E-1,3.9936E4,2.704E3,3.872E3,4.755E3,6.7537E4,7.1104E4,1.18727E5,1.444E4,2.5105E2,4.62E2,4.7295E2,8.246E2,8.392E2,1.1341E3,1.126E3,5.015712E6,1.72E3,1.794E3,1.70855E3,1.76505E3,1.79485E3,2.18765E3,2.53E3,2.9092739E0,5.2123804E0,2.1772E4,6.914E4,3.91495E3,4.3562E3,4.64E3,8.754346E0,5.2365E4,4.945E3,4.2908E4,1.717295E1,4.945E3,1.91702E5,-1.0086826E0,-2.129178E0,-8.163158E-1,-1.291947E0,-6.4365566E-1,1.1601293E0,-1.9566991E0,-6.998207E-1,-4.0942144E-1,1.524198E0,-2.374253E0,-3.196761E-1,-1.9973616E-1,7.066536E-1,-1.0380249E0,-6.017212E-1,6.471658E-2,1.0801209E0,5.0794375E-1,1.7832898E0,1.2254883E0,1.2066651E-1,-7.585007E-1,-2.1876797E-1,4.8658273E-1,2.417171E0,-1.4507985E0,5.836149E-1,4.1477933E0,1.9069458E0,-1.2497315E0,-2.4335939E-1,-1.0218457E0,-3.010608E0,2.0445313E0,-1.0361573E0,1.6500639E0,-2.8232543E0,4.653746E0,1.6493148E0,3.7488282E0,-7.369629E-1,2.6815064E0,4.2287597E-1,5.669327E0,6.9851077E-1,1.3552369E1,-1.319336E-1,2.1151857E0,-2.4455202E0,9.784926E0,3.23053E0],"split_indices":[3,3,1,2,2,3,3,3,0,3,4,1,3,3,4,1,3,3,3,3,2,3,0,0,4,2,2,2,4,4,4,4,3,1,3,3,3,3,2,4,1,0,2,3,3,3,0,0,0,4,4,0,3,2,0,4,1,4,0,1,4,0,0,0,0,0,0,0,0,0,0,0,0,0,0,0,0,0,0,0,0,0,0,0,0,0,0,0,0,0,0,0,0,0,0,0,0,0,0,0,0,0,0,0,0,0,0,0,0,0,0,0,0],"split_type":[0,0,0,0,0,0,0,0,0,0,0,0,0,0,0,0,0,0,0,0,0,0,0,0,0,0,0,0,0,0,0,0,0,0,0,0,0,0,0,0,0,0,0,0,0,0,0,0,0,0,0,0,0,0,0,0,0,0,0,0,0,0,0,0,0,0,0,0,0,0,0,0,0,0,0,0,0,0,0,0,0,0,0,0,0,0,0,0,0,0,0,0,0,0,0,0,0,0,0,0,0,0,0,0,0,0,0,0,0,0,0,0,0],"sum_hessian":[4.244E3,3.745E3,4.99E2,2.568E3,1.177E3,4.64E2,3.5E1,1.244E3,1.324E3,7.3E2,4.47E2,1.7E1,4.47E2,1.7E1,1.8E1,1E2,1.144E3,7.12E2,6.12E2,6.96E2,3.4E1,4.29E2,1.8E1,1E0,1.6E1,1.6E1,4.31E2,4E0,1.3E1,4E0,1.4E1,1.7E1,8.3E1,1.061E3,8.3E1,6.73E2,3.9E1,5.96E2,1.6E1,6.8E2,1.6E1,3E0,3.1E1,3.6E1,3.93E2,1.5E1,3E0,6E0,1E1,9E0,7E0,3.14E2,1.17E2,2E0,2E0,8E0,5E0,3E0,1E0,5E0,9E0,1.1E1,6E0,6.6E1,1.7E1,1.044E3,1.7E1,1.7E1,6.6E1,6.59E2,1.4E1,1.4E1,2.5E1,5.8E2,1.6E1,9E0,7E0,6.75E2,5E0,7E0,9E0,2E0,1E0,1.5E1,1.6E1,2E1,1.6E1,1.6E1,3.77E2,4E0,1.1E1,1E0,2E0,4E0,5E0,5E0,2E0,3.09E2,5E0,3.4E1,8.3E1,1E0,1E0,3E0,5E0,4E0,1E0,1E0,2E0,2E0,3E0,6E0,3E0],"tree_param":{"num_deleted":"0","num_feature":"5","num_nodes":"113","size_leaf_vector":"1"}},{"base_weights":[1.12894274E-1,-5.6143135E-1,5.164716E0,-1.1810433E0,6.135838E-1,4.339235E0,1.5683716E1,-1.5045394E0,-6.6411614E-1,1.3716106E-1,1.5129509E0,1.0612915E1,4.0774813E0,2.6448437E1,1.3511612E1,-2.0149221E0,-1.3095545E0,6.709251E-1,-7.4568915E-1,2.5101686E0,4.996377E-2,1.8002832E0,-7.590332E-1,2.4118653E-1,1.1142621E1,3.4236615E0,6.8699427E0,5.6564126E0,1.1527295E1,-3.1038412E-1,1.8131876E1,-1.6877633E0,-3.0153198E0,-1.1606892E0,-2.3950243E0,-5.51915E-1,3.6860924E0,-1.5006948E0,-6.6223216E-1,-1.7655213E0,3.002593E0,-1.3143952E0,1.3819607E-1,1.5886997E0,4.017533E0,-5.415907E0,1.7286952E0,6.1737304E0,3.6589828E0,3.6743941E0,-1.5363965E1,3.5069725E1,5.021582E0,2.8139648E0,-2.6857913E-1,4.362915E0,-5.6545167E0,1.2065596E1,1.17035885E1,-6.1086124E-1,7.35985E-2,-1.635548E0,-5.092539E-1,-3.787974E-1,1.2805451E0,-2.5307674E0,-4.4436005E-1,-3.3019412E-1,-2.9542875E-2,1.1962411E0,3.1528932E-1,-1.7711939E-1,-4.5213267E-1,4.42276E-1,1.1564026E0,7.2186893E-1,3.1097228E-2,4.2028797E-1,1.5601782E0,-6.834543E-1,-2.0384767E0,9.178413E-1,-8.9362794E-1,2.720923E0,3.6594242E-1,8.400345E-1,2.1082022E0,-5.5616093E0,-3.9975587E-1,2.9460938E0,1.1678101E1,-1.8164587E0,2.1783342E0,-1.1197267E0,2.9899805E0,8.131348E-1,6.718213E0],"categories":[],"categories_nodes":[],"categories_segments":[],"categories_sizes":[],"default_left":[0,0,0,0,0,0,0,0,0,0,0,0,0,0,0,0,0,0,0,0,0,0,0,0,0,0,0,0,0,0,0,0,0,0,0,0,0,0,0,0,0,0,0,0,0,0,0,0,0,0,0,0,0,0,0,0,0,0,0,0,0,0,0,0,0,0,0,0,0,0,0,0,0,0,0,0,0,0,0,0,0,0,0,0,0,0,0,0,0,0,0,0,0,0,0,0,0],"id":18,"left_children":[1,3,5,7,9,11,13,15,17,19,21,23,25,27,29,31,33,35,37,39,41,43,45,-1,47,49,51,53,-1,55,57,59,61,63,65,67,69,-1,71,-1,73,-1,75,77,-1,79,81,83,-1,85,87,89,91,-1,-1,93,-1,-1,95,-1,-1,-1,-1,-1,-1,-1,-1,-1,-1,-1,-1,-1,-1,-1,-1,-1,-1,-1,-1,-1,-1,-1,-1,-1,-1,-1,-1,-1,-1,-1,-1,-1,-1,-1,-1,-1,-1],"loss_changes":[1.4463801E4,2.7280127E3,4.2735625E3,4.0920093E2,5.5424426E2,7.203281E2,4.8439453E2,1.474331E2,1.0352289E2,1.7513567E2,2.9382727E2,8.456726E1,7.944238E2,1.0276699E3,2.049189E3,1.3073584E2,1.7399817E2,2.0482312E2,3.1356616E2,1.4169115E2,3.2042883E2,9.548469E2,6.0019934E2,0E0,1.3733154E1,1.7758481E3,4.202258E3,8.158238E1,0E0,8.6193665E2,2.9368208E3,2.126734E2,3.1504083E2,5.390659E2,7.106627E2,9.844266E0,8.516022E0,0E0,5.2275513E1,0E0,3.20831E1,0E0,6.265341E1,2.585279E2,0E0,6.2405457E1,2.2210867E2,6.0669754E1,0E0,1.038562E3,1.9802722E2,1.04694336E2,2.028449E3,0E0,0E0,4.0010938E2,0E0,0E0,1.8621167E3,0E0,0E0,0E0,0E0,0E0,0E0,0E0,0E0,0E0,0E0,0E0,0E0,0E0,0E0,0E0,0E0,0E0,0E0,0E0,0E0,0E0,0E0,0E0,0E0,0E0,0E0,0E0,0E0,0E0,0E0,0E0,0E0,0E0,0E0,0E0,0E0,0E0,0E0],"parents":[2147483647,0,0,1,1,2,2,3,3,4,4,5,5,6,6,7,7,8,8,9,9,10,10,11,11,12,12,13,13,14,14,15,15,16,16,17,17,18,18,19,19,20,20,21,21,22,22,24,24,25,25,26,26,27,27,29,29,30,30,31,31,32,32,33,33,34,34,35,35,36,36,38,38,40,40,42,42,43,43,45,45,46,46,47,47,49,49,50,50,51,51,52,52,55,55,58,58],"right_children":[2,4,6,8,10,12,14,16,18,20,22,24,26,28,30,32,34,36,38,40,42,44,46,-1,48,50,52,54,-1,56,58,60,62,64,66,68,70,-1,72,-1,74,-1,76,78,-1,80,82,84,-1,86,88,90,92,-1,-1,94,-1,-1,96,-1,-1,-1,-1,-1,-1,-1,-1,-1,-1,-1,-1,-1,-1,-1,-1,-1,-1,-1,-1,-1,-1,-1,-1,-1,-1,-1,-1,-1,-1,-1,-1,-1,-1,-1,-1,-1,-1],"split_conditions":[2.68055E3,1.10135E3,4.8488E3,6.25E2,1.72E3,2.70765E3,4.5446E4,3.089E2,6.5515E2,1.1121E3,2.64105E3,2.69095E3,4.301E3,3.4843E4,6.914E4,2.909E2,5.566E2,6.489E2,6.607E2,4.46E3,1.12E3,2.60115E3,2.65655E3,2.4118653E-1,2.802E4,4.3562E3,4.3562E3,4.7813E3,1.1527295E1,4.89645E3,8.53E4,2.7405E2,2.97E2,5.463E2,5.719E2,6.45E2,1.322246E6,-1.5006948E0,1.04305E3,-1.7655213E0,1.10355E3,-1.3143952E0,2.699E3,3.666313E6,4.017533E0,3.6824E4,1.0379E5,1.5429E4,3.6589828E0,1.18727E5,4.42305E3,4.1801E4,4.4548E3,2.8139648E0,-2.6857913E-1,4.89465E3,-5.6545167E0,1.2065596E1,1.62388E5,-6.1086124E-1,7.35985E-2,-1.635548E0,-5.092539E-1,-3.787974E-1,1.2805451E0,-2.5307674E0,-4.4436005E-1,-3.3019412E-1,-2.9542875E-2,1.1962411E0,3.1528932E-1,-1.7711939E-1,-4.5213267E-1,4.42276E-1,1.1564026E0,7.2186893E-1,3.1097228E-2,4.2028797E-1,1.5601782E0,-6.834543E-1,-2.0384767E0,9.178413E-1,-8.9362794E-1,2.720923E0,3.6594242E-1,8.400345E-1,2.1082022E0,-5.5616093E0,-3.9975587E-1,2.9460938E0,1.1678101E1,-1.8164587E0,2.1783342E0,-1.1197267E0,2.9899805E0,8.131348E-1,6.718213E0],"split_indices":[3,0,1,2,2,3,4,1,3,3,3,1,2,4,4,3,3,3,3,4,3,2,3,0,4,3,3,0,0,3,4,3,3,3,3,0,4,0,3,0,3,0,4,4,0,4,4,4,0,4,3,4,1,0,0,0,0,0,4,0,0,0,0,0,0,0,0,0,0,0,0,0,0,0,0,0,0,0,0,0,0,0,0,0,0,0,0,0,0,0,0,0,0,0,0,0,0],"split_type":[0,0,0,0,0,0,0,0,0,0,0,0,0,0,0,0,0,0,0,0,0,0,0,0,0,0,0,0,0,0,0,0,0,0,0,0,0,0,0,0,0,0,0,0,0,0,0,0,0,0,0,0,0,0,0,0,0,0,0,0,0,0,0,0,0,0,0,0,0,0,0,0,0,0,0,0,0,0,0,0,0,0,0,0,0,0,0,0,0,0,0,0,0,0,0,0,0],"sum_hessian":[4.244E3,3.745E3,4.99E2,2.452E3,1.293E3,4.64E2,3.5E1,1.507E3,9.45E2,8.46E2,4.47E2,1.7E1,4.47E2,4E0,3.1E1,4.14E2,1.093E3,5.4E1,8.91E2,2.9E1,8.17E2,3.97E2,5E1,1E0,1.6E1,3.64E2,8.3E1,2E0,2E0,8E0,2.3E1,3.14E2,1E2,9.63E2,1.3E2,3.9E1,1.5E1,1.6E1,8.75E2,1E0,2.8E1,1.5E1,8.02E2,3.91E2,6E0,1.7E1,3.3E1,4E0,1.2E1,3.6E2,4E0,4E0,7.9E1,1E0,1E0,7E0,1E0,4E0,1.9E1,2.66E2,4.8E1,3.4E1,6.6E1,9.46E2,1.7E1,1.6E1,1.14E2,1.7E1,2.2E1,1.3E1,2E0,8.08E2,6.7E1,1.1E1,1.7E1,1.1E1,7.91E2,3.73E2,1.8E1,6E0,1.1E1,2.6E1,7E0,2E0,2E0,2.87E2,7.3E1,3E0,1E0,1E0,3E0,1.3E1,6.6E1,3E0,4E0,1.1E1,8E0],"tree_param":{"num_deleted":"0","num_feature":"5","num_nodes":"97","size_leaf_vector":"1"}},{"base_weights":[8.978618E-2,-3.5275236E-1,4.153072E0,-7.41232E-1,7.559811E-1,3.611421E0,1.5309159E1,-9.9925923E-1,-2.7732372E-1,8.692735E-1,-2.3730679E0,1.0780341E1,3.2641647E0,2.8610157E1,9.854883E0,-1.11951E0,-3.8299978E-1,-2.1913941E-1,-3.315873E0,7.5232065E-1,6.9480114E0,-1.1309265E1,2.6488385E-1,-2.3148193E0,1.5995005E1,-9.147705E-1,3.88183E0,1.4450684E1,1.2787208E1,1.309733E0,1.9433664E1,-1.0524331E0,-2.3170953E0,2.8151436E0,-4.6930853E-1,-2.739419E-1,2.7767267E0,-1.7660768E0,-9.1084427E-1,1.4208975E0,3.14262E-1,7.671707E0,7.7229816E-1,-6.3820803E-1,-4.2046022E0,-4.810262E0,3.8317585E0,-4.7368774E0,1.6861979E0,3.6952426E0,2.6009766E1,2.785142E0,-8.260785E0,3.2722232E0,6.253221E0,9.79043E0,-2.4889324E0,8.75865E0,-1.650765E1,9.2106085E0,3.3068848E0,-3.2876873E-1,1.2687166E0,-1.6454191E0,-4.3184626E-1,1.2445474E0,3.556311E-1,-5.057126E-1,-7.7463135E-2,-2.9507827E-2,-2.2870377E-1,-2.3768921E-1,9.099825E-1,-1.4642212E0,-7.734375E-3,1.4803812E-1,8.530189E-1,1.3818306E-1,-4.7663698E-1,5.944519E-1,2.649722E0,-2.0983888E-1,5.5737305E-1,-2.4148684E0,1.1042175E0,1.558628E0,-1.2791504E0,-3.187134E-1,-1.6822754E0,-3.8085938E-3,7.625977E-1,2.045984E0,-2.257947E0,9.548474E0,-1.3351685E0,-3.6642885E0,1.389213E0,1.1950928E0,-2.782512E0,1.0655925E0,-3.6291506E0,1.1253897E1,1.101909E0,3.6863527E0,-4.806372E0,-6.2072754E-1,1.1058765E1,2.4414551E0,-9.869898E0,-8.656934E0,7.0940433E0],"categories":[],"categories_nodes":[],"categories_segments":[],"categories_sizes":[],"default_left":[0,0,0,0,0,0,0,0,0,0,0,0,0,0,0,0,0,0,0,0,0,0,0,0,0,0,0,0,0,0,0,0,0,0,0,0,0,0,0,0,0,0,0,0,0,0,0,0,0,0,0,0,0,0,0,0,0,0,0,0,0,0,0,0,0,0,0,0,0,0,0,0,0,0,0,0,0,0,0,0,0,0,0,0,0,0,0,0,0,0,0,0,0,0,0,0,0,0,0,0,0,0,0,0,0,0,0,0,0,0,0],"id":19,"left_children":[1,3,5,7,9,11,13,15,17,19,21,23,25,27,29,31,33,35,37,39,41,43,45,47,49,51,53,55,-1,57,59,61,63,65,67,69,71,-1,73,75,77,79,81,-1,-1,83,85,87,89,91,93,95,97,99,101,-1,103,105,107,-1,109,-1,-1,-1,-1,-1,-1,-1,-1,-1,-1,-1,-1,-1,-1,-1,-1,-1,-1,-1,-1,-1,-1,-1,-1,-1,-1,-1,-1,-1,-1,-1,-1,-1,-1,-1,-1,-1,-1,-1,-1,-1,-1,-1,-1,-1,-1,-1,-1,-1,-1],"loss_changes":[7.6346562E3,1.6497887E3,2.4645205E3,3.3919495E2,3.5443335E2,9.581035E2,1.0964492E3,1.345918E2,1.7872119E2,6.7726166E2,8.2805963E2,1.2661887E3,9.8956323E2,3.7619873E2,1.2023291E3,1.19984985E2,8.385345E1,1.6444905E2,1.1212343E2,2.757354E2,7.452319E1,1.6895972E2,5.252992E2,6.6131485E1,1.5052166E3,1.381988E3,4.6092822E2,1.3133513E3,0E0,1.3390665E3,1.1705286E3,3.363308E2,2.1450012E2,1.2465942E1,7.454442E1,8.396509E1,1.8884552E1,0E0,3.8523827E1,4.906878E2,1.5975992E2,8.8172424E1,6.0928235E0,0E0,0E0,3.5968628E2,2.0982738E2,6.8402786E0,4.393981E0,2.9678235E2,1.3822842E3,9.9776514E2,2.480708E2,1.1909663E3,5.2661777E3,0E0,7.9675806E2,2.2063843E3,1.4797273E3,0E0,3.2991619E3,0E0,0E0,0E0,0E0,0E0,0E0,0E0,0E0,0E0,0E0,0E0,0E0,0E0,0E0,0E0,0E0,0E0,0E0,0E0,0E0,0E0,0E0,0E0,0E0,0E0,0E0,0E0,0E0,0E0,0E0,0E0,0E0,0E0,0E0,0E0,0E0,0E0,0E0,0E0,0E0,0E0,0E0,0E0,0E0,0E0,0E0,0E0,0E0,0E0,0E0],"parents":[2147483647,0,0,1,1,2,2,3,3,4,4,5,5,6,6,7,7,8,8,9,9,10,10,11,11,12,12,13,13,14,14,15,15,16,16,17,17,18,18,19,19,20,20,21,21,22,22,23,23,24,24,25,25,26,26,27,27,29,29,30,30,31,31,32,32,33,33,34,34,35,35,36,36,38,38,39,39,40,40,41,41,42,42,45,45,46,46,47,47,48,48,49,49,50,50,51,51,52,52,53,53,54,54,56,56,57,57,58,58,60,60],"right_children":[2,4,6,8,10,12,14,16,18,20,22,24,26,28,30,32,34,36,38,40,42,44,46,48,50,52,54,56,-1,58,60,62,64,66,68,70,72,-1,74,76,78,80,82,-1,-1,84,86,88,90,92,94,96,98,100,102,-1,104,106,108,-1,110,-1,-1,-1,-1,-1,-1,-1,-1,-1,-1,-1,-1,-1,-1,-1,-1,-1,-1,-1,-1,-1,-1,-1,-1,-1,-1,-1,-1,-1,-1,-1,-1,-1,-1,-1,-1,-1,-1,-1,-1,-1,-1,-1,-1,-1,-1,-1,-1,-1,-1],"split_conditions":[2.899E3,1.24095E3,4.89645E3,7.95E2,2.773E3,2.9428E3,8.53E4,5.72175E5,1.22595E3,2.74085E3,2.81695E3,2.85845E3,3.09175E3,7.1104E4,1.62388E5,7.153E2,5.93809E5,1.21505E3,1.24E3,5.53929E5,2.77975E3,1.0379E5,6.5796E4,1.25044E5,8.2484E4,3.0589E3,4.47655E3,4.2908E4,1.2787208E1,1.33136E5,1.91702E5,7.0255E2,7.279E2,5.5E2,4.851E2,9.76222E5,1.17115E3,-1.7660768E0,1.183E3,5.2365E4,2.50825E3,2.72E3,2.7362E3,-6.3820803E-1,-4.2046022E0,2.879E3,2.85845E3,2.879E3,2.879E3,3.021E3,1.76502E5,2.98E3,3.021E3,4.5261E3,4.5261E3,9.79043E0,4.89465E3,1.18727E5,4.89465E3,9.2106085E0,2.3766E5,-3.2876873E-1,1.2687166E0,-1.6454191E0,-4.3184626E-1,1.2445474E0,3.556311E-1,-5.057126E-1,-7.7463135E-2,-2.9507827E-2,-2.2870377E-1,-2.3768921E-1,9.099825E-1,-1.4642212E0,-7.734375E-3,1.4803812E-1,8.530189E-1,1.3818306E-1,-4.7663698E-1,5.944519E-1,2.649722E0,-2.0983888E-1,5.5737305E-1,-2.4148684E0,1.1042175E0,1.558628E0,-1.2791504E0,-3.187134E-1,-1.6822754E0,-3.8085938E-3,7.625977E-1,2.045984E0,-2.257947E0,9.548474E0,-1.3351685E0,-3.6642885E0,1.389213E0,1.1950928E0,-2.782512E0,1.0655925E0,-3.6291506E0,1.1253897E1,1.101909E0,3.6863527E0,-4.806372E0,-6.2072754E-1,1.1058765E1,2.4414551E0,-9.869898E0,-8.656934E0,7.0940433E0],"split_indices":[1,3,3,0,3,3,4,4,3,3,1,3,3,4,4,3,4,3,1,4,0,4,4,4,4,3,2,4,0,4,4,3,3,1,1,4,2,0,2,4,3,0,2,0,0,0,3,0,0,0,4,1,0,3,3,0,0,4,0,0,4,0,0,0,0,0,0,0,0,0,0,0,0,0,0,0,0,0,0,0,0,0,0,0,0,0,0,0,0,0,0,0,0,0,0,0,0,0,0,0,0,0,0,0,0,0,0,0,0,0,0],"split_type":[0,0,0,0,0,0,0,0,0,0,0,0,0,0,0,0,0,0,0,0,0,0,0,0,0,0,0,0,0,0,0,0,0,0,0,0,0,0,0,0,0,0,0,0,0,0,0,0,0,0,0,0,0,0,0,0,0,0,0,0,0,0,0,0,0,0,0,0,0,0,0,0,0,0,0,0,0,0,0,0,0,0,0,0,0,0,0,0,0,0,0,0,0,0,0,0,0,0,0,0,0,0,0,0,0,0,0,0,0,0,0],"sum_hessian":[4.244E3,3.828E3,4.16E2,2.835E3,9.93E2,3.98E2,1.8E1,1.821E3,1.014E3,9.59E2,3.4E1,1.7E1,3.81E2,4E0,1.4E1,1.523E3,2.98E2,9.96E2,1.8E1,9.42E2,1.7E1,7E0,2.7E1,5E0,1.2E1,4.9E1,3.32E2,3E0,1E0,8E0,6E0,1.444E3,7.9E1,7E0,2.91E2,9.79E2,1.7E1,8E0,1E1,3.72E2,5.7E2,1.5E1,2E0,2E0,5E0,1.1E1,1.6E1,3E0,2E0,6E0,6E0,3.3E1,1.6E1,2.66E2,6.6E1,1E0,2E0,6E0,2E0,3E0,3E0,1.433E3,1.1E1,1.6E1,6.3E1,3E0,4E0,4.2E1,2.49E2,7.21E2,2.58E2,1E0,1.6E1,1E0,9E0,2.26E2,1.46E2,5.3E2,4E1,3E0,1.2E1,1E0,1E0,8E0,3E0,1.4E1,2E0,1E0,2E0,1E0,1E0,5E0,1E0,5E0,1E0,3E0,3E1,1E0,1.5E1,2.62E2,4E0,4E0,6.2E1,1E0,1E0,5E0,1E0,1E0,1E0,1E0,2E0],"tree_param":{"num_deleted":"0","num_feature":"5","num_nodes":"111","size_leaf_vector":"1"}},{"base_weights":[7.232658E-2,-3.458369E-1,2.3898332E0,-6.784449E-1,5.1030673E-2,1.9540185E0,9.756511E0,-6.437812E-1,-2.3236115E0,8.260755E-2,-2.8007405E0,8.862128E0,1.7424607E0,1.8709082E1,8.05278E0,-6.792968E-1,3.907255E0,-5.412394E0,-4.5225173E-1,-1.5610902E-1,5.9696245E-1,-4.7324066E0,2.5305176E0,4.518392E0,4.512755E0,-5.995031E0,1.9658598E0,4.073242E0,8.132568E0,-9.60829E-1,1.1097351E1,-2.3220787E0,-6.4818627E-1,1.2687364E0,3.6302492E-1,-1.7367357E0,-5.9273684E-1,2.0855331E-1,-1.3723089E0,7.7705836E-1,-2.1966553E-1,3.0521443E0,5.070222E-1,-7.640442E0,3.1933594E0,7.207764E-1,4.701294E0,-2.9781086E0,-8.345839E0,1.4741635E0,3.3688395E0,2.2265625E0,-3.9360353E-1,2.3236084E0,-4.085449E0,8.049229E0,6.609131E0,-1.1910523E0,-5.745171E-1,-1.8702748E-1,-6.0230213E-1,-4.057899E-2,3.821457E-1,-5.8645636E-1,2.4982911E-1,3.0818686E-2,8.27063E-1,-6.308582E-1,-5.7575803E-2,4.753464E-1,2.9586792E0,-1.1826012E0,2.0462199E-1,-2.879777E0,-3.9689943E-1,3.5604494E0,-5.8271486E-1,8.419713E-1,-9.3286747E-1,-3.6745608E-1,-1.2407227E0,9.840088E-2,-2.841321E0,4.6866038E-1,-2.500928E0,8.048756E0,8.611589E-1,-1.1157715E0,2.0079494E0,6.995571E-1,4.2658553E0],"categories":[],"categories_nodes":[],"categories_segments":[],"categories_sizes":[],"default_left":[0,0,0,0,0,0,0,0,0,0,0,0,0,0,0,0,0,0,0,0,0,0,0,0,0,0,0,0,0,0,0,0,0,0,0,0,0,0,0,0,0,0,0,0,0,0,0,0,0,0,0,0,0,0,0,0,0,0,0,0,0,0,0,0,0,0,0,0,0,0,0,0,0,0,0,0,0,0,0,0,0,0,0,0,0,0,0,0,0,0,0],"id":20,"left_children":[1,3,5,7,9,11,13,15,17,19,21,23,25,27,29,31,33,35,37,39,41,43,-1,45,-1,47,49,51,-1,53,55,57,59,-1,-1,-1,-1,61,63,65,67,69,71,73,75,77,-1,79,81,83,85,-1,-1,87,-1,-1,89,-1,-1,-1,-1,-1,-1,-1,-1,-1,-1,-1,-1,-1,-1,-1,-1,-1,-1,-1,-1,-1,-1,-1,-1,-1,-1,-1,-1,-1,-1,-1,-1,-1,-1],"loss_changes":[4.1146416E3,4.7484348E2,2.0645542E3,1.1010718E2,1.4800346E2,8.818972E2,3.9843945E2,3.1266614E2,2.2876117E2,1.9949608E2,4.3058673E2,4.152594E2,1.0437292E3,5.0424744E2,8.888252E2,9.580414E1,7.9043427E0,7.9817505E0,1.6093636E1,6.600353E1,1.1217461E2,3.9317316E2,0E0,4.969436E2,0E0,9.571265E1,3.958308E2,6.38373E1,0E0,4.0579327E2,1.5174321E3,1.5875259E1,6.169757E1,0E0,0E0,0E0,0E0,6.0323973E0,1.5758039E1,9.450531E1,5.3937973E1,1.6428188E2,3.905343E2,1.3579669E2,2.4581032E2,8.86201E1,0E0,1.3200966E1,9.0947205E1,3.8614252E2,1.6765643E3,0E0,0E0,2.3612993E2,0E0,0E0,6.1787634E2,0E0,0E0,0E0,0E0,0E0,0E0,0E0,0E0,0E0,0E0,0E0,0E0,0E0,0E0,0E0,0E0,0E0,0E0,0E0,0E0,0E0,0E0,0E0,0E0,0E0,0E0,0E0,0E0,0E0,0E0,0E0,0E0,0E0,0E0],"parents":[2147483647,0,0,1,1,2,2,3,3,4,4,5,5,6,6,7,7,8,8,9,9,10,10,11,11,12,12,13,13,14,14,15,15,16,16,17,17,18,18,19,19,20,20,21,21,23,23,25,25,26,26,27,27,29,29,30,30,31,31,32,32,37,37,38,38,39,39,40,40,41,41,42,42,43,43,44,44,45,45,47,47,48,48,49,49,50,50,53,53,56,56],"right_children":[2,4,6,8,10,12,14,16,18,20,22,24,26,28,30,32,34,36,38,40,42,44,-1,46,-1,48,50,52,-1,54,56,58,60,-1,-1,-1,-1,62,64,66,68,70,72,74,76,78,-1,80,82,84,86,-1,-1,88,-1,-1,90,-1,-1,-1,-1,-1,-1,-1,-1,-1,-1,-1,-1,-1,-1,-1,-1,-1,-1,-1,-1,-1,-1,-1,-1,-1,-1,-1,-1,-1,-1,-1,-1,-1,-1],"split_conditions":[2.5E3,8.47E2,4.8488E3,8.3015E2,2.4171E3,2.50825E3,4.5446E4,8.246E2,8.392E2,1.39105E3,4.230564E6,2.475E3,2.52605E3,3.4843E4,6.914E4,2.3325E2,1.339308E6,1.409222E6,8.503E2,8.6505E2,1.0359E4,2.42805E3,2.5305176E0,2.420319E6,4.512755E0,2.53E3,3.88795E3,4.7813E3,8.132568E0,4.89645E3,8.53E4,4.982E3,8.1015E2,1.2687364E0,3.6302492E-1,-1.7367357E0,-5.9273684E-1,1.322246E6,8.6985E2,8.6E2,8.6985E2,8.167E3,1.4928E4,2.155326E6,2.46005E3,2.54E3,4.701294E0,6.5796E4,2.54E3,3.84255E3,2.0984E4,2.2265625E0,-3.9360353E-1,4.89465E3,-4.085449E0,8.049229E0,1.76502E5,-1.1910523E0,-5.745171E-1,-1.8702748E-1,-6.0230213E-1,-4.057899E-2,3.821457E-1,-5.8645636E-1,2.4982911E-1,3.0818686E-2,8.27063E-1,-6.308582E-1,-5.7575803E-2,4.753464E-1,2.9586792E0,-1.1826012E0,2.0462199E-1,-2.879777E0,-3.9689943E-1,3.5604494E0,-5.8271486E-1,8.419713E-1,-9.3286747E-1,-3.6745608E-1,-1.2407227E0,9.840088E-2,-2.841321E0,4.6866038E-1,-2.500928E0,8.048756E0,8.611589E-1,-1.1157715E0,2.0079494E0,6.995571E-1,4.2658553E0],"split_indices":[1,0,1,3,3,3,4,3,3,2,4,2,3,4,4,2,4,4,3,3,4,2,0,4,0,0,1,0,0,3,4,4,3,0,0,0,0,4,3,3,3,4,4,4,0,1,0,4,1,3,4,0,0,0,0,0,4,0,0,0,0,0,0,0,0,0,0,0,0,0,0,0,0,0,0,0,0,0,0,0,0,0,0,0,0,0,0,0,0,0,0],"split_type":[0,0,0,0,0,0,0,0,0,0,0,0,0,0,0,0,0,0,0,0,0,0,0,0,0,0,0,0,0,0,0,0,0,0,0,0,0,0,0,0,0,0,0,0,0,0,0,0,0,0,0,0,0,0,0,0,0,0,0,0,0,0,0,0,0,0,0,0,0,0,0,0,0,0,0,0,0,0,0,0,0,0,0,0,0,0,0,0,0,0,0],"sum_hessian":[4.244E3,3.596E3,6.48E2,1.956E3,1.64E3,6.13E2,3.5E1,1.917E3,3.9E1,1.623E3,1.7E1,1.7E1,5.96E2,4E0,3.1E1,1.903E3,1.4E1,1.4E1,2.5E1,1.109E3,5.14E2,1.5E1,2E0,1.1E1,6E0,1.6E1,5.8E2,2E0,2E0,8E0,2.3E1,3.4E1,1.869E3,1.2E1,2E0,1.2E1,2E0,1.5E1,1E1,7E1,1.039E3,1.7E1,4.97E2,1.1E1,4E0,9E0,2E0,8E0,8E0,4.31E2,1.49E2,1E0,1E0,7E0,1E0,4E0,1.9E1,5E0,2.9E1,1.837E3,3.2E1,1.2E1,3E0,8E0,2E0,5.3E1,1.7E1,1.4E1,1.025E3,1.5E1,2E0,1.8E1,4.79E2,8E0,3E0,1E0,3E0,6E0,3E0,4E0,4E0,1E0,7E0,4.28E2,3E0,2E0,1.47E2,3E0,4E0,1.3E1,6E0],"tree_param":{"num_deleted":"0","num_feature":"5","num_nodes":"91","size_leaf_vector":"1"}},{"base_weights":[5.841264E-2,-1.3206357E-1,2.885487E0,-1.1723683E-1,-1.1889941E1,1.1681871E1,2.2431748E0,-2.828827E-1,9.6675587E-1,1.56167E0,-5.239563E0,1.0395752E0,2.2208658E1,-8.162856E0,2.986406E0,-2.5544125E-1,-1.074018E1,7.8558483E0,8.454291E-1,5.3702154E0,-5.4132996E0,1.4605847E1,1.2813202E1,-1.2831355E1,5.6078124E0,2.367974E0,9.892372E0,-2.8182775E-1,8.823316E0,1.5682373E0,-1.4480905E1,6.744263E-1,2.7410731E0,-6.0154214E0,9.6461153E-1,-5.006305E0,4.688867E0,-5.923665E-1,3.535327E1,-2.8678223E1,-2.6018338E0,4.894849E0,-6.969808E0,1.4324646E1,2.1334195E0,2.0289454E1,5.7671876E0,-8.8888206E-2,2.9069092E0,5.6080446E0,1.6948731E0,1.2378479E0,-5.3214115E-1,-5.1771727E0,3.265686E-1,-3.0879152E0,5.7146305E-1,2.2583328E-1,1.0123776E0,6.138721E0,-1.3110352E0,2.160736E0,-3.2364016E0,1.584485E1,6.412354E-2,-1.1221015E1,9.333618E-1,4.9457273E0,-3.123162E0,-3.4582033E0,3.2178956E-1,-1.0636964E0,6.438989E0,-4.7477784E0,6.8761075E-1,2.7776735E0,9.661743E0,-6.405029E-1,2.9795363E0],"categories":[],"categories_nodes":[],"categories_segments":[],"categories_sizes":[],"default_left":[0,0,0,0,0,0,0,0,0,0,0,0,0,0,0,0,0,0,0,0,0,0,0,0,0,0,0,0,0,0,0,0,0,