{"learner":{"attributes":{"scikit_learn":"{\"_estimator_type\": \"regressor\"}"},"feature_names":["Open","High","Low","Close","Volume"],"feature_types":["float","float","float","float","int"],"gradient_booster":{"model":{"gbtree_model_param":{"num_parallel_tree":"1","num_trees":"100"},"iteration_indptr":[0,1,2,3,4,5,6,7,8,9,10,11,12,13,14,15,16,17,18,19,20,21,22,23,24,25,26,27,28,29,30,31,32,33,34,35,36,37,38,39,40,41,42,43,44,45,46,47,48,49,50,51,52,53,54,55,56,57,58,59,60,61,62,63,64,65,66,67,68,69,70,71,72,73,74,75,76,77,78,79,80,81,82,83,84,85,86,87,88,89,90,91,92,93,94,95,96,97,98,99,100],"tree_info":[0,0,0,0,0,0,0,0,0,0,0,0,0,0,0,0,0,0,0,0,0,0,0,0,0,0,0,0,0,0,0,0,0,0,0,0,0,0,0,0,0,0,0,0,0,0,0,0,0,0,0,0,0,0,0,0,0,0,0,0,0,0,0,0,0,0,0,0,0,0,0,0,0,0,0,0,0,0,0,0,0,0,0,0,0,0,0,0,0,0,0,0,0,0,0,0,0,0,0,0],"trees":[{"base_weights":[9.2020025E-7,-4.334482E2,1.9200315E3,-7.425562E2,6.611754E1,1.4174598E3,2.9775935E3,-8.869194E2,-4.8970914E2,-7.99722E1,4.7489563E2,1.1739434E3,1.7655417E3,7.5625964E2,1.00541046E3,-2.8100616E2,-7.837458E2,-5.963032E2,-4.0980057E2,-1.7603185E2,6.081024E1,3.08118E2,5.566041E2,2.6182758E2,1.3093402E3,4.6698224E2,5.65002E2,-2.4798398E2,-2.2023178E2,-1.9137973E2,-1.6556038E2,-1.3447754E2,-1.1166745E2,-2.6790054E2,-1.0729093E2,-3.9782357E0,1.3659555E2,7.143725E1,1.0703946E2,1.508674E2,1.9376811E2,3.5631348E2,4.128941E2,-8.9581E1,-6.929152E1,-4.3574722E1,-2.5928026E1,-1.0587669E1,9.920818E0,3.18465E1,4.8239902E1],"categories":[],"categories_nodes":[],"categories_segments":[],"categories_sizes":[],"default_left":[0,0,0,0,0,0,0,0,0,0,0,0,0,0,0,0,0,0,0,0,0,0,0,0,0,0,0,0,0,0,0,0,0,0,0,0,0,0,0,0,0,0,0,0,0,0,0,0,0,0,0],"id":0,"left_children":[1,3,5,7,9,11,13,15,17,19,21,23,25,-1,-1,-1,27,29,31,33,35,37,39,-1,41,-1,-1,-1,-1,-1,-1,-1,-1,43,45,47,49,-1,-1,-1,-1,-1,-1,-1,-1,-1,-1,-1,-1,-1,-1],"loss_changes":[3.5336663E9,5.3495923E8,4.1141274E8,7.767949E7,7.916471E7,4.302163E7,3.440077E7,6.254272E6,6.399504E6,1.3223175E7,4.584368E6,1.1743552E7,2.409152E6,0E0,0E0,0E0,3.48608E5,2.62096E5,4.81992E5,3.640352E6,1.9498195E6,3.13694E5,7.92656E5,0E0,1.24864E5,0E0,0E0,0E0,0E0,0E0,0E0,0E0,0E0,2.1222E5,2.5196275E5,2.5059055E5,1.1776225E5,0E0,0E0,0E0,0E0,0E0,0E0,0E0,0E0,0E0,0E0,0E0,0E0,0E0,0E0],"parents":[2147483647,0,0,1,1,2,2,3,3,4,4,5,5,6,6,7,7,8,8,9,9,10,10,11,11,12,12,16,16,17,17,18,18,19,19,20,20,21,21,22,22,24,24,33,33,34,34,35,35,36,36],"right_children":[2,4,6,8,10,12,14,16,18,20,22,24,26,-1,-1,-1,28,30,32,34,36,38,40,-1,42,-1,-1,-1,-1,-1,-1,-1,-1,44,46,48,50,-1,-1,-1,-1,-1,-1,-1,-1,-1,-1,-1,-1,-1,-1],"split_conditions":[1.9821E3,9.0025E2,3.3564E3,5.4775E2,1.4371E3,2.7127E3,4.31895E3,3.7915E2,7.3705E2,1.182E3,1.67745E3,2.32975E3,2.96345E3,7.5625964E2,1.00541046E3,-2.8100616E2,4.586E2,6.4425E2,8.2995E2,1.04705E3,1.3113E3,1.5309E3,1.81075E3,2.6182758E2,2.5242E3,4.6698224E2,5.65002E2,-2.4798398E2,-2.2023178E2,-1.9137973E2,-1.6556038E2,-1.3447754E2,-1.1166745E2,9.732E2,1.12405E3,1.2354E3,1.3746E3,7.143725E1,1.0703946E2,1.508674E2,1.9376811E2,3.5631348E2,4.128941E2,-8.9581E1,-6.929152E1,-4.3574722E1,-2.5928026E1,-1.0587669E1,9.920818E0,3.18465E1,4.8239902E1],"split_indices":[3,3,3,3,3,3,1,3,3,3,3,3,3,0,0,0,3,3,3,3,3,3,3,0,3,0,0,0,0,0,0,0,0,3,3,3,3,0,0,0,0,0,0,0,0,0,0,0,0,0,0],"split_type":[0,0,0,0,0,0,0,0,0,0,0,0,0,0,0,0,0,0,0,0,0,0,0,0,0,0,0,0,0,0,0,0,0,0,0,0,0,0,0,0,0,0,0,0,0,0,0,0,0,0,0],"sum_hessian":[4.244E3,3.463E3,7.81E2,2.139E3,1.324E3,5.31E2,2.5E2,1.36E3,7.79E2,9.76E2,3.48E2,3.15E2,2.16E2,1.16E2,1.34E2,9.12E2,4.48E2,3.31E2,4.48E2,5.8E2,3.96E2,1.16E2,2.32E2,1E2,2.15E2,8.3E1,1.33E2,2.32E2,2.16E2,1.64E2,1.67E2,2.16E2,2.32E2,2.47E2,3.33E2,2.14E2,1.82E2,5E1,6.6E1,1.49E2,8.3E1,8.3E1,1.32E2,1.31E2,1.16E2,1.16E2,2.17E2,1.16E2,9.8E1,8.3E1,9.9E1],"tree_param":{"num_deleted":"0","num_feature":"5","num_nodes":"51","size_leaf_vector":"1"}},{"base_weights":[6.7057765E-1,-3.0759335E2,1.3326172E3,-5.3415826E2,2.0260166E1,9.9828625E2,2.1293406E3,-6.266503E2,-3.670921E2,-1.0246851E2,2.5676364E2,7.598031E2,1.2071097E3,5.644488E2,7.302194E2,-6.618557E2,-5.6472687E2,-4.413715E2,-3.095091E2,-1.9810594E2,-3.5614555E1,1.3583597E2,3.684412E2,1.7205806E2,2.6003885E2,3.1249176E2,4.0002322E2,-2.0900893E2,-1.9175778E2,-1.7667448E2,-1.5830313E2,-1.4153014E2,-1.2342812E2,-1.0318746E2,-8.551906E1,-6.912865E1,-1.6169786E2,-6.2992924E1,1.9336798E1,1.0873312E2,6.040902E1,9.345259E1,1.2462043E2,-5.3912308E1,-4.1499786E1,-2.495872E1,-1.3742587E1,-9.312327E-1,1.374659E1,2.8274355E1,3.85308E1],"categories":[],"categories_nodes":[],"categories_segments":[],"categories_sizes":[],"default_left":[0,0,0,0,0,0,0,0,0,0,0,0,0,0,0,0,0,0,0,0,0,0,0,0,0,0,0,0,0,0,0,0,0,0,0,0,0,0,0,0,0,0,0,0,0,0,0,0,0,0,0],"id":1,"left_children":[1,3,5,7,9,11,13,15,17,19,21,23,25,-1,-1,27,29,31,33,35,37,39,41,-1,-1,-1,-1,-1,-1,-1,-1,-1,-1,-1,-1,-1,43,45,47,49,-1,-1,-1,-1,-1,-1,-1,-1,-1,-1,-1],"loss_changes":[1.7433691E9,2.5612867E8,2.1043712E8,3.127712E7,4.095263E7,2.7170496E7,1.3168512E7,2.484288E6,2.981496E6,5.93273E6,6.459318E6,4.80432E6,4.859872E6,0E0,0E0,2.10048E5,1.212E5,9.3516E4,2.50592E5,4.12283E5,8.256723E5,3.91908E5,5.38992E5,0E0,0E0,0E0,0E0,0E0,0E0,0E0,0E0,0E0,0E0,0E0,0E0,0E0,5.21475E4,1.23253375E5,1.089085E5,3.5557125E4,0E0,0E0,0E0,0E0,0E0,0E0,0E0,0E0,0E0,0E0,0E0],"parents":[2147483647,0,0,1,1,2,2,3,3,4,4,5,5,6,6,7,7,8,8,9,9,10,10,11,11,12,12,15,15,16,16,17,17,18,18,19,19,20,20,21,21,22,22,36,36,37,37,38,38,39,39],"right_children":[2,4,6,8,10,12,14,16,18,20,22,24,26,-1,-1,28,30,32,34,36,38,40,42,-1,-1,-1,-1,-1,-1,-1,-1,-1,-1,-1,-1,-1,44,46,48,50,-1,-1,-1,-1,-1,-1,-1,-1,-1,-1,-1],"split_conditions":[1.9581E3,8.7E2,3.62385E3,5.2285E2,1.34105E3,2.6393E3,4.41305E3,3.438E2,6.9195E2,1.0735E3,1.59755E3,2.2115E3,2.87935E3,5.644488E2,7.302194E2,2.9005E2,4.357E2,6.125E2,7.9045E2,9.5485E2,1.205E3,1.46315E3,1.7587E3,1.7205806E2,2.6003885E2,3.1249176E2,4.0002322E2,-2.0900893E2,-1.9175778E2,-1.7667448E2,-1.5830313E2,-1.4153014E2,-1.2342812E2,-1.0318746E2,-8.551906E1,-6.912865E1,1.00655E3,1.14805E3,1.27425E3,1.39925E3,6.040902E1,9.345259E1,1.2462043E2,-5.3912308E1,-4.1499786E1,-2.495872E1,-1.3742587E1,-9.312327E-1,1.374659E1,2.8274355E1,3.85308E1],"split_indices":[3,3,3,3,3,3,3,3,3,3,3,3,3,0,0,3,3,3,3,3,3,3,3,0,0,0,0,0,0,0,0,0,0,0,0,0,3,3,3,3,0,0,0,0,0,0,0,0,0,0,0],"split_type":[0,0,0,0,0,0,0,0,0,0,0,0,0,0,0,0,0,0,0,0,0,0,0,0,0,0,0,0,0,0,0,0,0,0,0,0,0,0,0,0,0,0,0,0,0,0,0,0,0,0,0],"sum_hessian":[4.244E3,3.447E3,7.97E2,2.038E3,1.409E3,5.63E2,2.34E2,1.31E3,7.28E2,9.28E2,4.81E2,2.65E2,2.98E2,1.33E2,1.01E2,8.29E2,4.81E2,3.15E2,4.13E2,3.81E2,5.47E2,2.32E2,2.49E2,9.9E1,1.66E2,1.33E2,1.65E2,3.15E2,5.14E2,2.82E2,1.99E2,1.49E2,1.66E2,1.66E2,2.47E2,1.99E2,1.82E2,3.65E2,1.82E2,1.66E2,6.6E1,1.16E2,1.33E2,9.9E1,8.3E1,1.66E2,1.99E2,9.9E1,8.3E1,9.9E1,6.7E1],"tree_param":{"num_deleted":"0","num_feature":"5","num_nodes":"51","size_leaf_vector":"1"}},{"base_weights":[8.003091E-1,-2.1022331E2,9.610257E2,-3.6207294E2,4.201464E1,7.09361E2,1.4735607E3,-4.33556E2,-2.338557E2,-3.211506E1,2.4601645E2,5.979468E2,8.8184875E2,3.5914032E2,1.6457255E3,-4.563134E2,-3.7207224E2,-2.826278E2,-1.9391281E2,-7.381301E1,4.6744183E1,1.781919E2,2.956548E2,4.6885852E2,2.011421E2,2.4022188E2,2.860271E2,4.5807352E2,5.534551E2,-1.4454721E2,-1.3059451E2,-1.168637E2,-1.0417318E2,-9.007131E1,-7.574667E1,-6.2875973E1,-5.2405003E1,-1.1872789E2,-4.1213726E1,1.3584297E1,7.418131E1,3.9065628E1,2.001767E2,8.021099E1,1.0434349E2,1.2090586E2,1.5359306E2,-3.91082E1,-2.7536829E1,-1.5675462E1,-7.491279E0,-9.140363E-1,7.914935E0,1.8375916E1,2.6560528E1,5.1197968E1,6.378247E1],"categories":[],"categories_nodes":[],"categories_segments":[],"categories_sizes":[],"default_left":[0,0,0,0,0,0,0,0,0,0,0,0,0,0,0,0,0,0,0,0,0,0,0,0,0,0,0,0,0,0,0,0,0,0,0,0,0,0,0,0,0,0,0,0,0,0,0,0,0,0,0,0,0,0,0,0,0],"id":2,"left_children":[1,3,5,7,9,11,13,15,17,19,21,23,25,-1,27,29,31,33,35,37,39,41,43,45,-1,-1,-1,-1,-1,-1,-1,-1,-1,-1,-1,-1,-1,47,49,51,53,-1,55,-1,-1,-1,-1,-1,-1,-1,-1,-1,-1,-1,-1,-1,-1],"loss_changes":[8.6036736E8,1.3334531E8,9.76297E7,1.9814912E7,1.9803376E7,9.36976E6,9.975104E6,1.780736E6,1.464712E6,3.1634768E6,1.122292E6,2.644152E6,3.97632E5,0E0,7.79232E5,3.32896E5,3.046E4,1.09422E5,9.3593E4,9.16084E5,3.019598E5,1.321355E5,2.02056E5,1.25814E5,0E0,0E0,0E0,0E0,0E0,0E0,0E0,0E0,0E0,0E0,0E0,0E0,0E0,7.076375E4,6.4313625E4,3.2434838E4,2.83505E4,0E0,7.7725E2,0E0,0E0,0E0,0E0,0E0,0E0,0E0,0E0,0E0,0E0,0E0,0E0,0E0,0E0],"parents":[2147483647,0,0,1,1,2,2,3,3,4,4,5,5,6,6,7,7,8,8,9,9,10,10,11,11,12,12,14,14,15,15,16,16,17,17,18,18,19,19,20,20,21,21,22,22,23,23,37,37,38,38,39,39,40,40,42,42],"right_children":[2,4,6,8,10,12,14,16,18,20,22,24,26,-1,28,30,32,34,36,38,40,42,44,46,-1,-1,-1,-1,-1,-1,-1,-1,-1,-1,-1,-1,-1,48,50,52,54,-1,56,-1,-1,-1,-1,-1,-1,-1,-1,-1,-1,-1,-1,-1,-1],"split_conditions":[2.03885E3,9.249E2,3.354E3,5.719E2,1.4768E3,2.74855E3,3.92915E3,4.008E2,7.684E2,1.21265E3,1.72135E3,2.41685E3,3.0785E3,3.5914032E2,4.67095E3,3.0745E2,4.9195E2,6.7525E2,8.523E2,1.0912E3,1.3237E3,1.5659E3,1.87405E3,2.15465E3,2.011421E2,2.4022188E2,2.860271E2,4.5807352E2,5.534551E2,-1.4454721E2,-1.3059451E2,-1.168637E2,-1.0417318E2,-9.007131E1,-7.574667E1,-6.2875973E1,-5.2405003E1,1.02235E3,1.16035E3,1.25905E3,1.3937E3,3.9065628E1,1.63595E3,8.021099E1,1.0434349E2,1.2090586E2,1.5359306E2,-3.91082E1,-2.7536829E1,-1.5675462E1,-7.491279E0,-9.140363E-1,7.914935E0,1.8375916E1,2.6560528E1,5.1197968E1,6.378247E1],"split_indices":[3,3,0,3,1,3,3,3,3,3,3,3,3,0,3,3,3,3,3,3,3,3,3,3,0,0,0,0,0,0,0,0,0,0,0,0,0,3,3,3,3,0,3,0,0,0,0,0,0,0,0,0,0,0,0,0,0],"split_type":[0,0,0,0,0,0,0,0,0,0,0,0,0,0,0,0,0,0,0,0,0,0,0,0,0,0,0,0,0,0,0,0,0,0,0,0,0,0,0,0,0,0,0,0,0,0,0,0,0,0,0,0,0,0,0,0,0],"sum_hessian":[4.244E3,3.48E3,7.64E2,2.172E3,1.308E3,5.14E2,2.5E2,1.393E3,7.79E2,9.6E2,3.48E2,3.15E2,1.99E2,9.9E1,1.51E2,1.012E3,3.81E2,3.48E2,4.31E2,6.28E2,3.32E2,1.49E2,1.99E2,1.16E2,1.99E2,9.9E1,1E2,1E2,5.1E1,4.47E2,5.65E2,2.15E2,1.66E2,2.14E2,1.34E2,2.32E2,1.99E2,2.63E2,3.65E2,1.51E2,1.81E2,4.9E1,1E2,1.33E2,6.6E1,5E1,6.6E1,1.81E2,8.2E1,2.16E2,1.49E2,6.6E1,8.5E1,9.8E1,8.3E1,3.4E1,6.6E1],"tree_param":{"num_deleted":"0","num_feature":"5","num_nodes":"57","size_leaf_vector":"1"}},{"base_weights":[1.0068572E0,-1.4542638E2,6.8468646E2,-2.5284274E2,3.4094547E1,5.3043726E2,1.1025876E3,-3.0232596E2,-1.5984352E2,-1.9527267E1,1.8180255E2,4.3802512E2,6.6980505E2,3.011077E2,3.831697E2,-3.2486917E2,-2.6725568E2,-1.9287917E2,-1.3416147E2,-4.9220528E1,3.696663E1,1.4643436E2,2.2774811E2,3.4804764E2,1.4554549E2,1.8069533E2,2.224055E2,-1.0396426E2,-9.4130936E1,-8.4659706E1,-7.344481E1,-6.1053463E1,-5.1507763E1,-4.4095688E1,-3.674178E1,-7.993924E1,-2.6760426E1,1.5928926E1,5.7908375E1,3.382113E1,4.8768612E1,6.120094E1,7.623562E1,8.862959E1,1.1000266E2,-2.7893877E1,-1.9799078E1,-1.0368032E1,-4.589544E0,1.1983984E0,8.30207E0,1.4788709E1,2.0969648E1],"categories":[],"categories_nodes":[],"categories_segments":[],"categories_sizes":[],"default_left":[0,0,0,0,0,0,0,0,0,0,0,0,0,0,0,0,0,0,0,0,0,0,0,0,0,0,0,0,0,0,0,0,0,0,0,0,0,0,0,0,0,0,0,0,0,0,0,0,0,0,0,0,0],"id":3,"left_children":[1,3,5,7,9,11,13,15,17,19,21,23,25,-1,-1,27,29,31,33,35,37,39,41,43,-1,-1,-1,-1,-1,-1,-1,-1,-1,-1,-1,45,47,49,51,-1,-1,-1,-1,-1,-1,-1,-1,-1,-1,-1,-1,-1,-1],"loss_changes":[4.250811E8,6.744296E7,4.769635E7,1.002064E7,1.0379237E7,6.777328E6,2.189632E6,1.04136E6,6.20622E5,1.6155629E6,5.33779E5,1.243168E6,6.01256E5,0E0,0E0,9.916E4,1.20036E5,3.9621E4,4.6755E4,4.3321638E5,1.4534553E5,9.0365E4,4.2084E4,7.326E3,0E0,0E0,0E0,0E0,0E0,0E0,0E0,0E0,0E0,0E0,0E0,4.222575E4,3.2191516E4,2.3296777E4,1.3697125E4,0E0,0E0,0E0,0E0,0E0,0E0,0E0,0E0,0E0,0E0,0E0,0E0,0E0,0E0],"parents":[2147483647,0,0,1,1,2,2,3,3,4,4,5,5,6,6,7,7,8,8,9,9,10,10,11,11,12,12,15,15,16,16,17,17,18,18,19,19,20,20,21,21,22,22,23,23,35,35,36,36,37,37,38,38],"right_children":[2,4,6,8,10,12,14,16,18,20,22,24,26,-1,-1,28,30,32,34,36,38,40,42,44,-1,-1,-1,-1,-1,-1,-1,-1,-1,-1,-1,46,48,50,52,-1,-1,-1,-1,-1,-1,-1,-1,-1,-1,-1,-1,-1,-1],"split_conditions":[2.0701E3,9.3225E2,3.75005E3,5.8515E2,1.4989E3,2.81875E3,4.5768E3,3.581E2,7.7715E2,1.2225E3,1.78835E3,2.47255E3,3.15955E3,3.011077E2,3.831697E2,2.7495E2,4.81E2,7.0385E2,8.4685E2,1.10465E3,1.35825E3,1.63595E3,1.9146E3,2.1934E3,1.4554549E2,1.8069533E2,2.224055E2,-1.0396426E2,-9.4130936E1,-8.4659706E1,-7.344481E1,-6.1053463E1,-5.1507763E1,-4.4095688E1,-3.674178E1,1.00005E3,1.1653E3,1.2864E3,1.40575E3,3.382113E1,4.8768612E1,6.120094E1,7.623562E1,8.862959E1,1.1000266E2,-2.7893877E1,-1.9799078E1,-1.0368032E1,-4.589544E0,1.1983984E0,8.30207E0,1.4788709E1,2.0969648E1],"split_indices":[3,3,3,3,3,3,3,3,3,3,3,3,3,0,0,3,3,3,3,3,3,3,3,1,0,0,0,0,0,0,0,0,0,0,0,3,3,3,3,0,0,0,0,0,0,0,0,0,0,0,0,0,0],"split_type":[0,0,0,0,0,0,0,0,0,0,0,0,0,0,0,0,0,0,0,0,0,0,0,0,0,0,0,0,0,0,0,0,0,0,0,0,0,0,0,0,0,0,0,0,0,0,0,0,0,0,0,0,0],"sum_hessian":[4.244E3,3.496E3,7.48E2,2.187E3,1.309E3,5.48E2,2E2,1.426E3,7.61E2,9.61E2,3.48E2,3.32E2,2.16E2,1.32E2,6.8E1,8.63E2,5.63E2,3.3E2,4.31E2,6.3E2,3.31E2,1.99E2,1.49E2,1.17E2,2.15E2,1.16E2,1E2,2.82E2,5.81E2,3.31E2,2.32E2,2.14E2,1.16E2,2E2,2.31E2,2.65E2,3.65E2,1.66E2,1.65E2,6.7E1,1.32E2,8.3E1,6.6E1,3.5E1,8.2E1,1.34E2,1.31E2,2.16E2,1.49E2,8.3E1,8.3E1,9.9E1,6.6E1],"tree_param":{"num_deleted":"0","num_feature":"5","num_nodes":"53","size_leaf_vector":"1"}},{"base_weights":[9.603096E-1,-1.01897675E2,4.8119183E2,-1.8118027E2,1.7981543E1,3.7787482E2,7.941266E2,-2.1539397E2,-1.2254663E2,-2.2286901E1,1.1870866E2,3.0291647E2,4.711107E2,2.2354251E2,2.9285144E2,-2.3257721E2,-1.9616028E2,-1.4878848E2,-1.0278189E2,-5.4360725E1,3.926867E0,7.726808E1,1.4772336E2,2.5864856E2,1.05054596E2,1.271177E2,1.6138528E2,-7.6251656E1,-6.8107285E1,-6.153537E1,-5.4485027E1,-4.8536472E1,-4.119597E1,-3.4441727E1,-2.7854362E1,-6.7027115E1,-3.530573E1,-1.237148E1,2.5919819E1,5.938925E1,2.8204266E1,3.838586E1,5.182158E1,6.519078E1,8.263636E1,-2.1642023E1,-1.6490551E1,-1.2161142E1,-8.592146E0,-5.2558393E0,-1.0397308E0,4.290167E0,1.0345258E1,1.555736E1,2.0615425E1],"categories":[],"categories_nodes":[],"categories_segments":[],"categories_sizes":[],"default_left":[0,0,0,0,0,0,0,0,0,0,0,0,0,0,0,0,0,0,0,0,0,0,0,0,0,0,0,0,0,0,0,0,0,0,0,0,0,0,0,0,0,0,0,0,0,0,0,0,0,0,0,0,0,0,0],"id":4,"left_children":[1,3,5,7,9,11,13,15,17,19,21,23,25,-1,-1,27,29,31,33,35,37,39,41,43,-1,-1,-1,-1,-1,-1,-1,-1,-1,-1,-1,45,47,49,51,53,-1,-1,-1,-1,-1,-1,-1,-1,-1,-1,-1,-1,-1,-1,-1],"loss_changes":[2.0973355E8,3.3239912E7,2.3916192E7,4.196392E6,5.6528265E6,3.805968E6,9.22352E5,3.9328E5,3.88228E5,8.376262E5,4.67135E5,5.7061E5,5.63864E5,0E0,0E0,2.5756E4,4.5214E4,2.72805E4,4.27325E4,1.05761875E5,1.9710905E5,4.411725E4,9.31305E4,5.6184E4,0E0,0E0,0E0,0E0,0E0,0E0,0E0,0E0,0E0,0E0,0E0,1.255825E4,5.150203E3,1.4426762E4,2.2792594E4,2.2679062E3,0E0,0E0,0E0,0E0,0E0,0E0,0E0,0E0,0E0,0E0,0E0,0E0,0E0,0E0,0E0],"parents":[2147483647,0,0,1,1,2,2,3,3,4,4,5,5,6,6,7,7,8,8,9,9,10,10,11,11,12,12,15,15,16,16,17,17,18,18,19,19,20,20,21,21,22,22,23,23,35,35,36,36,37,37,38,38,39,39],"right_children":[2,4,6,8,10,12,14,16,18,20,22,24,26,-1,-1,28,30,32,34,36,38,40,42,44,-1,-1,-1,-1,-1,-1,-1,-1,-1,-1,-1,46,48,50,52,54,-1,-1,-1,-1,-1,-1,-1,-1,-1,-1,-1,-1,-1,-1,-1],"split_conditions":[2.0701E3,8.8825E2,3.82405E3,5.307E2,1.42415E3,2.7784E3,4.8E3,3.2705E2,7.1535E2,1.1379E3,1.70735E3,2.55365E3,3.18055E3,2.2354251E2,2.9285144E2,2.6E2,4.198E2,6.207E2,8.081E2,1.03385E3,1.25905E3,1.5659E3,1.84225E3,2.213E3,1.05054596E2,1.271177E2,1.6138528E2,-7.6251656E1,-6.8107285E1,-6.153537E1,-5.4485027E1,-4.8536472E1,-4.119597E1,-3.4441727E1,-2.7854362E1,9.8475E2,1.1121E3,1.192E3,1.32525E3,1.518E3,2.8204266E1,3.838586E1,5.182158E1,6.519078E1,8.263636E1,-2.1642023E1,-1.6490551E1,-1.2161142E1,-8.592146E0,-5.2558393E0,-1.0397308E0,4.290167E0,1.0345258E1,1.555736E1,2.0615425E1],"split_indices":[3,3,3,3,3,3,3,3,3,3,3,3,3,0,0,3,3,3,3,3,3,3,3,0,0,0,0,0,0,0,0,0,0,0,0,3,3,3,2,1,0,0,0,0,0,0,0,0,0,0,0,0,0,0,0],"split_type":[0,0,0,0,0,0,0,0,0,0,0,0,0,0,0,0,0,0,0,0,0,0,0,0,0,0,0,0,0,0,0,0,0,0,0,0,0,0,0,0,0,0,0,0,0,0,0,0,0,0,0,0,0,0,0],"sum_hessian":[4.244E3,3.496E3,7.48E2,2.104E3,1.392E3,5.64E2,1.84E2,1.327E3,7.77E2,9.95E2,3.97E2,3.15E2,2.49E2,1.49E2,3.5E1,6.95E2,6.32E2,3.31E2,4.46E2,4.47E2,5.48E2,1.65E2,2.32E2,1.66E2,1.49E2,1.5E2,9.9E1,1.33E2,5.62E2,3.83E2,2.49E2,1.49E2,1.82E2,1.97E2,2.49E2,2.67E2,1.8E2,3.15E2,2.33E2,8.2E1,8.3E1,1.33E2,9.9E1,5.2E1,1.14E2,1.84E2,8.3E1,9.8E1,8.2E1,1.99E2,1.16E2,1E2,1.33E2,4.9E1,3.3E1],"tree_param":{"num_deleted":"0","num_feature":"5","num_nodes":"55","size_leaf_vector":"1"}},{"base_weights":[8.48757E-1,-7.52898E1,3.2137704E2,-1.2811835E2,5.251397E0,2.3002794E2,5.0696634E2,-1.5231995E2,-8.905199E1,-2.1712362E1,6.322381E1,1.698776E2,2.7955154E2,1.2324194E2,5.986586E2,-1.6480768E2,-1.4052435E2,-1.1035534E2,-7.60565E1,-4.528605E1,-6.4449143E0,3.3494728E1,8.47326E1,3.868872E1,1.8944046E2,7.7440704E1,9.587633E1,1.6766248E2,2.0776195E2,-5.465056E1,-4.832488E1,-4.353424E1,-3.90999E1,-3.4729153E1,-3.0820343E1,-8.415418E1,-1.9956081E1,-1.6544735E1,-3.8227043E1,-1.2843548E1,1.1343596E1,2.635167E1,4.1783333E1,2.0964222E1,2.9181705E1,5.01936E1,6.0673237E1,-2.6633013E1,-2.329298E1,-1.2355952E1,-9.215503E0,-5.7799597E0,-2.3148596E0,1.5170364E0,4.86691E0,6.703513E0,8.390238E0,1.0701986E1,1.452464E1],"categories":[],"categories_nodes":[],"categories_segments":[],"categories_sizes":[],"default_left":[0,0,0,0,0,0,0,0,0,0,0,0,0,0,0,0,0,0,0,0,0,0,0,0,0,0,0,0,0,0,0,0,0,0,0,0,0,0,0,0,0,0,0,0,0,0,0,0,0,0,0,0,0,0,0,0,0,0,0],"id":5,"left_children":[1,3,5,7,9,11,13,15,17,19,21,23,25,-1,27,29,31,33,35,37,39,41,43,-1,45,-1,-1,-1,-1,-1,-1,-1,-1,-1,-1,47,-1,-1,49,51,53,55,57,-1,-1,-1,-1,-1,-1,-1,-1,-1,-1,-1,-1,-1,-1,-1,-1],"loss_changes":[1.0362156E8,1.4599146E7,1.3700416E7,1.945444E6,2.1272625E6,1.584926E6,2.117056E6,1.65092E5,2.117005E5,3.3406462E5,2.7339838E5,1.756745E5,1.73868E5,0E0,1.17176E5,1.0425E4,1.2146E4,4.31E2,3.2781E4,2.3304375E4,6.445522E4,9.733625E3,3.976225E4,0E0,1.34775E4,0E0,0E0,0E0,0E0,0E0,0E0,0E0,0E0,0E0,0E0,1.08275E3,0E0,0E0,3.5347188E3,1.3551414E4,4.519373E3,2.8929688E1,1.63625E3,0E0,0E0,0E0,0E0,0E0,0E0,0E0,0E0,0E0,0E0,0E0,0E0,0E0,0E0,0E0,0E0],"parents":[2147483647,0,0,1,1,2,2,3,3,4,4,5,5,6,6,7,7,8,8,9,9,10,10,11,11,12,12,14,14,15,15,16,16,17,17,18,18,19,19,20,20,21,21,22,22,24,24,35,35,38,38,39,39,40,40,41,41,42,42],"right_children":[2,4,6,8,10,12,14,16,18,20,22,24,26,-1,28,30,32,34,36,38,40,42,44,-1,46,-1,-1,-1,-1,-1,-1,-1,-1,-1,-1,48,-1,-1,50,52,54,56,58,-1,-1,-1,-1,-1,-1,-1,-1,-1,-1,-1,-1,-1,-1,-1,-1],"split_conditions":[1.935E3,8.7895E2,3.24E3,5.0685E2,1.36445E3,2.58575E3,4.16125E3,3.21E2,6.6325E2,1.0912E3,1.5899E3,2.09E3,3.0508E3,1.2324194E2,4.7552E3,2.537E2,4.154E2,5.9215E2,8.0445E2,9.4795E2,1.247E3,1.42415E3,1.7382E3,3.868872E1,2.38705E3,7.7440704E1,9.587633E1,1.6766248E2,2.0776195E2,-5.465056E1,-4.832488E1,-4.353424E1,-3.90999E1,-3.4729153E1,-3.0820343E1,7.565E2,-1.9956081E1,-1.6544735E1,1.03385E3,1.15465E3,1.2933E3,1.38455E3,1.48295E3,2.0964222E1,2.9181705E1,5.01936E1,6.0673237E1,-2.6633013E1,-2.329298E1,-1.2355952E1,-9.215503E0,-5.7799597E0,-2.3148596E0,1.5170364E0,4.86691E0,6.703513E0,8.390238E0,1.0701986E1,1.452464E1],"split_indices":[1,3,3,3,3,3,0,3,3,3,1,3,3,0,2,3,3,3,3,3,3,3,3,0,3,0,0,0,0,0,0,0,0,0,0,3,0,0,3,3,3,3,2,0,0,0,0,0,0,0,0,0,0,0,0,0,0,0,0],"split_type":[0,0,0,0,0,0,0,0,0,0,0,0,0,0,0,0,0,0,0,0,0,0,0,0,0,0,0,0,0,0,0,0,0,0,0,0,0,0,0,0,0,0,0,0,0,0,0,0,0,0,0,0,0,0,0,0,0,0,0],"sum_hessian":[4.244E3,3.43E3,8.14E2,2.071E3,1.359E3,5.47E2,2.67E2,1.277E3,7.94E2,9.28E2,4.31E2,2.49E2,2.98E2,1.33E2,1.34E2,6.14E2,6.63E2,2.98E2,4.96E2,3.64E2,5.64E2,1.82E2,2.49E2,8.3E1,1.66E2,1.99E2,9.9E1,9.9E1,3.5E1,1E2,5.14E2,4.48E2,2.15E2,1.66E2,1.32E2,2.64E2,2.32E2,1.49E2,2.15E2,4.15E2,1.49E2,1E2,8.2E1,1.17E2,1.32E2,6.6E1,1E2,1.47E2,1.17E2,1.51E2,6.4E1,1.83E2,2.32E2,6.6E1,8.3E1,3.3E1,6.7E1,4.6E1,3.6E1],"tree_param":{"num_deleted":"0","num_feature":"5","num_nodes":"59","size_leaf_vector":"1"}},{"base_weights":[7.2395533E-1,-5.27868E1,2.259935E2,-9.135059E1,1.5642997E0,1.7553714E2,3.96869E2,-1.0707348E2,-6.4686714E1,-1.8114597E1,4.2230656E1,1.2888264E2,2.2163614E2,1.0417487E2,4.511595E2,-1.16694046E2,-9.9539665E1,-2.352876E1,-5.5339775E1,-3.4691097E1,-6.334602E0,2.3473528E1,6.0967457E1,1.0357567E2,4.5252518E1,5.789237E1,7.562054E1,1.2547988E2,1.6302187E2,-4.080549E1,-3.434422E1,-3.074571E1,-2.7681892E1,-1.8822132E1,-5.0886974E1,-1.221463E1,-2.8493307E1,-1.1666207E1,3.4005945E0,1.7340467E1,3.1378046E1,5.320288E1,2.1205402E1,2.7246832E1,3.540554E1,-1.6261084E1,-1.4040094E1,-9.477867E0,-7.5616627E0,-5.020356E0,-2.633689E0,3.3361453E-1,3.0194802E0,4.405894E0,5.9101753E0,7.705262E0,1.0874842E1,1.3457421E1,1.7261E1],"categories":[],"categories_nodes":[],"categories_segments":[],"categories_sizes":[],"default_left":[0,0,0,0,0,0,0,0,0,0,0,0,0,0,0,0,0,0,0,0,0,0,0,0,0,0,0,0,0,0,0,0,0,0,0,0,0,0,0,0,0,0,0,0,0,0,0,0,0,0,0,0,0,0,0,0,0,0,0],"id":6,"left_children":[1,3,5,7,9,11,13,15,17,19,21,23,25,-1,27,29,31,-1,33,35,37,39,41,43,-1,-1,-1,-1,-1,-1,-1,-1,-1,-1,45,-1,47,49,51,53,55,57,-1,-1,-1,-1,-1,-1,-1,-1,-1,-1,-1,-1,-1,-1,-1,-1,-1],"loss_changes":[5.1182616E7,7.191466E6,6.957064E6,8.34474E5,1.1411485E6,1.328542E6,3.417E5,7.9781E4,9.1612E4,1.8743578E5,1.6199244E5,1.599835E5,2.26986E5,0E0,3.0626E4,7.867E3,5.8285E3,0E0,1.1570625E4,1.37375625E4,2.9261758E4,1.0799945E4,1.37438125E4,1.6909375E4,0E0,0E0,0E0,0E0,0E0,0E0,0E0,0E0,0E0,0E0,1.326125E3,0E0,1.2418281E3,5.17966E3,3.0391367E3,5.500586E2,1.8704062E3,2.228875E3,0E0,0E0,0E0,0E0,0E0,0E0,0E0,0E0,0E0,0E0,0E0,0E0,0E0,0E0,0E0,0E0,0E0],"parents":[2147483647,0,0,1,1,2,2,3,3,4,4,5,5,6,6,7,7,8,8,9,9,10,10,11,11,12,12,14,14,15,15,16,16,18,18,19,19,20,20,21,21,22,22,23,23,34,34,36,36,37,37,38,38,39,39,40,40,41,41],"right_children":[2,4,6,8,10,12,14,16,18,20,22,24,26,-1,28,30,32,-1,34,36,38,40,42,44,-1,-1,-1,-1,-1,-1,-1,-1,-1,-1,46,-1,48,50,52,54,56,58,-1,-1,-1,-1,-1,-1,-1,-1,-1,-1,-1,-1,-1,-1,-1,-1,-1],"split_conditions":[1.9146E3,8.6175E2,3.77005E3,5.045E2,1.3646E3,2.6637E3,4.5095E3,3.165E2,6.57E2,1.06275E3,1.6E3,2.38705E3,3.10305E3,1.0417487E2,4.89645E3,2.465E2,4.093E2,-2.352876E1,7.565E2,9.3995E2,1.1986E3,1.42415E3,1.77095E3,2.12E3,4.5252518E1,5.789237E1,7.562054E1,1.2547988E2,1.6302187E2,-4.080549E1,-3.434422E1,-3.074571E1,-2.7681892E1,-1.8822132E1,8.1385E2,-1.221463E1,9.915E2,1.1341E3,1.2933E3,1.38455E3,1.4989E3,1.7149E3,2.1205402E1,2.7246832E1,3.540554E1,-1.6261084E1,-1.4040094E1,-9.477867E0,-7.5616627E0,-5.020356E0,-2.633689E0,3.3361453E-1,3.0194802E0,4.405894E0,5.9101753E0,7.705262E0,1.0874842E1,1.3457421E1,1.7261E1],"split_indices":[3,3,2,3,1,3,3,3,3,3,0,3,3,0,3,3,3,0,3,3,3,3,3,1,0,0,0,0,0,0,0,0,0,0,3,0,3,3,3,3,3,1,0,0,0,0,0,0,0,0,0,0,0,0,0,0,0,0,0],"split_type":[0,0,0,0,0,0,0,0,0,0,0,0,0,0,0,0,0,0,0,0,0,0,0,0,0,0,0,0,0,0,0,0,0,0,0,0,0,0,0,0,0,0,0,0,0,0,0,0,0,0,0,0,0,0,0,0,0,0,0],"sum_hessian":[4.244E3,3.43E3,8.14E2,2.006E3,1.424E3,6.3E2,1.84E2,1.26E3,7.46E2,9.6E2,4.64E2,3.15E2,3.15E2,1E2,8.4E1,5.47E2,7.13E2,2.99E2,4.47E2,3.98E2,5.62E2,2.33E2,2.31E2,1.49E2,1.66E2,1.66E2,1.49E2,6.6E1,1.8E1,5E1,4.97E2,4.98E2,2.15E2,1.63E2,2.84E2,1.99E2,1.99E2,3.63E2,1.99E2,1.33E2,1E2,1.32E2,9.9E1,8.3E1,6.6E1,1.5E2,1.34E2,9.8E1,1.01E2,1.3E2,2.33E2,1.49E2,5E1,6.6E1,6.7E1,4.9E1,5.1E1,4.9E1,8.3E1],"tree_param":{"num_deleted":"0","num_feature":"5","num_nodes":"59","size_leaf_vector":"1"}},{"base_weights":[6.18693E-1,-3.7455906E1,1.5708577E2,-6.273712E1,2.4198072E0,1.1747141E2,2.6793954E2,-7.295047E1,-3.9845596E1,-1.025607E1,3.0172943E1,8.321138E1,1.4613165E2,6.558089E1,3.0714728E2,-7.999535E1,-6.493984E1,-4.6506985E1,-3.4668873E1,-2.1035816E1,-2.5021346E0,1.6594728E1,4.066286E1,1.8959936E1,9.369196E1,1.3376321E2,5.208375E1,8.654323E1,1.1706799E2,-2.6499773E1,-2.3070763E1,-2.0524162E1,-1.7778791E1,-1.4734043E1,-1.29502325E1,-1.1415058E1,-9.65032E0,-2.481554E1,-1.6043741E1,-5.779317E0,5.860438E0,3.970638E0,2.0482576E1,3.2289143E1,1.3515539E1,2.5647757E1,3.0762238E1,3.763377E1,4.3042107E1,-8.042241E0,-6.6632347E0,-5.3154087E0,-3.963936E0,-2.5077515E0,-7.22368E-1,9.064416E-1,2.4533565E0,5.4000006E0,7.0592976E0,5.7567143E0,9.862609E0],"categories":[],"categories_nodes":[],"categories_segments":[],"categories_sizes":[],"default_left":[0,0,0,0,0,0,0,0,0,0,0,0,0,0,0,0,0,0,0,0,0,0,0,0,0,0,0,0,0,0,0,0,0,0,0,0,0,0,0,0,0,0,0,0,0,0,0,0,0,0,0,0,0,0,0,0,0,0,0,0,0],"id":7,"left_children":[1,3,5,7,9,11,13,15,17,19,21,23,25,-1,27,29,31,33,35,37,39,41,43,-1,45,47,-1,-1,-1,-1,-1,-1,-1,-1,-1,-1,-1,49,51,53,55,-1,57,59,-1,-1,-1,-1,-1,-1,-1,-1,-1,-1,-1,-1,-1,-1,-1,-1,-1],"loss_changes":[2.5295136E7,3.442836E6,3.617778E6,4.85733E5,4.6679006E5,5.90726E5,3.54552E5,7.62955E4,2.0698938E4,7.609373E4,5.8577938E4,5.32235E4,8.99625E4,0E0,7.2006E4,1.2907E4,9.37675E3,3.171875E2,1.88825E3,6.790828E3,1.4586283E4,2.1189414E3,7.1452188E3,0E0,4.511125E3,9.005E2,0E0,0E0,0E0,0E0,0E0,0E0,0E0,0E0,0E0,0E0,0E0,5.201094E2,5.5734375E2,3.3024248E3,9.6215137E2,0E0,2.0458203E2,1.4234375E1,0E0,0E0,0E0,0E0,0E0,0E0,0E0,0E0,0E0,0E0,0E0,0E0,0E0,0E0,0E0,0E0,0E0],"parents":[2147483647,0,0,1,1,2,2,3,3,4,4,5,5,6,6,7,7,8,8,9,9,10,10,11,11,12,12,14,14,15,15,16,16,17,17,18,18,19,19,20,20,21,21,22,22,24,24,25,25,37,37,38,38,39,39,40,40,42,42,43,43],"right_children":[2,4,6,8,10,12,14,16,18,20,22,24,26,-1,28,30,32,34,36,38,40,42,44,-1,46,48,-1,-1,-1,-1,-1,-1,-1,-1,-1,-1,-1,50,52,54,56,-1,58,60,-1,-1,-1,-1,-1,-1,-1,-1,-1,-1,-1,-1,-1,-1,-1,-1,-1],"split_conditions":[1.89475E3,8.834E2,3.6932E3,5.9215E2,1.36445E3,2.6041E3,4.301E3,3.345E2,7.565E2,1.1121E3,1.545E3,2.09E3,3.134E3,6.558089E1,4.945E3,2.675E2,4.746E2,6.67E2,8.1385E2,9.915E2,1.247E3,1.42415E3,1.70735E3,1.8959936E1,2.50385E3,2.8634E3,5.208375E1,8.654323E1,1.1706799E2,-2.6499773E1,-2.3070763E1,-2.0524162E1,-1.7778791E1,-1.4734043E1,-1.29502325E1,-1.1415058E1,-9.65032E0,9.3995E2,1.06275E3,1.1701E3,1.3E3,3.970638E0,1.518E3,7.9E3,1.3515539E1,2.5647757E1,3.0762238E1,3.763377E1,4.3042107E1,-8.042241E0,-6.6632347E0,-5.3154087E0,-3.963936E0,-2.5077515E0,-7.22368E-1,9.064416E-1,2.4533565E0,5.4000006E0,7.0592976E0,5.7567143E0,9.862609E0],"split_indices":[1,3,3,3,3,3,2,3,3,3,2,3,3,0,1,3,3,3,3,3,3,3,3,0,1,1,0,0,0,0,0,0,0,0,0,0,0,3,3,3,0,0,1,4,0,0,0,0,0,0,0,0,0,0,0,0,0,0,0,0,0],"split_type":[0,0,0,0,0,0,0,0,0,0,0,0,0,0,0,0,0,0,0,0,0,0,0,0,0,0,0,0,0,0,0,0,0,0,0,0,0,0,0,0,0,0,0,0,0,0,0,0,0,0,0,0,0,0,0,0,0,0,0,0,0],"sum_hessian":[4.244E3,3.414E3,8.3E2,2.089E3,1.325E3,6.13E2,2.17E2,1.443E3,6.46E2,9.1E2,4.15E2,2.81E2,3.32E2,9.9E1,1.18E2,7.63E2,6.8E2,2.79E2,3.67E2,3.8E2,5.3E2,1.82E2,2.33E2,9.9E1,1.82E2,2.33E2,9.9E1,1E2,1.8E1,1.99E2,5.64E2,4.15E2,2.65E2,1.49E2,1.3E2,1.5E2,2.17E2,2.14E2,1.66E2,3.81E2,1.49E2,1E2,8.2E1,8.3E1,1.5E2,1E2,8.2E1,1.33E2,1E2,1.16E2,9.8E1,1.01E2,6.5E1,2.15E2,1.66E2,6.8E1,8.1E1,4.9E1,3.3E1,5E0,7.8E1],"tree_param":{"num_deleted":"0","num_feature":"5","num_nodes":"61","size_leaf_vector":"1"}},{"base_weights":[5.1846534E-1,-2.460573E1,1.1781992E2,-4.324678E1,5.324326E0,9.245394E1,2.0499365E2,-5.1126175E1,-2.7205921E1,-4.600052E0,2.890005E1,6.945259E1,1.1159605E2,1.9396523E2,8.43813E1,-5.6194225E1,-4.5613937E1,-3.1369875E1,-2.2372562E1,-1.0397502E1,3.3738894E0,2.01959E1,3.750271E1,5.9525818E1,2.365832E1,1.01231705E2,3.979694E1,4.345477E1,5.986966E1,-2.244394E1,-5.520283E1,-1.42738285E1,-1.2158119E1,-3.3567833E1,-8.490729E0,-7.1340675E0,-2.0474646E1,-1.4916437E1,-6.5563936E0,-2.8614905E-1,7.7393537E0,1.6104504E1,2.5654203E1,3.1731474E1,4.289892E1,1.3460507E1,1.8381615E1,2.8217003E1,3.258425E1,-1.7385813E1,-1.5802498E1,-1.0090689E1,-2.8487368E0,-5.8472557E0,-8.230275E0,-4.947291E0,-3.7364137E0,-2.5060725E0,-1.4254495E0,-4.1844094E-1,6.3843465E-1,1.7263216E0,2.782281E0,3.830526E0,5.4962025E0,9.690237E0,7.084587E0,1.0196268E1,5.869668E0,1.4083138E1,1.009992E1],"categories":[],"categories_nodes":[],"categories_segments":[],"categories_sizes":[],"default_left":[0,0,0,0,0,0,0,0,0,0,0,0,0,0,0,0,0,0,0,0,0,0,0,0,0,0,0,0,0,0,0,0,0,0,0,0,0,0,0,0,0,0,0,0,0,0,0,0,0,0,0,0,0,0,0,0,0,0,0,0,0,0,0,0,0,0,0,0,0,0,0],"id":8,"left_children":[1,3,5,7,9,11,13,15,17,19,21,23,25,27,-1,29,31,33,35,37,39,41,43,45,-1,47,-1,-1,-1,-1,49,-1,-1,51,-1,-1,53,55,57,59,61,63,65,67,69,-1,-1,-1,-1,-1,-1,-1,-1,-1,-1,-1,-1,-1,-1,-1,-1,-1,-1,-1,-1,-1,-1,-1,-1,-1,-1],"loss_changes":[1.2513359E7,1.9513035E6,1.637272E6,2.709845E5,3.1436053E5,2.485005E5,8.67675E4,3.777675E4,1.36278125E4,4.3767266E4,2.9044375E4,2.0242375E4,5.55465E4,1.23525E4,0E0,9.677E3,5.0405E3,1.6119688E3,4.0275E2,9.414234E3,6.377344E3,4.0532578E3,4.8361875E3,6.80625E2,0E0,1.2255E3,0E0,0E0,0E0,0E0,1.91075E3,0E0,0E0,3.3109375E1,0E0,0E0,4.8546484E2,7.675039E2,9.269375E2,5.864636E2,5.0113672E2,6.3109375E2,3.755625E2,2.07975E3,2.1540156E3,0E0,0E0,0E0,0E0,0E0,0E0,0E0,0E0,0E0,0E0,0E0,0E0,0E0,0E0,0E0,0E0,0E0,0E0,0E0,0E0,0E0,0E0,0E0,0E0,0E0,0E0],"parents":[2147483647,0,0,1,1,2,2,3,3,4,4,5,5,6,6,7,7,8,8,9,9,10,10,11,11,12,12,13,13,15,15,16,16,17,17,18,18,19,19,20,20,21,21,22,22,23,23,25,25,30,30,33,33,36,36,37,37,38,38,39,39,40,40,41,41,42,42,43,43,44,44],"right_children":[2,4,6,8,10,12,14,16,18,20,22,24,26,28,-1,30,32,34,36,38,40,42,44,46,-1,48,-1,-1,-1,-1,50,-1,-1,52,-1,-1,54,56,58,60,62,64,66,68,70,-1,-1,-1,-1,-1,-1,-1,-1,-1,-1,-1,-1,-1,-1,-1,-1,-1,-1,-1,-1,-1,-1,-1,-1,-1,-1],"split_conditions":[2.042E3,9.0785E2,3.88795E3,5.9215E2,1.4082E3,2.68895E3,4.89645E3,3.315E2,8E2,1.17495E3,1.7382E3,2.501E3,3.24E3,3.921E3,8.43813E1,2.3675E2,5.0055E2,7.025E2,8.6175E2,1.06275E3,1.3E3,1.6751E3,1.84225E3,2.06735E3,2.365832E1,3.0508E3,3.979694E1,4.345477E1,5.986966E1,-2.244394E1,2.9955E2,-1.42738285E1,-1.2158119E1,2.795089E6,-8.490729E0,-7.1340675E0,9.0025E2,9.915E2,1.1379E3,1.247E3,1.36445E3,1.518E3,1.67745E3,1.81075E3,1.9821E3,1.3460507E1,1.8381615E1,2.8217003E1,3.258425E1,-1.7385813E1,-1.5802498E1,-1.0090689E1,-2.8487368E0,-5.8472557E0,-8.230275E0,-4.947291E0,-3.7364137E0,-2.5060725E0,-1.4254495E0,-4.1844094E-1,6.3843465E-1,1.7263216E0,2.782281E0,3.830526E0,5.4962025E0,9.690237E0,7.084587E0,1.0196268E1,5.869668E0,1.4083138E1,1.009992E1],"split_indices":[2,3,3,3,2,3,3,3,3,3,3,3,3,0,0,3,3,2,3,3,0,1,3,2,0,3,0,0,0,0,3,0,0,4,0,0,3,3,3,3,3,1,3,3,3,0,0,0,0,0,0,0,0,0,0,0,0,0,0,0,0,0,0,0,0,0,0,0,0,0,0],"split_type":[0,0,0,0,0,0,0,0,0,0,0,0,0,0,0,0,0,0,0,0,0,0,0,0,0,0,0,0,0,0,0,0,0,0,0,0,0,0,0,0,0,0,0,0,0,0,0,0,0,0,0,0,0,0,0,0,0,0,0,0,0,0,0,0,0,0,0,0,0,0,0],"sum_hessian":[4.244E3,3.496E3,7.48E2,2.154E3,1.342E3,5.81E2,1.67E2,1.443E3,7.11E2,9.45E2,3.97E2,2.66E2,3.15E2,1.49E2,1.8E1,7.47E2,6.96E2,3.79E2,3.32E2,5.47E2,3.98E2,1.99E2,1.98E2,1.33E2,1.33E2,2.15E2,1E2,1.8E1,1.31E2,3.4E1,7.13E2,4.96E2,2E2,2.15E2,1.64E2,1.84E2,1.48E2,2.5E2,2.97E2,2.17E2,1.81E2,1.16E2,8.3E1,9.9E1,9.9E1,1.7E1,1.16E2,1.16E2,9.9E1,3.31E2,3.82E2,2.14E2,1E0,1.33E2,1.5E1,1.49E2,1.01E2,1.47E2,1.5E2,1.49E2,6.8E1,8.1E1,1E2,4.9E1,6.7E1,1.6E1,6.7E1,8.2E1,1.7E1,6.6E1,3.3E1],"tree_param":{"num_deleted":"0","num_feature":"5","num_nodes":"71","size_leaf_vector":"1"}},{"base_weights":[4.2831826E-1,-1.8197618E1,7.8839554E1,-3.0862432E1,1.5398335E0,6.166555E1,1.4461285E2,-3.6762985E1,-2.1263088E1,-4.6640625E0,1.6213863E1,4.1763935E1,7.532655E1,1.3594263E2,6.059265E1,-4.1915203E1,-3.469135E1,-2.6748114E1,-1.8470299E1,-1.0358706E1,-8.08879E-1,1.0211951E1,2.2134706E1,3.223144E1,4.5911285E1,1.9876425E1,2.6692923E1,1.2379216E2,4.480414E1,-1.5973557E1,-1.2178359E1,-1.0760744E1,-9.319642E0,-2.7843008E1,-2.2991798E1,-6.1697335E0,-4.8988075E0,-1.20766945E1,-8.084897E0,-3.5182116E0,2.2613423E0,7.9731226E0,1.3208749E1,1.927826E1,2.479837E1,1.3375057E1,2.8431906E1,4.1155396E1,1.4834137E1,1.3296683E2,8.540689E1,-7.4252205E0,-8.768254E0,-4.891628E0,-8.433254E0,-3.9370472E0,-3.2152755E0,-2.4886756E0,-8.5816044E-1,-1.4188383E0,-8.582735E-1,1.9390894E-1,1.308665E0,2.1522667E0,3.1878326E0,4.9394636E0,3.714197E0,9.267965E0,5.3840814E0,2.5200074E0,7.514195E0,9.048345E0,4.180998E0,1.5667719E1,1.15178585E1,3.6166325E1,4.8495705E1,2.6424805E1,5.5864015E0],"categories":[],"categories_nodes":[],"categories_segments":[],"categories_sizes":[],"default_left":[0,0,0,0,0,0,0,0,0,0,0,0,0,0,0,0,0,0,0,0,0,0,0,0,0,0,0,0,0,0,0,0,0,0,0,0,0,0,0,0,0,0,0,0,0,0,0,0,0,0,0,0,0,0,0,0,0,0,0,0,0,0,0,0,0,0,0,0,0,0,0,0,0,0,0,0,0,0,0],"id":9,"left_children":[1,3,5,7,9,11,13,15,17,19,21,23,25,27,-1,29,31,33,35,37,39,41,43,45,47,-1,-1,49,-1,-1,-1,-1,-1,51,53,-1,-1,55,57,59,61,63,65,67,69,-1,71,73,-1,75,77,-1,-1,-1,-1,-1,-1,-1,-1,-1,-1,-1,-1,-1,-1,-1,-1,-1,-1,-1,-1,-1,-1,-1,-1,-1,-1,-1,-1],"loss_changes":[6.2011835E6,8.576985E5,9.11699E5,1.1759875E5,1.2224613E5,1.7302975E5,5.60975E4,1.234675E4,1.1730125E4,2.0716098E4,1.3952977E4,9.036406E3,4.153125E4,5.77975E3,0E0,3.3150625E3,2.84875E3,4.5795312E2,2.050875E3,1.3906914E3,4.6994497E3,1.2365508E3,1.0436484E3,2.674711E3,1.0423125E3,0E0,0E0,1.8226125E4,0E0,0E0,0E0,0E0,0E0,1.4140625E2,1.8006836E3,0E0,0E0,1.6523047E2,1.6008789E2,2.2531543E2,8.9629065E2,1.7174365E2,2.2649414E1,1.00734766E3,1.9783203E2,0E0,1.2590625E3,5.637969E2,0E0,4.011875E3,1.7551719E3,0E0,0E0,0E0,0E0,0E0,0E0,0E0,0E0,0E0,0E0,0E0,0E0,0E0,0E0,0E0,0E0,0E0,0E0,0E0,0E0,0E0,0E0,0E0,0E0,0E0,0E0,0E0,0E0],"parents":[2147483647,0,0,1,1,2,2,3,3,4,4,5,5,6,6,7,7,8,8,9,9,10,10,11,11,12,12,13,13,15,15,16,16,17,17,18,18,19,19,20,20,21,21,22,22,23,23,24,24,27,27,33,33,34,34,37,37,38,38,39,39,40,40,41,41,42,42,43,43,44,44,46,46,47,47,49,49,50,50],"right_children":[2,4,6,8,10,12,14,16,18,20,22,24,26,28,-1,30,32,34,36,38,40,42,44,46,48,-1,-1,50,-1,-1,-1,-1,-1,52,54,-1,-1,56,58,60,62,64,66,68,70,-1,72,74,-1,76,78,-1,-1,-1,-1,-1,-1,-1,-1,-1,-1,-1,-1,-1,-1,-1,-1,-1,-1,-1,-1,-1,-1,-1,-1,-1,-1,-1,-1],"split_conditions":[1.9146E3,8.834E2,3.88795E3,5.121E2,1.386E3,2.6041E3,4.89E3,2.9955E2,6.65E2,1.0979E3,1.65E3,2.12E3,3.134E3,4.558E3,6.059265E1,2.43E2,4.09E2,6.2955E2,8E2,9.915E2,1.1986E3,1.48295E3,1.77095E3,1.9581E3,2.46E3,1.9876425E1,2.6692923E1,4.41305E3,4.480414E1,-1.5973557E1,-1.2178359E1,-1.0760744E1,-9.319642E0,5.4775E2,6.4425E2,-6.1697335E0,-4.8988075E0,9.3995E2,1.12995E3,1.1433E3,1.3E3,1.563047E6,2.1052E4,1.67745E3,1.119E4,1.3375057E1,2.795089E6,3.4033E4,1.4834137E1,4.35655E3,1.7334E5,-7.4252205E0,-8.768254E0,-4.891628E0,-8.433254E0,-3.9370472E0,-3.2152755E0,-2.4886756E0,-8.5816044E-1,-1.4188383E0,-8.582735E-1,1.9390894E-1,1.308665E0,2.1522667E0,3.1878326E0,4.9394636E0,3.714197E0,9.267965E0,5.3840814E0,2.5200074E0,7.514195E0,9.048345E0,4.180998E0,1.5667719E1,1.15178585E1,3.6166325E1,4.8495705E1,2.6424805E1,5.5864015E0],"split_indices":[3,3,3,3,0,3,0,3,1,2,2,1,3,1,0,1,2,3,3,3,3,2,3,3,1,0,0,3,0,0,0,0,0,3,3,0,0,3,3,3,0,4,4,3,4,0,4,4,0,3,4,0,0,0,0,0,0,0,0,0,0,0,0,0,0,0,0,0,0,0,0,0,0,0,0,0,0,0,0],"split_type":[0,0,0,0,0,0,0,0,0,0,0,0,0,0,0,0,0,0,0,0,0,0,0,0,0,0,0,0,0,0,0,0,0,0,0,0,0,0,0,0,0,0,0,0,0,0,0,0,0,0,0,0,0,0,0,0,0,0,0,0,0,0,0,0,0,0,0,0,0,0,0,0,0,0,0,0,0,0,0],"sum_hessian":[4.244E3,3.43E3,8.14E2,2.089E3,1.341E3,6.47E2,1.67E2,1.292E3,7.97E2,9.43E2,3.98E2,2.65E2,3.82E2,1.48E2,1.9E1,3.65E2,9.27E2,2.66E2,5.31E2,3.8E2,5.63E2,1.99E2,1.99E2,8.3E1,1.82E2,2.33E2,1.49E2,8.3E1,6.5E1,3.4E1,3.31E2,6.93E2,2.34E2,2.01E2,6.5E1,2.64E2,2.67E2,2.14E2,1.66E2,2.99E2,2.64E2,1.16E2,8.3E1,1E2,9.9E1,1.7E1,6.6E1,8.3E1,9.9E1,6.5E1,1.8E1,6.8E1,1.33E2,3E1,3.5E1,1.16E2,9.8E1,1.59E2,7E0,1.03E2,1.96E2,1.5E2,1.14E2,9.2E1,2.4E1,1.3E1,7E1,8E0,9.2E1,2E0,9.7E1,5.8E1,8E0,1.3E1,7E1,4.9E1,1.6E1,1.7E1,1E0],"tree_param":{"num_deleted":"0","num_feature":"5","num_nodes":"79","size_leaf_vector":"1"}},{"base_weights":[3.6479825E-1,-1.2263617E1,5.7827736E1,-2.1646202E1,1.8325535E0,4.5915398E1,1.05566864E2,-2.5314457E1,-1.4035913E1,-2.8851428E0,1.3580818E1,3.5209217E1,5.839498E1,9.8868614E1,1.47251E2,-2.779973E1,-2.2468086E1,-1.6625946E1,-1.1958333E1,-6.7567787E0,2.6537573E-1,8.347239E0,1.7273638E1,3.06873E1,1.2484216E1,5.1291557E1,6.797424E1,4.753894E1,1.0048962E2,1.1265528E1,4.537776E1,-1.1338947E1,-2.7270758E1,-2.3738634E1,-2.0984362E1,-5.6076927E0,-1.5726257E1,-1.2748894E1,-1.0650606E1,-7.9707966E0,-4.2833953E0,-1.6481984E0,2.8676832E0,8.975052E0,2.6517198E0,1.8108374E1,6.297167E0,2.7548687E1,3.351904E1,1.542787E1,4.360547E0,6.910854E1,3.5471558E1,1.6635162E1,1.1971436E0,3.0261494E1,7.7384768E0,-8.812648E0,-7.94865E0,-6.270998E0,-7.8502684E0,-4.7858796E0,-6.360292E0,-4.5162992E0,-6.2130194E0,-3.6009986E0,-5.0278816E0,-2.7968106E0,-3.892174E0,-2.7660205E0,-2.1371696E0,-1.0497041E0,-2.0803757E0,-6.871386E-1,-7.5589925E-2,5.0203985E-1,1.2112172E0,2.4134417E0,6.796513E0,9.0189517E-1,-3.701172E-2,4.822132E0,8.558016E0,-3.1489456E0,3.5535305E0,8.730228E0,5.4777317E0,1.0976073E1,8.032868E0,2.3597012E1,1.9237324E1,2.084363E0,1.1936016E1],"categories":[],"categories_nodes":[],"categories_segments":[],"categories_sizes":[],"default_left":[0,0,0,0,0,0,0,0,0,0,0,0,0,0,0,0,0,0,0,0,0,0,0,0,0,0,0,0,0,0,0,0,0,0,0,0,0,0,0,0,0,0,0,0,0,0,0,0,0,0,0,0,0,0,0,0,0,0,0,0,0,0,0,0,0,0,0,0,0,0,0,0,0,0,0,0,0,0,0,0,0,0,0,0,0,0,0,0,0,0,0,0,0],"id":10,"left_children":[1,3,5,7,9,11,13,15,17,19,21,23,25,27,29,31,33,35,37,39,41,43,45,47,-1,49,51,53,55,-1,-1,-1,57,59,61,-1,63,65,67,69,71,73,75,77,79,81,83,85,87,-1,-1,89,91,-1,-1,-1,-1,-1,-1,-1,-1,-1,-1,-1,-1,-1,-1,-1,-1,-1,-1,-1,-1,-1,-1,-1,-1,-1,-1,-1,-1,-1,-1,-1,-1,-1,-1,-1,-1,-1,-1,-1,-1],"loss_changes":[3.0811605E6,4.6043162E5,4.301965E5,5.7990062E4,7.719043E4,7.9979625E4,2.7881625E4,9.3426875E3,3.4710312E3,1.2126267E4,7.5671406E3,8.367375E3,1.5702375E4,6.372375E3,2.6741875E3,2.9246875E3,7.498125E2,2.65625E2,2.5914062E2,1.3050762E3,2.7385864E3,5.733467E2,2.0208281E3,8.452656E2,0E0,7.425E1,1.862125E3,1.8459521E3,1.079125E3,0E0,0E0,0E0,3.8675E2,1.8564844E3,4E0,0E0,4.115547E2,4.955586E2,3.418164E2,2.4960352E2,2.8558813E2,2.8369232E2,3.1871753E2,1.7266084E3,1.8083633E1,4.1200625E3,1.8013933E3,9.104531E2,1.0889453E3,0E0,0E0,2.861875E2,4.6207227E2,0E0,0E0,0E0,0E0,0E0,0E0,0E0,0E0,0E0,0E0,0E0,0E0,0E0,0E0,0E0,0E0,0E0,0E0,0E0,0E0,0E0,0E0,0E0,0E0,0E0,0E0,0E0,0E0,0E0,0E0,0E0,0E0,0E0,0E0,0E0,0E0,0E0,0E0,0E0,0E0],"parents":[2147483647,0,0,1,1,2,2,3,3,4,4,5,5,6,6,7,7,8,8,9,9,10,10,11,11,12,12,13,13,14,14,15,15,16,16,17,17,18,18,19,19,20,20,21,21,22,22,23,23,25,25,26,26,27,27,28,28,32,32,33,33,34,34,36,36,37,37,38,38,39,39,40,40,41,41,42,42,43,43,44,44,45,45,46,46,47,47,48,48,51,51,52,52],"right_children":[2,4,6,8,10,12,14,16,18,20,22,24,26,28,30,32,34,36,38,40,42,44,46,48,-1,50,52,54,56,-1,-1,-1,58,60,62,-1,64,66,68,70,72,74,76,78,80,82,84,86,88,-1,-1,90,92,-1,-1,-1,-1,-1,-1,-1,-1,-1,-1,-1,-1,-1,-1,-1,-1,-1,-1,-1,-1,-1,-1,-1,-1,-1,-1,-1,-1,-1,-1,-1,-1,-1,-1,-1,-1,-1,-1,-1,-1],"split_conditions":[2.0695E3,8.834E2,3.921E3,5.7945E2,1.40575E3,2.80055E3,4.89645E3,3.315E2,7.5965E2,1.1341E3,1.688E3,2.62E3,3.2884E3,3.9664E3,4.784E3,2.325E2,4.2615E2,6.2955E2,8.4035E2,1.0715E3,1.247E3,1.67745E3,1.9821E3,2.38705E3,1.2484216E1,1.698587E6,3.92915E3,3.92915E3,2.60543E5,1.1265528E1,4.537776E1,-1.1338947E1,2.6975E2,3.7915E2,4.357E2,-5.6076927E0,7.3705E2,8.2995E2,8.7E2,9.3995E2,1.12405E3,1.192E3,1.34105E3,1.65E3,1.718E3,1.935E3,1.98975E3,2.32975E3,2.5242E3,1.542787E1,4.360547E0,3.62385E3,3.9664E3,1.6635162E1,1.1971436E0,3.0261494E1,7.7384768E0,-8.812648E0,-7.94865E0,-6.270998E0,-7.8502684E0,-4.7858796E0,-6.360292E0,-4.5162992E0,-6.2130194E0,-3.6009986E0,-5.0278816E0,-2.7968106E0,-3.892174E0,-2.7660205E0,-2.1371696E0,-1.0497041E0,-2.0803757E0,-6.871386E-1,-7.5589925E-2,5.0203985E-1,1.2112172E0,2.4134417E0,6.796513E0,9.0189517E-1,-3.701172E-2,4.822132E0,8.558016E0,-3.1489456E0,3.5535305E0,8.730228E0,5.4777317E0,1.0976073E1,8.032868E0,2.3597012E1,1.9237324E1,2.084363E0,1.1936016E1],"split_indices":[1,3,0,3,3,0,3,3,1,3,3,1,1,1,0,2,3,3,3,1,3,3,3,3,0,4,3,3,4,0,0,0,3,3,3,0,3,3,3,3,3,3,3,2,0,1,0,3,3,0,0,3,1,0,0,0,0,0,0,0,0,0,0,0,0,0,0,0,0,0,0,0,0,0,0,0,0,0,0,0,0,0,0,0,0,0,0,0,0,0,0,0,0],"split_type":[0,0,0,0,0,0,0,0,0,0,0,0,0,0,0,0,0,0,0,0,0,0,0,0,0,0,0,0,0,0,0,0,0,0,0,0,0,0,0,0,0,0,0,0,0,0,0,0,0,0,0,0,0,0,0,0,0,0,0,0,0,0,0,0,0,0,0,0,0,0,0,0,0,0,0,0,0,0,0,0,0,0,0,0,0,0,0,0,0,0,0,0,0],"sum_hessian":[4.244E3,3.48E3,7.64E2,2.089E3,1.391E3,6.13E2,1.51E2,1.408E3,6.81E2,9.93E2,3.98E2,3.32E2,2.81E2,1.33E2,1.8E1,7.47E2,6.61E2,3E2,3.81E2,4.45E2,5.48E2,1.66E2,2.32E2,1.98E2,1.34E2,1.65E2,1.16E2,5E0,1.28E2,1E0,1.7E1,3.4E1,7.13E2,3.48E2,3.13E2,8.5E1,2.15E2,2.32E2,1.49E2,2.97E2,1.48E2,3.16E2,2.32E2,1.49E2,1.7E1,2.15E2,1.7E1,9.9E1,9.9E1,1.64E2,1E0,1.11E2,5E0,4E0,1E0,1.27E2,1E0,1.82E2,5.31E2,1.65E2,1.83E2,1.6E1,2.97E2,1.93E2,2.2E1,1.99E2,3.3E1,9.8E1,5.1E1,1.16E2,1.81E2,1.16E2,3.2E1,2.16E2,1E2,1.16E2,1.16E2,1.41E2,8E0,1.5E1,2E0,1.82E2,3.3E1,4E0,1.3E1,8.3E1,1.6E1,6.5E1,3.4E1,3.3E1,7.8E1,1E0,4E0],"tree_param":{"num_deleted":"0","num_feature":"5","num_nodes":"93","size_leaf_vector":"1"}},{"base_weights":[2.9458585E-1,-9.073634E0,3.879299E1,-1.607253E1,-5.7200927E-1,3.0064547E1,7.306023E1,-1.8433825E1,-1.2043696E1,-3.9925795E0,6.2636E0,2.203071E1,3.8842216E1,6.8217575E1,1.07446365E2,-2.2092571E1,-1.7739405E1,-1.3647289E1,-1.0054472E1,-6.2283125E0,-1.2460284E0,3.001781E0,9.709121E0,1.6832638E1,2.5153446E1,3.5075584E1,4.6513016E1,6.186693E1,7.516141E1,1.1475754E2,1.5402027E1,-9.101166E0,-6.3214912E0,-5.585113E0,-1.6379587E1,-4.194709E0,-1.186325E1,-1.0954004E1,-9.472151E0,-7.207978E0,-4.80337E0,-2.038196E0,-1.9413696E-1,2.0527434E0,3.9213347E0,8.582067E0,1.18342285E1,1.7701954E1,-9.136133E0,2.1801376E1,2.7042017E1,1.3729386E1,3.399164E1,5.5848568E1,4.1161224E1,6.990388E1,2.8514566E1,2.2690742E1,6.5777345E0,9.575684E0,3.5445656E1,-4.1080976E0,-5.296853E0,-2.1332445E0,-4.7274303E0,-2.895971E0,-3.734422E0,8.6793065E-2,-3.0995672E0,-1.0055171E0,-2.2944508E0,-9.8010534E-1,-1.5091738E0,-9.8263997E-1,-5.485414E-1,1.0073172E0,-1.691607E-1,7.4193275E-1,-2.8833297E-1,1.2397527E0,-3.817383E-1,2.7585006E0,8.992473E-1,4.429624E0,2.1926107E0,4.9440837E0,7.9941754E0,-3.1652832E-1,-4.2515383E0,9.929246E0,5.9940786E0,1.1428662E1,7.5331044E0,8.010571E0,1.0892273E1,1.4517606E1,2.9902407E1,6.265369E0,1.4253183E1,1.8524939E1,2.6601171E1,1.2194824E0,1.0562946E1],"categories":[],"categories_nodes":[],"categories_segments":[],"categories_sizes":[],"default_left":[0,0,0,0,0,0,0,0,0,0,0,0,0,0,0,0,0,0,0,0,0,0,0,0,0,0,0,0,0,0,0,0,0,0,0,0,0,0,0,0,0,0,0,0,0,0,0,0,0,0,0,0,0,0,0,0,0,0,0,0,0,0,0,0,0,0,0,0,0,0,0,0,0,0,0,0,0,0,0,0,0,0,0,0,0,0,0,0,0,0,0,0,0,0,0,0,0,0,0,0,0,0,0],"id":11,"left_children":[1,3,5,7,9,11,13,15,17,19,21,23,25,27,29,31,33,35,37,39,41,43,45,47,49,51,53,55,57,59,-1,-1,-1,-1,61,-1,63,65,67,69,71,73,75,77,79,81,83,85,87,89,91,-1,93,95,97,99,101,-1,-1,-1,-1,-1,-1,-1,-1,-1,-1,-1,-1,-1,-1,-1,-1,-1,-1,-1,-1,-1,-1,-1,-1,-1,-1,-1,-1,-1,-1,-1,-1,-1,-1,-1,-1,-1,-1,-1,-1,-1,-1,-1,-1,-1,-1],"loss_changes":[1.5313601E6,2.0319012E5,2.4635525E5,1.7596344E4,3.6102945E4,4.59685E4,2.0645625E4,2.6035625E3,2.0797812E3,6.310869E3,5.7587676E3,5.2416406E3,7.4987188E3,1.96475E3,1.9022031E3,9.0952344E2,8.8371875E2,6.246875E1,6.071875E1,7.568906E2,3.854104E2,2.2408643E2,4.9721484E2,3.186789E3,7.778594E2,9.4703125E2,2.747375E3,2.0523E4,3.365625E1,7.280156E2,0E0,0E0,0E0,0E0,1.1263359E3,0E0,1.1281182E3,1.0721777E2,1.664668E3,5.413281E2,6.524805E1,6.2515137E1,2.645406E2,1.7087732E2,1.5222876E2,5.4407715E2,1.00635645E3,9.8151953E2,1.8851425E2,1.0461406E3,1.9045547E3,0E0,2.4070156E3,6.287453E3,7.762383E3,4.7772812E3,2.8034102E3,0E0,0E0,0E0,0E0,0E0,0E0,0E0,0E0,0E0,0E0,0E0,0E0,0E0,0E0,0E0,0E0,0E0,0E0,0E0,0E0,0E0,0E0,0E0,0E0,0E0,0E0,0E0,0E0,0E0,0E0,0E0,0E0,0E0,0E0,0E0,0E0,0E0,0E0,0E0,0E0,0E0,0E0,0E0,0E0,0E0,0E0],"parents":[2147483647,0,0,1,1,2,2,3,3,4,4,5,5,6,6,7,7,8,8,9,9,10,10,11,11,12,12,13,13,14,14,15,15,16,16,17,17,18,18,19,19,20,20,21,21,22,22,23,23,24,24,25,25,26,26,27,27,28,28,29,29,34,34,36,36,37,37,38,38,39,39,40,40,41,41,42,42,43,43,44,44,45,45,46,46,47,47,48,48,49,49,50,50,52,52,53,53,54,54,55,55,56,56],"right_children":[2,4,6,8,10,12,14,16,18,20,22,24,26,28,30,32,34,36,38,40,42,44,46,48,50,52,54,56,58,60,-1,-1,-1,-1,62,-1,64,66,68,70,72,74,76,78,80,82,84,86,88,90,92,-1,94,96,98,100,102,-1,-1,-1,-1,-1,-1,-1,-1,-1,-1,-1,-1,-1,-1,-1,-1,-1,-1,-1,-1,-1,-1,-1,-1,-1,-1,-1,-1,-1,-1,-1,-1,-1,-1,-1,-1,-1,-1,-1,-1,-1,-1,-1,-1,-1,-1],"split_conditions":[1.85505E3,8.1385E2,3.88795E3,4.746E2,1.2864E3,2.68895E3,4.945E3,2.653E2,6.57E2,1.0953E3,1.5576E3,2.213E3,3.24E3,4.5095E3,1.91193E5,2.26E2,3.3635E2,6.2955E2,7.2705E2,9.3995E2,1.17495E3,1.38455E3,1.77095E3,2.2115E3,2.501E3,2.7127E3,3.62385E3,4.41305E3,2.05763E5,4.784E3,1.5402027E1,-9.101166E0,-6.3214912E0,-5.585113E0,3.7915E2,-4.194709E0,6.4425E2,6.9195E2,7.3705E2,8.2995E2,9.5485E2,1.1121E3,1.182E3,1.3746E3,1.5309E3,1.7587E3,1.81075E3,2.1934E3,2.795089E6,3.4033E4,2.5242E3,1.3729386E1,2.8634E3,3.58E3,3.6932E3,4.35655E3,3.8563E4,2.2690742E1,6.5777345E0,9.575684E0,3.5445656E1,-4.1080976E0,-5.296853E0,-2.1332445E0,-4.7274303E0,-2.895971E0,-3.734422E0,8.6793065E-2,-3.0995672E0,-1.0055171E0,-2.2944508E0,-9.8010534E-1,-1.5091738E0,-9.8263997E-1,-5.485414E-1,1.0073172E0,-1.691607E-1,7.4193275E-1,-2.8833297E-1,1.2397527E0,-3.817383E-1,2.7585006E0,8.992473E-1,4.429624E0,2.1926107E0,4.9440837E0,7.9941754E0,-3.1652832E-1,-4.2515383E0,9.929246E0,5.9940786E0,1.1428662E1,7.5331044E0,8.010571E0,1.0892273E1,1.4517606E1,2.9902407E1,6.265369E0,1.4253183E1,1.8524939E1,2.6601171E1,1.2194824E0,1.0562946E1],"split_indices":[2,3,3,3,3,3,1,3,3,0,1,0,3,3,4,3,3,3,3,3,3,3,3,3,3,3,3,3,4,0,0,0,0,0,3,0,3,3,3,3,3,3,3,3,3,3,3,1,4,4,3,0,1,2,3,3,4,0,0,0,0,0,0,0,0,0,0,0,0,0,0,0,0,0,0,0,0,0,0,0,0,0,0,0,0,0,0,0,0,0,0,0,0,0,0,0,0,0,0,0,0,0,0],"split_type":[0,0,0,0,0,0,0,0,0,0,0,0,0,0,0,0,0,0,0,0,0,0,0,0,0,0,0,0,0,0,0,0,0,0,0,0,0,0,0,0,0,0,0,0,0,0,0,0,0,0,0,0,0,0,0,0,0,0,0,0,0,0,0,0,0,0,0,0,0,0,0,0,0,0,0,0,0,0,0,0,0,0,0,0,0,0,0,0,0,0,0,0,0,0,0,0,0,0,0,0,0,0,0],"sum_hessian":[4.244E3,3.414E3,8.3E2,1.872E3,1.542E3,6.63E2,1.67E2,1.178E3,6.94E2,1.028E3,5.14E2,3.48E2,3.15E2,1.49E2,1.8E1,1.83E2,9.95E2,3.81E2,3.13E2,5.66E2,4.62E2,2.65E2,2.49E2,1.33E2,2.15E2,2.15E2,1E2,8.3E1,6.6E1,1.5E1,3E0,1.7E1,1.66E2,5.97E2,3.98E2,3.15E2,6.6E1,1.16E2,1.97E2,3.33E2,2.33E2,2.63E2,1.99E2,1.32E2,1.33E2,1.66E2,8.3E1,1.29E2,4E0,8.2E1,1.33E2,1.6E1,1.99E2,3.3E1,6.7E1,6.6E1,1.7E1,6.5E1,1E0,1E0,1.4E1,1.32E2,2.66E2,3.1E1,3.5E1,6.6E1,5E1,1.6E1,1.81E2,3.5E1,2.98E2,3.2E1,2.01E2,3.6E1,2.27E2,1.8E1,1.81E2,1.16E2,1.6E1,1.28E2,5E0,1.49E2,1.7E1,4.9E1,3.4E1,1.16E2,1.3E1,2E0,2E0,9E0,7.3E1,1.7E1,1.16E2,5.1E1,1.48E2,3E1,3E0,1.7E1,5E1,4.9E1,1.7E1,4E0,1.3E1],"tree_param":{"num_deleted":"0","num_feature":"5","num_nodes":"103","size_leaf_vector":"1"}},{"base_weights":[2.630743E-1,-5.8797536E0,2.9751646E1,-1.068308E1,1.1692504E0,2.3064688E1,5.2063427E1,-1.27187395E1,-7.3713098E0,-1.1231397E0,7.805218E0,1.9037127E1,3.0319801E1,4.8381317E1,7.8392555E1,-1.4200432E1,-1.160979E1,-8.740312E0,-5.9873023E0,-2.584909E0,1.3049666E0,6.0442085E0,1.0300777E1,1.5819272E1,2.1628849E1,2.711079E1,3.3196842E1,4.519864E1,5.6572407E1,8.782178E0,8.244922E1,-5.832168E0,-1.3794807E1,-1.2339162E1,-1.0591611E1,-7.0310936E0,-9.070208E0,-1.7839748E0,-6.12389E0,-3.6399722E0,-1.3968674E0,5.0131303E-1,2.4299662E0,4.7021036E0,7.151118E0,5.0962586E0,9.3755865E0,1.7061258E1,1.0459114E1,2.2673794E1,9.803643E0,3.066485E1,1.930983E1,1.3677523E1,3.0327312E1,4.754176E1,1.9149525E1,8.303622E1,5.004649E1,8.874871E1,3.9788696E1,-4.004888E0,-4.607771E0,-3.4346504E0,-5.0896263E0,1.427948E-1,-3.2095582E0,-2.6067896E0,-5.550324E-1,-5.6234245E0,-2.5460193E0,-1.4134958E0,3.0022204E-1,-4.001166E0,-1.7809318E0,-5.1520354E-1,-1.1864058E0,-3.537386E-1,-9.816113E-1,1.8281853E-2,3.2418227E-1,8.4751636E-1,-3.597139E-1,1.7411809E0,-2.1030274E-1,2.5324478E0,1.5947108E0,1.7331137E-1,3.1946921E0,4.601992E0,8.190528E0,3.2258606E-1,3.8556397E0,6.4294934E0,8.246097E0,-6.758002E0,5.3314457E0,8.450643E0,1.1231963E1,5.138306E-1,5.937351E0,-9.668225E0,9.436702E0,3.0080934E0,1.4343375E1,-5.4870367E0,8.850505E0,6.2875123E0,2.7378035E1,3.995166E0,1.5595961E1,2.0191607E1,3.765923E1,5.4569826E0,1.5687745E1],"categories":[],"categories_nodes":[],"categories_segments":[],"categories_sizes":[],"default_left":[0,0,0,0,0,0,0,0,0,0,0,0,0,0,0,0,0,0,0,0,0,0,0,0,0,0,0,0,0,0,0,0,0,0,0,0,0,0,0,0,0,0,0,0,0,0,0,0,0,0,0,0,0,0,0,0,0,0,0,0,0,0,0,0,0,0,0,0,0,0,0,0,0,0,0,0,0,0,0,0,0,0,0,0,0,0,0,0,0,0,0,0,0,0,0,0,0,0,0,0,0,0,0,0,0,0,0,0,0,0,0,0,0,0,0],"id":12,"left_children":[1,3,5,7,9,11,13,15,17,19,21,23,25,27,29,31,33,35,37,39,41,43,45,47,49,51,53,55,57,-1,59,-1,61,63,65,67,69,71,73,75,77,79,81,83,85,-1,87,89,91,93,95,97,99,-1,101,103,105,107,109,111,113,-1,-1,-1,-1,-1,-1,-1,-1,-1,-1,-1,-1,-1,-1,-1,-1,-1,-1,-1,-1,-1,-1,-1,-1,-1,-1,-1,-1,-1,-1,-1,-1,-1,-1,-1,-1,-1,-1,-1,-1,-1,-1,-1,-1,-1,-1,-1,-1,-1,-1,-1,-1,-1,-1],"loss_changes":[7.691278E5,1.18991836E5,1.08012125E5,1.399625E4,2.168619E4,1.5932344E4,1.24943125E4,1.9596875E3,1.4596484E3,3.7656646E3,1.5462012E3,2.7102031E3,9.465E2,1.3534375E3,1.3722969E3,8.987344E2,4.225703E2,1.6120898E2,2.1872363E2,8.247051E2,3.5952167E2,2.8874805E2,7.6870996E2,9.333164E2,2.2490547E3,2.180375E3,2.2096406E3,5.9866875E3,2.4069531E3,0E0,1.0373828E3,0E0,1.5224219E2,1.5686484E3,3.8138672E2,5.767119E2,1.709373E3,1.1885361E2,4.4410352E2,2.0498584E2,1.2393884E2,5.9628944E1,2.4139508E2,6.053545E2,2.3222656E2,0E0,1.4950645E3,1.9431836E3,7.496731E2,5.050078E2,5.037183E3,7.837891E1,2.5408984E2,0E0,7.0133906E3,5.6190625E2,4.802981E3,1.1504688E3,1.6591406E3,2.5933281E3,1.2906738E2,0E0,0E0,0E0,0E0,0E0,0E0,0E0,0E0,0E0,0E0,0E0,0E0,0E0,0E0,0E0,0E0,0E0,0E0,0E0,0E0,0E0,0E0,0E0,0E0,0E0,0E0,0E0,0E0,0E0,0E0,0E0,0E0,0E0,0E0,0E0,0E0,0E0,0E0,0E0,0E0,0E0,0E0,0E0,0E0,0E0,0E0,0E0,0E0,0E0,0E0,0E0,0E0,0E0,0E0],"parents":[2147483647,0,0,1,1,2,2,3,3,4,4,5,5,6,6,7,7,8,8,9,9,10,10,11,11,12,12,13,13,14,14,15,15,16,16,17,17,18,18,19,19,20,20,21,21,22,22,23,23,24,24,25,25,26,26,27,27,28,28,30,30,32,32,33,33,34,34,35,35,36,36,37,37,38,38,39,39,40,40,41,41,42,42,43,43,44,44,46,46,47,47,48,48,49,49,50,50,51,51,52,52,54,54,55,55,56,56,57,57,58,58,59,59,60,60],"right_children":[2,4,6,8,10,12,14,16,18,20,22,24,26,28,30,32,34,36,38,40,42,44,46,48,50,52,54,56,58,-1,60,-1,62,64,66,68,70,72,74,76,78,80,82,84,86,-1,88,90,92,94,96,98,100,-1,102,104,106,108,110,112,114,-1,-1,-1,-1,-1,-1,-1,-1,-1,-1,-1,-1,-1,-1,-1,-1,-1,-1,-1,-1,-1,-1,-1,-1,-1,-1,-1,-1,-1,-1,-1,-1,-1,-1,-1,-1,-1,-1,-1,-1,-1,-1,-1,-1,-1,-1,-1,-1,-1,-1,-1,-1,-1,-1],"split_conditions":[2.06735E3,8.9475E2,3.85685E3,5.121E2,1.48295E3,3.01E3,4.945E3,3.21E2,7.4E2,1.192E3,1.79795E3,2.58575E3,3.2884E3,8.6619E4,4.89645E3,2.38E2,3.99E2,5.4775E2,7.3705E2,1.0953E3,1.3749E3,1.688E3,1.81075E3,2.5242E3,2.96345E3,3.15955E3,3.375E3,7.8504E4,8.9798E4,8.782178E0,1.91193E5,-5.832168E0,3.0745E2,3.7915E2,3.7915E2,5.396E2,5.572E2,2.62E4,7.48E2,9.0025E2,1.182E3,1.256E3,1.4768E3,1.67745E3,1.7587E3,5.0962586E0,1.84225E3,2.501E3,2.56205E3,2.8634E3,3.02E3,3.134E3,1.4744E4,1.3677523E1,3.354E3,1.5695E4,4.16125E3,3.888E3,3.921E3,1.60786E5,2.26538E5,-4.004888E0,-4.607771E0,-3.4346504E0,-5.0896263E0,1.427948E-1,-3.2095582E0,-2.6067896E0,-5.550324E-1,-5.6234245E0,-2.5460193E0,-1.4134958E0,3.0022204E-1,-4.001166E0,-1.7809318E0,-5.1520354E-1,-1.1864058E0,-3.537386E-1,-9.816113E-1,1.8281853E-2,3.2418227E-1,8.4751636E-1,-3.597139E-1,1.7411809E0,-2.1030274E-1,2.5324478E0,1.5947108E0,1.7331137E-1,3.1946921E0,4.601992E0,8.190528E0,3.2258606E-1,3.8556397E0,6.4294934E0,8.246097E0,-6.758002E0,5.3314457E0,8.450643E0,1.1231963E1,5.138306E-1,5.937351E0,-9.668225E0,9.436702E0,3.0080934E0,1.4343375E1,-5.4870367E0,8.850505E0,6.2875123E0,2.7378035E1,3.995166E0,1.5595961E1,2.0191607E1,3.765923E1,5.4569826E0,1.5687745E1],"split_indices":[2,1,2,3,2,2,1,1,0,3,3,3,1,4,3,0,1,3,3,0,1,3,3,3,3,3,1,4,4,0,4,0,3,3,3,3,3,4,3,3,3,2,1,3,3,0,3,3,1,1,1,3,4,0,0,4,0,0,0,4,4,0,0,0,0,0,0,0,0,0,0,0,0,0,0,0,0,0,0,0,0,0,0,0,0,0,0,0,0,0,0,0,0,0,0,0,0,0,0,0,0,0,0,0,0,0,0,0,0,0,0,0,0,0,0],"split_type":[0,0,0,0,0,0,0,0,0,0,0,0,0,0,0,0,0,0,0,0,0,0,0,0,0,0,0,0,0,0,0,0,0,0,0,0,0,0,0,0,0,0,0,0,0,0,0,0,0,0,0,0,0,0,0,0,0,0,0,0,0,0,0,0,0,0,0,0,0,0,0,0,0,0,0,0,0,0,0,0,0,0,0,0,0,0,0,0,0,0,0,0,0,0,0,0,0,0,0,0,0,0,0,0,0,0,0,0,0,0,0,0,0,0,0],"sum_hessian":[4.244E3,3.513E3,7.31E2,2.089E3,1.424E3,5.64E2,1.67E2,1.292E3,7.97E2,1.059E3,3.65E2,3.65E2,1.99E2,1.49E2,1.8E1,5.48E2,7.44E2,3.98E2,3.99E2,6.61E2,3.98E2,2.16E2,1.49E2,1.66E2,1.99E2,9.9E1,1E2,1.12E2,3.7E1,2E0,1.6E1,3.6E1,5.12E2,4.27E2,3.17E2,6.8E1,3.3E2,1.3E1,3.86E2,3.49E2,3.12E2,2.33E2,1.65E2,1E2,1.16E2,1.6E1,1.33E2,1.33E2,3.3E1,1.82E2,1.7E1,6.6E1,3.3E1,1.6E1,8.4E1,1.02E2,1E1,5E0,3.2E1,1.3E1,3E0,4.06E2,1.06E2,3.61E2,6.6E1,3E0,3.14E2,5.1E1,1.7E1,1.7E1,3.13E2,6E0,7E0,8E0,3.78E2,5E1,2.99E2,2.81E2,3.1E1,1.33E2,1E2,1.49E2,1.6E1,8.3E1,1.7E1,6.6E1,5E1,1.7E1,1.16E2,1.16E2,1.7E1,7E0,2.6E1,1.49E2,3.3E1,3E0,1.4E1,5.2E1,1.4E1,1E0,3.2E1,1E0,8.3E1,1E0,1.01E2,2E0,8E0,1E0,4E0,2E0,3E1,1E1,3E0,2E0,1E0],"tree_param":{"num_deleted":"0","num_feature":"5","num_nodes":"115","size_leaf_vector":"1"}},{"base_weights":[2.310783E-1,-4.125731E0,2.1145828E1,-7.6792984E0,6.064545E-1,1.6233313E1,3.7541218E1,-9.402644E0,-6.0289497E0,-1.1140733E0,5.140553E0,1.3368886E1,2.1394049E1,3.4393997E1,5.911094E1,-4.8700542E0,-9.265201E0,-7.0483737E0,-4.693427E0,-2.501534E0,1.1080891E-1,3.3579998E0,6.7672668E0,1.732977E1,1.2033693E1,1.9355902E1,2.4333765E1,3.0540625E1,4.318276E1,7.5527405E1,4.4461502E1,-9.020715E0,-1.2350408E1,-3.8404577E0,-7.234543E0,-5.2182245E0,-4.2607446E0,3.1178424E-1,-2.689347E0,-6.4453065E-1,9.1113067E-1,2.301421E0,4.072729E0,7.604042E0,3.9109533E0,1.0611265E1,1.989336E1,1.251814E1,1.23276E0,2.29077E1,7.5817385E0,2.0077795E1,3.255331E1,3.226765E1,8.149929E0,1.7245605E1,3.8804886E1,1.0807208E1,3.1807436E1,4.470459E0,6.8897095E1,-2.8280704E0,4.6636644E-1,-4.7489457E0,-2.5852618E0,-1.634253E0,-6.327983E-1,-3.1883247E0,-2.0989435E0,-1.3030175E0,-2.048048E0,-2.0778657E-1,-1.4507117E0,-4.5165205E-1,7.01025E-1,-2.3239958E0,-7.4280095E-1,2.7983704E-1,-2.2277324E-1,8.953916E-1,2.2770776E-1,1.708945E0,4.216914E-1,1.6115206E0,9.115744E-1,1.8871613E0,3.755555E0,-5.471228E0,1.5561484E0,4.3397584E0,2.117134E0,7.2331653E0,5.228547E0,2.9750462E0,4.580006E0,-3.0213215E0,6.399932E0,5.2244434E0,7.6781325E0,6.0916996E0,6.095615E-1,8.091879E0,3.9610841E0,1.3469869E1,1.6846763E0,9.805896E0,-1.3142579E0,-2.4621534E0,6.8631153E0,9.390887E0,1.4507311E1,3.136377E0,-3.8175294E0,2.5117443E1,9.941456E0],"categories":[],"categories_nodes":[],"categories_segments":[],"categories_sizes":[],"default_left":[0,0,0,0,0,0,0,0,0,0,0,0,0,0,0,0,0,0,0,0,0,0,0,0,0,0,0,0,0,0,0,0,0,0,0,0,0,0,0,0,0,0,0,0,0,0,0,0,0,0,0,0,0,0,0,0,0,0,0,0,0,0,0,0,0,0,0,0,0,0,0,0,0,0,0,0,0,0,0,0,0,0,0,0,0,0,0,0,0,0,0,0,0,0,0,0,0,0,0,0,0,0,0,0,0,0,0,0,0,0,0,0,0,0,0],"id":13,"left_children":[1,3,5,7,9,11,13,15,17,19,21,23,25,27,29,-1,31,33,35,37,39,41,43,45,47,49,51,53,55,57,59,61,63,65,67,69,71,73,75,77,79,81,83,85,87,89,91,93,95,97,99,101,103,105,107,-1,109,-1,-1,111,113,-1,-1,-1,-1,-1,-1,-1,-1,-1,-1,-1,-1,-1,-1,-1,-1,-1,-1,-1,-1,-1,-1,-1,-1,-1,-1,-1,-1,-1,-1,-1,-1,-1,-1,-1,-1,-1,-1,-1,-1,-1,-1,-1,-1,-1,-1,-1,-1,-1,-1,-1,-1,-1,-1],"loss_changes":[3.8689834E5,5.909657E4,5.834778E4,5.6514688E3,1.1769699E4,8.0661406E3,9.371531E3,7.696797E2,1.3665039E3,1.8595043E3,1.1806523E3,1.7270664E3,7.273125E2,3.7272656E3,1.4517812E3,0E0,6.1496875E2,3.1919922E2,7.949414E1,2.71896E2,3.524148E2,1.416604E2,4.8652148E2,1.3390215E3,1.4339648E3,4.9701094E3,2.075004E3,3.8746328E3,4.6172656E2,5.8185586E3,1.239566E4,3.8634453E3,7.467822E2,8.309796E1,3.6831836E2,2.4898584E2,5.1158545E2,1.2495641E2,4.997915E2,4.708805E1,8.69901E1,2.4441568E2,1.4219446E2,9.928115E2,1.5361632E3,2.6780786E2,2.450586E2,1.7433125E3,3.1685894E3,9.411914E2,2.0772244E3,2.203375E3,8.0623594E3,1.6622031E3,2.355794E3,0E0,1.0661875E3,0E0,0E0,7.504385E2,1.4672969E3,0E0,0E0,0E0,0E0,0E0,0E0,0E0,0E0,0E0,0E0,0E0,0E0,0E0,0E0,0E0,0E0,0E0,0E0,0E0,0E0,0E0,0E0,0E0,0E0,0E0,0E0,0E0,0E0,0E0,0E0,0E0,0E0,0E0,0E0,0E0,0E0,0E0,0E0,0E0,0E0,0E0,0E0,0E0,0E0,0E0,0E0,0E0,0E0,0E0,0E0,0E0,0E0,0E0,0E0],"parents":[2147483647,0,0,1,1,2,2,3,3,4,4,5,5,6,6,7,7,8,8,9,9,10,10,11,11,12,12,13,13,14,14,16,16,17,17,18,18,19,19,20,20,21,21,22,22,23,23,24,24,25,25,26,26,27,27,28,28,29,29,30,30,31,31,32,32,33,33,34,34,35,35,36,36,37,37,38,38,39,39,40,40,41,41,42,42,43,43,44,44,45,45,46,46,47,47,48,48,49,49,50,50,51,51,52,52,53,53,54,54,56,56,59,59,60,60],"right_children":[2,4,6,8,10,12,14,16,18,20,22,24,26,28,30,-1,32,34,36,38,40,42,44,46,48,50,52,54,56,58,60,62,64,66,68,70,72,74,76,78,80,82,84,86,88,90,92,94,96,98,100,102,104,106,108,-1,110,-1,-1,112,114,-1,-1,-1,-1,-1,-1,-1,-1,-1,-1,-1,-1,-1,-1,-1,-1,-1,-1,-1,-1,-1,-1,-1,-1,-1,-1,-1,-1,-1,-1,-1,-1,-1,-1,-1,-1,-1,-1,-1,-1,-1,-1,-1,-1,-1,-1,-1,-1,-1,-1,-1,-1,-1,-1],"split_conditions":[2.09E3,8.6175E2,3.88795E3,3.926E2,1.442E3,3.09885E3,4.89E3,2.26E2,6.49E2,1.14495E3,1.76545E3,4.5446E4,7.8504E4,8.3721E4,8.6619E4,-4.8700542E0,3.7915E2,4.008E2,7.92E2,8.7E2,1.2225E3,1.5899E3,1.9821E3,2.1715E4,2.96345E3,5.7873E4,3.58E3,7.8504E4,8.9798E4,4.89645E3,1.60786E5,3.6265E2,3.896E2,3.9725E2,4.093E2,7.3705E2,7.9045E2,8.665E2,8.7535E2,1.12405E3,1.2354E3,1.4371E3,1.67745E3,1.9146E3,2.01685E3,1.5695E4,3.1442E4,2.62E3,3.0508E3,3.4033E4,3.15955E3,1.13455E5,3.75005E3,4.945E3,4.356E3,1.7245605E1,4.5331E3,1.0807208E1,3.1807436E1,1.18727E5,1.91193E5,-2.8280704E0,4.6636644E-1,-4.7489457E0,-2.5852618E0,-1.634253E0,-6.327983E-1,-3.1883247E0,-2.0989435E0,-1.3030175E0,-2.048048E0,-2.0778657E-1,-1.4507117E0,-4.5165205E-1,7.01025E-1,-2.3239958E0,-7.4280095E-1,2.7983704E-1,-2.2277324E-1,8.953916E-1,2.2770776E-1,1.708945E0,4.216914E-1,1.6115206E0,9.115744E-1,1.8871613E0,3.755555E0,-5.471228E0,1.5561484E0,4.3397584E0,2.117134E0,7.2331653E0,5.228547E0,2.9750462E0,4.580006E0,-3.0213215E0,6.399932E0,5.2244434E0,7.6781325E0,6.0916996E0,6.095615E-1,8.091879E0,3.9610841E0,1.3469869E1,1.6846763E0,9.805896E0,-1.3142579E0,-2.4621534E0,6.8631153E0,9.390887E0,1.4507311E1,3.136377E0,-3.8175294E0,2.5117443E1,9.941456E0],"split_indices":[3,3,3,3,1,1,0,3,2,1,1,4,4,4,4,0,3,3,1,3,3,1,3,4,3,4,2,4,4,3,4,3,3,3,3,3,3,3,3,3,3,3,3,3,1,4,4,1,3,4,3,4,3,1,0,0,2,0,0,4,4,0,0,0,0,0,0,0,0,0,0,0,0,0,0,0,0,0,0,0,0,0,0,0,0,0,0,0,0,0,0,0,0,0,0,0,0,0,0,0,0,0,0,0,0,0,0,0,0,0,0,0,0,0,0],"split_type":[0,0,0,0,0,0,0,0,0,0,0,0,0,0,0,0,0,0,0,0,0,0,0,0,0,0,0,0,0,0,0,0,0,0,0,0,0,0,0,0,0,0,0,0,0,0,0,0,0,0,0,0,0,0,0,0,0,0,0,0,0,0,0,0,0,0,0,0,0,0,0,0,0,0,0,0,0,0,0,0,0,0,0,0,0,0,0,0,0,0,0,0,0,0,0,0,0,0,0,0,0,0,0,0,0,0,0,0,0,0,0,0,0,0,0],"sum_hessian":[4.244E3,3.513E3,7.31E2,2.006E3,1.507E3,5.64E2,1.67E2,9.79E2,1.027E3,1.093E3,4.14E2,3.65E2,1.99E2,1.48E2,1.9E1,1.7E1,9.62E2,5.8E2,4.47E2,5.12E2,5.81E2,1.99E2,2.15E2,8.9E1,2.76E2,1.22E2,7.7E1,1.06E2,4.2E1,7E0,1.2E1,8.95E2,6.7E1,3.3E1,5.47E2,1.97E2,2.5E2,3.2E1,4.8E2,2.99E2,2.82E2,8.2E1,1.17E2,1.65E2,5E1,2.6E1,6.3E1,2.64E2,1.2E1,9.3E1,2.9E1,5.3E1,2.4E1,9.8E1,8E0,7E0,3.5E1,4E0,3E0,5E0,7E0,8.62E2,3.3E1,3.3E1,3.4E1,1.6E1,1.7E1,3.3E1,5.14E2,1.3E2,6.7E1,3.5E1,2.15E2,1.7E1,1.5E1,1.8E1,4.62E2,1.7E1,2.82E2,1.8E1,2.64E2,1.6E1,6.6E1,5E1,6.7E1,1.32E2,3.3E1,2E0,4.8E1,1.1E1,1.5E1,2E1,4.3E1,1.38E2,1.26E2,8E0,4E0,3.3E1,6E1,8E0,2.1E1,2.5E1,2.8E1,1.6E1,8E0,9.7E1,1E0,4E0,4E0,2.2E1,1.3E1,4E0,1E0,4E0,3E0],"tree_param":{"num_deleted":"0","num_feature":"5","num_nodes":"115","size_leaf_vector":"1"}},{"base_weights":[2.054024E-1,-2.9827044E0,1.4712062E1,-5.0655527E0,8.52441E-1,1.1400025E1,2.7994158E1,-6.166284E0,-3.2306523E0,-1.5626736E-1,3.7577603E0,9.165261E0,1.5475354E1,2.5192234E1,4.5227245E1,-7.5916004E0,-5.6606975E0,-3.8752065E0,-2.606872E0,-9.0181947E-1,6.7248565E-1,4.2263236E0,-4.2343616E0,1.0224439E1,6.8691177E0,1.5908987E1,-6.1846685E0,2.2370895E1,3.1656874E1,2.3542074E1,5.0886166E1,-3.5614896E0,-7.362023E0,-3.1257167E0,-5.873528E0,-3.6325006E0,-6.6665764E0,-2.4668696E0,-5.5349894E0,3.352375E0,-1.046261E0,2.0881885E-1,1.3022354E0,3.4286973E0,8.12993E0,-8.518544E0,3.7148612E0,9.113081E0,1.2093334E1,7.4028144E0,-1.1659607E1,1.4584163E1,2.0072495E1,-1.406311E0,2.3153023E1,5.556128E1,2.7210434E1,8.213496E0,6.54126E-1,2.465072E1,3.6218018E1,-2.093094E0,-2.8447874E0,-1.5921928E0,-4.739158E-1,-3.053717E0,-1.6863961E0,-1.1774751E0,6.574643E-1,-2.621461E0,-1.1208558E0,-7.8092206E-1,2.068095E-1,-1.7550563E0,-5.711609E-1,-1.4712524E-1,1.0923767E0,-1.763962E0,-2.5153944E-1,3.3044147E-1,-5.9555057E-3,4.305812E-1,-1.1162623E0,2.860022E0,9.7955984E-1,3.0460114E0,1.0814446E0,-3.1904702E0,4.126465E-1,1.3768067E0,-2.2981568E-1,3.0701747E0,1.670681E0,6.5632277E0,3.1018689E0,1.2164993E0,2.887579E0,-4.593555E0,-1.0543213E-1,4.8842993E0,2.25528E0,4.6101078E-1,6.248567E0,1.5307251E0,-1.5830079E0,8.861483E0,5.6918216E0,2.2953186E1,9.358887E0,5.700569E0,1.0035376E1,9.047608E-1,1.78509E1],"categories":[],"categories_nodes":[],"categories_segments":[],"categories_sizes":[],"default_left":[0,0,0,0,0,0,0,0,0,0,0,0,0,0,0,0,0,0,0,0,0,0,0,0,0,0,0,0,0,0,0,0,0,0,0,0,0,0,0,0,0,0,0,0,0,0,0,0,0,0,0,0,0,0,0,0,0,0,0,0,0,0,0,0,0,0,0,0,0,0,0,0,0,0,0,0,0,0,0,0,0,0,0,0,0,0,0,0,0,0,0,0,0,0,0,0,0,0,0,0,0,0,0,0,0,0,0,0,0,0,0,0,0],"id":14,"left_children":[1,3,5,7,9,11,13,15,17,19,21,23,25,27,29,31,33,35,37,39,41,43,45,47,49,51,-1,53,55,57,59,-1,61,63,65,67,69,71,73,75,77,79,81,83,85,87,89,91,93,95,97,99,101,103,105,107,109,-1,-1,-1,111,-1,-1,-1,-1,-1,-1,-1,-1,-1,-1,-1,-1,-1,-1,-1,-1,-1,-1,-1,-1,-1,-1,-1,-1,-1,-1,-1,-1,-1,-1,-1,-1,-1,-1,-1,-1,-1,-1,-1,-1,-1,-1,-1,-1,-1,-1,-1,-1,-1,-1,-1,-1],"loss_changes":[1.9636997E5,2.7810637E4,3.3333812E4,4.53659E3,3.5935273E3,5.4501094E3,6.2000703E3,9.723828E2,3.3084473E2,5.6349384E2,1.2012573E3,9.0014453E2,3.708418E3,1.7175859E3,1.2563281E3,2.7223242E2,5.4490234E2,2.56938E2,1.6426147E2,2.984589E2,1.2586952E2,9.0309717E2,6.4465186E2,4.5266016E2,1.361958E3,8.8766797E2,0E0,1.8178516E3,2.5271523E3,4.3199536E2,3.9069336E3,0E0,2.196211E2,2.715531E2,9.8739844E2,6.6257227E2,1.6161414E2,1.8062915E2,1.0607971E1,1.954747E1,4.6211874E2,5.105271E1,1.2763034E2,2.1839795E2,4.2121387E2,2.6589972E2,3.094542E1,6.342051E2,1.4553848E3,8.984546E2,1.5981946E2,1.8680781E3,6.546875E2,1.27688934E2,1.9219531E3,1.6530566E2,1.1061152E3,0E0,0E0,0E0,9.097883E3,0E0,0E0,0E0,0E0,0E0,0E0,0E0,0E0,0E0,0E0,0E0,0E0,0E0,0E0,0E0,0E0,0E0,0E0,0E0,0E0,0E0,0E0,0E0,0E0,0E0,0E0,0E0,0E0,0E0,0E0,0E0,0E0,0E0,0E0,0E0,0E0,0E0,0E0,0E0,0E0,0E0,0E0,0E0,0E0,0E0,0E0,0E0,0E0,0E0,0E0,0E0,0E0],"parents":[2147483647,0,0,1,1,2,2,3,3,4,4,5,5,6,6,7,7,8,8,9,9,10,10,11,11,12,12,13,13,14,14,15,15,16,16,17,17,18,18,19,19,20,20,21,21,22,22,23,23,24,24,25,25,27,27,28,28,29,29,30,30,32,32,33,33,34,34,35,35,36,36,37,37,38,38,39,39,40,40,41,41,42,42,43,43,44,44,45,45,46,46,47,47,48,48,49,49,50,50,51,51,52,52,53,53,54,54,55,55,56,56,60,60],"right_children":[2,4,6,8,10,12,14,16,18,20,22,24,26,28,30,32,34,36,38,40,42,44,46,48,50,52,-1,54,56,58,60,-1,62,64,66,68,70,72,74,76,78,80,82,84,86,88,90,92,94,96,98,100,102,104,106,108,110,-1,-1,-1,112,-1,-1,-1,-1,-1,-1,-1,-1,-1,-1,-1,-1,-1,-1,-1,-1,-1,-1,-1,-1,-1,-1,-1,-1,-1,-1,-1,-1,-1,-1,-1,-1,-1,-1,-1,-1,-1,-1,-1,-1,-1,-1,-1,-1,-1,-1,-1,-1,-1,-1,-1,-1],"split_conditions":[2.03885E3,9.6335E2,3.9664E3,5.7945E2,1.512E3,3.0349E3,4.89E3,2.9955E2,8E2,1.18525E3,1.9821E3,2.26538E5,3.92915E3,8.6619E4,4.89645E3,2.2E2,3.0745E2,7.9045E2,9.5485E2,9.732E2,1.35825E3,1.85505E3,2.0449E3,2.68895E3,2.948E3,3.78E3,-6.1846685E0,3.921E3,8.9798E4,7.7053E4,8.6619E4,-3.5614896E0,2.9005E2,3.0395E2,3.125E2,7.864E2,7.959E2,9.4795E2,9.56E2,9.6885E2,9.8475E2,1.205E3,1.54E3,1.5309E3,1.9581E3,2.012E3,2.068E3,2.6393E3,2.7127E3,2.398E3,3.09885E3,3.62385E3,1.5695E4,3.85685E3,4.41305E3,4.16125E3,1.43285E5,8.213496E0,6.54126E-1,2.465072E1,1.60786E5,-2.093094E0,-2.8447874E0,-1.5921928E0,-4.739158E-1,-3.053717E0,-1.6863961E0,-1.1774751E0,6.574643E-1,-2.621461E0,-1.1208558E0,-7.8092206E-1,2.068095E-1,-1.7550563E0,-5.711609E-1,-1.4712524E-1,1.0923767E0,-1.763962E0,-2.5153944E-1,3.3044147E-1,-5.9555057E-3,4.305812E-1,-1.1162623E0,2.860022E0,9.7955984E-1,3.0460114E0,1.0814446E0,-3.1904702E0,4.126465E-1,1.3768067E0,-2.2981568E-1,3.0701747E0,1.670681E0,6.5632277E0,3.1018689E0,1.2164993E0,2.887579E0,-4.593555E0,-1.0543213E-1,4.8842993E0,2.25528E0,4.6101078E-1,6.248567E0,1.5307251E0,-1.5830079E0,8.861483E0,5.6918216E0,2.2953186E1,9.358887E0,5.700569E0,1.0035376E1,9.047608E-1,1.78509E1],"split_indices":[3,3,1,3,2,0,0,3,3,3,3,4,3,4,3,2,3,3,3,3,3,2,0,3,1,1,0,0,4,4,4,0,3,3,3,3,3,3,2,1,3,3,0,3,3,2,0,3,3,2,1,3,4,2,3,0,4,0,0,0,4,0,0,0,0,0,0,0,0,0,0,0,0,0,0,0,0,0,0,0,0,0,0,0,0,0,0,0,0,0,0,0,0,0,0,0,0,0,0,0,0,0,0,0,0,0,0,0,0,0,0,0,0],"split_type":[0,0,0,0,0,0,0,0,0,0,0,0,0,0,0,0,0,0,0,0,0,0,0,0,0,0,0,0,0,0,0,0,0,0,0,0,0,0,0,0,0,0,0,0,0,0,0,0,0,0,0,0,0,0,0,0,0,0,0,0,0,0,0,0,0,0,0,0,0,0,0,0,0,0,0,0,0,0,0,0,0,0,0,0,0,0,0,0,0,0,0,0,0,0,0,0,0,0,0,0,0,0,0,0,0,0,0,0,0,0,0,0,0],"sum_hessian":[4.244E3,3.48E3,7.64E2,2.255E3,1.225E3,6.13E2,1.51E2,1.408E3,8.47E2,9.1E2,3.15E2,3.98E2,2.15E2,1.32E2,1.9E1,3.65E2,1.043E3,4.14E2,4.33E2,4.79E2,4.31E2,2.98E2,1.7E1,2.7E2,1.28E2,2.13E2,2E0,9.5E1,3.7E1,5E0,1.4E1,1.6E1,3.49E2,8.2E1,9.61E2,3.83E2,3.1E1,4.15E2,1.8E1,1.5E1,4.64E2,2.49E2,1.82E2,2.49E2,4.9E1,1.1E1,6E0,1.73E2,9.7E1,1.25E2,3E0,1.65E2,4.8E1,3E0,9.2E1,4E0,3.3E1,4E0,1E0,3E0,1.1E1,2.99E2,5E1,3.3E1,4.9E1,5.1E1,9.1E2,3.65E2,1.8E1,1.7E1,1.4E1,3.98E2,1.7E1,1.6E1,2E0,1E0,1.4E1,1.8E1,4.46E2,5E1,1.99E2,1.78E2,4E0,5E0,2.44E2,3.3E1,1.6E1,9E0,2E0,5E0,1E0,1.3E2,4.3E1,1.3E1,8.4E1,5.1E1,7.4E1,2E0,1E0,1.32E2,3.3E1,2E0,4.6E1,1E0,2E0,3.4E1,5.8E1,1E0,3E0,1.6E1,1.7E1,5E0,6E0],"tree_param":{"num_deleted":"0","num_feature":"5","num_nodes":"113","size_leaf_vector":"1"}},{"base_weights":[1.7176299E-1,-2.0402105E0,1.079021E1,-3.5157533E0,7.687824E-1,8.939374E0,2.4773167E1,-4.432973E0,-2.3403766E0,4.8222374E-2,3.1314378E0,7.1362557E0,1.3447585E1,1.8754839E1,3.0488247E1,-5.9972124E0,-4.169682E0,-3.1439555E0,-1.9973744E0,-4.0606418E-1,8.0783886E-1,3.0931928E0,2.885095E0,5.462446E0,8.193397E0,1.5558344E1,-6.88265E0,2.430053E1,-2.5305665E0,1.805356E1,3.4860336E1,-2.6857076E0,-5.6819487E0,-4.44352E0,-3.593923E0,-1.237088E0,-3.6951568E0,-6.789263E-2,-2.091049E0,3.9760917E-1,-5.4053813E-1,9.009649E-1,-1.0583783E0,-2.0504498E0,3.1378145E0,1.06467285E1,4.7610207E0,1.9304375E1,7.4107237E0,1.35341E1,3.156269E1,-2.0783106E1,-1.4265834E0,2.1380213E1,1.8538696E1,7.134717E0,-1.2081604E1,2.071329E1,2.283366E0,6.2264E0,3.6683247E1,-1.5355022E0,-2.0656874E0,-1.2803078E0,-2.596701E0,1.6742324E0,-1.1608918E0,-7.26022E-1,6.747457E-1,-2.957611E0,-9.493263E-1,-3.2677507E-1,1.4639953E0,-1.7295016E0,-5.9468406E-1,-1.900534E-1,1.4458398E0,-1.7608887E0,-9.867291E-2,2.460481E-1,1.8064674E0,-5.2175677E-1,1.4751892E0,-1.6953737E-1,-8.4385175E-1,9.916987E-1,-1.034661E0,-8.181153E-1,3.9081585E0,2.6594746E0,1.1532531E0,4.008019E0,7.519428E0,-1.1370647E0,2.4572005E0,3.807329E0,9.4953E0,5.4302053E0,1.0234821E1,-8.355872E0,1.1244141E0,5.588942E-1,-6.628638E0,5.06815E0,1.0881425E1,-2.4426062E0,-5.948804E0,1.3538818E0,6.5646095E0,1.4572266E0,-4.2971194E-1,5.262012E0,-2.460132E0,1.5013462E1,8.316034E0],"categories":[],"categories_nodes":[],"categories_segments":[],"categories_sizes":[],"default_left":[0,0,0,0,0,0,0,0,0,0,0,0,0,0,0,0,0,0,0,0,0,0,0,0,0,0,0,0,0,0,0,0,0,0,0,0,0,0,0,0,0,0,0,0,0,0,0,0,0,0,0,0,0,0,0,0,0,0,0,0,0,0,0,0,0,0,0,0,0,0,0,0,0,0,0,0,0,0,0,0,0,0,0,0,0,0,0,0,0,0,0,0,0,0,0,0,0,0,0,0,0,0,0,0,0,0,0,0,0,0,0,0,0,0,0],"id":15,"left_children":[1,3,5,7,9,11,13,15,17,19,21,23,25,27,29,31,33,35,37,39,41,-1,43,45,47,49,51,53,55,57,59,-1,61,63,65,67,69,71,73,75,77,79,81,83,85,87,89,91,93,95,97,99,101,103,-1,-1,105,107,109,111,113,-1,-1,-1,-1,-1,-1,-1,-1,-1,-1,-1,-1,-1,-1,-1,-1,-1,-1,-1,-1,-1,-1,-1,-1,-1,-1,-1,-1,-1,-1,-1,-1,-1,-1,-1,-1,-1,-1,-1,-1,-1,-1,-1,-1,-1,-1,-1,-1,-1,-1,-1,-1,-1,-1],"loss_changes":[9.972741E4,1.4567492E4,1.872282E4,2.4735176E3,2.061498E3,5.1715195E3,2.351793E3,5.0751562E2,2.726577E2,3.2091064E2,4.7075098E2,7.7803906E2,8.0029336E3,5.2553555E3,1.6539961E3,1.2055664E2,1.5903906E2,3.1180005E2,1.2854736E2,6.311348E1,6.1433716E1,0E0,3.4944385E2,6.1477E2,2.3179824E3,4.983074E3,1.3355037E3,2.511213E3,2.8004897E3,4.9798193E2,1.3375078E3,0E0,7.940674E1,5.170371E2,9.398447E2,2.9001093E2,7.309966E2,1.7713629E2,2.599087E2,3.860484E2,5.6083514E2,1.3243222E2,7.771329E1,1.4263935E1,3.0105737E2,7.0407837E2,5.7923047E2,2.8148047E2,2.3548506E3,1.8892051E3,1.1992188E0,9.7154565E2,9.930458E2,1.6586943E3,0E0,0E0,8.273218E1,1.0952197E2,3.56512E1,6.334963E2,1.9660898E3,0E0,0E0,0E0,0E0,0E0,0E0,0E0,0E0,0E0,0E0,0E0,0E0,0E0,0E0,0E0,0E0,0E0,0E0,0E0,0E0,0E0,0E0,0E0,0E0,0E0,0E0,0E0,0E0,0E0,0E0,0E0,0E0,0E0,0E0,0E0,0E0,0E0,0E0,0E0,0E0,0E0,0E0,0E0,0E0,0E0,0E0,0E0,0E0,0E0,0E0,0E0,0E0,0E0,0E0],"parents":[2147483647,0,0,1,1,2,2,3,3,4,4,5,5,6,6,7,7,8,8,9,9,10,10,11,11,12,12,13,13,14,14,15,15,16,16,17,17,18,18,19,19,20,20,22,22,23,23,24,24,25,25,26,26,27,27,28,28,29,29,30,30,32,32,33,33,34,34,35,35,36,36,37,37,38,38,39,39,40,40,41,41,42,42,43,43,44,44,45,45,46,46,47,47,48,48,49,49,50,50,51,51,52,52,53,53,56,56,57,57,58,58,59,59,60,60],"right_children":[2,4,6,8,10,12,14,16,18,20,22,24,26,28,30,32,34,36,38,40,42,-1,44,46,48,50,52,54,56,58,60,-1,62,64,66,68,70,72,74,76,78,80,82,84,86,88,90,92,94,96,98,100,102,104,-1,-1,106,108,110,112,114,-1,-1,-1,-1,-1,-1,-1,-1,-1,-1,-1,-1,-1,-1,-1,-1,-1,-1,-1,-1,-1,-1,-1,-1,-1,-1,-1,-1,-1,-1,-1,-1,-1,-1,-1,-1,-1,-1,-1,-1,-1,-1,-1,-1,-1,-1,-1,-1,-1,-1,-1,-1,-1,-1],"split_conditions":[2.06735E3,9.915E2,4.4751E3,5.121E2,1.65E3,3.24E3,7.0602E4,2.653E2,6.67E2,1.256E3,1.67745E3,2.6041E3,4.41305E3,6.4171E4,4.635E3,2.3E2,3.839E2,5.4775E2,6.9195E2,1.04705E3,1.607E3,3.0931928E0,1.688E3,3.3037E4,2.6393E3,4.35655E3,3.8563E4,4.89645E3,4.67095E3,4.6803E3,4.6803E3,-2.6857076E0,2.6E2,3.7915E2,3.7915E2,5.396E2,5.572E2,6.807E2,7.05E2,1.03385E3,1.06275E3,1.63595E3,3.937921E6,3.4866E4,2.12E3,2.09E3,2.2115E3,2.604E3,2.65655E3,1.7334E5,4.3875E3,4.51195E3,1.7334E5,5.7068E4,1.8538696E1,7.134717E0,4.8471E3,4.51195E3,4.784E3,4.7189E3,9.3571E4,-1.5355022E0,-2.0656874E0,-1.2803078E0,-2.596701E0,1.6742324E0,-1.1608918E0,-7.26022E-1,6.747457E-1,-2.957611E0,-9.493263E-1,-3.2677507E-1,1.4639953E0,-1.7295016E0,-5.9468406E-1,-1.900534E-1,1.4458398E0,-1.7608887E0,-9.867291E-2,2.460481E-1,1.8064674E0,-5.2175677E-1,1.4751892E0,-1.6953737E-1,-8.4385175E-1,9.916987E-1,-1.034661E0,-8.181153E-1,3.9081585E0,2.6594746E0,1.1532531E0,4.008019E0,7.519428E0,-1.1370647E0,2.4572005E0,3.807329E0,9.4953E0,5.4302053E0,1.0234821E1,-8.355872E0,1.1244141E0,5.588942E-1,-6.628638E0,5.06815E0,1.0881425E1,-2.4426062E0,-5.948804E0,1.3538818E0,6.5646095E0,1.4572266E0,-4.2971194E-1,5.262012E0,-2.460132E0,1.5013462E1,8.316034E0],"split_indices":[2,3,2,3,2,3,4,3,3,2,3,3,3,4,2,1,0,3,3,3,2,0,3,4,3,3,4,3,3,0,0,0,3,3,3,3,3,2,0,3,3,3,4,4,1,3,3,2,3,4,1,0,4,4,0,0,2,0,0,1,4,0,0,0,0,0,0,0,0,0,0,0,0,0,0,0,0,0,0,0,0,0,0,0,0,0,0,0,0,0,0,0,0,0,0,0,0,0,0,0,0,0,0,0,0,0,0,0,0,0,0,0,0,0,0],"split_type":[0,0,0,0,0,0,0,0,0,0,0,0,0,0,0,0,0,0,0,0,0,0,0,0,0,0,0,0,0,0,0,0,0,0,0,0,0,0,0,0,0,0,0,0,0,0,0,0,0,0,0,0,0,0,0,0,0,0,0,0,0,0,0,0,0,0,0,0,0,0,0,0,0,0,0,0,0,0,0,0,0,0,0,0,0,0,0,0,0,0,0,0,0,0,0,0,0,0,0,0,0,0,0,0,0,0,0,0,0,0,0,0,0,0,0],"sum_hessian":[4.244E3,3.513E3,7.31E2,2.303E3,1.21E3,6.47E2,8.4E1,1.292E3,1.011E3,9.28E2,2.82E2,4.64E2,1.83E2,4.3E1,4.1E1,1.83E2,1.109E3,3E2,7.11E2,5.81E2,3.47E2,8E0,2.74E2,1.82E2,2.82E2,1.66E2,1.7E1,3.4E1,9E0,1.2E1,2.9E1,1.5E1,1.68E2,7.47E2,3.62E2,6.8E1,2.32E2,3.3E1,6.78E2,8.3E1,4.98E2,3.31E2,1.6E1,1.3E1,2.61E2,2E1,1.62E2,1.7E1,2.65E2,1.49E2,1.7E1,4E0,1.3E1,3.3E1,1E0,2E0,7E0,1E1,2E0,2E0,2.7E1,1.18E2,5E1,7.19E2,2.8E1,1E1,3.52E2,5.1E1,1.7E1,1.7E1,2.15E2,2.8E1,5E0,1.8E1,6.6E2,6.8E1,1.5E1,1.8E1,4.8E2,3.27E2,4E0,1.5E1,1E0,5E0,8E0,2.55E2,6E0,3E0,1.7E1,2.8E1,1.34E2,1E1,7E0,1.7E1,2.48E2,1.44E2,5E0,4E0,1.3E1,3E0,1E0,1.2E1,1E0,2.7E1,6E0,6E0,1E0,1E0,9E0,1E0,1E0,1E0,1E0,9E0,1.8E1],"tree_param":{"num_deleted":"0","num_feature":"5","num_nodes":"115","size_leaf_vector":"1"}},{"base_weights":[1.4220868E-1,-1.3896054E0,7.928361E0,-2.7159073E0,2.435114E-1,6.647376E0,1.9509405E1,-3.4102695E0,-2.1447437E0,-3.1771305E-1,2.1161447E0,5.1127067E0,9.565156E0,1.4736925E1,2.3988813E1,-3.2586527E0,-5.630787E0,3.5844574E0,-2.3292725E0,-8.22205E-1,1.8565305E-1,2.3548517E0,-4.691162E0,5.2954555E0,-3.2795365E0,1.0764702E1,2.82745E0,2.0653433E1,-5.872692E-1,2.5657951E1,5.055786E0,-3.411968E0,6.616945E-1,-2.8841736E0,-3.5958645E0,1.100162E0,6.0040374E0,-7.6124144E0,-2.1492963E0,-7.0110124E-1,-1.7968385E0,2.902988E0,1.0341237E-1,2.1093462E0,8.324288E0,5.8553724E0,3.5189245E0,9.377024E0,2.2964138E1,-5.556939E0,1.1538718E1,1.727746E1,1.5757911E1,4.4056644E0,-5.6129556E0,2.1044247E1,4.1374348E1,-4.519556E0,1.6784506E1,-1.5046424E0,-9.7737795E-1,-4.72524E-2,4.801874E-1,-1.1574094E0,-1.20881654E-1,5.211781E-1,2.5989534E-2,1.9418665E0,4.9753115E-1,-2.7855618E0,-1.6180304E0,-6.1666274E-1,-1.1134274E0,-2.658306E-1,1.5323429E0,-1.4819188E0,-1.6244894E-1,9.113114E-1,3.6505127E-1,-8.2878554E-1,5.918494E-2,5.895461E-1,2.0446143E0,1.8424468E0,5.5051026E0,4.901587E0,1.6358432E0,1.2248852E0,-3.3538332E0,2.1045735E0,4.1672883E0,7.8728433E0,4.675635E0,-4.7983303E0,-4.2970145E-1,4.05916E0,-6.799805E-1,3.0136135E0,7.6706147E0,-2.8518677E0,3.8299806E0,9.420239E0,3.4068165E0,1.9189453E1,4.2263675E0,-3.652588E-1,7.9182863E0],"categories":[],"categories_nodes":[],"categories_segments":[],"categories_sizes":[],"default_left":[0,0,0,0,0,0,0,0,0,0,0,0,0,0,0,0,0,0,0,0,0,0,0,0,0,0,0,0,0,0,0,0,0,0,0,0,0,0,0,0,0,0,0,0,0,0,0,0,0,0,0,0,0,0,0,0,0,0,0,0,0,0,0,0,0,0,0,0,0,0,0,0,0,0,0,0,0,0,0,0,0,0,0,0,0,0,0,0,0,0,0,0,0,0,0,0,0,0,0,0,0,0,0,0,0,0,0],"id":16,"left_children":[1,3,5,7,9,11,13,15,17,19,21,23,25,27,29,31,33,35,37,39,41,43,-1,45,-1,47,49,51,53,55,57,59,61,-1,63,65,67,69,71,73,75,77,79,81,83,85,87,89,91,93,95,97,-1,-1,99,101,103,-1,105,-1,-1,-1,-1,-1,-1,-1,-1,-1,-1,-1,-1,-1,-1,-1,-1,-1,-1,-1,-1,-1,-1,-1,-1,-1,-1,-1,-1,-1,-1,-1,-1,-1,-1,-1,-1,-1,-1,-1,-1,-1,-1,-1,-1,-1,-1,-1,-1],"loss_changes":[5.0640867E4,7.685651E3,1.0225242E4,7.692168E2,1.6727618E3,2.772127E3,1.1215547E3,2.7859277E2,1.146957E3,3.1123422E2,1.5921135E3,1.2747148E3,1.7153164E3,3.2760952E3,9.447422E2,4.9992578E2,4.1122375E2,1.977669E2,9.763154E2,7.097568E1,1.3691373E2,5.1442883E2,0E0,3.882207E2,0E0,2.8826523E3,2.5474343E3,1.8901328E3,9.267496E2,1.3771445E3,1.1968346E3,1.8052539E2,2.4865673E1,0E0,3.0254364E1,1.1472427E1,2.3901611E1,7.612512E1,1.4043799E2,5.912864E2,2.6166718E2,3.9234924E-1,1.6115979E2,2.2410815E2,1.936897E2,1.2233779E3,8.8296155E2,1.6722646E3,2.6455078E1,7.5199963E2,4.9812842E2,1.242229E3,0E0,0E0,7.6537134E2,2.2521523E3,2.7973584E3,0E0,5.511226E2,0E0,0E0,0E0,0E0,0E0,0E0,0E0,0E0,0E0,0E0,0E0,0E0,0E0,0E0,0E0,0E0,0E0,0E0,0E0,0E0,0E0,0E0,0E0,0E0,0E0,0E0,0E0,0E0,0E0,0E0,0E0,0E0,0E0,0E0,0E0,0E0,0E0,0E0,0E0,0E0,0E0,0E0,0E0,0E0,0E0,0E0,0E0,0E0],"parents":[2147483647,0,0,1,1,2,2,3,3,4,4,5,5,6,6,7,7,8,8,9,9,10,10,11,11,12,12,13,13,14,14,15,15,16,16,17,17,18,18,19,19,20,20,21,21,23,23,25,25,26,26,27,27,28,28,29,29,30,30,31,31,32,32,34,34,35,35,36,36,37,37,38,38,39,39,40,40,41,41,42,42,43,43,44,44,45,45,46,46,47,47,48,48,49,49,50,50,51,51,54,54,55,55,56,56,58,58],"right_children":[2,4,6,8,10,12,14,16,18,20,22,24,26,28,30,32,34,36,38,40,42,44,-1,46,-1,48,50,52,54,56,58,60,62,-1,64,66,68,70,72,74,76,78,80,82,84,86,88,90,92,94,96,98,-1,-1,100,102,104,-1,106,-1,-1,-1,-1,-1,-1,-1,-1,-1,-1,-1,-1,-1,-1,-1,-1,-1,-1,-1,-1,-1,-1,-1,-1,-1,-1,-1,-1,-1,-1,-1,-1,-1,-1,-1,-1,-1,-1,-1,-1,-1,-1,-1,-1,-1,-1,-1,-1],"split_conditions":[2.213E3,8.48E2,4.5331E3,3.641E2,1.5899E3,3.2298E3,7.238E4,3.438E2,3.7915E2,1.1433E3,2.2115E3,3.18055E3,4.41305E3,6.4171E4,2.05763E5,3.4005E2,3.485E2,3.7385E2,3.896E2,1.12405E3,1.14805E3,2.1934E3,-4.691162E0,2.26538E5,-3.2795365E0,4.35655E3,4.4751E3,4.89645E3,4.67095E3,1.7334E5,2.26538E5,2.495E2,3.417E2,-2.8841736E0,3.81E2,1.8463E4,3.92E2,3.83E2,8.2995E2,1.1189E3,1.12995E3,1.15435E3,1.1516E3,5.081254E6,2.189E3,2.32975E3,2.948E3,8.3721E4,5.8981E4,3.8563E4,4.63695E3,5.2302E4,1.5757911E1,4.4056644E0,7.0602E4,9.8506E4,1.91193E5,-4.519556E0,4.89E3,-1.5046424E0,-9.7737795E-1,-4.72524E-2,4.801874E-1,-1.1574094E0,-1.20881654E-1,5.211781E-1,2.5989534E-2,1.9418665E0,4.9753115E-1,-2.7855618E0,-1.6180304E0,-6.1666274E-1,-1.1134274E0,-2.658306E-1,1.5323429E0,-1.4819188E0,-1.6244894E-1,9.113114E-1,3.6505127E-1,-8.2878554E-1,5.918494E-2,5.895461E-1,2.0446143E0,1.8424468E0,5.5051026E0,4.901587E0,1.6358432E0,1.2248852E0,-3.3538332E0,2.1045735E0,4.1672883E0,7.8728433E0,4.675635E0,-4.7983303E0,-4.2970145E-1,4.05916E0,-6.799805E-1,3.0136135E0,7.6706147E0,-2.8518677E0,3.8299806E0,9.420239E0,3.4068165E0,1.9189453E1,4.2263675E0,-3.652588E-1,7.9182863E0],"split_indices":[0,0,2,0,1,1,4,3,3,3,3,3,3,4,4,3,3,3,3,3,3,1,0,4,0,3,2,3,3,4,4,3,3,0,1,4,0,3,3,3,3,0,3,4,2,3,1,4,4,4,1,4,0,0,4,4,4,0,0,0,0,0,0,0,0,0,0,0,0,0,0,0,0,0,0,0,0,0,0,0,0,0,0,0,0,0,0,0,0,0,0,0,0,0,0,0,0,0,0,0,0,0,0,0,0,0,0],"split_type":[0,0,0,0,0,0,0,0,0,0,0,0,0,0,0,0,0,0,0,0,0,0,0,0,0,0,0,0,0,0,0,0,0,0,0,0,0,0,0,0,0,0,0,0,0,0,0,0,0,0,0,0,0,0,0,0,0,0,0,0,0,0,0,0,0,0,0,0,0,0,0,0,0,0,0,0,0,0,0,0,0,0,0,0,0,0,0,0,0,0,0,0,0,0,0,0,0,0,0,0,0,0,0,0,0,0,0],"sum_hessian":[4.244E3,3.547E3,6.97E2,1.957E3,1.59E3,6.29E2,6.8E1,8.81E2,1.076E3,1.224E3,3.66E2,4.14E2,2.15E2,3.5E1,3.3E1,8.27E2,5.4E1,3.3E1,1.043E3,6.11E2,6.13E2,3.62E2,4E0,4.1E2,4E0,1.82E2,3.3E1,2.5E1,1E1,3E1,3E0,7.96E2,3.1E1,1.7E1,3.7E1,1.7E1,1.6E1,3.3E1,1.01E3,5.45E2,6.6E1,1.7E1,5.96E2,3.49E2,1.3E1,3.1E2,1E2,1.65E2,1.7E1,1.7E1,1.6E1,2.4E1,1E0,2E0,8E0,2.5E1,5E0,1E0,2E0,6.7E1,7.29E2,1.7E1,1.4E1,3.4E1,3E0,1E1,7E0,1.4E1,2E0,1.7E1,1.6E1,9.55E2,5.5E1,5.29E2,1.6E1,1.8E1,4.8E1,1.5E1,2E0,1.8E1,5.78E2,3.4E2,9E0,1.2E1,1E0,1E1,3E2,9.7E1,3E0,1.1E2,5.5E1,1E1,7E0,4E0,1.3E1,1.4E1,2E0,1.4E1,1E1,7E0,1E0,1.1E1,1.4E1,2E0,3E0,1E0,1E0],"tree_param":{"num_deleted":"0","num_feature":"5","num_nodes":"107","size_leaf_vector":"1"}},{"base_weights":[1.19632006E-1,-9.239257E-1,6.0868754E0,-1.7391881E0,5.0955147E-1,5.329208E0,1.8482449E1,-2.147365E0,-9.8511195E-1,1.23567045E-1,2.018331E0,4.364718E0,8.661228E0,2.0338623E1,2.9064453E0,-2.799556E0,-1.9468749E0,2.1133003E0,-1.1109633E0,1.9752689E-1,-2.0814605E0,2.5036108E0,-4.8337946E0,5.7215843E0,3.4396324E0,6.7978888E0,1.3684354E1,1.6577343E1,1.5351563E1,-9.4226885E0,1.4266765E1,-2.4529386E0,-5.938718E0,-2.5113526E-1,-2.1069772E0,-7.4064726E-1,5.0135384E0,-6.601964E0,-9.725906E-1,9.092988E-2,6.4312387E0,-3.4948778E0,1.6602294E0,1.9867814E0,9.054592E0,-7.940395E0,-2.6187947E0,6.463029E0,-2.0730412E0,-3.6092436E0,4.1476293E0,8.179492E0,-7.926975E0,2.4912964E1,8.839336E0,2.3141382E1,3.1356978E0,-3.98584E-1,-3.8416262E0,-3.1047365E-1,6.730518E0,-7.844227E-1,1.5189215E0,-2.200394E0,-1.2334023E0,-4.7044626E-1,3.29174E-1,-1.7099485E0,-5.942284E-1,1.3588624E-1,-3.4282556E-1,1.5547583E0,3.7180483E-1,-5.707306E-1,-2.0272076E0,-2.6859665E-1,-7.802141E-1,-1.5386452E-2,3.2199562E-1,2.8017116E0,5.977753E-1,-1.1967137E0,4.3760988E-1,1.5711391E0,-1.5043213E0,7.430172E-1,-1.3152186E0,3.8067188E0,2.1329434E0,-3.5190127E0,-6.4969486E-1,1.3729615E0,-1.6577231E0,1.5017405E0,4.027742E0,-1.9061207E0,1.0610871E0,-2.2415297E0,2.3826418E0,1.011186E0,2.7228603E0,2.7766347E0,3.0353817E-1,-5.8074217E0,-5.686524E-1,1.8314026E1,4.234538E0,-5.066762E-1,4.6575165E0,4.5353374E0,1.5436891E1,-4.2703614E0,2.5732098E0],"categories":[],"categories_nodes":[],"categories_segments":[],"categories_sizes":[],"default_left":[0,0,0,0,0,0,0,0,0,0,0,0,0,0,0,0,0,0,0,0,0,0,0,0,0,0,0,0,0,0,0,0,0,0,0,0,0,0,0,0,0,0,0,0,0,0,0,0,0,0,0,0,0,0,0,0,0,0,0,0,0,0,0,0,0,0,0,0,0,0,0,0,0,0,0,0,0,0,0,0,0,0,0,0,0,0,0,0,0,0,0,0,0,0,0,0,0,0,0,0,0,0,0,0,0,0,0,0,0,0,0,0,0],"id":17,"left_children":[1,3,5,7,9,11,13,15,17,19,21,23,25,27,29,31,33,35,37,39,41,43,45,47,49,51,53,55,-1,57,59,61,63,65,67,69,71,73,75,77,79,81,83,85,87,89,91,93,95,97,99,101,103,105,107,109,111,-1,-1,-1,-1,-1,-1,-1,-1,-1,-1,-1,-1,-1,-1,-1,-1,-1,-1,-1,-1,-1,-1,-1,-1,-1,-1,-1,-1,-1,-1,-1,-1,-1,-1,-1,-1,-1,-1,-1,-1,-1,-1,-1,-1,-1,-1,-1,-1,-1,-1,-1,-1,-1,-1,-1,-1],"loss_changes":[2.643993E4,4.224424E3,5.8370723E3,7.0704834E2,7.632317E2,1.8807754E3,9.8171094E2,1.8990186E2,3.1858868E2,1.7083339E2,8.9992957E2,5.639961E2,1.1518271E3,2.8628252E3,8.347458E2,3.6517554E2,3.106006E2,2.6858136E2,5.8622644E2,6.7188416E2,1.8561371E2,8.284459E2,1.0306589E2,1.0941245E3,1.4073416E3,2.0788862E3,1.6838843E3,2.574379E3,0E0,6.51268E1,3.9818408E2,3.9753198E2,5.657483E1,1.793051E2,4.6349854E2,8.676807E0,3.7817993E0,1.0198975E0,9.353314E1,1.3920961E2,2.0080542E2,6.7016235E1,2.650061E2,7.3813214E2,3.7011597E1,1.2778653E2,2.7628635E2,1.6678198E3,4.3072253E2,1.2193959E3,9.421128E2,6.9243994E2,5.838232E2,3.0399854E3,1.8563335E3,3.7658418E3,1.1618485E3,0E0,0E0,0E0,0E0,0E0,0E0,0E0,0E0,0E0,0E0,0E0,0E0,0E0,0E0,0E0,0E0,0E0,0E0,0E0,0E0,0E0,0E0,0E0,0E0,0E0,0E0,0E0,0E0,0E0,0E0,0E0,0E0,0E0,0E0,0E0,0E0,0E0,0E0,0E0,0E0,0E0,0E0,0E0,0E0,0E0,0E0,0E0,0E0,0E0,0E0,0E0,0E0,0E0,0E0,0E0,0E0],"parents":[2147483647,0,0,1,1,2,2,3,3,4,4,5,5,6,6,7,7,8,8,9,9,10,10,11,11,12,12,13,13,14,14,15,15,16,16,17,17,18,18,19,19,20,20,21,21,22,22,23,23,24,24,25,25,26,26,27,27,29,29,30,30,31,31,32,32,33,33,34,34,35,35,36,36,37,37,38,38,39,39,40,40,41,41,42,42,43,43,44,44,45,45,46,46,47,47,48,48,49,49,50,50,51,51,52,52,53,53,54,54,55,55,56,56],"right_children":[2,4,6,8,10,12,14,16,18,20,22,24,26,28,30,32,34,36,38,40,42,44,46,48,50,52,54,56,-1,58,60,62,64,66,68,70,72,74,76,78,80,82,84,86,88,90,92,94,96,98,100,102,104,106,108,110,112,-1,-1,-1,-1,-1,-1,-1,-1,-1,-1,-1,-1,-1,-1,-1,-1,-1,-1,-1,-1,-1,-1,-1,-1,-1,-1,-1,-1,-1,-1,-1,-1,-1,-1,-1,-1,-1,-1,-1,-1,-1,-1,-1,-1,-1,-1,-1,-1,-1,-1,-1,-1,-1,-1,-1,-1],"split_conditions":[2.50385E3,9.915E2,4.84025E3,6.2955E2,1.76405E3,3.888E3,1.91193E5,2.9535E2,6.4425E2,1.7587E3,2.41685E3,5.7873E4,8.6619E4,1.7334E5,2.26538E5,2.9005E2,3.0745E2,6.3645E2,6.499E2,1.76545E3,1.78835E3,2.38705E3,2.46E3,3.75005E3,6.5582E4,7.8504E4,4.16125E3,8.9798E4,1.5351563E1,2.05763E5,4.89E3,2.8205E2,2.9365E2,3.0395E2,3.1025E2,1.2558E4,6.6E2,5.67E2,9.732E2,1.598104E6,1.404599E6,1.83805E3,1.81075E3,2.32975E3,2.39E3,2.398E3,2.42875E3,3.2298E3,3.865E3,3.6466E3,3.58E3,4.67095E3,4.16125E3,8.9798E4,4.51195E3,8.0983E4,1.04043E5,-3.98584E-1,-3.8416262E0,-3.1047365E-1,6.730518E0,-7.844227E-1,1.5189215E0,-2.200394E0,-1.2334023E0,-4.7044626E-1,3.29174E-1,-1.7099485E0,-5.942284E-1,1.3588624E-1,-3.4282556E-1,1.5547583E0,3.7180483E-1,-5.707306E-1,-2.0272076E0,-2.6859665E-1,-7.802141E-1,-1.5386452E-2,3.2199562E-1,2.8017116E0,5.977753E-1,-1.1967137E0,4.3760988E-1,1.5711391E0,-1.5043213E0,7.430172E-1,-1.3152186E0,3.8067188E0,2.1329434E0,-3.5190127E0,-6.4969486E-1,1.3729615E0,-1.6577231E0,1.5017405E0,4.027742E0,-1.9061207E0,1.0610871E0,-2.2415297E0,2.3826418E0,1.011186E0,2.7228603E0,2.7766347E0,3.0353817E-1,-5.8074217E0,-5.686524E-1,1.8314026E1,4.234538E0,-5.066762E-1,4.6575165E0,4.5353374E0,1.5436891E1,-4.2703614E0,2.5732098E0],"split_indices":[1,3,1,3,2,0,4,3,3,3,3,4,4,4,4,3,3,3,3,1,3,3,1,3,4,4,0,4,0,4,0,2,3,3,3,4,0,2,3,4,4,0,3,3,0,2,0,1,1,2,2,3,0,4,0,4,4,0,0,0,0,0,0,0,0,0,0,0,0,0,0,0,0,0,0,0,0,0,0,0,0,0,0,0,0,0,0,0,0,0,0,0,0,0,0,0,0,0,0,0,0,0,0,0,0,0,0,0,0,0,0,0,0],"split_type":[0,0,0,0,0,0,0,0,0,0,0,0,0,0,0,0,0,0,0,0,0,0,0,0,0,0,0,0,0,0,0,0,0,0,0,0,0,0,0,0,0,0,0,0,0,0,0,0,0,0,0,0,0,0,0,0,0,0,0,0,0,0,0,0,0,0,0,0,0,0,0,0,0,0,0,0,0,0,0,0,0,0,0,0,0,0,0,0,0,0,0,0,0,0,0,0,0,0,0,0,0,0,0,0,0,0,0,0,0,0,0,0,0],"sum_hessian":[4.244E3,3.613E3,6.31E2,2.303E3,1.31E3,5.96E2,3.5E1,1.493E3,8.1E2,1.044E3,2.66E2,4.64E2,1.32E2,3.1E1,4E0,3.48E2,1.145E3,3.1E1,7.79E2,1.011E3,3.3E1,2.49E2,1.7E1,1.86E2,2.78E2,9.8E1,3.4E1,2.9E1,2E0,2E0,2E0,3.15E2,3.3E1,9.9E1,1.046E3,1.6E1,1.5E1,1.8E1,7.61E2,9.95E2,1.6E1,2.4E1,9E0,2.32E2,1.7E1,6E0,1.1E1,1.7E2,1.6E1,2.5E1,2.53E2,9E1,8E0,9E0,2.5E1,1.9E1,1E1,1E0,1E0,1E0,1E0,3.09E2,6E0,1.7E1,1.6E1,5E1,4.9E1,3.4E1,1.012E3,4E0,1.2E1,1.4E1,1E0,1E0,1.7E1,7.28E2,3.3E1,8.7E2,1.25E2,9E0,7E0,2.2E1,2E0,6E0,3E0,2.16E2,1.6E1,4E0,1.3E1,3E0,3E0,3E0,8E0,1.42E2,2.8E1,9E0,7E0,1.9E1,6E0,2.2E2,3.3E1,7.8E1,1.2E1,2E0,6E0,1E0,8E0,1E1,1.5E1,1.6E1,3E0,2E0,8E0],"tree_param":{"num_deleted":"0","num_feature":"5","num_nodes":"113","size_leaf_vector":"1"}},{"base_weights":[9.8965414E-2,-6.852428E-1,4.1969404E0,-1.3988075E0,1.0505976E-1,3.4010553E0,1.121834E1,-1.7211607E0,-1.110789E0,1.2810701E-1,-1.2913249E1,6.1812263E0,3.3111696E0,8.552888E0,1.7782536E1,-1.6053201E0,-3.433794E0,3.1737194E0,-1.261532E0,-2.7290675E-1,8.9805377E-1,-5.5165653E0,-2.94397E-1,2.753688E0,5.298237E0,1.2376166E1,6.277243E0,3.358135E1,1.1330762E1,-1.7100139E0,1.0523748E0,-1.8986201E0,-1.9721439E0,1.3617316E0,4.9056053E0,-4.8814454E0,-1.127257E0,2.9013672E0,-3.787572E-1,1.262439E0,1.8507099E-1,3.2509618E0,-3.661677E0,2.3883545E1,4.3856583E0,5.20731E0,1.5526652E1,-5.950244E0,8.529022E0,9.246704E0,1.9637989E1,-4.8665366E-1,2.4905901E1,-1.2461685E0,-4.954273E-1,1.3450013E-1,5.1211977E-1,-2.8680325E-1,-7.779821E-1,7.886658E-2,5.292424E-1,1.4512482E-1,1.5455213E0,-1.8279542E0,-9.9338657E-1,-1.8824445E-1,-3.7843567E-1,-1.0331389E-1,1.849874E0,-2.0258894E0,-8.4710196E-2,3.1232458E-1,2.4057922E0,2.2363153E-1,-3.944037E0,8.508372E-1,1.451446E1,-3.1383586E0,1.0023804E0,1.751001E0,7.897676E0,1.8015898E0,-8.063965E-2,5.190564E0,-2.456726E0,5.281802E0,1.0259767E0,-1.7082032E0,2.9001074E0,1.2713965E1,-4.777295E0,4.558203E0,-2.141225E0,1.2017213E1,1.0583863E0],"categories":[],"categories_nodes":[],"categories_segments":[],"categories_sizes":[],"default_left":[0,0,0,0,0,0,0,0,0,0,0,0,0,0,0,0,0,0,0,0,0,0,0,0,0,0,0,0,0,0,0,0,0,0,0,0,0,0,0,0,0,0,0,0,0,0,0,0,0,0,0,0,0,0,0,0,0,0,0,0,0,0,0,0,0,0,0,0,0,0,0,0,0,0,0,0,0,0,0,0,0,0,0,0,0,0,0,0,0,0,0,0,0,0,0],"id":18,"left_children":[1,3,5,7,9,11,13,15,17,19,21,-1,23,25,27,29,31,33,35,37,39,-1,-1,41,43,45,47,49,51,53,55,-1,57,59,61,63,65,67,69,71,73,75,77,79,81,83,85,-1,87,89,-1,91,93,-1,-1,-1,-1,-1,-1,-1,-1,-1,-1,-1,-1,-1,-1,-1,-1,-1,-1,-1,-1,-1,-1,-1,-1,-1,-1,-1,-1,-1,-1,-1,-1,-1,-1,-1,-1,-1,-1,-1,-1,-1,-1],"loss_changes":[1.3644888E4,2.0100005E3,3.7730166E3,1.7198438E2,5.0931573E2,8.8120996E2,1.055169E3,1.6946973E2,6.446964E2,5.2204816E2,1.7794751E2,0E0,6.63355E2,3.660337E2,1.5561743E3,2.3218555E2,2.2024524E2,1.0001718E2,4.6063257E2,3.747291E2,1.5019083E2,0E0,0E0,1.5431965E3,2.1510093E3,3.2568457E2,2.1682666E3,3.2734844E3,2.4184663E3,1.0725928E2,1.1889397E1,0E0,2.1504501E1,7.4955597E0,1.6009949E1,4.4512634E1,6.1312866E1,3.836145E2,6.5981177E2,5.6449713E2,1.4815359E3,8.21274E3,1.7015365E3,1.1077368E2,9.6654834E2,1.2758522E3,2.418789E2,0E0,5.729917E2,4.0108542E3,0E0,1.0470414E3,2.1260308E3,0E0,0E0,0E0,0E0,0E0,0E0,0E0,0E0,0E0,0E0,0E0,0E0,0E0,0E0,0E0,0E0,0E0,0E0,0E0,0E0,0E0,0E0,0E0,0E0,0E0,0E0,0E0,0E0,0E0,0E0,0E0,0E0,0E0,0E0,0E0,0E0,0E0,0E0,0E0,0E0,0E0,0E0],"parents":[2147483647,0,0,1,1,2,2,3,3,4,4,5,5,6,6,7,7,8,8,9,9,10,10,12,12,13,13,14,14,15,15,16,16,17,17,18,18,19,19,20,20,23,23,24,24,25,25,26,26,27,27,28,28,29,29,30,30,32,32,33,33,34,34,35,35,36,36,37,37,38,38,39,39,40,40,41,41,42,42,43,43,44,44,45,45,46,46,48,48,49,49,51,51,52,52],"right_children":[2,4,6,8,10,12,14,16,18,20,22,-1,24,26,28,30,32,34,36,38,40,-1,-1,42,44,46,48,50,52,54,56,-1,58,60,62,64,66,68,70,72,74,76,78,80,82,84,86,-1,88,90,-1,92,94,-1,-1,-1,-1,-1,-1,-1,-1,-1,-1,-1,-1,-1,-1,-1,-1,-1,-1,-1,-1,-1,-1,-1,-1,-1,-1,-1,-1,-1,-1,-1,-1,-1,-1,-1,-1,-1,-1,-1,-1,-1,-1],"split_conditions":[2.3027E3,8.1385E2,4.5331E3,3.641E2,2.32975E3,2.36E3,4.89645E3,3.438E2,3.7915E2,1.3749E3,2.36E3,6.1812263E0,3.69225E3,4.67095E3,8.6619E4,3.4005E2,3.485E2,3.7385E2,3.896E2,8.2995E2,1.513183E6,-5.5165653E0,-2.94397E-1,3.62385E3,3.75005E3,5.4203E4,4.7189E3,7.0602E4,1.60786E5,2.26E2,3.417E2,-1.8986201E0,3.581E2,3.6265E2,1.383E3,3.83E2,4.586E2,8.2225E2,8.339E2,2.112E3,2.2115E3,3.58E3,3.6466E3,3.4866E4,4.41305E3,4.3205E4,4.6803E3,-5.950244E0,4.6803E3,4.2134E4,1.9637989E1,4.8471E3,1.91193E5,-1.2461685E0,-4.954273E-1,1.3450013E-1,5.1211977E-1,-2.8680325E-1,-7.779821E-1,7.886658E-2,5.292424E-1,1.4512482E-1,1.5455213E0,-1.8279542E0,-9.9338657E-1,-1.8824445E-1,-3.7843567E-1,-1.0331389E-1,1.849874E0,-2.0258894E0,-8.4710196E-2,3.1232458E-1,2.4057922E0,2.2363153E-1,-3.944037E0,8.508372E-1,1.451446E1,-3.1383586E0,1.0023804E0,1.751001E0,7.897676E0,1.8015898E0,-8.063965E-2,5.190564E0,-2.456726E0,5.281802E0,1.0259767E0,-1.7082032E0,2.9001074E0,1.2713965E1,-4.777295E0,4.558203E0,-2.141225E0,1.2017213E1,1.0583863E0],"split_indices":[2,3,2,0,3,1,3,3,3,1,1,0,2,3,4,3,3,3,3,3,4,0,0,3,3,4,1,4,4,3,3,0,3,3,4,3,3,3,3,2,3,2,2,4,3,4,0,0,0,4,0,2,4,0,0,0,0,0,0,0,0,0,0,0,0,0,0,0,0,0,0,0,0,0,0,0,0,0,0,0,0,0,0,0,0,0,0,0,0,0,0,0,0,0,0],"split_type":[0,0,0,0,0,0,0,0,0,0,0,0,0,0,0,0,0,0,0,0,0,0,0,0,0,0,0,0,0,0,0,0,0,0,0,0,0,0,0,0,0,0,0,0,0,0,0,0,0,0,0,0,0,0,0,0,0,0,0,0,0,0,0,0,0,0,0,0,0,0,0,0,0,0,0,0,0,0,0,0,0,0,0,0,0,0,0,0,0,0,0,0,0,0,0],"sum_hessian":[4.244E3,3.563E3,6.81E2,1.872E3,1.691E3,6.13E2,6.8E1,8.81E2,9.91E2,1.689E3,2E0,2E0,6.11E2,5E1,1.8E1,8.27E2,5.4E1,3.3E1,9.58E2,1.111E3,5.78E2,1E0,1E0,4.79E2,1.32E2,1.7E1,3.3E1,4E0,1.4E1,7.96E2,3.1E1,1.7E1,3.7E1,1.7E1,1.6E1,3.3E1,9.25E2,3.5E1,1.076E3,3.82E2,1.96E2,4.45E2,3.4E1,5E0,1.27E2,6E0,1.1E1,2E0,3.1E1,3E0,1E0,8E0,6E0,1.7E1,7.79E2,1.7E1,1.4E1,1.5E1,2.2E1,5E0,1.2E1,1E0,1.5E1,1.7E1,1.6E1,1.97E2,7.28E2,1.8E1,1.7E1,1.5E1,1.061E3,3.71E2,1.1E1,1.89E2,7E0,4.42E2,3E0,1.7E1,1.7E1,1E0,4E0,9.4E1,3.3E1,3E0,3E0,9E0,2E0,2E0,2.9E1,1E0,2E0,2E0,6E0,3E0,3E0],"tree_param":{"num_deleted":"0","num_feature":"5","num_nodes":"95","size_leaf_vector":"1"}},{"base_weights":[8.47738E-2,-4.2634407E-1,3.5265188E0,-8.8427275E-1,2.903781E-1,3.1195567E0,1.4714433E1,-1.1746712E0,-5.6753564E-1,-1.584865E-2,9.3177974E-1,2.402375E0,5.2264132E0,2.9021875E1,8.964323E0,-1.0436969E0,-5.8243866E0,-5.262588E-1,-2.8469944E0,3.5436554E0,-7.50339E-2,1.2858238E0,-1.9743795E0,2.588099E0,-6.8741946E0,1.3360325E1,3.930372E0,8.456909E0,1.669226E1,-7.2157115E-2,1.9302036E1,-1.1845373E0,8.3711605E0,-3.0455635E0,-8.6240387E-1,-5.6254226E-1,2.0462484E0,-3.3140829E0,-8.7633055E-1,2.0217056E0,4.50276E0,-2.7869327E0,-2.0371713E-2,9.351764E-1,8.987074E0,-6.415872E0,2.3932756E-1,9.479016E0,2.2348833E0,-5.0505776E0,2.0829947E1,-4.2411246E0,5.2668576E0,1.0806885E1,-1.2739421E1,6.195522E0,-4.401807E0,9.313367E0,2.7340088E0,-3.3555925E-1,-1.5589408E0,3.834E-2,3.03854E0,-8.3177495E-1,4.1830447E-1,-1.4101551E-1,-4.8178926E-1,4.700064E-1,1.0326782E0,-1.0910128E0,-2.4340211E-1,2.0820923E-1,-4.327286E-1,7.8962404E-1,3.811646E-2,1.514727E0,5.1812136E-1,6.959885E-1,-1.166842E0,6.3541955E-3,-5.82345E-1,2.0153525E0,2.3990396E-1,2.8771515E0,-1.9068605E-1,-3.60271E0,-3.8992676E-1,-3.4250763E-1,1.3067384E0,1.4583802E0,4.5662293E0,-1.8317053E0,7.8611815E-1,4.317737E0,-3.5453029E0,9.902454E0,2.727759E0,-5.971268E0,1.8335583E0,3.813428E0,1.0826678E0,-1.1403809E0,-4.5923586E0,-2.9880373E0,4.394942E0,-2.6145022E0,5.5621586E0],"categories":[],"categories_nodes":[],"categories_segments":[],"categories_sizes":[],"default_left":[0,0,0,0,0,0,0,0,0,0,0,0,0,0,0,0,0,0,0,0,0,0,0,0,0,0,0,0,0,0,0,0,0,0,0,0,0,0,0,0,0,0,0,0,0,0,0,0,0,0,0,0,0,0,0,0,0,0,0,0,0,0,0,0,0,0,0,0,0,0,0,0,0,0,0,0,0,0,0,0,0,0,0,0,0,0,0,0,0,0,0,0,0,0,0,0,0,0,0,0,0,0,0,0,0,0,0],"id":19,"left_children":[1,3,5,7,9,11,13,15,17,19,21,23,25,27,29,31,33,35,37,39,41,43,45,47,-1,49,51,53,-1,55,57,59,61,-1,63,65,67,69,71,73,75,77,79,81,83,85,87,89,91,93,95,97,99,-1,101,103,-1,-1,105,-1,-1,-1,-1,-1,-1,-1,-1,-1,-1,-1,-1,-1,-1,-1,-1,-1,-1,-1,-1,-1,-1,-1,-1,-1,-1,-1,-1,-1,-1,-1,-1,-1,-1,-1,-1,-1,-1,-1,-1,-1,-1,-1,-1,-1,-1,-1,-1],"loss_changes":[7.4690415E3,1.2136404E3,2.4537256E3,2.0684009E2,2.8324426E2,7.8978467E2,1.3029565E3,7.1009717E2,1.0021173E2,2.0609062E2,4.8201004E2,1.9306416E3,1.3601013E3,2.2665435E3,1.402641E3,1.5281776E3,6.783788E2,1.0037094E2,1.4584793E1,1.4252106E1,1.4254851E2,1.1149717E3,5.029758E2,9.4267163E2,0E0,2.580608E3,1.3001047E3,2.796107E3,0E0,9.1450793E2,1.2769766E3,2.9316248E2,2.4496924E2,0E0,7.283875E1,1.0048062E2,4.6491356E0,9.161163E0,5.445982E0,8.917152E0,4.9278107E0,1.1600403E2,7.538446E1,3.072568E2,1.1061511E2,4.7085065E2,2.0394522E2,4.2977295E2,1.2314114E3,9.595228E2,1.5581045E3,2.8783696E3,1.2007524E3,0E0,1.0682007E1,1.1020046E3,0E0,0E0,8.854571E2,0E0,0E0,0E0,0E0,0E0,0E0,0E0,0E0,0E0,0E0,0E0,0E0,0E0,0E0,0E0,0E0,0E0,0E0,0E0,0E0,0E0,0E0,0E0,0E0,0E0,0E0,0E0,0E0,0E0,0E0,0E0,0E0,0E0,0E0,0E0,0E0,0E0,0E0,0E0,0E0,0E0,0E0,0E0,0E0,0E0,0E0,0E0,0E0],"parents":[2147483647,0,0,1,1,2,2,3,3,4,4,5,5,6,6,7,7,8,8,9,9,10,10,11,11,12,12,13,13,14,14,15,15,16,16,17,17,18,18,19,19,20,20,21,21,22,22,23,23,25,25,26,26,27,27,29,29,30,30,31,31,32,32,34,34,35,35,36,36,37,37,38,38,39,39,40,40,41,41,42,42,43,43,44,44,45,45,46,46,47,47,48,48,49,49,50,50,51,51,52,52,54,54,55,55,58,58],"right_children":[2,4,6,8,10,12,14,16,18,20,22,24,26,28,30,32,34,36,38,40,42,44,46,48,-1,50,52,54,-1,56,58,60,62,-1,64,66,68,70,72,74,76,78,80,82,84,86,88,90,92,94,96,98,100,-1,102,104,-1,-1,106,-1,-1,-1,-1,-1,-1,-1,-1,-1,-1,-1,-1,-1,-1,-1,-1,-1,-1,-1,-1,-1,-1,-1,-1,-1,-1,-1,-1,-1,-1,-1,-1,-1,-1,-1,-1,-1,-1,-1,-1,-1,-1,-1,-1,-1,-1,-1,-1],"split_conditions":[2.585E3,9.6335E2,4.89645E3,4.67E2,1.65E3,3.9664E3,8.6619E4,4.586E2,9.5485E2,9.732E2,2.5242E3,3.92915E3,4.31895E3,7.0602E4,1.60786E5,4.445E2,4.68E2,9.4E2,1.260477E6,9.67E2,9.7005E2,2.501E3,2.55365E3,2.6393E3,-6.8741946E0,3.921E3,4.35655E3,4.2134E4,1.669226E1,1.49226E5,1.91193E5,4.357E2,4.59E2,-3.0455635E0,3.0691E4,9.0025E2,9.75E2,9.99E2,1.279621E6,9.56E2,9.36253E5,1.6931E4,3.455887E6,1.67745E3,2.6148E3,2.53E3,2.6148E3,2.604E3,2.65655E3,3.81E3,5.144E4,6.1903E4,4.41305E3,1.0806885E1,4.89E3,1.04043E5,-4.401807E0,9.313367E0,2.26538E5,-3.3555925E-1,-1.5589408E0,3.834E-2,3.03854E0,-8.3177495E-1,4.1830447E-1,-1.4101551E-1,-4.8178926E-1,4.700064E-1,1.0326782E0,-1.0910128E0,-2.4340211E-1,2.0820923E-1,-4.327286E-1,7.8962404E-1,3.811646E-2,1.514727E0,5.1812136E-1,6.959885E-1,-1.166842E0,6.3541955E-3,-5.82345E-1,2.0153525E0,2.3990396E-1,2.8771515E0,-1.9068605E-1,-3.60271E0,-3.8992676E-1,-3.4250763E-1,1.3067384E0,1.4583802E0,4.5662293E0,-1.8317053E0,7.8611815E-1,4.317737E0,-3.5453029E0,9.902454E0,2.727759E0,-5.971268E0,1.8335583E0,3.813428E0,1.0826678E0,-1.1403809E0,-4.5923586E0,-2.9880373E0,4.394942E0,-2.6145022E0,5.5621586E0],"split_indices":[2,3,3,2,2,1,4,3,3,3,3,3,1,4,4,3,3,2,4,0,2,3,3,3,0,0,3,4,0,4,4,3,1,0,4,3,0,1,4,2,4,4,4,3,0,0,0,2,3,0,4,4,3,0,0,4,0,0,4,0,0,0,0,0,0,0,0,0,0,0,0,0,0,0,0,0,0,0,0,0,0,0,0,0,0,0,0,0,0,0,0,0,0,0,0,0,0,0,0,0,0,0,0,0,0,0,0],"split_type":[0,0,0,0,0,0,0,0,0,0,0,0,0,0,0,0,0,0,0,0,0,0,0,0,0,0,0,0,0,0,0,0,0,0,0,0,0,0,0,0,0,0,0,0,0,0,0,0,0,0,0,0,0,0,0,0,0,0,0,0,0,0,0,0,0,0,0,0,0,0,0,0,0,0,0,0,0,0,0,0,0,0,0,0,0,0,0,0,0,0,0,0,0,0,0,0,0,0,0,0,0,0,0,0,0,0,0],"sum_hessian":[4.244E3,3.696E3,5.48E2,2.255E3,1.441E3,5.3E2,1.8E1,1.175E3,1.08E3,9.76E2,4.65E2,3.97E2,1.33E2,4E0,1.4E1,1.144E3,3.1E1,1.062E3,1.8E1,1.5E1,9.61E2,4.15E2,5E1,3.95E2,2E0,1.7E1,1.16E2,3E0,1E0,8E0,6E0,1.128E3,1.6E1,1.6E1,1.5E1,1.048E3,1.4E1,1.4E1,4E0,7E0,8E0,1.8E1,9.43E2,3.98E2,1.7E1,1.6E1,3.4E1,1.8E1,3.77E2,5E0,1.2E1,1.6E1,1E2,1E0,2E0,6E0,2E0,3E0,3E0,1.111E3,1.7E1,3E0,1.3E1,8E0,7E0,9.64E2,8.4E1,1.2E1,2E0,1.2E1,2E0,1E0,3E0,5E0,2E0,6E0,2E0,3E0,1.5E1,9.24E2,1.9E1,8E0,3.9E2,1.6E1,1E0,7E0,9E0,2.6E1,8E0,1.1E1,7E0,1.6E1,3.61E2,1E0,4E0,5E0,7E0,6E0,1E1,1.7E1,8.3E1,1E0,1E0,2E0,4E0,2E0,1E0],"tree_param":{"num_deleted":"0","num_feature":"5","num_nodes":"107","size_leaf_vector":"1"}},{"base_weights":[6.972469E-2,-2.5834802E-1,2.9585733E0,-5.4288566E-1,4.6312448E-1,2.5405478E0,1.19334135E1,-5.202362E-1,-1.3078079E0,5.9077245E-1,-5.696633E0,3.971551E0,1.5705959E0,2.4668554E1,6.892806E0,-5.4700625E-1,3.3141255E0,4.3584096E-1,5.8852296E0,-3.6079836E0,-4.4623046E0,1.8665296E0,1.1317125E1,-5.602494E-1,3.4942598E0,7.1883545E0,1.4188404E1,-3.8324654E-1,1.5263044E1,-7.6693267E-1,-2.3088934E-1,6.641236E-2,1.042094E0,5.404175E-1,-1.5801643E0,1.1462855E1,9.457002E-1,-1.6066006E0,-7.1573486E0,8.178878E0,5.870916E-1,2.10731E1,6.379094E0,-2.8062851E0,3.7811427E0,1.8066485E0,7.4289675E0,9.185889E0,-1.0828613E1,1.2157552E1,-5.703125E0,7.217835E0,2.650879E0,-2.1467851E-1,-5.671363E-1,4.0478373E-1,-8.4167875E-2,1.1794471E-1,2.5143232E0,-1.3497884E0,3.5199334E-3,1.1707764E-1,3.6853726E0,-1.1587354E0,2.0513031E0,-7.715414E-1,5.4736334E-1,-2.52806E0,6.402466E-1,-3.5156251E-3,2.8418238E0,6.1949223E-1,-1.083598E0,-2.8506227E0,7.414946E0,1.2700063E0,4.3633595E0,-4.3805078E-1,-3.060126E0,-3.3343265E0,1.4490008E0,9.005747E-1,-2.5242774E0,5.616484E0,8.668137E-1,-9.693604E-1,-3.9035158E0,-7.3857427E-1,6.209473E0,1.2615235E0,-3.1522267E0,-2.0915527E0,4.7278566E0],"categories":[],"categories_nodes":[],"categories_segments":[],"categories_sizes":[],"default_left":[0,0,0,0,0,0,0,0,0,0,0,0,0,0,0,0,0,0,0,0,0,0,0,0,0,0,0,0,0,0,0,0,0,0,0,0,0,0,0,0,0,0,0,0,0,0,0,0,0,0,0,0,0,0,0,0,0,0,0,0,0,0,0,0,0,0,0,0,0,0,0,0,0,0,0,0,0,0,0,0,0,0,0,0,0,0,0,0,0,0,0,0,0],"id":20,"left_children":[1,3,5,7,9,11,13,15,-1,17,19,21,23,25,27,29,31,33,35,-1,37,39,41,43,45,47,-1,49,51,53,55,-1,-1,57,59,61,63,65,67,69,71,73,75,77,79,81,83,-1,85,87,89,-1,91,-1,-1,-1,-1,-1,-1,-1,-1,-1,-1,-1,-1,-1,-1,-1,-1,-1,-1,-1,-1,-1,-1,-1,-1,-1,-1,-1,-1,-1,-1,-1,-1,-1,-1,-1,-1,-1,-1,-1,-1],"loss_changes":[4.0239731E3,7.8300726E2,1.5941733E3,2.3414832E2,8.51762E2,5.697842E2,1.0496287E3,2.8100995E2,0E0,8.6528906E2,1.18225586E2,2.5611284E3,1.02261633E3,1.6375752E3,9.19384E2,1.876726E2,8.604843E0,2.1779475E2,8.1568506E2,0E0,1.42426E2,1.0531881E3,1.6480591E3,1.1709707E3,8.5645215E2,2.0202102E3,0E0,6.6977576E2,7.1281323E2,9.0529785E1,8.749948E1,0E0,0E0,1.1271385E3,2.3704753E2,1.2258557E2,5.0801196E2,4.1121666E1,1.3594147E2,2.332572E2,6.900917E2,1.5716245E3,3.9397144E2,7.714214E2,6.942406E2,1.161413E3,1.9452009E3,0E0,7.7143555E0,4.2553833E2,3.773982E2,0E0,6.1443616E2,0E0,0E0,0E0,0E0,0E0,0E0,0E0,0E0,0E0,0E0,0E0,0E0,0E0,0E0,0E0,0E0,0E0,0E0,0E0,0E0,0E0,0E0,0E0,0E0,0E0,0E0,0E0,0E0,0E0,0E0,0E0,0E0,0E0,0E0,0E0,0E0,0E0,0E0,0E0,0E0],"parents":[2147483647,0,0,1,1,2,2,3,3,4,4,5,5,6,6,7,7,9,9,10,10,11,11,12,12,13,13,14,14,15,15,16,16,17,17,18,18,20,20,21,21,22,22,23,23,24,24,25,25,27,27,28,28,29,29,30,30,33,33,34,34,35,35,36,36,37,37,38,38,39,39,40,40,41,41,42,42,43,43,44,44,45,45,46,46,48,48,49,49,50,50,52,52],"right_children":[2,4,6,8,10,12,14,16,-1,18,20,22,24,26,28,30,32,34,36,-1,38,40,42,44,46,48,-1,50,52,54,56,-1,-1,58,60,62,64,66,68,70,72,74,76,78,80,82,84,-1,86,88,90,-1,92,-1,-1,-1,-1,-1,-1,-1,-1,-1,-1,-1,-1,-1,-1,-1,-1,-1,-1,-1,-1,-1,-1,-1,-1,-1,-1,-1,-1,-1,-1,-1,-1,-1,-1,-1,-1,-1,-1,-1,-1],"split_conditions":[2.80055E3,1.18525E3,4.89645E3,1.182E3,2.74855E3,5.4203E4,8.6619E4,1.17495E3,-1.3078079E0,2.68895E3,3.2402E4,4.9339E4,8.6619E4,7.0602E4,1.60786E5,6.67E2,1.12E3,2.6393E3,2.7127E3,-3.6079836E0,1.3575E5,3.0349E3,5.144E4,4.301E3,3.88795E3,4.2134E4,1.4188404E1,4.8471E3,1.91193E5,6.4425E2,6.9195E2,6.641236E-2,1.042094E0,2.6041E3,2.65655E3,9.121E3,2.717E3,1.13455E5,2.746E3,2.791E3,4.2134E4,2.8344E3,4.6803E3,3.921E3,5.7068E4,3.75005E3,4.16125E3,9.185889E0,4.89E3,4.784E3,4.945E3,7.217835E0,2.26538E5,-2.1467851E-1,-5.671363E-1,4.0478373E-1,-8.4167875E-2,1.1794471E-1,2.5143232E0,-1.3497884E0,3.5199334E-3,1.1707764E-1,3.6853726E0,-1.1587354E0,2.0513031E0,-7.715414E-1,5.4736334E-1,-2.52806E0,6.402466E-1,-3.5156251E-3,2.8418238E0,6.1949223E-1,-1.083598E0,-2.8506227E0,7.414946E0,1.2700063E0,4.3633595E0,-4.3805078E-1,-3.060126E0,-3.3343265E0,1.4490008E0,9.005747E-1,-2.5242774E0,5.616484E0,8.668137E-1,-9.693604E-1,-3.9035158E0,-7.3857427E-1,6.209473E0,1.2615235E0,-3.1522267E0,-2.0915527E0,4.7278566E0],"split_indices":[0,3,3,3,3,4,4,3,0,3,4,4,4,4,4,3,0,3,3,0,4,0,4,2,3,4,0,2,4,3,3,0,0,3,3,4,2,4,2,2,4,0,0,0,4,3,0,0,0,0,1,0,4,0,0,0,0,0,0,0,0,0,0,0,0,0,0,0,0,0,0,0,0,0,0,0,0,0,0,0,0,0,0,0,0,0,0,0,0,0,0,0,0],"split_type":[0,0,0,0,0,0,0,0,0,0,0,0,0,0,0,0,0,0,0,0,0,0,0,0,0,0,0,0,0,0,0,0,0,0,0,0,0,0,0,0,0,0,0,0,0,0,0,0,0,0,0,0,0,0,0,0,0,0,0,0,0,0,0,0,0,0,0,0,0,0,0,0,0,0,0,0,0,0,0,0,0,0,0,0,0,0,0,0,0,0,0,0,0],"sum_hessian":[4.244E3,3.812E3,4.32E2,2.734E3,1.078E3,4.14E2,1.8E1,2.719E3,1.5E1,1.057E3,2.1E1,1.66E2,2.48E2,4E0,1.4E1,2.701E3,1.8E1,1.028E3,2.9E1,2E0,1.9E1,1.3E2,3.6E1,1.18E2,1.3E2,3E0,1E0,8E0,6E0,1.592E3,1.109E3,1E0,1.7E1,9.78E2,5E1,1.3E1,1.6E1,1E1,9E0,2.1E1,1.09E2,1.1E1,2.5E1,7.8E1,4E1,9.2E1,3.8E1,1E0,2E0,2E0,6E0,3E0,3E0,1.524E3,6.8E1,3.3E1,1.076E3,9.61E2,1.7E1,1.7E1,3.3E1,1E0,1.2E1,9E0,7E0,8E0,2E0,8E0,1E0,3E0,1.8E1,8.1E1,2.8E1,1E0,1E1,2.1E1,4E0,6.7E1,1.1E1,2E0,3.8E1,8.3E1,9E0,1E1,2.8E1,1E0,1E0,1E0,1E0,2E0,4E0,2E0,1E0],"tree_param":{"num_deleted":"0","num_feature":"5","num_nodes":"93","size_leaf_vector":"1"}},{"base_weights":[5.908457E-2,-4.8638955E-2,5.331773E0,-3.0399382E-1,1.001701E0,3.9186757E0,1.003418E1,-5.362887E-1,-6.1740223E-2,1.1831446E0,-7.0878634E0,-3.8254395E0,4.604902E0,2.0968164E1,5.720573E0,-4.7713903E-1,-1.8199687E0,-1.8815806E-2,-2.0887344E0,1.0900462E0,1.5711914E1,-9.763379E0,4.717285E0,6.0717773E-1,-2.5381348E0,6.641455E0,3.9545498E0,6.1099854E0,1.2060132E1,-7.337728E0,8.2939825E0,-5.37108E-1,5.4631634E0,-6.426135E-2,4.2354593E0,1.6186388E0,-3.29172E0,5.8953714E0,9.8350745E-1,5.782178E0,2.1958008E-1,-1.8211704E1,-2.1076388E0,4.25293E0,-3.5490236E0,-1.5534669E0,1.2785157E0,7.6861267E0,2.5706415E0,7.807984E0,-9.204427E0,2.902295E0,-6.2042727E0,-1.3885255E0,9.756551E0,-3.7206796E-1,-1.3769706E-1,1.7607911E0,4.8342288E-1,-4.4215985E-2,1.6374165E-1,2.7426178E0,7.593122E-1,-8.6291754E-1,1.7369825E0,-7.513215E-1,-2.5479004E0,5.1324767E-1,3.9845705E0,-7.6100576E-1,3.6873025E-1,-6.7126713E0,1.0157228E0,7.322205E-1,-5.7741947E0,2.3463136E-1,3.8907063E0,-5.327637E-1,1.4193249E0,-8.2397467E-1,-3.3180177E0,-6.277588E-1,